{"learner":{"attributes":{},"feature_names":[],"feature_types":[],"gradient_booster":{"model":{"cats":{"enc":[],"feature_segments":[],"sorted_idx":[]},"gbtree_model_param":{"num_parallel_tree":"1","num_trees":"2800"},"iteration_indptr":[0,14,28,42,56,70,84,98,112,126,140,154,168,182,196,210,224,238,252,266,280,294,308,322,336,350,364,378,392,406,420,434,448,462,476,490,504,518,532,546,560,574,588,602,616,630,644,658,672,686,700,714,728,742,756,770,784,798,812,826,840,854,868,882,896,910,924,938,952,966,980,994,1008,1022,1036,1050,1064,1078,1092,1106,1120,1134,1148,1162,1176,1190,1204,1218,1232,1246,1260,1274,1288,1302,1316,1330,1344,1358,1372,1386,1400,1414,1428,1442,1456,1470,1484,1498,1512,1526,1540,1554,1568,1582,1596,1610,1624,1638,1652,1666,1680,1694,1708,1722,1736,1750,1764,1778,1792,1806,1820,1834,1848,1862,1876,1890,1904,1918,1932,1946,1960,1974,1988,2002,2016,2030,2044,2058,2072,2086,2100,2114,2128,2142,2156,2170,2184,2198,2212,2226,2240,2254,2268,2282,2296,2310,2324,2338,2352,2366,2380,2394,2408,2422,2436,2450,2464,2478,2492,2506,2520,2534,2548,2562,2576,2590,2604,2618,2632,2646,2660,2674,2688,2702,2716,2730,2744,2758,2772,2786,2800],"tree_info":[0,1,2,3,4,5,6,7,8,9,10,11,12,13,0,1,2,3,4,5,6,7,8,9,10,11,12,13,0,1,2,3,4,5,6,7,8,9,10,11,12,13,0,1,2,3,4,5,6,7,8,9,10,11,12,13,0,1,2,3,4,5,6,7,8,9,10,11,12,13,0,1,2,3,4,5,6,7,8,9,10,11,12,13,0,1,2,3,4,5,6,7,8,9,10,11,12,13,0,1,2,3,4,5,6,7,8,9,10,11,12,13,0,1,2,3,4,5,6,7,8,9,10,11,12,13,0,1,2,3,4,5,6,7,8,9,10,11,12,13,0,1,2,3,4,5,6,7,8,9,10,11,12,13,0,1,2,3,4,5,6,7,8,9,10,11,12,13,0,1,2,3,4,5,6,7,8,9,10,11,12,13,0,1,2,3,4,5,6,7,8,9,10,11,12,13,0,1,2,3,4,5,6,7,8,9,10,11,12,13,0,1,2,3,4,5,6,7,8,9,10,11,12,13,0,1,2,3,4,5,6,7,8,9,10,11,12,13,0,1,2,3,4,5,6,7,8,9,10,11,12,13,0,1,2,3,4,5,6,7,8,9,10,11,12,13,0,1,2,3,4,5,6,7,8,9,10,11,12,13,0,1,2,3,4,5,6,7,8,9,10,11,12,13,0,1,2,3,4,5,6,7,8,9,10,11,12,13,0,1,2,3,4,5,6,7,8,9,10,11,12,13,0,1,2,3,4,5,6,7,8,9,10,11,12,13,0,1,2,3,4,5,6,7,8,9,10,11,12,13,0,1,2,3,4,5,6,7,8,9,10,11,12,13,0,1,2,3,4,5,6,7,8,9,10,11,12,13,0,1,2,3,4,5,6,7,8,9,10,11,12,13,0,1,2,3,4,5,6,7,8,9,10,11,12,13,0,1,2,3,4,5,6,7,8,9,10,11,12,13,0,1,2,3,4,5,6,7,8,9,10,11,12,13,0,1,2,3,4,5,6,7,8,9,10,11,12,13,0,1,2,3,4,5,6,7,8,9,10,11,12,13,0,1,2,3,4,5,6,7,8,9,10,11,12,13,0,1,2,3,4,5,6,7,8,9,10,11,12,13,0,1,2,3,4,5,6,7,8,9,10,11,12,13,0,1,2,3,4,5,6,7,8,9,10,11,12,13,0,1,2,3,4,5,6,7,8,9,10,11,12,13,0,1,2,3,4,5,6,7,8,9,10,11,12,13,0,1,2,3,4,5,6,7,8,9,10,11,12,13,0,1,2,3,4,5,6,7,8,9,10,11,12,13,0,1,2,3,4,5,6,7,8,9,10,11,12,13,0,1,2,3,4,5,6,7,8,9,10,11,12,13,0,1,2,3,4,5,6,7,8,9,10,11,12,13,0,1,2,3,4,5,6,7,8,9,10,11,12,13,0,1,2,3,4,5,6,7,8,9,10,11,12,13,0,1,2,3,4,5,6,7,8,9,10,11,12,13,0,1,2,3,4,5,6,7,8,9,10,11,12,13,0,1,2,3,4,5,6,7,8,9,10,11,12,13,0,1,2,3,4,5,6,7,8,9,10,11,12,13,0,1,2,3,4,5,6,7,8,9,10,11,12,13,0,1,2,3,4,5,6,7,8,9,10,11,12,13,0,1,2,3,4,5,6,7,8,9,10,11,12,13,0,1,2,3,4,5,6,7,8,9,10,11,12,13,0,1,2,3,4,5,6,7,8,9,10,11,12,13,0,1,2,3,4,5,6,7,8,9,10,11,12,13,0,1,2,3,4,5,6,7,8,9,10,11,12,13,0,1,2,3,4,5,6,7,8,9,10,11,12,13,0,1,2,3,4,5,6,7,8,9,10,11,12,13,0,1,2,3,4,5,6,7,8,9,10,11,12,13,0,1,2,3,4,5,6,7,8,9,10,11,12,13,0,1,2,3,4,5,6,7,8,9,10,11,12,13,0,1,2,3,4,5,6,7,8,9,10,11,12,13,0,1,2,3,4,5,6,7,8,9,10,11,12,13,0,1,2,3,4,5,6,7,8,9,10,11,12,13,0,1,2,3,4,5,6,7,8,9,10,11,12,13,0,1,2,3,4,5,6,7,8,9,10,11,12,13,0,1,2,3,4,5,6,7,8,9,10,11,12,13,0,1,2,3,4,5,6,7,8,9,10,11,12,13,0,1,2,3,4,5,6,7,8,9,10,11,12,13,0,1,2,3,4,5,6,7,8,9,10,11,12,13,0,1,2,3,4,5,6,7,8,9,10,11,12,13,0,1,2,3,4,5,6,7,8,9,10,11,12,13,0,1,2,3,4,5,6,7,8,9,10,11,12,13,0,1,2,3,4,5,6,7,8,9,10,11,12,13,0,1,2,3,4,5,6,7,8,9,10,11,12,13,0,1,2,3,4,5,6,7,8,9,10,11,12,13,0,1,2,3,4,5,6,7,8,9,10,11,12,13,0,1,2,3,4,5,6,7,8,9,10,11,12,13,0,1,2,3,4,5,6,7,8,9,10,11,12,13,0,1,2,3,4,5,6,7,8,9,10,11,12,13,0,1,2,3,4,5,6,7,8,9,10,11,12,13,0,1,2,3,4,5,6,7,8,9,10,11,12,13,0,1,2,3,4,5,6,7,8,9,10,11,12,13,0,1,2,3,4,5,6,7,8,9,10,11,12,13,0,1,2,3,4,5,6,7,8,9,10,11,12,13,0,1,2,3,4,5,6,7,8,9,10,11,12,13,0,1,2,3,4,5,6,7,8,9,10,11,12,13,0,1,2,3,4,5,6,7,8,9,10,11,12,13,0,1,2,3,4,5,6,7,8,9,10,11,12,13,0,1,2,3,4,5,6,7,8,9,10,11,12,13,0,1,2,3,4,5,6,7,8,9,10,11,12,13,0,1,2,3,4,5,6,7,8,9,10,11,12,13,0,1,2,3,4,5,6,7,8,9,10,11,12,13,0,1,2,3,4,5,6,7,8,9,10,11,12,13,0,1,2,3,4,5,6,7,8,9,10,11,12,13,0,1,2,3,4,5,6,7,8,9,10,11,12,13,0,1,2,3,4,5,6,7,8,9,10,11,12,13,0,1,2,3,4,5,6,7,8,9,10,11,12,13,0,1,2,3,4,5,6,7,8,9,10,11,12,13,0,1,2,3,4,5,6,7,8,9,10,11,12,13,0,1,2,3,4,5,6,7,8,9,10,11,12,13,0,1,2,3,4,5,6,7,8,9,10,11,12,13,0,1,2,3,4,5,6,7,8,9,10,11,12,13,0,1,2,3,4,5,6,7,8,9,10,11,12,13,0,1,2,3,4,5,6,7,8,9,10,11,12,13,0,1,2,3,4,5,6,7,8,9,10,11,12,13,0,1,2,3,4,5,6,7,8,9,10,11,12,13,0,1,2,3,4,5,6,7,8,9,10,11,12,13,0,1,2,3,4,5,6,7,8,9,10,11,12,13,0,1,2,3,4,5,6,7,8,9,10,11,12,13,0,1,2,3,4,5,6,7,8,9,10,11,12,13,0,1,2,3,4,5,6,7,8,9,10,11,12,13,0,1,2,3,4,5,6,7,8,9,10,11,12,13,0,1,2,3,4,5,6,7,8,9,10,11,12,13,0,1,2,3,4,5,6,7,8,9,10,11,12,13,0,1,2,3,4,5,6,7,8,9,10,11,12,13,0,1,2,3,4,5,6,7,8,9,10,11,12,13,0,1,2,3,4,5,6,7,8,9,10,11,12,13,0,1,2,3,4,5,6,7,8,9,10,11,12,13,0,1,2,3,4,5,6,7,8,9,10,11,12,13,0,1,2,3,4,5,6,7,8,9,10,11,12,13,0,1,2,3,4,5,6,7,8,9,10,11,12,13,0,1,2,3,4,5,6,7,8,9,10,11,12,13,0,1,2,3,4,5,6,7,8,9,10,11,12,13,0,1,2,3,4,5,6,7,8,9,10,11,12,13,0,1,2,3,4,5,6,7,8,9,10,11,12,13,0,1,2,3,4,5,6,7,8,9,10,11,12,13,0,1,2,3,4,5,6,7,8,9,10,11,12,13,0,1,2,3,4,5,6,7,8,9,10,11,12,13,0,1,2,3,4,5,6,7,8,9,10,11,12,13,0,1,2,3,4,5,6,7,8,9,10,11,12,13,0,1,2,3,4,5,6,7,8,9,10,11,12,13,0,1,2,3,4,5,6,7,8,9,10,11,12,13,0,1,2,3,4,5,6,7,8,9,10,11,12,13,0,1,2,3,4,5,6,7,8,9,10,11,12,13,0,1,2,3,4,5,6,7,8,9,10,11,12,13,0,1,2,3,4,5,6,7,8,9,10,11,12,13,0,1,2,3,4,5,6,7,8,9,10,11,12,13,0,1,2,3,4,5,6,7,8,9,10,11,12,13,0,1,2,3,4,5,6,7,8,9,10,11,12,13,0,1,2,3,4,5,6,7,8,9,10,11,12,13,0,1,2,3,4,5,6,7,8,9,10,11,12,13,0,1,2,3,4,5,6,7,8,9,10,11,12,13,0,1,2,3,4,5,6,7,8,9,10,11,12,13,0,1,2,3,4,5,6,7,8,9,10,11,12,13,0,1,2,3,4,5,6,7,8,9,10,11,12,13,0,1,2,3,4,5,6,7,8,9,10,11,12,13,0,1,2,3,4,5,6,7,8,9,10,11,12,13,0,1,2,3,4,5,6,7,8,9,10,11,12,13,0,1,2,3,4,5,6,7,8,9,10,11,12,13,0,1,2,3,4,5,6,7,8,9,10,11,12,13,0,1,2,3,4,5,6,7,8,9,10,11,12,13,0,1,2,3,4,5,6,7,8,9,10,11,12,13,0,1,2,3,4,5,6,7,8,9,10,11,12,13,0,1,2,3,4,5,6,7,8,9,10,11,12,13,0,1,2,3,4,5,6,7,8,9,10,11,12,13,0,1,2,3,4,5,6,7,8,9,10,11,12,13,0,1,2,3,4,5,6,7,8,9,10,11,12,13,0,1,2,3,4,5,6,7,8,9,10,11,12,13,0,1,2,3,4,5,6,7,8,9,10,11,12,13,0,1,2,3,4,5,6,7,8,9,10,11,12,13,0,1,2,3,4,5,6,7,8,9,10,11,12,13,0,1,2,3,4,5,6,7,8,9,10,11,12,13,0,1,2,3,4,5,6,7,8,9,10,11,12,13,0,1,2,3,4,5,6,7,8,9,10,11,12,13,0,1,2,3,4,5,6,7,8,9,10,11,12,13,0,1,2,3,4,5,6,7,8,9,10,11,12,13,0,1,2,3,4,5,6,7,8,9,10,11,12,13,0,1,2,3,4,5,6,7,8,9,10,11,12,13,0,1,2,3,4,5,6,7,8,9,10,11,12,13,0,1,2,3,4,5,6,7,8,9,10,11,12,13,0,1,2,3,4,5,6,7,8,9,10,11,12,13,0,1,2,3,4,5,6,7,8,9,10,11,12,13,0,1,2,3,4,5,6,7,8,9,10,11,12,13,0,1,2,3,4,5,6,7,8,9,10,11,12,13,0,1,2,3,4,5,6,7,8,9,10,11,12,13,0,1,2,3,4,5,6,7,8,9,10,11,12,13,0,1,2,3,4,5,6,7,8,9,10,11,12,13,0,1,2,3,4,5,6,7,8,9,10,11,12,13,0,1,2,3,4,5,6,7,8,9,10,11,12,13,0,1,2,3,4,5,6,7,8,9,10,11,12,13,0,1,2,3,4,5,6,7,8,9,10,11,12,13,0,1,2,3,4,5,6,7,8,9,10,11,12,13,0,1,2,3,4,5,6,7,8,9,10,11,12,13,0,1,2,3,4,5,6,7,8,9,10,11,12,13,0,1,2,3,4,5,6,7,8,9,10,11,12,13,0,1,2,3,4,5,6,7,8,9,10,11,12,13,0,1,2,3,4,5,6,7,8,9,10,11,12,13,0,1,2,3,4,5,6,7,8,9,10,11,12,13,0,1,2,3,4,5,6,7,8,9,10,11,12,13,0,1,2,3,4,5,6,7,8,9,10,11,12,13,0,1,2,3,4,5,6,7,8,9,10,11,12,13,0,1,2,3,4,5,6,7,8,9,10,11,12,13,0,1,2,3,4,5,6,7,8,9,10,11,12,13,0,1,2,3,4,5,6,7,8,9,10,11,12,13,0,1,2,3,4,5,6,7,8,9,10,11,12,13,0,1,2,3,4,5,6,7,8,9,10,11,12,13,0,1,2,3,4,5,6,7,8,9,10,11,12,13,0,1,2,3,4,5,6,7,8,9,10,11,12,13],"trees":[{"base_weights":[-6.432157E-4,-3.429913E-1,5.9120045E0,-4.1888192E-1,8.4308285E-1,1.3249822E0,2.5005823E1,-4.5041077E-2,-1.5738029E-2,6.788394E-4,2.2629033E-1,7.284513E-2,6.6681975E-1,9.8177606E-1,3.1156805E0],"categories":[],"categories_nodes":[],"categories_segments":[],"categories_sizes":[],"default_left":[0,0,0,0,0,0,0,0,0,0,0,0,0,0,0],"id":0,"left_children":[1,3,5,7,9,11,13,-1,-1,-1,-1,-1,-1,-1,-1],"loss_changes":[9.061171E3,3.8138486E2,2.1374113E4,3.217572E1,3.0028937E2,6.207079E2,3.819705E3,0E0,0E0,0E0,0E0,0E0,0E0,0E0,0E0],"parents":[2147483647,0,0,1,1,2,2,3,3,4,4,5,5,6,6],"right_children":[2,4,6,8,10,12,14,-1,-1,-1,-1,-1,-1,-1,-1],"split_conditions":[1E0,1.818E1,1.064E0,7.55E0,1.0621E0,1.0592E0,5.71E0,-4.5041077E-2,-1.5738029E-2,6.788394E-4,2.2629033E-1,7.284513E-2,6.6681975E-1,9.8177606E-1,3.1156805E0],"split_indices":[29,7,0,7,0,0,7,0,0,0,0,0,0,0,0],"split_type":[0,0,0,0,0,0,0,0,0,0,0,0,0,0,0],"sum_hessian":[4.475093E3,4.231946E3,2.4314735E2,3.9792478E3,2.5269785E2,1.9768031E2,4.546703E1,3.5470044E3,4.3224338E2,1.6057462E2,9.212323E1,1.798614E2,1.7818914E1,1.4530126E1,3.0936905E1],"tree_param":{"num_deleted":"0","num_feature":"89","num_nodes":"15","size_leaf_vector":"1"}},{"base_weights":[4.395575E-4,-1.4476529E-1,5.864876E-1,-2.4318749E-1,7.863942E-1,1.1833531E0,-1.5356998E-1,-3.2699566E-2,1.7899452E-2,1.6288246E-1,2.481105E-2,1.8442844E-1,2.762495E-2,5.0166965E-2,-3.2981668E-2],"categories":[],"categories_nodes":[],"categories_segments":[],"categories_sizes":[],"default_left":[0,0,0,0,0,0,0,0,0,0,0,0,0,0,0],"id":1,"left_children":[1,3,5,7,9,11,13,-1,-1,-1,-1,-1,-1,-1,-1],"loss_changes":[3.697703E3,3.191003E3,3.8126387E3,1.1145415E3,1.5068735E3,2.8613994E3,4.4514954E2,0E0,0E0,0E0,0E0,0E0,0E0,0E0,0E0],"parents":[2147483647,0,0,1,1,2,2,3,3,4,4,5,5,6,6],"right_children":[2,4,6,8,10,12,14,-1,-1,-1,-1,-1,-1,-1,-1],"split_conditions":[4E-1,2.1E-1,1.7E0,9.2E0,3.01E1,1.061E0,3.16E0,-3.2699566E-2,1.7899452E-2,1.6288246E-1,2.481105E-2,1.8442844E-1,2.762495E-2,5.0166965E-2,-3.2981668E-2],"split_indices":[13,14,14,12,3,0,13,0,0,0,0,0,0,0,0],"split_type":[0,0,0,0,0,0,0,0,0,0,0,0,0,0,0],"sum_hessian":[4.3444684E4,3.481783E4,8.626855E3,3.1491502E4,3.3263264E3,4.7754424E3,3.8514128E3,2.627753E4,5.213974E3,1.2947211E3,2.0316053E3,2.760932E3,2.0145104E3,8.146216E2,3.0367913E3],"tree_param":{"num_deleted":"0","num_feature":"89","num_nodes":"15","size_leaf_vector":"1"}},{"base_weights":[-2.2122139E-4,-4.6542144E-1,1.1177776E0,-5.400834E-1,7.341626E-2,1.4774398E0,1.2817514E-1,-5.8661312E-2,-2.6217734E-2,-2.4541836E-2,6.951101E-2,8.427411E-2,1.7613566E-1,-2.6665047E-2,9.6892335E-2],"categories":[],"categories_nodes":[],"categories_segments":[],"categories_sizes":[],"default_left":[0,0,0,0,0,0,0,0,0,0,0,0,0,0,0],"id":2,"left_children":[1,3,5,7,9,11,13,-1,-1,-1,-1,-1,-1,-1,-1],"loss_changes":[4.0230594E4,2.1980703E3,8.087951E3,6.1940234E2,1.318452E3,2.998879E3,2.0131053E3,0E0,0E0,0E0,0E0,0E0,0E0,0E0,0E0],"parents":[2147483647,0,0,1,1,2,2,3,3,4,4,5,5,6,6],"right_children":[2,4,6,8,10,12,14,-1,-1,-1,-1,-1,-1,-1,-1],"split_conditions":[5.01E1,1.2E0,1.54E1,4E1,1.0589E0,1.0558E0,5E0,-5.8661312E-2,-2.6217734E-2,-2.4541836E-2,6.951101E-2,8.427411E-2,1.7613566E-1,-2.6665047E-2,9.6892335E-2],"split_indices":[3,87,4,3,0,0,65,0,0,0,0,0,0,0,0],"split_type":[0,0,0,0,0,0,0,0,0,0,0,0,0,0,0],"sum_hessian":[7.7350016E4,5.4623125E4,2.2726887E4,4.7976957E4,6.646171E3,1.6667473E4,6.059414E3,4.1091855E4,6.885101E3,4.3929873E3,2.2531836E3,5.1546177E3,1.1512855E4,4.12331E3,1.9361044E3],"tree_param":{"num_deleted":"0","num_feature":"89","num_nodes":"15","size_leaf_vector":"1"}},{"base_weights":[9.58263E-4,-2.5199354E-1,4.3426356E0,-2.7701297E-1,6.682211E0,6.0053697E0,2.1491694E0,5.990051E-2,-3.2419976E-2,8.402738E-1,2.8030866E-1,7.683967E-1,1.3206182E-1,9.103819E-2,3.260912E-1],"categories":[],"categories_nodes":[],"categories_segments":[],"categories_sizes":[],"default_left":[0,0,0,0,0,0,0,0,0,0,0,0,0,0,0],"id":3,"left_children":[1,3,5,7,9,11,13,-1,-1,-1,-1,-1,-1,-1,-1],"loss_changes":[2.1026238E4,3.1361133E3,3.8134434E3,7.452219E2,3.8059668E2,4.6785215E3,6.2115845E2,0E0,0E0,0E0,0E0,0E0,0E0,0E0,0E0],"parents":[2147483647,0,0,1,1,2,2,3,3,4,4,5,5,6,6],"right_children":[2,4,6,8,10,12,14,-1,-1,-1,-1,-1,-1,-1,-1],"split_conditions":[1E0,1E0,2.88E1,7E1,2.88E1,1.47E1,5.25E0,5.990051E-2,-3.2419976E-2,8.402738E-1,2.8030866E-1,7.683967E-1,1.3206182E-1,9.103819E-2,3.260912E-1],"split_indices":[29,31,3,60,3,4,4,0,0,0,0,0,0,0,0],"split_type":[0,0,0,0,0,0,0,0,0,0,0,0,0,0,0],"sum_hessian":[1.913862E4,1.8086428E4,1.0521921E3,1.8023297E4,6.3131527E1,5.96454E2,4.5573816E2,9.1917914E2,1.7104117E4,4.2087685E1,2.1043842E1,4.3810898E2,1.5834499E2,2.1750598E2,2.3823218E2],"tree_param":{"num_deleted":"0","num_feature":"89","num_nodes":"15","size_leaf_vector":"1"}},{"base_weights":[-6.4241528E-3,-1.8708137E-1,9.451939E0,-3.1159738E-1,1.828047E0,1.9672947E0,1.5523848E1,-4.7020126E-2,1.7269494E-2,-0E0,5.952449E-1,6.301299E-2,4.564572E-1,2.8636904E0,2.9918322E-1],"categories":[],"categories_nodes":[],"categories_segments":[],"categories_sizes":[],"default_left":[0,0,0,0,0,0,0,0,0,0,0,0,0,0,0],"id":4,"left_children":[1,3,5,7,9,11,13,-1,-1,-1,-1,-1,-1,-1,-1],"loss_changes":[4.8364463E3,6.9779846E2,2.3394229E3,2.0180273E2,1.2217197E3,8.035531E1,4.5731235E3,0E0,0E0,0E0,0E0,0E0,0E0,0E0,0E0],"parents":[2147483647,0,0,1,1,2,2,3,3,4,4,5,5,6,6],"right_children":[2,4,6,8,10,12,14,-1,-1,-1,-1,-1,-1,-1,-1],"split_conditions":[4.694E1,1.768E1,1.47E1,1.84E1,1.79E1,8.333E1,5.64E0,-4.7020126E-2,1.7269494E-2,-0E0,5.952449E-1,6.301299E-2,4.564572E-1,2.8636904E0,2.9918322E-1],"split_indices":[7,7,4,4,4,7,2,0,0,0,0,0,0,0,0],"split_type":[0,0,0,0,0,0,0,0,0,0,0,0,0,0,0],"sum_hessian":[2.8312913E3,2.780094E3,5.119725E1,2.6201775E3,1.5991661E2,2.4090754E1,2.7106499E1,1.9751367E3,6.450408E2,1.1202846E2,4.7888145E1,1.7636826E1,6.453928E0,1.2051244E1,1.5055254E1],"tree_param":{"num_deleted":"0","num_feature":"89","num_nodes":"15","size_leaf_vector":"1"}},{"base_weights":[1.1875392E-3,2.7367502E-1,-4.2805037E-1,1.0213266E-2,7.012952E-1,-2.9249287E-1,-5.038696E-1,-2.511808E-2,3.2918923E-2,8.767901E-2,-4.6864513E-2,-2.2481252E-2,-5.6620713E-2,-4.741811E-2,-5.8645286E-2],"categories":[],"categories_nodes":[],"categories_segments":[],"categories_sizes":[],"default_left":[0,0,0,0,0,0,0,0,0,0,0,0,0,0,0],"id":5,"left_children":[1,3,5,7,9,11,13,-1,-1,-1,-1,-1,-1,-1,-1],"loss_changes":[8.582613E3,5.056462E3,2.919004E2,2.3163071E3,3.5143516E3,1.8858063E2,4.3368652E1,0E0,0E0,0E0,0E0,0E0,0E0,0E0,0E0],"parents":[2147483647,0,0,1,1,2,2,3,3,4,4,5,5,6,6],"right_children":[2,4,6,8,10,12,14,-1,-1,-1,-1,-1,-1,-1,-1],"split_conditions":[1.0604E0,1E0,1.067E0,1E0,4E-1,1.26E0,5.9E-1,-2.511808E-2,3.2918923E-2,8.767901E-2,-4.6864513E-2,-2.2481252E-2,-5.6620713E-2,-4.741811E-2,-5.8645286E-2],"split_indices":[0,28,0,27,13,13,13,0,0,0,0,0,0,0,0],"split_type":[0,0,0,0,0,0,0,0,0,0,0,0,0,0,0],"sum_hessian":[7.3376945E4,4.4885516E4,2.8491434E4,2.7776174E4,1.7109342E4,1.0226906E4,1.8264527E4,1.5264756E4,1.2511417E4,1.4878681E4,2.2306611E3,8.204646E3,2.0222593E3,1.3451508E4,4.8130195E3],"tree_param":{"num_deleted":"0","num_feature":"89","num_nodes":"15","size_leaf_vector":"1"}},{"base_weights":[2.4183232E-3,-3.862972E-1,6.723506E0,-3.9826223E-1,2.748839E0,1.086978E1,1.3928308E0,-4.3574534E-2,6.89243E-3,3.2056463E-1,1.15382895E-2,7.590553E-1,1.721155E0,4.1435018E-1,1.6514337E-2],"categories":[],"categories_nodes":[],"categories_segments":[],"categories_sizes":[],"default_left":[0,0,0,0,0,0,0,0,0,0,0,0,0,0,0],"id":6,"left_children":[1,3,5,7,9,11,13,-1,-1,-1,-1,-1,-1,-1,-1],"loss_changes":[2.1473742E4,2.91417E2,9.894043E3,1.359115E2,3.1977188E1,4.9863965E3,6.664867E2,0E0,0E0,0E0,0E0,0E0,0E0,0E0,0E0],"parents":[2147483647,0,0,1,1,2,2,3,3,4,4,5,5,6,6],"right_children":[2,4,6,8,10,12,14,-1,-1,-1,-1,-1,-1,-1,-1],"split_conditions":[1E0,1E0,7.41E0,1E0,7.46E0,1E0,1.852E1,-4.3574534E-2,6.89243E-3,3.2056463E-1,1.15382895E-2,7.590553E-1,1.721155E0,4.1435018E-1,1.6514337E-2],"split_indices":[29,31,7,44,7,44,7,0,0,0,0,0,0,0,0],"split_type":[0,0,0,0,0,0,0,0,0,0,0,0,0,0,0],"sum_hessian":[8.213577E3,7.766044E3,4.4753357E2,7.738397E3,2.7646994E1,2.5056154E2,1.9697205E2,7.1654463E3,5.729507E2,2.2942574E1,4.7044206E0,1.6792737E2,8.263417E1,5.921434E1,1.377577E2],"tree_param":{"num_deleted":"0","num_feature":"89","num_nodes":"15","size_leaf_vector":"1"}},{"base_weights":[-7.257535E-4,-3.5522553E-1,2.2152846E0,-4.3562177E-1,4.8543835E-1,2.8421597E0,8.2574505E-1,-4.5572307E-2,2.9760648E-3,2.8509675E-2,1.3933434E-1,3.369629E-1,7.252799E-2,1.7958248E-1,9.99468E-3],"categories":[],"categories_nodes":[],"categories_segments":[],"categories_sizes":[],"default_left":[0,0,0,0,0,0,0,0,0,0,0,0,0,0,0],"id":7,"left_children":[1,3,5,7,9,11,13,-1,-1,-1,-1,-1,-1,-1,-1],"loss_changes":[1.4077721E4,1.0446199E3,2.1452441E3,1.3232861E2,2.4313916E2,1.8922695E3,5.4113855E2,0E0,0E0,0E0,0E0,0E0,0E0,0E0,0E0],"parents":[2147483647,0,0,1,1,2,2,3,3,4,4,5,5,6,6],"right_children":[2,4,6,8,10,12,14,-1,-1,-1,-1,-1,-1,-1,-1],"split_conditions":[2.78E0,1.33E0,9.8E-1,1.2E0,1.32E0,5.35E1,3.14E0,-4.5572307E-2,2.9760648E-3,2.8509675E-2,1.3933434E-1,3.369629E-1,7.252799E-2,1.7958248E-1,9.99468E-3],"split_indices":[13,14,10,13,13,3,14,0,0,0,0,0,0,0,0],"split_type":[0,0,0,0,0,0,0,0,0,0,0,0,0,0,0],"sum_hessian":[1.7918582E4,1.5449095E4,2.4694868E3,1.4102332E4,1.346763E3,1.7000037E3,7.6948315E2,1.3520218E4,5.8211456E2,1.1060624E3,2.4070059E2,1.3597054E3,3.4029825E2,3.276533E2,4.4182986E2],"tree_param":{"num_deleted":"0","num_feature":"89","num_nodes":"15","size_leaf_vector":"1"}},{"base_weights":[-9.835503E-4,-4.5102546E-1,9.605908E0,-4.6427834E-1,1.102471E0,1.011163E1,5.9709287E0,-4.6774894E-2,8.497587E-3,5.4389756E-2,2.6474786E-1,6.779871E-1,1.0427195E0,4.6402103E-1,7.9726166E-1],"categories":[],"categories_nodes":[],"categories_segments":[],"categories_sizes":[],"default_left":[0,0,0,0,0,0,0,0,0,0,0,0,0,0,0],"id":8,"left_children":[1,3,5,7,9,11,13,-1,-1,-1,-1,-1,-1,-1,-1],"loss_changes":[7.8172625E4,3.560381E2,1.362E3,3.305127E1,1.2072502E2,5.9835156E2,1.9664331E2,0E0,0E0,0E0,0E0,0E0,0E0,0E0,0E0],"parents":[2147483647,0,0,1,1,2,2,3,3,4,4,5,5,6,6],"right_children":[2,4,6,8,10,12,14,-1,-1,-1,-1,-1,-1,-1,-1],"split_conditions":[1E0,1E0,1.28E1,1E0,5.652E1,1.73E1,4.324E1,-4.6774894E-2,8.497587E-3,5.4389756E-2,2.6474786E-1,6.779871E-1,1.0427195E0,4.6402103E-1,7.9726166E-1],"split_indices":[25,80,4,37,5,3,5,0,0,0,0,0,0,0,0],"split_type":[0,0,0,0,0,0,0,0,0,0,0,0,0,0,0],"sum_hessian":[1.8078945E4,1.7271691E4,8.072535E2,1.7127422E4,1.4426999E2,7.055611E2,1.0169238E2,1.702169E4,1.0573314E2,1.0820249E2,3.6067497E1,6.48766E1,6.4068445E2,6.502625E1,3.666613E1],"tree_param":{"num_deleted":"0","num_feature":"89","num_nodes":"15","size_leaf_vector":"1"}},{"base_weights":[3.338839E-4,8.010178E0,-2.6376992E-1,2.2060528E0,1.6060026E1,-2.8606892E-1,1.2196536E1,1.6916694E-1,1.0986856E0,2.26551E0,6.8039715E-1,-3.2415487E-2,3.2858118E-1,1.4700508E0,4.32434E-1],"categories":[],"categories_nodes":[],"categories_segments":[],"categories_sizes":[],"default_left":[0,0,0,0,0,0,0,0,0,0,0,0,0,0,0],"id":9,"left_children":[1,3,5,7,9,11,13,-1,-1,-1,-1,-1,-1,-1,-1],"loss_changes":[1.2661271E4,8.845256E3,1.6053843E3,4.662008E2,4.554092E3,7.861045E2,6.9638794E1,0E0,0E0,0E0,0E0,0E0,0E0,0E0,0E0],"parents":[2147483647,0,0,1,1,2,2,3,3,4,4,5,5,6,6],"right_children":[2,4,6,8,10,12,14,-1,-1,-1,-1,-1,-1,-1,-1],"split_conditions":[1.03E1,1.111E1,1E0,1E0,1.0114E0,1E0,2.37E1,1.6916694E-1,1.0986856E0,2.26551E0,6.8039715E-1,-3.2415487E-2,3.2858118E-1,1.4700508E0,4.32434E-1],"split_indices":[3,9,36,76,1,76,3,0,0,0,0,0,0,0,0],"split_type":[0,0,0,0,0,0,0,0,0,0,0,0,0,0,0],"sum_hessian":[5.978389E3,1.892005E2,5.7891885E3,1.1136579E2,7.783471E1,5.780719E3,8.469446E0,1.07378716E2,3.9870787E0,4.38331E1,3.400161E1,5.7216313E3,5.908801E1,5.126244E0,3.3432026E0],"tree_param":{"num_deleted":"0","num_feature":"89","num_nodes":"15","size_leaf_vector":"1"}},{"base_weights":[6.9551665E-4,-2.7988298E-2,2.9834187E0,-8.6578086E-2,6.515683E-1,3.2698767E0,1.5026333E0,6.9288515E-2,-1.0839305E-2,1.0067885E-1,3.5220578E-3,3.4078848E-1,2.0487578E-1,1.7835434E-1,3.131336E-2],"categories":[],"categories_nodes":[],"categories_segments":[],"categories_sizes":[],"default_left":[0,0,0,0,0,0,0,0,0,0,0,0,0,0,0],"id":10,"left_children":[1,3,5,7,9,11,13,-1,-1,-1,-1,-1,-1,-1,-1],"loss_changes":[4.004358E3,1.8442118E3,1.7595972E2,7.249347E2,8.0395337E2,4.5051514E1,2.263536E1,0E0,0E0,0E0,0E0,0E0,0E0,0E0,0E0],"parents":[2147483647,0,0,1,1,2,2,3,3,4,4,5,5,6,6],"right_children":[2,4,6,8,10,12,14,-1,-1,-1,-1,-1,-1,-1,-1],"split_conditions":[1E0,1E0,2.29E0,9.5E0,1E0,1.967E1,3E0,6.9288515E-2,-1.0839305E-2,1.0067885E-1,3.5220578E-3,3.4078848E-1,2.0487578E-1,1.7835434E-1,3.131336E-2],"split_indices":[55,71,13,3,81,5,10,0,0,0,0,0,0,0,0],"split_type":[0,0,0,0,0,0,0,0,0,0,0,0,0,0,0],"sum_hessian":[4.6770992E4,4.6327027E4,4.4396332E2,4.2652496E4,3.6745337E3,3.6964603E2,7.431728E1,1.1586123E3,4.1493883E4,2.3294492E3,1.3450847E3,3.2850958E2,4.113646E1,5.8794094E1,1.5523193E1],"tree_param":{"num_deleted":"0","num_feature":"89","num_nodes":"15","size_leaf_vector":"1"}},{"base_weights":[-7.425592E-4,-4.7176015E-1,2.9689014E0,-5.0816876E-1,6.4845127E-1,1.4302698E0,3.834099E0,-5.2534707E-2,9.358634E-3,2.843534E-2,3.069475E-1,8.196696E-2,3.3768028E-1,3.1946418E-1,4.875722E-1],"categories":[],"categories_nodes":[],"categories_segments":[],"categories_sizes":[],"default_left":[0,0,0,0,0,0,0,0,0,0,0,0,0,0,0],"id":11,"left_children":[1,3,5,7,9,11,13,-1,-1,-1,-1,-1,-1,-1,-1],"loss_changes":[5.280295E4,1.3294263E3,6.8649062E3,3.266953E2,8.9973236E2,2.2059866E3,2.1665938E3,0E0,0E0,0E0,0E0,0E0,0E0,0E0,0E0],"parents":[2147483647,0,0,1,1,2,2,3,3,4,4,5,5,6,6],"right_children":[2,4,6,8,10,12,14,-1,-1,-1,-1,-1,-1,-1,-1],"split_conditions":[3.02E1,3.06E0,2.27E0,2.62E1,3.31E0,9.8E-1,1.29E0,-5.2534707E-2,9.358634E-3,2.843534E-2,3.069475E-1,8.196696E-2,3.3768028E-1,3.1946418E-1,4.875722E-1],"split_indices":[4,14,14,4,10,10,10,0,0,0,0,0,0,0,0],"split_type":[0,0,0,0,0,0,0,0,0,0,0,0,0,0,0],"sum_hessian":[3.774779E4,3.2581805E4,5.165984E3,3.1557895E4,1.0239113E3,1.8614858E3,3.304498E3,3.0683617E4,8.742772E2,8.92158E2,1.317533E2,1.419328E3,4.4215778E2,2.052685E3,1.2518131E3],"tree_param":{"num_deleted":"0","num_feature":"89","num_nodes":"15","size_leaf_vector":"1"}},{"base_weights":[2.043934E-3,-1.5005995E-1,4.2422137E0,-3.2023746E-1,1.7647864E0,3.019748E0,4.9864383E0,-4.1434597E-2,8.106128E-2,1.06625594E-1,3.0416617E-1,2.3590823E-1,4.1720834E-1,5.20542E-1,2.7693924E-1],"categories":[],"categories_nodes":[],"categories_segments":[],"categories_sizes":[],"default_left":[0,0,0,0,0,0,0,0,0,0,0,0,0,0,0],"id":12,"left_children":[1,3,5,7,9,11,13,-1,-1,-1,-1,-1,-1,-1,-1],"loss_changes":[2.401461E4,1.1711436E4,1.1384668E3,3.5131682E3,2.6068076E3,3.5161865E2,3.540879E2,0E0,0E0,0E0,0E0,0E0,0E0,0E0,0E0],"parents":[2147483647,0,0,1,1,2,2,3,3,4,4,5,5,6,6],"right_children":[2,4,6,8,10,12,14,-1,-1,-1,-1,-1,-1,-1,-1],"split_conditions":[1E0,1E0,1.37E0,1.083E0,1.0634E0,5.333E1,4.78E1,-4.1434597E-2,8.106128E-2,1.06625594E-1,3.0416617E-1,2.3590823E-1,4.1720834E-1,5.20542E-1,2.7693924E-1],"split_indices":[24,23,18,0,0,5,3,0,0,0,0,0,0,0,0],"split_type":[0,0,0,0,0,0,0,0,0,0,0,0,0,0,0],"sum_hessian":[3.722598E4,3.593838E4,1.2876019E3,3.300695E4,2.9314312E3,4.9122028E2,7.9638165E2,3.0472938E4,2.5340117E3,1.8974618E3,1.0339694E3,3.1626935E2,1.7495094E2,7.22174E2,7.420759E1],"tree_param":{"num_deleted":"0","num_feature":"89","num_nodes":"15","size_leaf_vector":"1"}},{"base_weights":[-2.8399671E-3,-4.2483E-1,4.530477E0,-4.6161845E-1,3.451915E0,3.292156E0,6.1244874E0,-4.8647743E-2,6.932274E-2,4.3601966E-1,1.3917963E-1,2.6605338E-1,5.298286E-1,6.311485E-1,4.7035322E-1],"categories":[],"categories_nodes":[],"categories_segments":[],"categories_sizes":[],"default_left":[0,0,0,0,0,0,0,0,0,0,0,0,0,0,0],"id":13,"left_children":[1,3,5,7,9,11,13,-1,-1,-1,-1,-1,-1,-1,-1],"loss_changes":[5.9668727E4,4.0702769E3,5.1977188E3,8.120366E2,4.858318E2,1.8667852E3,2.4364453E2,0E0,0E0,0E0,0E0,0E0,0E0,0E0,0E0],"parents":[2147483647,0,0,1,1,2,2,3,3,4,4,5,5,6,6],"right_children":[2,4,6,8,10,12,14,-1,-1,-1,-1,-1,-1,-1,-1],"split_conditions":[3.425E1,1E0,1E0,2.222E1,2.83E1,1E0,3E1,-4.8647743E-2,6.932274E-2,4.3601966E-1,1.3917963E-1,2.6605338E-1,5.298286E-1,6.311485E-1,4.7035322E-1],"split_indices":[9,39,39,9,3,82,3,0,0,0,0,0,0,0,0],"split_type":[0,0,0,0,0,0,0,0,0,0,0,0,0,0,0],"sum_hessian":[3.1189053E4,2.8534723E4,2.6543296E3,2.826832E4,2.664038E2,1.4973241E3,1.1570055E3,2.7674412E4,5.9390704E2,1.8316881E2,8.3235016E1,1.1423779E3,3.549462E2,1.01629565E3,1.4070988E2],"tree_param":{"num_deleted":"0","num_feature":"89","num_nodes":"15","size_leaf_vector":"1"}},{"base_weights":[-4.710929E-2,-3.3664644E-1,1.5074753E0,-4.2505515E-1,6.830965E-1,2.029763E-1,1.7811974E0,-4.4810634E-2,-2.1500146E-2,9.64678E-3,1.7314315E-1,-2.161251E-2,1.2187431E-1,2.0449184E-1,4.2358752E-2],"categories":[],"categories_nodes":[],"categories_segments":[],"categories_sizes":[],"default_left":[0,0,0,0,0,0,0,0,0,0,0,0,0,0,0],"id":14,"left_children":[1,3,5,7,9,11,13,-1,-1,-1,-1,-1,-1,-1,-1],"loss_changes":[2.1795215E3,3.6850977E2,2.690708E2,1.7464478E1,1.9847885E2,5.8582245E1,2.2097522E2,0E0,0E0,0E0,0E0,0E0,0E0,0E0,0E0],"parents":[2147483647,0,0,1,1,2,2,3,3,4,4,5,5,6,6],"right_children":[2,4,6,8,10,12,14,-1,-1,-1,-1,-1,-1,-1,-1],"split_conditions":[1E0,1.579E1,5.5E0,7.55E0,1.0644E0,1.0602E0,2.62E1,-4.4810634E-2,-2.1500146E-2,9.64678E-3,1.7314315E-1,-2.161251E-2,1.2187431E-1,2.0449184E-1,4.2358752E-2],"split_indices":[29,7,4,7,0,0,4,0,0,0,0,0,0,0,0],"split_type":[0,0,0,0,0,0,0,0,0,0,0,0,0,0,0],"sum_hessian":[4.840473E3,4.0821755E3,7.582979E2,3.758258E3,3.2391748E2,1.3261435E2,6.2568353E2,3.3810771E3,3.7718094E2,2.0951039E2,1.1440708E2,9.431848E1,3.8295868E1,5.2260315E2,1.03080376E2],"tree_param":{"num_deleted":"0","num_feature":"89","num_nodes":"15","size_leaf_vector":"1"}},{"base_weights":[3.4226838E-3,-4.4612777E-1,4.7941872E-1,-4.8011053E-1,-1.7938137E-1,8.753373E-1,-3.4546682E-1,-5.0390925E-2,-4.0914673E-2,-2.4363638E-3,-4.440617E-2,1.3731985E-1,7.6098046E-3,-3.4085177E-3,-4.3895658E-2],"categories":[],"categories_nodes":[],"categories_segments":[],"categories_sizes":[],"default_left":[0,0,0,0,0,0,0,0,0,0,0,0,0,0,0],"id":15,"left_children":[1,3,5,7,9,11,13,-1,-1,-1,-1,-1,-1,-1,-1],"loss_changes":[9.237076E3,2.0051123E2,6.8487944E3,3.2090332E1,1.0274493E2,5.6365176E3,1.97544E2,0E0,0E0,0E0,0E0,0E0,0E0,0E0,0E0],"parents":[2147483647,0,0,1,1,2,2,3,3,4,4,5,5,6,6],"right_children":[2,4,6,8,10,12,14,-1,-1,-1,-1,-1,-1,-1,-1],"split_conditions":[1E1,8.8E0,2.77E1,6.8E0,9.9E-1,6.12E0,3.22E1,-5.0390925E-2,-4.0914673E-2,-2.4363638E-3,-4.440617E-2,1.3731985E-1,7.6098046E-3,-3.4085177E-3,-4.3895658E-2],"split_indices":[4,4,4,4,87,2,4,0,0,0,0,0,0,0,0],"split_type":[0,0,0,0,0,0,0,0,0,0,0,0,0,0,0],"sum_hessian":[4.316325E4,2.2197418E4,2.0965834E4,1.9684943E4,2.5124746E3,1.4167031E4,6.798803E3,1.4723841E4,4.9611025E3,1.5877778E3,9.246968E2,8.727879E3,5.4391523E3,1.5726089E3,5.2261943E3],"tree_param":{"num_deleted":"0","num_feature":"89","num_nodes":"15","size_leaf_vector":"1"}},{"base_weights":[2.5948854E-3,-4.6453756E-1,9.5620733E-1,-5.3448796E-1,2.703929E-2,4.2609662E-1,1.3984271E0,-5.76496E-2,-2.7953757E-2,-2.636886E-2,5.5930134E-2,6.7051195E-2,-3.863469E-2,9.099466E-2,1.5277891E-1],"categories":[],"categories_nodes":[],"categories_segments":[],"categories_sizes":[],"default_left":[0,0,0,0,0,0,0,0,0,0,0,0,0,0,0],"id":16,"left_children":[1,3,5,7,9,11,13,-1,-1,-1,-1,-1,-1,-1,-1],"loss_changes":[3.417577E4,1.7711123E3,5.910783E3,4.8178418E2,9.931836E2,2.2795671E3,8.642949E2,0E0,0E0,0E0,0E0,0E0,0E0,0E0,0E0],"parents":[2147483647,0,0,1,1,2,2,3,3,4,4,5,5,6,6],"right_children":[2,4,6,8,10,12,14,-1,-1,-1,-1,-1,-1,-1,-1],"split_conditions":[4.89E1,1.15E0,5E0,3.97E1,1.0584E0,1.03E0,1.0541E0,-5.76496E-2,-2.7953757E-2,-2.636886E-2,5.5930134E-2,6.7051195E-2,-3.863469E-2,9.099466E-2,1.5277891E-1],"split_indices":[3,87,65,3,0,14,0,0,0,0,0,0,0,0,0],"split_type":[0,0,0,0,0,0,0,0,0,0,0,0,0,0,0],"sum_hessian":[7.671497E4,5.1491586E4,2.5223387E4,4.5078562E4,6.4130234E3,1.1474225E4,1.3749162E4,3.8696844E4,6.3817183E3,4.1471416E3,2.2658818E3,8.821682E3,2.6525432E3,2.8832437E3,1.0865919E4],"tree_param":{"num_deleted":"0","num_feature":"89","num_nodes":"15","size_leaf_vector":"1"}},{"base_weights":[-3.1126253E-3,-2.4384356E-1,2.7222013E0,-2.6935983E-1,3.3028483E0,3.095056E0,5.757885E-1,5.3161222E-2,-3.1668544E-2,3.712854E-1,1.703927E-1,2.6333836E-1,4.9087378E-1,9.687277E-2,8.679437E-3],"categories":[],"categories_nodes":[],"categories_segments":[],"categories_sizes":[],"default_left":[0,0,0,0,0,0,0,0,0,0,0,0,0,0,0],"id":17,"left_children":[1,3,5,7,9,11,13,-1,-1,-1,-1,-1,-1,-1,-1],"loss_changes":[1.2554966E4,1.5906384E3,1.2365713E3,6.6209216E2,6.598096E1,1.0770596E3,4.361685E1,0E0,0E0,0E0,0E0,0E0,0E0,0E0,0E0],"parents":[2147483647,0,0,1,1,2,2,3,3,4,4,5,5,6,6],"right_children":[2,4,6,8,10,12,14,-1,-1,-1,-1,-1,-1,-1,-1],"split_conditions":[1E0,1E0,1.0651E0,7E1,1.0558E0,1.25E1,1.4E1,5.3161222E-2,-3.1668544E-2,3.712854E-1,1.703927E-1,2.6333836E-1,4.9087378E-1,9.687277E-2,8.679437E-3],"split_indices":[29,31,0,60,0,8,4,0,0,0,0,0,0,0,0],"split_type":[0,0,0,0,0,0,0,0,0,0,0,0,0,0,0],"sum_hessian":[1.9136193E4,1.758489E4,1.5513025E3,1.7461217E4,1.2367358E2,1.3206738E3,2.3062868E2,9.7208405E2,1.6489133E4,9.6062996E1,2.7610586E1,1.0566965E3,2.639772E2,1.2590359E2,1.0472509E2],"tree_param":{"num_deleted":"0","num_feature":"89","num_nodes":"15","size_leaf_vector":"1"}},{"base_weights":[-1.823506E-2,-3.5254383E-1,4.0411873E0,-3.871282E-1,6.743891E-1,1.1446985E0,9.187895E0,-4.7706656E-2,-1.8996922E-2,-1.257494E-2,6.7705774E-1,-1.2270523E-2,3.9633134E-1,2.1060293E0,4.33635E-1],"categories":[],"categories_nodes":[],"categories_segments":[],"categories_sizes":[],"default_left":[0,0,0,0,0,0,0,0,0,0,0,0,0,0,0],"id":18,"left_children":[1,3,5,7,9,11,13,-1,-1,-1,-1,-1,-1,-1,-1],"loss_changes":[3.9972026E3,9.696704E1,3.3123777E3,4.6020935E1,4.3942868E2,5.2433527E2,4.4364346E3,0E0,0E0,0E0,0E0,0E0,0E0,0E0,0E0],"parents":[2147483647,0,0,1,1,2,2,3,3,4,4,5,5,6,6],"right_children":[2,4,6,8,10,12,14,-1,-1,-1,-1,-1,-1,-1,-1],"split_conditions":[1E0,1E0,1.84E1,1.7E1,2.09E1,1.19E1,4.694E1,-4.7706656E-2,-1.8996922E-2,-1.257494E-2,6.7705774E-1,-1.2270523E-2,3.9633134E-1,2.1060293E0,4.33635E-1],"split_indices":[29,32,4,4,4,4,7,0,0,0,0,0,0,0,0],"split_type":[0,0,0,0,0,0,0,0,0,0,0,0,0,0,0],"sum_hessian":[2.943917E3,2.7216755E3,2.2224155E2,2.6349187E3,8.675674E1,1.4376141E2,7.8480125E1,1.8047192E3,8.301995E2,7.816925E1,8.587483E0,1.0018199E2,4.3579422E1,2.0922918E1,5.755721E1],"tree_param":{"num_deleted":"0","num_feature":"89","num_nodes":"15","size_leaf_vector":"1"}},{"base_weights":[5.176398E-3,2.8432694E-1,-4.737227E-1,5.389907E-1,-3.157064E-1,-2.617747E-1,-5.4451245E-1,7.22014E-2,-4.1726124E-2,-6.1437697E-3,-4.039064E-2,-4.881063E-2,-1.2652253E-2,-4.6582617E-2,-5.6250006E-2],"categories":[],"categories_nodes":[],"categories_segments":[],"categories_sizes":[],"default_left":[0,0,0,0,0,0,0,0,0,0,0,0,0,0,0],"id":19,"left_children":[1,3,5,7,9,11,13,-1,-1,-1,-1,-1,-1,-1,-1],"loss_changes":[9.739387E3,7.033747E3,4.01563E2,5.6564004E3,3.0712207E2,2.0517963E2,2.7098145E1,0E0,0E0,0E0,0E0,0E0,0E0,0E0,0E0],"parents":[2147483647,0,0,1,1,2,2,3,3,4,4,5,5,6,6],"right_children":[2,4,6,8,10,12,14,-1,-1,-1,-1,-1,-1,-1,-1],"split_conditions":[1.27E1,1.0608E0,1.65E1,2.759E1,6.46E0,2.8E1,1.99E1,7.22014E-2,-4.1726124E-2,-6.1437697E-3,-4.039064E-2,-4.881063E-2,-1.2652253E-2,-4.6582617E-2,-5.6250006E-2],"split_indices":[4,0,4,9,2,3,4,0,0,0,0,0,0,0,0],"split_type":[0,0,0,0,0,0,0,0,0,0,0,0,0,0,0],"sum_hessian":[7.285077E4,4.602519E4,2.6825582E4,3.2312748E4,1.3712443E4,6.721571E3,2.0104012E4,2.7122867E4,5.189881E3,3.5348174E3,1.0177626E4,2.51008E3,4.2114907E3,3.7586997E3,1.6345312E4],"tree_param":{"num_deleted":"0","num_feature":"89","num_nodes":"15","size_leaf_vector":"1"}},{"base_weights":[-1.0903833E-2,-3.7667513E-1,2.827817E0,-4.042661E-1,2.4058793E0,4.4881864E0,1.6320445E-1,-4.1684195E-2,2.1824627E-1,3.0970487E-1,-0E0,1.210558E-1,5.887216E-1,-6.5231286E-3,2.3561995E-1],"categories":[],"categories_nodes":[],"categories_segments":[],"categories_sizes":[],"default_left":[0,0,0,0,0,0,0,0,0,0,0,0,0,0,0],"id":20,"left_children":[1,3,5,7,9,11,13,-1,-1,-1,-1,-1,-1,-1,-1],"loss_changes":[8.730217E3,5.7208044E2,4.240554E3,2.4022461E2,1.2236795E2,2.6907705E3,1.8785684E2,0E0,0E0,0E0,0E0,0E0,0E0,0E0,0E0],"parents":[2147483647,0,0,1,1,2,2,3,3,4,4,5,5,6,6],"right_children":[2,4,6,8,10,12,14,-1,-1,-1,-1,-1,-1,-1,-1],"split_conditions":[1E0,9.5E1,6.4E0,1E0,5.99E0,2.468E1,8.24E1,-4.1684195E-2,2.1824627E-1,3.0970487E-1,-0E0,1.210558E-1,5.887216E-1,-6.5231286E-3,2.3561995E-1],"split_indices":[29,5,4,31,2,3,5,0,0,0,0,0,0,0,0],"split_type":[0,0,0,0,0,0,0,0,0,0,0,0,0,0,0],"sum_hessian":[8.406259E3,7.4484277E3,9.5783154E2,7.3771646E3,7.126297E1,5.891415E2,3.6869003E2,7.343344E3,3.3820618E1,5.502875E1,1.6234219E1,1.774566E2,4.1168488E2,3.3518274E2,3.35073E1],"tree_param":{"num_deleted":"0","num_feature":"89","num_nodes":"15","size_leaf_vector":"1"}},{"base_weights":[-3.1445029E-3,-4.6642986E-1,1.6069064E0,-4.9397105E-1,2.1839261E-1,2.0417533E0,2.493402E-1,-4.993677E-2,1.8512914E-2,4.960701E-2,-2.5879974E-2,2.5174078E-1,8.108917E-2,1.077706E-1,-8.3608385E-3],"categories":[],"categories_nodes":[],"categories_segments":[],"categories_sizes":[],"default_left":[0,0,0,0,0,0,0,0,0,0,0,0,0,0,0],"id":21,"left_children":[1,3,5,7,9,11,13,-1,-1,-1,-1,-1,-1,-1,-1],"loss_changes":[1.3346926E4,2.6253418E2,2.3573516E3,4.940454E1,7.164155E1,1.7658594E3,2.6924384E2,0E0,0E0,0E0,0E0,0E0,0E0,0E0,0E0],"parents":[2147483647,0,0,1,1,2,2,3,3,4,4,5,5,6,6],"right_children":[2,4,6,8,10,12,14,-1,-1,-1,-1,-1,-1,-1,-1],"split_conditions":[2.27E1,2.02E1,5.22E1,4.35E0,6.44E0,4.94E0,6.17E0,-4.993677E-2,1.8512914E-2,4.960701E-2,-2.5879974E-2,2.5174078E-1,8.108917E-2,1.077706E-1,-8.3608385E-3],"split_indices":[4,4,3,13,2,14,2,0,0,0,0,0,0,0,0],"split_type":[0,0,0,0,0,0,0,0,0,0,0,0,0,0,0],"sum_hessian":[1.7890998E4,1.3894699E4,3.996299E3,1.3359195E4,5.355038E2,3.0256E3,9.706991E2,1.3255598E4,1.0359781E2,3.3959943E2,1.9590433E2,2.1803867E3,8.4521344E2,2.7784473E2,6.928544E2],"tree_param":{"num_deleted":"0","num_feature":"89","num_nodes":"15","size_leaf_vector":"1"}},{"base_weights":[-9.909656E-3,-4.4701904E-1,3.7585874E0,-4.6072412E-1,9.220896E-1,3.8788698E0,2.3888416E0,-4.793441E-2,-3.80283E-2,5.0686356E-2,1.8306728E-1,4.011878E-1,3.019441E-1,1.8270274E-1,3.0134323E-1],"categories":[],"categories_nodes":[],"categories_segments":[],"categories_sizes":[],"default_left":[0,0,0,0,0,0,0,0,0,0,0,0,0,0,0],"id":22,"left_children":[1,3,5,7,9,11,13,-1,-1,-1,-1,-1,-1,-1,-1],"loss_changes":[3.0180723E4,3.0848145E2,2.9127148E2,2.328418E1,5.769055E1,1.7131445E2,4.153192E1,0E0,0E0,0E0,0E0,0E0,0E0,0E0,0E0],"parents":[2147483647,0,0,1,1,2,2,3,3,4,4,5,5,6,6],"right_children":[2,4,6,8,10,12,14,-1,-1,-1,-1,-1,-1,-1,-1],"split_conditions":[1E0,1E0,5.01E1,2.727E1,5.581E1,1.0675E0,2.353E1,-4.793441E-2,-3.80283E-2,5.0686356E-2,1.8306728E-1,4.011878E-1,3.019441E-1,1.8270274E-1,3.0134323E-1],"split_indices":[25,80,3,5,5,0,5,0,0,0,0,0,0,0,0],"split_type":[0,0,0,0,0,0,0,0,0,0,0,0,0,0,0],"sum_hessian":[1.8319906E4,1.641749E4,1.9024148E3,1.6256606E4,1.6088364E2,1.7451567E3,1.5725804E2,1.318491E4,3.0716965E3,1.13041016E2,4.7842617E1,1.5045344E3,2.4062234E2,8.732887E1,6.992917E1],"tree_param":{"num_deleted":"0","num_feature":"89","num_nodes":"15","size_leaf_vector":"1"}},{"base_weights":[-1.35470955E-2,-1.8732074E-1,9.209919E0,1.81885E0,-3.8564312E-1,6.4441967E0,1.7643845E1,1.4313906E-1,4.2038402E-1,-4.160926E-2,1.9079046E-1,5.15043E-1,1.0779467E0,1.9135075E0,1.3699548E-1],"categories":[],"categories_nodes":[],"categories_segments":[],"categories_sizes":[],"default_left":[0,0,0,0,0,0,0,0,0,0,0,0,0,0,0],"id":23,"left_children":[1,3,5,7,9,11,13,-1,-1,-1,-1,-1,-1,-1,-1],"loss_changes":[9.854588E3,2.4029375E3,2.4211885E3,4.8609082E2,3.8416083E2,3.8073486E2,5.8775977E2,0E0,0E0,0E0,0E0,0E0,0E0,0E0,0E0],"parents":[2147483647,0,0,1,1,2,2,3,3,4,4,5,5,6,6],"right_children":[2,4,6,8,10,12,14,-1,-1,-1,-1,-1,-1,-1,-1],"split_conditions":[1E0,1.201E1,1.07E1,1E0,1E0,1.0115E0,1E0,1.4313906E-1,4.2038402E-1,-4.160926E-2,1.9079046E-1,5.15043E-1,1.0779467E0,1.9135075E0,1.3699548E-1],"split_indices":[37,3,4,36,76,1,25,0,0,0,0,0,0,0,0],"split_type":[0,0,0,0,0,0,0,0,0,0,0,0,0,0,0],"sum_hessian":[6.1493193E3,6.0374756E3,1.1184377E2,5.414028E2,5.4960728E3,8.675778E1,2.5085993E1,4.6859302E2,7.280974E1,5.425923E3,7.0150345E1,7.008605E1,1.6671724E1,2.263444E1,2.4515543E0],"tree_param":{"num_deleted":"0","num_feature":"89","num_nodes":"15","size_leaf_vector":"1"}},{"base_weights":[3.2615121E-3,-2.4072813E-2,2.2230916E0,-8.0968656E-2,5.994307E-1,2.4217412E0,1.373598E0,-9.500469E-3,1.1079724E-1,2.126532E-2,1.0107877E-1,1.09799325E-1,2.482529E-1,1.556397E-1,5.9134224E-3],"categories":[],"categories_nodes":[],"categories_segments":[],"categories_sizes":[],"default_left":[0,0,0,0,0,0,0,0,0,0,0,0,0,0,0],"id":24,"left_children":[1,3,5,7,9,11,13,-1,-1,-1,-1,-1,-1,-1,-1],"loss_changes":[2.82599E3,1.6306641E3,8.622168E1,7.024836E2,6.1009424E2,2.8600586E1,2.5477768E1,0E0,0E0,0E0,0E0,0E0,0E0,0E0,0E0],"parents":[2147483647,0,0,1,1,2,2,3,3,4,4,5,5,6,6],"right_children":[2,4,6,8,10,12,14,-1,-1,-1,-1,-1,-1,-1,-1],"split_conditions":[1E0,1E0,2.23E1,7.14E0,9.6E0,5.56E0,6.15E0,-9.500469E-3,1.1079724E-1,2.126532E-2,1.0107877E-1,1.09799325E-1,2.482529E-1,1.556397E-1,5.9134224E-3],"split_indices":[55,71,4,15,4,4,10,0,0,0,0,0,0,0,0],"split_type":[0,0,0,0,0,0,0,0,0,0,0,0,0,0,0],"sum_hessian":[4.65396E4,4.597493E4,5.6467456E2,4.213317E4,3.8417566E3,4.540684E2,1.1060614E2,4.164396E4,4.892103E2,1.9825458E3,1.8592109E3,2.2098045E1,4.3197037E2,9.623574E1,1.4370397E1],"tree_param":{"num_deleted":"0","num_feature":"89","num_nodes":"15","size_leaf_vector":"1"}},{"base_weights":[-2.9363853E-3,-4.726212E-1,2.14508E0,-5.185724E-1,2.7998757E-1,9.708842E-1,2.5626063E0,-5.247712E-2,4.9695995E-2,-5.5892384E-3,1.9184639E-1,5.5499464E-2,2.2335295E-1,2.682474E-1,7.175737E-2],"categories":[],"categories_nodes":[],"categories_segments":[],"categories_sizes":[],"default_left":[0,0,0,0,0,0,0,0,0,0,0,0,0,0,0],"id":25,"left_children":[1,3,5,7,9,11,13,-1,-1,-1,-1,-1,-1,-1,-1],"loss_changes":[3.8170793E4,1.0741914E3,3.3204727E3,1.8471729E2,9.8504956E2,9.322527E2,1.1006914E3,0E0,0E0,0E0,0E0,0E0,0E0,0E0,0E0],"parents":[2147483647,0,0,1,1,2,2,3,3,4,4,5,5,6,6],"right_children":[2,4,6,8,10,12,14,-1,-1,-1,-1,-1,-1,-1,-1],"split_conditions":[2.97E1,2.39E1,1.18E0,1E0,1.96E0,2.13E0,7.1E-1,-5.247712E-2,4.9695995E-2,-5.5892384E-3,1.9184639E-1,5.5499464E-2,2.2335295E-1,2.682474E-1,7.175737E-2],"split_indices":[4,4,14,50,10,10,87,0,0,0,0,0,0,0,0],"split_type":[0,0,0,0,0,0,0,0,0,0,0,0,0,0,0],"sum_hessian":[3.783212E4,3.1045547E4,6.7865737E3,2.9260713E4,1.7848337E3,1.7823408E3,5.004233E3,2.9084908E4,1.7580399E2,1.4822479E3,3.025858E2,1.343241E3,4.390998E2,4.697732E3,3.0650116E2],"tree_param":{"num_deleted":"0","num_feature":"89","num_nodes":"15","size_leaf_vector":"1"}},{"base_weights":[-1.809913E-4,-2.1539406E-1,1.6801093E0,-3.62713E-1,6.780374E-1,2.1126504E0,-2.7623224E-1,-4.0981315E-2,4.0658535E-3,9.647869E-2,-3.0333107E-2,2.6500246E-1,2.2142112E-2,-3.5269655E-2,5.806395E-2],"categories":[],"categories_nodes":[],"categories_segments":[],"categories_sizes":[],"default_left":[0,0,0,0,0,0,0,0,0,0,0,0,0,0,0],"id":26,"left_children":[1,3,5,7,9,11,13,-1,-1,-1,-1,-1,-1,-1,-1],"loss_changes":[1.3419981E4,4.3305537E3,3.5680479E3,5.369783E2,1.3115991E3,3.503829E3,5.0254517E1,0E0,0E0,0E0,0E0,0E0,0E0,0E0,0E0],"parents":[2147483647,0,0,1,1,2,2,3,3,4,4,5,5,6,6],"right_children":[2,4,6,8,10,12,14,-1,-1,-1,-1,-1,-1,-1,-1],"split_conditions":[1E0,7.59E0,1E0,5.63E0,2.37E0,2.258E1,7.93E0,-4.0981315E-2,4.0658535E-3,9.647869E-2,-3.0333107E-2,2.6500246E-1,2.2142112E-2,-3.5269655E-2,5.806395E-2],"split_indices":[23,2,25,18,13,9,2,0,0,0,0,0,0,0,0],"split_type":[0,0,0,0,0,0,0,0,0,0,0,0,0,0,0],"sum_hessian":[3.7110426E4,3.2898832E4,4.2115933E3,2.8243738E4,4.655092E3,3.449259E3,7.62334E2,2.5292508E4,2.9512307E3,3.6031675E3,1.0519246E3,2.6851174E3,7.641417E2,7.017892E2,6.0544773E1],"tree_param":{"num_deleted":"0","num_feature":"89","num_nodes":"15","size_leaf_vector":"1"}},{"base_weights":[-4.900744E-3,-4.3468732E-1,2.794982E0,-4.658309E-1,2.1869776E0,2.233033E0,3.3995547E0,-4.7782212E-2,1.2954813E-1,1.6853367E-1,4.122199E-1,1.730597E-1,3.6999464E-1,3.418472E-1,7.0550635E-2],"categories":[],"categories_nodes":[],"categories_segments":[],"categories_sizes":[],"default_left":[0,0,0,0,0,0,0,0,0,0,0,0,0,0,0],"id":27,"left_children":[1,3,5,7,9,11,13,-1,-1,-1,-1,-1,-1,-1,-1],"loss_changes":[3.7649047E4,2.215125E3,1.3956543E3,5.6665186E2,2.9135608E2,1.5783984E3,9.40293E1,0E0,0E0,0E0,0E0,0E0,0E0,0E0,0E0],"parents":[2147483647,0,0,1,1,2,2,3,3,4,4,5,5,6,6],"right_children":[2,4,6,8,10,12,14,-1,-1,-1,-1,-1,-1,-1,-1],"split_conditions":[3.077E1,1E0,1E0,1E0,2.273E1,1E0,1E0,-4.7782212E-2,1.2954813E-1,1.6853367E-1,4.122199E-1,1.730597E-1,3.6999464E-1,3.418472E-1,7.0550635E-2],"split_indices":[9,39,39,40,11,40,66,0,0,0,0,0,0,0,0],"split_type":[0,0,0,0,0,0,0,0,0,0,0,0,0,0,0],"sum_hessian":[3.128476E4,2.7123174E4,4.1615854E3,2.6806576E4,3.1659802E2,2.1620522E3,1.9995331E3,2.6627125E4,1.794501E2,2.5452208E2,6.207594E1,1.6138878E3,5.4816437E2,1.9847833E3,1.47498045E1],"tree_param":{"num_deleted":"0","num_feature":"89","num_nodes":"15","size_leaf_vector":"1"}},{"base_weights":[-4.9334813E-2,-3.328099E-1,1.2993208E0,-3.69219E-1,2.1061313E0,5.5849608E-2,1.4853173E0,-4.2837452E-2,2.3861928E-2,5.3064268E-2,4.427503E-1,-2.5112743E-2,9.1665104E-2,1.6726425E-1,3.7651688E-2],"categories":[],"categories_nodes":[],"categories_segments":[],"categories_sizes":[],"default_left":[0,0,0,0,0,0,0,0,0,0,0,0,0,0,0],"id":28,"left_children":[1,3,5,7,9,11,13,-1,-1,-1,-1,-1,-1,-1,-1],"loss_changes":[1.8208539E3,3.4961877E2,1.8982532E2,1.3992065E2,2.0301086E2,3.0093943E1,1.4639221E2,0E0,0E0,0E0,0E0,0E0,0E0,0E0,0E0],"parents":[2147483647,0,0,1,1,2,2,3,3,4,4,5,5,6,6],"right_children":[2,4,6,8,10,12,14,-1,-1,-1,-1,-1,-1,-1,-1],"split_conditions":[1E0,4.694E1,4.9E0,1.379E1,6.19E0,5.91E0,2.62E1,-4.2837452E-2,2.3861928E-2,5.3064268E-2,4.427503E-1,-2.5112743E-2,9.1665104E-2,1.6726425E-1,3.7651688E-2],"split_indices":[29,7,4,7,2,2,4,0,0,0,0,0,0,0,0],"split_type":[0,0,0,0,0,0,0,0,0,0,0,0,0,0,0],"sum_hessian":[4.760971E3,3.9357388E3,8.2523254E2,3.8797395E3,5.599924E1,1.0828357E2,7.1694904E2,3.5374185E3,3.4232114E2,3.4931015E1,2.1068228E1,8.005675E1,2.822682E1,6.1187E2,1.0507903E2],"tree_param":{"num_deleted":"0","num_feature":"89","num_nodes":"15","size_leaf_vector":"1"}},{"base_weights":[6.2182983E-3,-4.2539656E-1,4.516565E-1,-4.715953E-1,-1.2063144E-1,8.1225586E-1,-3.2134098E-1,-4.7545254E-2,2.396158E-2,2.1837024E-2,-3.8718782E-2,1.2257447E-1,1.018056E-2,4.043841E-3,-4.168059E-2],"categories":[],"categories_nodes":[],"categories_segments":[],"categories_sizes":[],"default_left":[0,0,0,0,0,0,0,0,0,0,0,0,0,0,0],"id":29,"left_children":[1,3,5,7,9,11,13,-1,-1,-1,-1,-1,-1,-1,-1],"loss_changes":[8.284324E3,3.075044E2,5.9119565E3,5.2533203E1,2.6104294E2,4.246965E3,2.3334961E2,0E0,0E0,0E0,0E0,0E0,0E0,0E0,0E0],"parents":[2147483647,0,0,1,1,2,2,3,3,4,4,5,5,6,6],"right_children":[2,4,6,8,10,12,14,-1,-1,-1,-1,-1,-1,-1,-1],"split_conditions":[1.03E1,8.9E0,2.72E1,4E-1,4E1,1.0613E0,3.12E1,-4.7545254E-2,2.396158E-2,2.1837024E-2,-3.8718782E-2,1.2257447E-1,1.018056E-2,4.043841E-3,-4.168059E-2],"split_indices":[4,4,4,13,3,0,4,0,0,0,0,0,0,0,0],"split_type":[0,0,0,0,0,0,0,0,0,0,0,0,0,0,0],"sum_hessian":[4.3085863E4,2.1881545E4,2.1204316E4,1.899789E4,2.8836548E3,1.4459868E4,6.7444487E3,1.889721E4,1.0068026E2,1.2680793E3,1.6155754E3,9.138585E3,5.321283E3,1.4064911E3,5.3379575E3],"tree_param":{"num_deleted":"0","num_feature":"89","num_nodes":"15","size_leaf_vector":"1"}},{"base_weights":[9.7174593E-4,-4.618381E-1,8.386563E-1,-5.3124887E-1,-1.871519E-2,1.0984144E0,7.5798996E-2,-5.7400346E-2,-3.3062916E-2,-2.7826482E-2,4.693904E-2,6.250922E-2,1.3020091E-1,-2.6345477E-2,7.12612E-2],"categories":[],"categories_nodes":[],"categories_segments":[],"categories_sizes":[],"default_left":[0,0,0,0,0,0,0,0,0,0,0,0,0,0,0],"id":30,"left_children":[1,3,5,7,9,11,13,-1,-1,-1,-1,-1,-1,-1,-1],"loss_changes":[2.9630096E4,1.5136416E3,5.3885156E3,3.639287E2,8.451305E2,1.9520234E3,1.4939366E3,0E0,0E0,0E0,0E0,0E0,0E0,0E0,0E0],"parents":[2147483647,0,0,1,1,2,2,3,3,4,4,5,5,6,6],"right_children":[2,4,6,8,10,12,14,-1,-1,-1,-1,-1,-1,-1,-1],"split_conditions":[4.82E1,8.9E-1,1.5E1,3.79E1,4E1,1.0558E0,5E0,-5.7400346E-2,-3.3062916E-2,-2.7826482E-2,4.693904E-2,6.250922E-2,1.3020091E-1,-2.6345477E-2,7.12612E-2],"split_indices":[3,87,4,3,3,0,65,0,0,0,0,0,0,0,0],"split_type":[0,0,0,0,0,0,0,0,0,0,0,0,0,0,0],"sum_hessian":[7.642302E4,4.9226074E4,2.719695E4,4.255757E4,6.6685044E3,2.0287121E4,6.909829E3,3.5074973E4,7.482596E3,4.355179E3,2.313325E3,6.105228E3,1.4181893E4,4.508001E3,2.4018281E3],"tree_param":{"num_deleted":"0","num_feature":"89","num_nodes":"15","size_leaf_vector":"1"}},{"base_weights":[4.614539E-4,-2.3336221E-1,2.069599E0,-2.988474E-1,3.43023E0,2.2996707E0,3.397213E-1,-3.2526173E-2,2.3924036E-1,5.986423E-1,3.0229116E-2,2.5571898E-1,1.0812284E-1,2.3568392E-2,2.9148054E-1],"categories":[],"categories_nodes":[],"categories_segments":[],"categories_sizes":[],"default_left":[0,0,0,0,0,0,0,0,0,0,0,0,0,0,0],"id":31,"left_children":[1,3,5,7,9,11,13,-1,-1,-1,-1,-1,-1,-1,-1],"loss_changes":[9.236553E3,4.1135967E3,7.677871E2,1.1975278E3,2.398611E3,5.28374E2,5.770854E1,0E0,0E0,0E0,0E0,0E0,0E0,0E0,0E0],"parents":[2147483647,0,0,1,1,2,2,3,3,4,4,5,5,6,6],"right_children":[2,4,6,8,10,12,14,-1,-1,-1,-1,-1,-1,-1,-1],"split_conditions":[1E0,1E0,1.79E1,1E0,7.6E1,9.091E1,2.119E1,-3.2526173E-2,2.3924036E-1,5.986423E-1,3.0229116E-2,2.5571898E-1,1.0812284E-1,2.3568392E-2,2.9148054E-1],"split_indices":[29,34,4,31,60,5,15,0,0,0,0,0,0,0,0],"split_type":[0,0,0,0,0,0,0,0,0,0,0,0,0,0,0],"sum_hessian":[1.9084227E4,1.7147678E4,1.9365492E3,1.684845E4,2.99228E2,1.7082528E3,2.2829634E2,1.6686615E4,1.6183475E2,1.6358324E2,1.3564478E2,1.4079507E3,3.0030212E2,2.2168916E2,6.6071787E0],"tree_param":{"num_deleted":"0","num_feature":"89","num_nodes":"15","size_leaf_vector":"1"}},{"base_weights":[-4.1972127E-2,-3.4911045E-1,2.0356245E0,-4.1707847E-1,1.8957762E-1,2.5605714E0,-1.5692905E-1,-4.2281557E-2,9.5369585E-2,-0E0,1.6023621E-1,1.297897E-1,3.1620485E-1,-2.6964888E-2,1.6732814E-2],"categories":[],"categories_nodes":[],"categories_segments":[],"categories_sizes":[],"default_left":[0,0,0,0,0,0,0,0,0,0,0,0,0,0,0],"id":32,"left_children":[1,3,5,7,9,11,13,-1,-1,-1,-1,-1,-1,-1,-1],"loss_changes":[1.9200044E3,9.6394135E1,4.4874805E2,1.8630432E1,7.8319595E1,2.2635864E2,2.958419E0,0E0,0E0,0E0,0E0,0E0,0E0,0E0,0E0],"parents":[2147483647,0,0,1,1,2,2,3,3,4,4,5,5,6,6],"right_children":[2,4,6,8,10,12,14,-1,-1,-1,-1,-1,-1,-1,-1],"split_conditions":[1E0,1.791E1,1.0651E0,1E0,1E0,8.56E0,2.54E0,-4.2281557E-2,9.5369585E-2,-0E0,1.6023621E-1,1.297897E-1,3.1620485E-1,-2.6964888E-2,1.6732814E-2],"split_indices":[29,7,0,31,32,7,13,0,0,0,0,0,0,0,0],"split_type":[0,0,0,0,0,0,0,0,0,0,0,0,0,0,0],"sum_hessian":[3.0072312E3,2.6216167E3,3.8561444E2,2.3296702E3,2.9194653E2,3.1118652E2,7.442793E1,2.321852E3,7.8181663E0,2.5918063E2,3.27659E1,1.0274668E2,2.0843982E2,5.7405346E1,1.7022585E1],"tree_param":{"num_deleted":"0","num_feature":"89","num_nodes":"15","size_leaf_vector":"1"}},{"base_weights":[3.1801597E-3,2.2555304E-1,-3.8443393E-1,9.488632E-3,5.7506335E-1,9.718108E-2,-4.1625246E-1,-2.2971319E-2,2.5769284E-2,6.892636E-2,-4.0608782E-2,-4.344595E-2,4.042093E-2,-2.5088592E-2,-4.6553846E-2],"categories":[],"categories_nodes":[],"categories_segments":[],"categories_sizes":[],"default_left":[0,0,0,0,0,0,0,0,0,0,0,0,0,0,0],"id":33,"left_children":[1,3,5,7,9,11,13,-1,-1,-1,-1,-1,-1,-1,-1],"loss_changes":[6.2715317E3,3.4911914E3,4.0680835E2,1.6967689E3,1.9797856E3,2.685811E2,2.0197217E2,0E0,0E0,0E0,0E0,0E0,0E0,0E0,0E0],"parents":[2147483647,0,0,1,1,2,2,3,3,4,4,5,5,6,6],"right_children":[2,4,6,8,10,12,14,-1,-1,-1,-1,-1,-1,-1,-1],"split_conditions":[6.05E0,1E0,1.0089E0,1E0,4.7E-1,1E0,6.47E0,-2.2971319E-2,2.5769284E-2,6.892636E-2,-4.0608782E-2,-4.344595E-2,4.042093E-2,-2.5088592E-2,-4.6553846E-2],"split_indices":[2,28,1,27,14,75,2,0,0,0,0,0,0,0,0],"split_type":[0,0,0,0,0,0,0,0,0,0,0,0,0,0,0],"sum_hessian":[7.275778E4,4.6235562E4,2.6522217E4,2.8575041E4,1.7660521E4,1.6417456E3,2.488047E4,1.4549736E4,1.4025304E4,1.5820523E4,1.839998E3,5.99732E2,1.0420137E3,5.719306E3,1.9161164E4],"tree_param":{"num_deleted":"0","num_feature":"89","num_nodes":"15","size_leaf_vector":"1"}},{"base_weights":[-1.489161E-2,-2.662488E-1,2.4942696E0,2.6969606E-1,-4.3177742E-1,2.861199E0,5.678444E-1,6.970675E-2,-3.5984248E-2,-4.5976657E-2,-5.8242446E-3,3.033236E-1,-0E0,1.12262525E-1,-1.3026746E-2],"categories":[],"categories_nodes":[],"categories_segments":[],"categories_sizes":[],"default_left":[0,0,0,0,0,0,0,0,0,0,0,0,0,0,0],"id":34,"left_children":[1,3,5,7,9,11,13,-1,-1,-1,-1,-1,-1,-1,-1],"loss_changes":[5.2876553E3,6.766569E2,5.3366455E2,4.8472308E2,6.0424927E1,3.1646094E2,4.9453854E1,0E0,0E0,0E0,0E0,0E0,0E0,0E0,0E0],"parents":[2147483647,0,0,1,1,2,2,3,3,4,4,5,5,6,6],"right_children":[2,4,6,8,10,12,14,-1,-1,-1,-1,-1,-1,-1,-1],"split_conditions":[8.5E1,5.25E0,5.7E0,6E0,1E0,1E0,8.8E0,6.970675E-2,-3.5984248E-2,-4.5976657E-2,-5.8242446E-3,3.033236E-1,-0E0,1.12262525E-1,-1.3026746E-2],"split_indices":[5,4,4,9,44,23,4,0,0,0,0,0,0,0,0],"split_type":[0,0,0,0,0,0,0,0,0,0,0,0,0,0,0],"sum_hessian":[8.383051E3,7.6215483E3,7.6150214E2,1.7969912E3,5.824557E3,6.3853955E2,1.22962555E2,1.071047E3,7.259442E2,5.416029E3,4.0852826E2,6.023532E2,3.6186356E1,6.856634E1,5.4396217E1],"tree_param":{"num_deleted":"0","num_feature":"89","num_nodes":"15","size_leaf_vector":"1"}},{"base_weights":[3.1953368E-3,-3.518452E-1,1.4241815E0,-4.338527E-1,4.0420184E-1,1.6978847E0,4.656396E-1,-4.508768E-2,-2.9529799E-3,2.4044344E-2,1.1069001E-1,1.0783907E-1,2.1801428E-1,1.09000795E-1,-2.1303825E-3],"categories":[],"categories_nodes":[],"categories_segments":[],"categories_sizes":[],"default_left":[0,0,0,0,0,0,0,0,0,0,0,0,0,0,0],"id":35,"left_children":[1,3,5,7,9,11,13,-1,-1,-1,-1,-1,-1,-1,-1],"loss_changes":[9.009608E3,8.861238E2,9.3333594E2,8.82937E1,1.5922559E2,8.2214795E2,2.430282E2,0E0,0E0,0E0,0E0,0E0,0E0,0E0,0E0],"parents":[2147483647,0,0,1,1,2,2,3,3,4,4,5,5,6,6],"right_children":[2,4,6,8,10,12,14,-1,-1,-1,-1,-1,-1,-1,-1],"split_conditions":[2.54E0,1.33E0,4.04E0,1.18E0,5.08E0,4.69E0,2.9E0,-4.508768E-2,-2.9529799E-3,2.4044344E-2,1.1069001E-1,1.0783907E-1,2.1801428E-1,1.09000795E-1,-2.1303825E-3],"split_indices":[13,14,10,13,7,13,14,0,0,0,0,0,0,0,0],"split_type":[0,0,0,0,0,0,0,0,0,0,0,0,0,0,0],"sum_hessian":[1.7852727E4,1.4284473E4,3.5682537E3,1.2888396E4,1.3960763E3,2.773882E3,7.943715E2,1.2365433E4,5.22964E2,1.1352157E3,2.608606E2,1.2175741E3,1.5563081E3,3.4783066E2,4.4654086E2],"tree_param":{"num_deleted":"0","num_feature":"89","num_nodes":"15","size_leaf_vector":"1"}},{"base_weights":[-1.3888361E-2,-4.4417623E-1,2.6255698E0,-4.5828506E-1,8.015737E-1,2.6788883E0,1.7453948E0,-4.622454E-2,1.5145676E-2,4.6583246E-2,1.831524E-1,2.2479324E-1,2.7664718E-1,2.213968E-1,1.16175644E-1],"categories":[],"categories_nodes":[],"categories_segments":[],"categories_sizes":[],"default_left":[0,0,0,0,0,0,0,0,0,0,0,0,0,0,0],"id":36,"left_children":[1,3,5,7,9,11,13,-1,-1,-1,-1,-1,-1,-1,-1],"loss_changes":[2.0724277E4,2.761819E2,1.0762305E2,3.786499E1,5.7233192E1,7.509375E1,3.4025513E1,0E0,0E0,0E0,0E0,0E0,0E0,0E0,0E0],"parents":[2147483647,0,0,1,1,2,2,3,3,4,4,5,5,6,6],"right_children":[2,4,6,8,10,12,14,-1,-1,-1,-1,-1,-1,-1,-1],"split_conditions":[1E0,1E0,5.53E1,1E0,6.667E1,7.9E0,1.0606E0,-4.622454E-2,1.5145676E-2,4.6583246E-2,1.831524E-1,2.2479324E-1,2.7664718E-1,2.213968E-1,1.16175644E-1],"split_indices":[25,80,3,37,5,88,0,0,0,0,0,0,0,0,0],"split_type":[0,0,0,0,0,0,0,0,0,0,0,0,0,0,0],"sum_hessian":[1.8245473E4,1.5689596E4,2.5558772E3,1.5515723E4,1.7387268E2,2.4054177E3,1.5045961E2,1.5417428E4,9.8295425E1,1.3377649E2,4.0096195E1,4.1625684E2,1.9891608E3,7.9782326E1,7.067728E1],"tree_param":{"num_deleted":"0","num_feature":"89","num_nodes":"15","size_leaf_vector":"1"}},{"base_weights":[-1.913481E-2,1.6860689E0,-3.2947227E-1,2.0304482E0,-6.531897E-2,-3.6519533E-1,1.2944392E0,8.1226185E-2,2.573778E-1,-2.03208E-2,2.4608038E-1,5.4750904E-3,-4.468737E-2,3.0984533E-1,5.525568E-2],"categories":[],"categories_nodes":[],"categories_segments":[],"categories_sizes":[],"default_left":[0,0,0,0,0,0,0,0,0,0,0,0,0,0,0],"id":37,"left_children":[1,3,5,7,9,11,13,-1,-1,-1,-1,-1,-1,-1,-1],"loss_changes":[3.2716E3,5.7599756E2,3.0363116E2,5.2002783E2,5.3968616E1,1.7606207E2,1.4432762E2,0E0,0E0,0E0,0E0,0E0,0E0,0E0,0E0],"parents":[2147483647,0,0,1,1,2,2,3,3,4,4,5,5,6,6],"right_children":[2,4,6,8,10,12,14,-1,-1,-1,-1,-1,-1,-1,-1],"split_conditions":[1.48E1,1E0,1E0,2.8E0,1E0,2.29E1,7.9E0,8.1226185E-2,2.573778E-1,-2.03208E-2,2.4608038E-1,5.4750904E-3,-4.468737E-2,3.0984533E-1,5.525568E-2],"split_indices":[3,39,76,9,36,3,88,0,0,0,0,0,0,0,0],"split_type":[0,0,0,0,0,0,0,0,0,0,0,0,0,0,0],"sum_hessian":[6.1806816E3,9.4996924E2,5.2307124E3,7.9402826E2,1.5594096E2,5.1200386E3,1.1067398E2,2.4681984E2,5.4720844E2,1.4980167E2,6.139294E0,8.320888E2,4.2879497E3,3.0204454E1,8.046952E1],"tree_param":{"num_deleted":"0","num_feature":"89","num_nodes":"15","size_leaf_vector":"1"}},{"base_weights":[7.622872E-3,-1.882498E-2,1.8136189E0,-7.3890395E-2,5.5396104E-1,1.9229105E0,9.967506E-1,-8.708878E-3,1.19753E-1,8.1278965E-2,3.7276763E-3,1.954367E-1,7.395151E-2,1.2642734E-1,5.8881294E-2],"categories":[],"categories_nodes":[],"categories_segments":[],"categories_sizes":[],"default_left":[0,0,0,0,0,0,0,0,0,0,0,0,0,0,0],"id":38,"left_children":[1,3,5,7,9,11,13,-1,-1,-1,-1,-1,-1,-1,-1],"loss_changes":[2.2153516E3,1.4404365E3,5.373584E1,6.98607E2,5.348445E2,1.6907227E1,6.1879272E0,0E0,0E0,0E0,0E0,0E0,0E0,0E0,0E0],"parents":[2147483647,0,0,1,1,2,2,3,3,4,4,5,5,6,6],"right_children":[2,4,6,8,10,12,14,-1,-1,-1,-1,-1,-1,-1,-1],"split_conditions":[1E0,1E0,2.82E0,2.857E1,1E0,1E0,4.2E-1,-8.708878E-3,1.19753E-1,8.1278965E-2,3.7276763E-3,1.954367E-1,7.395151E-2,1.2642734E-1,5.8881294E-2],"split_indices":[55,49,13,18,81,25,14,0,0,0,0,0,0,0,0],"split_type":[0,0,0,0,0,0,0,0,0,0,0,0,0,0,0],"sum_hessian":[4.634539E4,4.567782E4,6.675674E2,4.1674492E4,4.0033281E3,5.85664E2,8.190337E1,4.124869E4,4.2580328E2,2.6654092E3,1.3379191E3,5.686255E2,1.7038502E1,4.586094E1,3.604243E1],"tree_param":{"num_deleted":"0","num_feature":"89","num_nodes":"15","size_leaf_vector":"1"}},{"base_weights":[-3.6311809E-3,-4.739708E-1,1.6848528E0,-5.050472E-1,4.3173748E-1,1.1266098E0,2.1295793E0,-5.2343816E-2,-1.1007634E-2,-2.2401942E-2,1.1729322E-1,7.163521E-2,2.0061348E-1,2.192254E-1,8.362237E-2],"categories":[],"categories_nodes":[],"categories_segments":[],"categories_sizes":[],"default_left":[0,0,0,0,0,0,0,0,0,0,0,0,0,0,0],"id":39,"left_children":[1,3,5,7,9,11,13,-1,-1,-1,-1,-1,-1,-1,-1],"loss_changes":[2.9866123E4,8.2838965E2,2.0269062E3,2.0594727E2,4.7561908E2,1.3076494E3,3.634629E2,0E0,0E0,0E0,0E0,0E0,0E0,0E0,0E0],"parents":[2147483647,0,0,1,1,2,2,3,3,4,4,5,5,6,6],"right_children":[2,4,6,8,10,12,14,-1,-1,-1,-1,-1,-1,-1,-1],"split_conditions":[2.92E1,3.06E0,3.66E0,2.39E1,2.23E1,1.61E0,9.4E-1,-5.2343816E-2,-1.1007634E-2,-2.2401942E-2,1.1729322E-1,7.163521E-2,2.0061348E-1,2.192254E-1,8.362237E-2],"split_indices":[4,14,14,4,4,10,87,0,0,0,0,0,0,0,0],"split_type":[0,0,0,0,0,0,0,0,0,0,0,0,0,0,0],"sum_hessian":[3.760473E4,2.941328E4,8.1914507E3,2.8439236E4,9.740428E2,3.635915E3,4.5555356E3,2.7171312E4,1.2679233E3,5.168841E2,4.5715863E2,2.4823408E3,1.153574E3,4.343129E3,2.1240665E2],"tree_param":{"num_deleted":"0","num_feature":"89","num_nodes":"15","size_leaf_vector":"1"}},{"base_weights":[3.8129194E-3,-1.3685666E-1,2.4307399E0,-3.0268186E-1,1.2145579E0,2.5740402E0,1.4573095E0,-4.0010348E-2,6.740598E-2,1.5591154E-1,-2.8841024E-2,1.2344487E-1,2.6585117E-1,1.7063934E-1,1.3335489E-2],"categories":[],"categories_nodes":[],"categories_segments":[],"categories_sizes":[],"default_left":[0,0,0,0,0,0,0,0,0,0,0,0,0,0,0],"id":40,"left_children":[1,3,5,7,9,11,13,-1,-1,-1,-1,-1,-1,-1,-1],"loss_changes":[1.2624015E4,7.831299E3,2.7223242E2,2.9623528E3,1.9797285E3,1.9008789E2,8.540289E1,0E0,0E0,0E0,0E0,0E0,0E0,0E0,0E0],"parents":[2147483647,0,0,1,1,2,2,3,3,4,4,5,5,6,6],"right_children":[2,4,6,8,10,12,14,-1,-1,-1,-1,-1,-1,-1,-1],"split_conditions":[1E0,1E0,4.56E1,1.083E0,1E0,1.38E1,2.1E-1,-4.0010348E-2,6.740598E-2,1.5591154E-1,-2.8841024E-2,1.2344487E-1,2.6585117E-1,1.7063934E-1,1.3335489E-2],"split_indices":[24,23,3,0,25,3,14,0,0,0,0,0,0,0,0],"split_type":[0,0,0,0,0,0,0,0,0,0,0,0,0,0,0],"sum_hessian":[3.6968395E4,3.4944348E4,2.0240493E3,3.1126977E4,3.8173684E3,1.7609081E3,2.631413E2,2.830569E4,2.8212874E3,3.1058457E3,7.115227E2,1.0676239E2,1.6541458E3,2.2048386E2,4.2657425E1],"tree_param":{"num_deleted":"0","num_feature":"89","num_nodes":"15","size_leaf_vector":"1"}},{"base_weights":[-5.072591E-3,-4.434108E-1,2.0470343E0,-4.6792448E-1,1.2582651E0,2.2721663E0,1.1191821E0,-4.8442066E-2,1.6949955E-2,2.1449442E-1,4.574111E-2,4.6259966E-2,2.4082625E-1,6.323681E-2,1.571438E-1],"categories":[],"categories_nodes":[],"categories_segments":[],"categories_sizes":[],"default_left":[0,0,0,0,0,0,0,0,0,0,0,0,0,0,0],"id":41,"left_children":[1,3,5,7,9,11,13,-1,-1,-1,-1,-1,-1,-1,-1],"loss_changes":[2.8070123E4,1.0730967E3,1.1397129E3,2.669922E2,2.552923E2,1.0834004E3,2.333678E2,0E0,0E0,0E0,0E0,0E0,0E0,0E0,0E0],"parents":[2147483647,0,0,1,1,2,2,3,3,4,4,5,5,6,6],"right_children":[2,4,6,8,10,12,14,-1,-1,-1,-1,-1,-1,-1,-1],"split_conditions":[2.542E1,2.174E1,3.13E1,1.667E1,3.03E1,8.3E0,4.545E1,-4.8442066E-2,1.6949955E-2,2.1449442E-1,4.574111E-2,4.6259966E-2,2.4082625E-1,6.323681E-2,1.571438E-1],"split_indices":[9,11,3,9,3,3,9,0,0,0,0,0,0,0,0],"split_type":[0,0,0,0,0,0,0,0,0,0,0,0,0,0,0],"sum_hessian":[3.1203574E4,2.5713033E4,5.490542E3,2.5349695E4,3.6333682E2,4.4155635E3,1.0749788E3,2.4711943E4,6.3775336E2,1.7045189E2,1.9288493E2,3.098683E2,4.105695E3,5.207514E2,5.542273E2],"tree_param":{"num_deleted":"0","num_feature":"89","num_nodes":"15","size_leaf_vector":"1"}},{"base_weights":[-4.5751754E-2,-3.2993945E-1,1.1549331E0,-4.2082113E-1,4.7783092E-1,1.9541815E-1,1.3646448E0,-4.247327E-2,9.384274E-2,-1.1322289E-2,9.840876E-2,-1.8798193E-2,7.008717E-2,1.5622029E-1,5.5901196E-2],"categories":[],"categories_nodes":[],"categories_segments":[],"categories_sizes":[],"default_left":[0,0,0,0,0,0,0,0,0,0,0,0,0,0,0],"id":42,"left_children":[1,3,5,7,9,11,13,-1,-1,-1,-1,-1,-1,-1,-1],"loss_changes":[1.6029921E3,2.7934015E2,1.7906812E2,1.8475098E1,1.15935936E2,3.2484802E1,1.1383008E2,0E0,0E0,0E0,0E0,0E0,0E0,0E0,0E0],"parents":[2147483647,0,0,1,1,2,2,3,3,4,4,5,5,6,6],"right_children":[2,4,6,8,10,12,14,-1,-1,-1,-1,-1,-1,-1,-1],"split_conditions":[1E0,1.5E1,1.0543E0,1E0,1.0592E0,4E0,3.46E1,-4.247327E-2,9.384274E-2,-1.1322289E-2,9.840876E-2,-1.8798193E-2,7.008717E-2,1.5622029E-1,5.5901196E-2],"split_indices":[29,7,0,66,0,7,3,0,0,0,0,0,0,0,0],"split_type":[0,0,0,0,0,0,0,0,0,0,0,0,0,0,0],"sum_hessian":[4.6959663E3,3.7988694E3,8.9709717E2,3.416428E3,3.8244144E2,1.6227072E2,7.348265E2,3.4085164E3,7.911616E0,1.7633171E2,2.0610973E2,9.198099E1,7.0289734E1,5.878748E2,1.4695163E2],"tree_param":{"num_deleted":"0","num_feature":"89","num_nodes":"15","size_leaf_vector":"1"}},{"base_weights":[1.6061672E-3,-4.0481147E-1,4.240377E-1,-4.6751517E-1,-9.140356E-2,7.5030655E-1,-3.1333563E-1,-4.7106992E-2,1.740934E-2,9.170352E-3,-3.564603E-2,1.0882425E-1,7.5887763E-3,1.4071543E-3,-4.189202E-2],"categories":[],"categories_nodes":[],"categories_segments":[],"categories_sizes":[],"default_left":[0,0,0,0,0,0,0,0,0,0,0,0,0,0,0],"id":43,"left_children":[1,3,5,7,9,11,13,-1,-1,-1,-1,-1,-1,-1,-1],"loss_changes":[7.377904E3,4.298401E2,5.0705293E3,4.2020996E1,1.777151E2,3.3286494E3,2.2382733E2,0E0,0E0,0E0,0E0,0E0,0E0,0E0,0E0],"parents":[2147483647,0,0,1,1,2,2,3,3,4,4,5,5,6,6],"right_children":[2,4,6,8,10,12,14,-1,-1,-1,-1,-1,-1,-1,-1],"split_conditions":[1.07E1,8.9E0,2.72E1,4E-1,5.91E0,6.17E0,3.17E1,-4.7106992E-2,1.740934E-2,9.170352E-3,-3.564603E-2,1.0882425E-1,7.5887763E-3,1.4071543E-3,-4.189202E-2],"split_indices":[4,4,4,13,2,2,4,0,0,0,0,0,0,0,0],"split_type":[0,0,0,0,0,0,0,0,0,0,0,0,0,0,0],"sum_hessian":[4.297004E4,2.1899137E4,2.1070902E4,1.824519E4,3.6539473E3,1.4608246E4,6.4626553E3,1.8146469E4,9.8721756E1,2.1598665E3,1.4940807E3,9.730245E3,4.878001E3,1.5743389E3,4.8883164E3],"tree_param":{"num_deleted":"0","num_feature":"89","num_nodes":"15","size_leaf_vector":"1"}},{"base_weights":[3.1776559E-3,-4.6974978E-1,7.31247E-1,-5.152858E-1,7.428938E-2,9.5663995E-1,5.788052E-2,-5.562635E-2,-2.6282838E-2,-2.0384979E-2,6.308111E-2,5.42852E-2,1.144796E-1,-2.6593018E-2,6.5028094E-2],"categories":[],"categories_nodes":[],"categories_segments":[],"categories_sizes":[],"default_left":[0,0,0,0,0,0,0,0,0,0,0,0,0,0,0],"id":44,"left_children":[1,3,5,7,9,11,13,-1,-1,-1,-1,-1,-1,-1,-1],"loss_changes":[2.6141184E4,1.1406006E3,4.536453E3,4.3839355E2,5.5085077E2,1.7412344E3,1.4394097E3,0E0,0E0,0E0,0E0,0E0,0E0,0E0,0E0],"parents":[2147483647,0,0,1,1,2,2,3,3,4,4,5,5,6,6],"right_children":[2,4,6,8,10,12,14,-1,-1,-1,-1,-1,-1,-1,-1],"split_conditions":[4.64E1,1.8E0,1.48E1,3.92E1,1.0594E0,5.6E0,5E0,-5.562635E-2,-2.6282838E-2,-2.0384979E-2,6.308111E-2,5.42852E-2,1.144796E-1,-2.6593018E-2,6.5028094E-2],"split_indices":[3,87,4,3,0,2,65,0,0,0,0,0,0,0,0],"split_type":[0,0,0,0,0,0,0,0,0,0,0,0,0,0,0],"sum_hessian":[7.591597E4,4.6021535E4,2.989443E4,4.2468582E4,3.5529546E3,2.2395908E4,7.4985215E3,3.6533105E4,5.935475E3,2.3687449E3,1.1842095E3,7.0041865E3,1.5391723E4,4.8480977E3,2.6504236E3],"tree_param":{"num_deleted":"0","num_feature":"89","num_nodes":"15","size_leaf_vector":"1"}},{"base_weights":[-2.3172339E-4,-8.306186E-2,1.5581094E0,-1.07986584E-1,1.9810064E0,7.4562514E-1,2.578879E0,-1.5074223E-2,8.7864585E-2,2.5695774E-1,1.4031747E-1,3.1989988E-2,1.4685261E-1,2.9559752E-1,8.0982454E-2],"categories":[],"categories_nodes":[],"categories_segments":[],"categories_sizes":[],"default_left":[0,0,0,0,0,0,0,0,0,0,0,0,0,0,0],"id":45,"left_children":[1,3,5,7,9,11,13,-1,-1,-1,-1,-1,-1,-1,-1],"loss_changes":[2.4573386E3,9.2929236E2,7.904712E2,7.535806E2,6.3239258E1,1.631997E2,2.756267E2,0E0,0E0,0E0,0E0,0E0,0E0,0E0,0E0],"parents":[2147483647,0,0,1,1,2,2,3,3,4,4,5,5,6,6],"right_children":[2,4,6,8,10,12,14,-1,-1,-1,-1,-1,-1,-1,-1],"split_conditions":[1.935E1,1E0,8E0,3.158E1,2.1E1,1E0,6.36E0,-1.5074223E-2,8.7864585E-2,2.5695774E-1,1.4031747E-1,3.1989988E-2,1.4685261E-1,2.9559752E-1,8.0982454E-2],"split_indices":[8,31,7,7,3,43,2,0,0,0,0,0,0,0,0],"split_type":[0,0,0,0,0,0,0,0,0,0,0,0,0,0,0],"sum_hessian":[1.9043693E4,1.8084736E4,9.5895685E2,1.78711E4,2.1363806E2,5.362006E2,4.227562E2,1.713115E4,7.3994824E2,1.0194774E2,1.1169032E2,3.398835E2,1.9631712E2,3.470554E2,7.570083E1],"tree_param":{"num_deleted":"0","num_feature":"89","num_nodes":"15","size_leaf_vector":"1"}},{"base_weights":[-4.2675015E-2,-3.4837422E-1,1.6285062E0,-4.156455E-1,1.3938832E-1,-1.5290624E-1,2.1986551E0,-4.8802875E-2,-2.1449301E-2,5.579086E-2,-3.001437E-2,-3.0768743E-2,4.0362406E-1,2.7230147E-1,1.8470421E-2],"categories":[],"categories_nodes":[],"categories_segments":[],"categories_sizes":[],"default_left":[0,0,0,0,0,0,0,0,0,0,0,0,0,0,0],"id":46,"left_children":[1,3,5,7,9,11,13,-1,-1,-1,-1,-1,-1,-1,-1],"loss_changes":[1.5291425E3,8.3433685E1,4.723744E2,3.164029E1,5.6961487E1,7.276547E1,3.6731287E2,0E0,0E0,0E0,0E0,0E0,0E0,0E0,0E0],"parents":[2147483647,0,0,1,1,2,2,3,3,4,4,5,5,6,6],"right_children":[2,4,6,8,10,12,14,-1,-1,-1,-1,-1,-1,-1,-1],"split_conditions":[1E0,1.739E1,1.18E1,1.84E1,3.06E1,7.521E1,6.21E0,-4.8802875E-2,-2.1449301E-2,5.579086E-2,-3.001437E-2,-3.0768743E-2,4.0362406E-1,2.7230147E-1,1.8470421E-2],"split_indices":[29,7,4,4,3,7,2,0,0,0,0,0,0,0,0],"split_type":[0,0,0,0,0,0,0,0,0,0,0,0,0,0,0],"sum_hessian":[2.991387E3,2.530475E3,4.6091174E2,2.2255479E3,3.0492715E2,1.11717384E2,3.4919437E2,1.631574E3,5.9397394E2,1.5693245E2,1.479947E2,1.0958543E2,2.131953E0,2.762068E2,7.298757E1],"tree_param":{"num_deleted":"0","num_feature":"89","num_nodes":"15","size_leaf_vector":"1"}},{"base_weights":[6.381831E-3,2.551914E-1,-4.6327904E-1,3.5398552E-1,-3.620066E-1,-2.605856E-1,-5.293724E-1,5.2627146E-2,-6.2900283E-3,-1.1353554E-2,-4.397397E-2,-3.7102107E-2,-6.511529E-3,-4.561842E-2,-5.497823E-2],"categories":[],"categories_nodes":[],"categories_segments":[],"categories_sizes":[],"default_left":[0,0,0,0,0,0,0,0,0,0,0,0,0,0,0],"id":47,"left_children":[1,3,5,7,9,11,13,-1,-1,-1,-1,-1,-1,-1,-1],"loss_changes":[8.464877E3,2.8877163E3,3.3513037E2,2.9324966E3,1.2563483E2,1.328858E2,2.6931152E1,0E0,0E0,0E0,0E0,0E0,0E0,0E0,0E0],"parents":[2147483647,0,0,1,1,2,2,3,3,4,4,5,5,6,6],"right_children":[2,4,6,8,10,12,14,-1,-1,-1,-1,-1,-1,-1,-1],"split_conditions":[1.29E1,2.051E1,1.65E1,1.015E0,3.5E1,1E0,2.05E1,5.2627146E-2,-6.2900283E-3,-1.1353554E-2,-4.397397E-2,-3.7102107E-2,-6.511529E-3,-4.561842E-2,-5.497823E-2],"split_indices":[4,9,4,1,9,27,4,0,0,0,0,0,0,0,0],"split_type":[0,0,0,0,0,0,0,0,0,0,0,0,0,0,0],"sum_hessian":[7.243625E4,4.735299E4,2.5083266E4,4.082099E4,6.5319995E3,6.1732607E3,1.8910006E4,2.888519E4,1.1935798E4,1.5602388E3,4.9717607E3,3.9408035E3,2.2324575E3,4.141999E3,1.4768006E4],"tree_param":{"num_deleted":"0","num_feature":"89","num_nodes":"15","size_leaf_vector":"1"}},{"base_weights":[-1.2157122E-2,-2.883125E-1,1.6953293E0,1.848407E-1,-4.3760598E-1,7.379354E-1,2.2010288E0,5.469809E-2,-3.3402666E-2,-4.6525635E-2,-6.960237E-3,3.1568494E-2,1.2463101E-1,2.671636E-1,7.107255E-2],"categories":[],"categories_nodes":[],"categories_segments":[],"categories_sizes":[],"default_left":[0,0,0,0,0,0,0,0,0,0,0,0,0,0,0],"id":48,"left_children":[1,3,5,7,9,11,13,-1,-1,-1,-1,-1,-1,-1,-1],"loss_changes":[3.9279507E3,5.0705853E2,5.559341E2,3.23784E2,5.4987427E1,8.4705E1,5.247444E2,0E0,0E0,0E0,0E0,0E0,0E0,0E0,0E0],"parents":[2147483647,0,0,1,1,2,2,3,3,4,4,5,5,6,6],"right_children":[2,4,6,8,10,12,14,-1,-1,-1,-1,-1,-1,-1,-1],"split_conditions":[7.917E1,5.25E0,2.78E1,4.44E0,1E0,9.111E1,5.8E0,5.469809E-2,-3.3402666E-2,-4.6525635E-2,-6.960237E-3,3.1568494E-2,1.2463101E-1,2.671636E-1,7.107255E-2],"split_indices":[5,4,3,9,44,5,2,0,0,0,0,0,0,0,0],"split_type":[0,0,0,0,0,0,0,0,0,0,0,0,0,0,0],"sum_hessian":[8.328965E3,7.1711895E3,1.157776E3,1.7185344E3,5.452655E3,4.0232394E2,7.554521E2,1.0130326E3,7.0550183E2,5.0689917E3,3.8366293E2,2.2232994E2,1.79994E2,5.7260004E2,1.8285204E2],"tree_param":{"num_deleted":"0","num_feature":"89","num_nodes":"15","size_leaf_vector":"1"}},{"base_weights":[-3.737447E-4,-4.6422815E-1,1.154594E0,-4.9727345E-1,4.0125377E-2,1.3873425E0,7.064022E-2,-5.0194453E-2,-8.766042E-3,3.272317E-2,-1.6276015E-2,1.6654873E-1,6.542561E-2,6.806903E-2,-1.4198303E-2],"categories":[],"categories_nodes":[],"categories_segments":[],"categories_sizes":[],"default_left":[0,0,0,0,0,0,0,0,0,0,0,0,0,0,0],"id":49,"left_children":[1,3,5,7,9,11,13,-1,-1,-1,-1,-1,-1,-1,-1],"loss_changes":[9.562511E3,2.126914E2,1.2888555E3,2.2290527E1,4.5864544E1,8.543491E2,1.1823622E2,0E0,0E0,0E0,0E0,0E0,0E0,0E0,0E0],"parents":[2147483647,0,0,1,1,2,2,3,3,4,4,5,5,6,6],"right_children":[2,4,6,8,10,12,14,-1,-1,-1,-1,-1,-1,-1,-1],"split_conditions":[2.23E1,1.9E1,5.58E1,3.57E0,5.39E0,4.55E0,5.95E0,-5.0194453E-2,-8.766042E-3,3.272317E-2,-1.6276015E-2,1.6654873E-1,6.542561E-2,6.806903E-2,-1.4198303E-2],"split_indices":[4,4,3,13,2,14,2,0,0,0,0,0,0,0,0],"split_type":[0,0,0,0,0,0,0,0,0,0,0,0,0,0,0],"sum_hessian":[1.7846664E4,1.2734227E4,5.112437E3,1.195279E4,7.814365E2,4.2076587E3,9.047783E2,1.1815558E4,1.3723233E2,3.2482608E2,4.5661044E2,3.047772E3,1.1598866E3,2.3382426E2,6.709541E2],"tree_param":{"num_deleted":"0","num_feature":"89","num_nodes":"15","size_leaf_vector":"1"}},{"base_weights":[-1.2577076E-2,-4.4002303E-1,2.031819E0,-4.5475408E-1,7.2139937E-1,2.1030085E0,1.6006788E0,-4.557836E-2,6.0249146E-2,9.492991E-2,-0E0,1.3217168E-1,2.1308973E-1,1.1898159E-1,1.9212845E-1],"categories":[],"categories_nodes":[],"categories_segments":[],"categories_sizes":[],"default_left":[0,0,0,0,0,0,0,0,0,0,0,0,0,0,0],"id":50,"left_children":[1,3,5,7,9,11,13,-1,-1,-1,-1,-1,-1,-1,-1],"loss_changes":[1.5809516E4,2.5640796E2,8.664258E1,1.6469238E1,3.0590889E1,5.0195312E1,5.277014E1,0E0,0E0,0E0,0E0,0E0,0E0,0E0,0E0],"parents":[2147483647,0,0,1,1,2,2,3,3,4,4,5,5,6,6],"right_children":[2,4,6,8,10,12,14,-1,-1,-1,-1,-1,-1,-1,-1],"split_conditions":[1E0,1E0,1.0672E0,1E0,4.23E1,1.16E1,3.03E0,-4.557836E-2,6.0249146E-2,9.492991E-2,-0E0,1.3217168E-1,2.1308973E-1,1.1898159E-1,1.9212845E-1],"split_indices":[25,80,0,26,3,3,9,0,0,0,0,0,0,0,0],"split_type":[0,0,0,0,0,0,0,0,0,0,0,0,0,0,0],"sum_hessian":[1.8089209E4,1.4962657E4,3.1265513E3,1.4777088E4,1.855696E2,2.6756113E3,4.509399E2,1.4764567E4,1.2520867E1,1.4032896E2,4.5240627E1,9.6351974E1,2.5792593E3,2.0263097E2,2.4830896E2],"tree_param":{"num_deleted":"0","num_feature":"89","num_nodes":"15","size_leaf_vector":"1"}},{"base_weights":[-2.8006114E-2,-1.8455958E-1,2.9297292E0,-2.5116476E-1,2.4666164E0,3.3934958E0,1.2461673E0,-3.0010486E-2,1.6995637E-1,2.538359E-1,-2.1753777E-2,3.5978645E-1,1.1206098E-1,1.7456603E-1,4.286857E-3],"categories":[],"categories_nodes":[],"categories_segments":[],"categories_sizes":[],"default_left":[0,0,0,0,0,0,0,0,0,0,0,0,0,0,0],"id":51,"left_children":[1,3,5,7,9,11,13,-1,-1,-1,-1,-1,-1,-1,-1],"loss_changes":[2.834862E3,1.0268328E3,2.2851172E2,5.418833E2,3.0429565E1,9.9923096E1,4.0284103E1,0E0,0E0,0E0,0E0,0E0,0E0,0E0,0E0],"parents":[2147483647,0,0,1,1,2,2,3,3,4,4,5,5,6,6],"right_children":[2,4,6,8,10,12,14,-1,-1,-1,-1,-1,-1,-1,-1],"split_conditions":[1E0,1E0,1E0,1E0,1.299E1,2.27E1,1E0,-3.0010486E-2,1.6995637E-1,2.538359E-1,-2.1753777E-2,3.5978645E-1,1.1206098E-1,1.7456603E-1,4.286857E-3],"split_indices":[37,36,80,35,15,4,25,0,0,0,0,0,0,0,0],"split_type":[0,0,0,0,0,0,0,0,0,0,0,0,0,0,0],"sum_hessian":[6.1232627E3,5.8173706E3,3.0589255E2,5.6767495E3,1.4062094E2,2.3795877E2,6.793377E1,5.539768E3,1.3698119E2,1.3736655E2,3.2543907E0,2.1699504E2,2.0963728E1,4.6917805E1,2.1015965E1],"tree_param":{"num_deleted":"0","num_feature":"89","num_nodes":"15","size_leaf_vector":"1"}},{"base_weights":[5.4171733E-3,-6.063662E-2,6.1367846E-1,6.74012E-1,-8.234447E-2,8.4476995E-1,6.660269E-2,1.0396131E-1,1.0663184E-2,1.123696E-3,-2.606587E-2,1.05056666E-1,3.1206468E-2,-1.1781816E-3,1.4358746E-1],"categories":[],"categories_nodes":[],"categories_segments":[],"categories_sizes":[],"default_left":[0,0,0,0,0,0,0,0,0,0,0,0,0,0,0],"id":52,"left_children":[1,3,5,7,9,11,13,-1,-1,-1,-1,-1,-1,-1,-1],"loss_changes":[1.8601984E3,6.654456E2,5.725088E2,2.4719958E2,6.7697894E2,3.476543E2,1.4613452E2,0E0,0E0,0E0,0E0,0E0,0E0,0E0,0E0],"parents":[2147483647,0,0,1,1,2,2,3,3,4,4,5,5,6,6],"right_children":[2,4,6,8,10,12,14,-1,-1,-1,-1,-1,-1,-1,-1],"split_conditions":[1E0,9.5E0,1E0,6.61E0,7.65E1,2.88E1,1E0,1.0396131E-1,1.0663184E-2,1.123696E-3,-2.606587E-2,1.05056666E-1,3.1206468E-2,-1.1781816E-3,1.4358746E-1],"split_indices":[49,3,81,9,60,4,84,0,0,0,0,0,0,0,0],"split_type":[0,0,0,0,0,0,0,0,0,0,0,0,0,0,0],"sum_hessian":[4.6283703E4,4.175014E4,4.533565E3,1.1955331E3,4.0554605E4,3.185437E3,1.348128E3,7.252001E2,4.7033295E2,2.6594475E4,1.3960132E4,2.29531E3,8.901269E2,1.2762802E3,7.184785E1],"tree_param":{"num_deleted":"0","num_feature":"89","num_nodes":"15","size_leaf_vector":"1"}},{"base_weights":[-3.5174002E-3,-4.8014775E-1,1.3744648E0,-5.0147444E-1,4.8743656E-1,6.3767725E-1,1.6108947E0,-5.212636E-2,-1.6156059E-2,-1.7895196E-2,1.2183358E-1,3.9141715E-2,1.475055E-1,1.377479E-1,1.9453208E-1],"categories":[],"categories_nodes":[],"categories_segments":[],"categories_sizes":[],"default_left":[0,0,0,0,0,0,0,0,0,0,0,0,0,0,0],"id":53,"left_children":[1,3,5,7,9,11,13,-1,-1,-1,-1,-1,-1,-1,-1],"loss_changes":[2.4611725E4,5.750288E2,1.6737676E3,1.8253076E2,2.9379315E2,4.805999E2,5.611719E2,0E0,0E0,0E0,0E0,0E0,0E0,0E0,0E0],"parents":[2147483647,0,0,1,1,2,2,3,3,4,4,5,5,6,6],"right_children":[2,4,6,8,10,12,14,-1,-1,-1,-1,-1,-1,-1,-1],"split_conditions":[2.83E1,4.17E0,1.18E0,2.27E1,2.19E1,4.17E0,9.8E-1,-5.212636E-2,-1.6156059E-2,-1.7895196E-2,1.2183358E-1,3.9141715E-2,1.475055E-1,1.377479E-1,1.9453208E-1],"split_indices":[4,14,14,4,4,10,10,0,0,0,0,0,0,0,0],"split_type":[0,0,0,0,0,0,0,0,0,0,0,0,0,0,0],"sum_hessian":[3.7470297E4,2.7841889E4,9.62841E3,2.7243186E4,5.987016E2,2.3416262E3,7.286784E3,2.57411E4,1.502087E3,3.132938E2,2.8540778E2,1.8123665E3,5.2925964E2,4.29857E3,2.9882146E3],"tree_param":{"num_deleted":"0","num_feature":"89","num_nodes":"15","size_leaf_vector":"1"}},{"base_weights":[1.3665939E-3,-1.336928E-1,1.9117659E0,-2.9609174E-1,1.0402558E0,1.9609623E0,5.037126E-1,-4.1566785E-2,4.64657E-2,1.2933655E-1,-2.6083091E-2,1.616277E-1,2.1384636E-1,2.1326043E-2,1.0862797E-1],"categories":[],"categories_nodes":[],"categories_segments":[],"categories_sizes":[],"default_left":[0,0,0,0,0,0,0,0,0,0,0,0,0,0,0],"id":54,"left_children":[1,3,5,7,9,11,13,-1,-1,-1,-1,-1,-1,-1,-1],"loss_changes":[9.508486E3,6.560695E3,1.6463672E2,2.7505312E3,1.3786387E3,1.3418945E2,1.2886965E1,0E0,0E0,0E0,0E0,0E0,0E0,0E0,0E0],"parents":[2147483647,0,0,1,1,2,2,3,3,4,4,5,5,6,6],"right_children":[2,4,6,8,10,12,14,-1,-1,-1,-1,-1,-1,-1,-1],"split_conditions":[1E0,1E0,3.37E0,1.0771E0,1E0,2.44E0,2.27E0,-4.1566785E-2,4.64657E-2,1.2933655E-1,-2.6083091E-2,1.616277E-1,2.1384636E-1,2.1326043E-2,1.0862797E-1],"split_indices":[24,23,13,0,25,18,5,0,0,0,0,0,0,0,0],"split_type":[0,0,0,0,0,0,0,0,0,0,0,0,0,0,0],"sum_hessian":[3.684257E4,3.4411086E4,2.4314832E3,3.023115E4,4.1799385E3,2.3481116E3,8.3371475E1,2.612649E4,4.10466E3,3.4997678E3,6.801705E2,8.06151E2,1.5419607E3,5.8293964E1,2.5077505E1],"tree_param":{"num_deleted":"0","num_feature":"89","num_nodes":"15","size_leaf_vector":"1"}},{"base_weights":[-3.8098858E-3,-4.426407E-1,1.6538821E0,-4.687833E-1,1.4527264E0,1.8292006E0,9.652485E-1,-4.9547307E-2,2.663221E-2,1.9843253E-1,6.279551E-2,3.907144E-2,1.9248731E-1,6.619681E-2,1.8167658E-1],"categories":[],"categories_nodes":[],"categories_segments":[],"categories_sizes":[],"default_left":[0,0,0,0,0,0,0,0,0,0,0,0,0,0,0],"id":55,"left_children":[1,3,5,7,9,11,13,-1,-1,-1,-1,-1,-1,-1,-1],"loss_changes":[2.2525639E4,1.2136704E3,7.7685156E2,4.743374E2,1.4153821E2,7.072051E2,3.3659216E2,0E0,0E0,0E0,0E0,0E0,0E0,0E0,0E0],"parents":[2147483647,0,0,1,1,2,2,3,3,4,4,5,5,6,6],"right_children":[2,4,6,8,10,12,14,-1,-1,-1,-1,-1,-1,-1,-1],"split_conditions":[2.5E1,1E0,3E1,1.053E1,2.29E1,8.3E0,1E0,-4.9547307E-2,2.663221E-2,1.9843253E-1,6.279551E-2,3.907144E-2,1.9248731E-1,6.619681E-2,1.8167658E-1],"split_indices":[9,39,3,11,3,3,39,0,0,0,0,0,0,0,0],"split_type":[0,0,0,0,0,0,0,0,0,0,0,0,0,0,0],"sum_hessian":[3.0963064E4,2.448355E4,6.4795137E3,2.4152262E4,3.3128876E2,5.161225E3,1.3182887E3,2.3307777E4,8.444851E2,1.9923932E2,1.3204944E2,3.2300275E2,4.838222E3,9.752319E2,3.4305685E2],"tree_param":{"num_deleted":"0","num_feature":"89","num_nodes":"15","size_leaf_vector":"1"}},{"base_weights":[-3.911181E-2,-3.089757E-1,8.4552693E-1,-4.1983455E-1,-1.4591418E-1,1.0562024E0,-8.2875036E-2,-4.4485103E-2,-2.7725E-2,2.2106072E-2,-3.8633578E-2,9.470869E-3,1.256724E-1,2.7965743E-2,-2.796865E-2],"categories":[],"categories_nodes":[],"categories_segments":[],"categories_sizes":[],"default_left":[0,0,0,0,0,0,0,0,0,0,0,0,0,0,0],"id":56,"left_children":[1,3,5,7,9,11,13,-1,-1,-1,-1,-1,-1,-1,-1],"loss_changes":[1.1055449E3,6.3586365E1,2.1265869E2,6.6824036E0,1.27598656E2,1.688595E2,1.4495122E1,0E0,0E0,0E0,0E0,0E0,0E0,0E0,0E0],"parents":[2147483647,0,0,1,1,2,2,3,3,4,4,5,5,6,6],"right_children":[2,4,6,8,10,12,14,-1,-1,-1,-1,-1,-1,-1,-1],"split_conditions":[1.379E1,1.0602E0,4.09E1,3.57E0,3.62E1,1.0549E0,5.01E1,-4.4485103E-2,-2.7725E-2,2.2106072E-2,-3.8633578E-2,9.470869E-3,1.256724E-1,2.7965743E-2,-2.796865E-2],"split_indices":[7,0,3,7,3,0,3,0,0,0,0,0,0,0,0],"split_type":[0,0,0,0,0,0,0,0,0,0,0,0,0,0,0],"sum_hessian":[4.628939E3,3.5485876E3,1.0803513E3,2.1075942E3,1.4409934E3,8.810761E2,1.9927525E2,1.7846028E3,3.2299158E2,5.69038E2,8.719553E2,1.5324326E2,7.278329E2,6.83236E1,1.3095166E2],"tree_param":{"num_deleted":"0","num_feature":"89","num_nodes":"15","size_leaf_vector":"1"}},{"base_weights":[4.112126E-3,-4.3405077E-1,3.5538432E-1,-4.7497872E-1,-2.6213777E-1,5.718996E-1,-3.6176127E-1,-4.778793E-2,2.1015337E-2,2.205054E-3,-4.0110137E-2,8.010867E-2,-5.2642045E-3,-1.811372E-2,-4.448484E-2],"categories":[],"categories_nodes":[],"categories_segments":[],"categories_sizes":[],"default_left":[0,0,0,0,0,0,0,0,0,0,0,0,0,0,0],"id":57,"left_children":[1,3,5,7,9,11,13,-1,-1,-1,-1,-1,-1,-1,-1],"loss_changes":[6.5868633E3,1.3312183E2,3.6889636E3,3.096582E1,1.4526288E2,2.6125796E3,8.199274E1,0E0,0E0,0E0,0E0,0E0,0E0,0E0,0E0],"parents":[2147483647,0,0,1,1,2,2,3,3,4,4,5,5,6,6],"right_children":[2,4,6,8,10,12,14,-1,-1,-1,-1,-1,-1,-1,-1],"split_conditions":[9.7E0,7.9E0,2.92E1,4E-1,3.46E1,6.44E0,3.46E1,-4.778793E-2,2.1015337E-2,2.205054E-3,-4.0110137E-2,8.010867E-2,-5.2642045E-3,-1.811372E-2,-4.448484E-2],"split_indices":[4,4,4,13,3,2,4,0,0,0,0,0,0,0,0],"split_type":[0,0,0,0,0,0,0,0,0,0,0,0,0,0,0],"sum_hessian":[4.2792348E4,1.9039893E4,2.3752455E4,1.5372014E4,3.6678784E3,1.8245477E4,5.506979E3,1.5309002E4,6.3012352E1,1.2030381E3,2.4648403E3,1.3348014E4,4.8974624E3,1.7401528E3,3.766826E3],"tree_param":{"num_deleted":"0","num_feature":"89","num_nodes":"15","size_leaf_vector":"1"}},{"base_weights":[2.2309527E-3,-4.6881053E-1,6.5446067E-1,-5.130152E-1,1.4059759E-2,2.6221985E-1,9.7255105E-1,-5.5324744E-2,-3.0705279E-2,-2.6370084E-2,4.3738406E-2,4.4931017E-2,-4.1054256E-2,6.1989006E-2,1.0438921E-1],"categories":[],"categories_nodes":[],"categories_segments":[],"categories_sizes":[],"default_left":[0,0,0,0,0,0,0,0,0,0,0,0,0,0,0],"id":58,"left_children":[1,3,5,7,9,11,13,-1,-1,-1,-1,-1,-1,-1,-1],"loss_changes":[2.3145773E4,9.3415625E2,3.9403047E3,3.3104395E2,4.3176028E2,1.7815674E3,4.362578E2,0E0,0E0,0E0,0E0,0E0,0E0,0E0,0E0],"parents":[2147483647,0,0,1,1,2,2,3,3,4,4,5,5,6,6],"right_children":[2,4,6,8,10,12,14,-1,-1,-1,-1,-1,-1,-1,-1],"split_conditions":[4.56E1,1.52E0,5.9E-1,3.79E1,1.0577E0,6.4E-1,1.0522E0,-5.5324744E-2,-3.0705279E-2,-2.6370084E-2,4.3738406E-2,4.4931017E-2,-4.1054256E-2,6.1989006E-2,1.0438921E-1],"split_indices":[3,87,87,3,0,13,0,0,0,0,0,0,0,0,0],"split_type":[0,0,0,0,0,0,0,0,0,0,0,0,0,0,0],"sum_hessian":[7.533342E4,4.374205E4,3.159137E4,4.0075004E4,3.6670476E3,1.4149504E4,1.7441865E4,3.3520027E4,6.554975E3,2.2134204E3,1.4536271E3,1.1072266E4,3.0772385E3,2.9397256E3,1.4502141E4],"tree_param":{"num_deleted":"0","num_feature":"89","num_nodes":"15","size_leaf_vector":"1"}},{"base_weights":[-2.5719104E-3,-2.2335696E-1,1.5480821E0,-2.8855172E-1,2.321289E0,1.9522738E0,1.0792359E0,-3.151724E-2,1.5712506E-1,1.228653E-1,4.920884E-1,2.1238367E-1,3.292876E-2,5.9013493E-2,1.5965226E-1],"categories":[],"categories_nodes":[],"categories_segments":[],"categories_sizes":[],"default_left":[0,0,0,0,0,0,0,0,0,0,0,0,0,0,0],"id":59,"left_children":[1,3,5,7,9,11,13,-1,-1,-1,-1,-1,-1,-1,-1],"loss_changes":[6.495266E3,2.75519E3,4.4161133E2,8.0178625E2,1.1618489E3,3.4928564E2,2.7465784E2,0E0,0E0,0E0,0E0,0E0,0E0,0E0,0E0],"parents":[2147483647,0,0,1,1,2,2,3,3,4,4,5,5,6,6],"right_children":[2,4,6,8,10,12,14,-1,-1,-1,-1,-1,-1,-1,-1],"split_conditions":[1E0,1E0,2.57E1,1E0,1E0,1.066E0,7E0,-3.151724E-2,1.5712506E-1,1.228653E-1,4.920884E-1,2.1238367E-1,3.292876E-2,5.9013493E-2,1.5965226E-1],"split_indices":[29,34,3,31,47,0,4,0,0,0,0,0,0,0,0],"split_type":[0,0,0,0,0,0,0,0,0,0,0,0,0,0,0],"sum_hessian":[1.8971541E4,1.660887E4,2.3626707E3,1.6195899E4,4.1297067E2,1.2647041E3,1.0979666E3,1.59693125E4,2.2658665E2,2.929093E2,1.2006138E2,1.1428055E3,1.2189847E2,5.6723883E2,5.307278E2],"tree_param":{"num_deleted":"0","num_feature":"89","num_nodes":"15","size_leaf_vector":"1"}},{"base_weights":[-3.8833562E-2,-3.4056476E-1,1.3967303E0,-4.733951E-1,-9.423196E-2,-1.9979602E-1,1.8513657E0,-4.745454E-2,-0E0,-1.8440017E-2,2.11146E-1,1.834673E-1,-2.5836218E-2,2.2077309E-1,-4.598154E-3],"categories":[],"categories_nodes":[],"categories_segments":[],"categories_sizes":[],"default_left":[0,0,0,0,0,0,0,0,0,0,0,0,0,0,0],"id":60,"left_children":[1,3,5,7,9,11,13,-1,-1,-1,-1,-1,-1,-1,-1],"loss_changes":[1.2756136E3,7.912491E1,3.73248E2,5.849304E-1,1.6967647E2,1.3191273E1,2.7154358E2,0E0,0E0,0E0,0E0,0E0,0E0,0E0,0E0],"parents":[2147483647,0,0,1,1,2,2,3,3,4,4,5,5,6,6],"right_children":[2,4,6,8,10,12,14,-1,-1,-1,-1,-1,-1,-1,-1],"split_conditions":[1E0,1.59E1,1.22E1,1.834E1,1E0,4.2E0,1.0658E0,-4.745454E-2,-0E0,-1.8440017E-2,2.11146E-1,1.834673E-1,-2.5836218E-2,2.2077309E-1,-4.598154E-3],"split_indices":[29,4,4,15,32,3,0,0,0,0,0,0,0,0,0],"split_type":[0,0,0,0,0,0,0,0,0,0,0,0,0,0,0],"sum_hessian":[2.9431309E3,2.4336267E3,5.0950394E2,1.5777168E3,8.5591003E2,1.1274587E2,3.9675806E2,1.5726659E3,5.0508256E0,8.242938E2,3.161625E1,1.1788121E0,1.1156706E2,3.3414362E2,6.261444E1],"tree_param":{"num_deleted":"0","num_feature":"89","num_nodes":"15","size_leaf_vector":"1"}},{"base_weights":[7.5256266E-3,2.3910026E-1,-4.529526E-1,4.3188357E-1,-2.9202968E-1,-2.5013477E-1,-5.2058864E-1,5.5893745E-2,-3.8918965E-2,-6.1088563E-3,-3.751521E-2,-4.6963792E-2,-1.0848046E-2,-4.4288572E-2,-5.4083586E-2],"categories":[],"categories_nodes":[],"categories_segments":[],"categories_sizes":[],"default_left":[0,0,0,0,0,0,0,0,0,0,0,0,0,0,0],"id":61,"left_children":[1,3,5,7,9,11,13,-1,-1,-1,-1,-1,-1,-1,-1],"loss_changes":[7.6905503E3,4.914162E3,3.3014453E2,3.6738418E3,2.4491553E2,1.8727463E2,2.718457E1,0E0,0E0,0E0,0E0,0E0,0E0,0E0,0E0],"parents":[2147483647,0,0,1,1,2,2,3,3,4,4,5,5,6,6],"right_children":[2,4,6,8,10,12,14,-1,-1,-1,-1,-1,-1,-1,-1],"split_conditions":[1.29E1,1.061E0,1.65E1,2.759E1,6.47E0,2.88E1,2.02E1,5.5893745E-2,-3.8918965E-2,-6.1088563E-3,-3.751521E-2,-4.6963792E-2,-1.0848046E-2,-4.4288572E-2,-5.4083586E-2],"split_indices":[4,0,4,9,2,3,4,0,0,0,0,0,0,0,0],"split_type":[0,0,0,0,0,0,0,0,0,0,0,0,0,0,0],"sum_hessian":[7.211824E4,4.7987863E4,2.4130375E4,3.5209777E4,1.2778085E4,6.039923E3,1.8090453E4,3.0492896E4,4.7168823E3,3.3855007E3,9.392585E3,2.3649636E3,3.6749592E3,3.7568926E3,1.4333561E4],"tree_param":{"num_deleted":"0","num_feature":"89","num_nodes":"15","size_leaf_vector":"1"}},{"base_weights":[-1.3529959E-2,-3.6237574E-1,1.6355101E0,-4.0769267E-1,6.997626E-1,7.667165E-1,2.2689745E0,-4.2021845E-2,1.5442908E-1,2.8545996E-2,2.3963903E-1,3.013117E-2,1.4390448E-1,1.3911967E-1,2.510628E-1],"categories":[],"categories_nodes":[],"categories_segments":[],"categories_sizes":[],"default_left":[0,0,0,0,0,0,0,0,0,0,0,0,0,0,0],"id":62,"left_children":[1,3,5,7,9,11,13,-1,-1,-1,-1,-1,-1,-1,-1],"loss_changes":[4.7676978E3,3.2963715E2,7.905764E2,1.6075073E2,1.9321207E2,1.8969748E2,1.6741406E2,0E0,0E0,0E0,0E0,0E0,0E0,0E0,0E0],"parents":[2147483647,0,0,1,1,2,2,3,3,4,4,5,5,6,6],"right_children":[2,4,6,8,10,12,14,-1,-1,-1,-1,-1,-1,-1,-1],"split_conditions":[1E0,8.889E1,2.96E1,1E0,1E0,7.969E1,3.333E1,-4.2021845E-2,1.5442908E-1,2.8545996E-2,2.3963903E-1,3.013117E-2,1.4390448E-1,1.3911967E-1,2.510628E-1],"split_indices":[29,5,3,31,44,5,5,0,0,0,0,0,0,0,0],"split_type":[0,0,0,0,0,0,0,0,0,0,0,0,0,0,0],"sum_hessian":[8.286017E3,6.8408325E3,1.4451835E3,6.5627676E3,2.780652E2,6.116877E2,8.334957E2,6.5227983E3,3.9969246E1,2.2563037E2,5.243483E1,3.63799E2,2.478887E2,1.8338574E2,6.5011E2],"tree_param":{"num_deleted":"0","num_feature":"89","num_nodes":"15","size_leaf_vector":"1"}},{"base_weights":[-8.6794817E-4,-4.71172E-1,9.6956295E-1,-4.964873E-1,-1.07085265E-1,1.1813452E0,2.1565607E-1,-5.007068E-2,-9.20787E-3,-1.7584553E-2,4.122416E-2,1.3346401E-1,3.8218834E-2,1.2899654E-2,3.4720275E-1],"categories":[],"categories_nodes":[],"categories_segments":[],"categories_sizes":[],"default_left":[0,0,0,0,0,0,0,0,0,0,0,0,0,0,0],"id":63,"left_children":[1,3,5,7,9,11,13,-1,-1,-1,-1,-1,-1,-1,-1],"loss_changes":[8.122768E3,1.0989111E2,9.258994E2,1.8534424E1,2.792759E1,5.530532E2,3.565287E2,0E0,0E0,0E0,0E0,0E0,0E0,0E0,0E0],"parents":[2147483647,0,0,1,1,2,2,3,3,4,4,5,5,6,6],"right_children":[2,4,6,8,10,12,14,-1,-1,-1,-1,-1,-1,-1,-1],"split_conditions":[2.16E1,1.84E1,7.55E0,3.57E0,4.84E0,5.41E0,1E0,-5.007068E-2,-9.20787E-3,-1.7584553E-2,4.122416E-2,1.3346401E-1,3.8218834E-2,1.2899654E-2,3.4720275E-1],"split_indices":[4,4,2,13,13,10,29,0,0,0,0,0,0,0,0],"split_type":[0,0,0,0,0,0,0,0,0,0,0,0,0,0,0],"sum_hessian":[1.7794795E4,1.1987211E4,5.807585E3,1.1205102E4,7.8210864E2,4.5322427E3,1.2753425E3,1.1086881E4,1.1822074E2,6.931889E2,8.891975E1,3.8008564E3,7.3138605E2,1.2444103E3,3.0932306E1],"tree_param":{"num_deleted":"0","num_feature":"89","num_nodes":"15","size_leaf_vector":"1"}},{"base_weights":[-1.22513585E-2,-4.3551275E-1,1.6902639E0,-4.5054618E-1,6.452389E-1,1.5065918E0,1.8039373E0,-4.550193E-2,2.1979565E-2,3.2167908E-2,1.2005184E-1,1.5322894E-1,4.4776956E-3,1.816317E-1,3.266446E-2],"categories":[],"categories_nodes":[],"categories_segments":[],"categories_sizes":[],"default_left":[0,0,0,0,0,0,0,0,0,0,0,0,0,0,0],"id":64,"left_children":[1,3,5,7,9,11,13,-1,-1,-1,-1,-1,-1,-1,-1],"loss_changes":[1.28968E4,2.3328125E2,6.6555664E1,4.2784668E1,3.3323685E1,5.0235107E1,3.7111816E1,0E0,0E0,0E0,0E0,0E0,0E0,0E0,0E0],"parents":[2147483647,0,0,1,1,2,2,3,3,4,4,5,5,6,6],"right_children":[2,4,6,8,10,12,14,-1,-1,-1,-1,-1,-1,-1,-1],"split_conditions":[1E0,1E0,3.158E1,1E0,5.455E1,1E0,6.6E1,-4.550193E-2,2.1979565E-2,3.2167908E-2,1.2005184E-1,1.5322894E-1,4.4776956E-3,1.816317E-1,3.266446E-2],"split_indices":[25,80,5,37,5,28,58,0,0,0,0,0,0,0,0],"split_type":[0,0,0,0,0,0,0,0,0,0,0,0,0,0,0],"sum_hessian":[1.7894824E4,1.4333306E4,3.5615195E3,1.4138502E4,1.9480354E2,1.374488E3,2.1870315E3,1.4046633E4,9.186888E1,1.258965E2,6.890705E1,1.350084E3,2.440411E1,2.1678647E3,1.9166544E1],"tree_param":{"num_deleted":"0","num_feature":"89","num_nodes":"15","size_leaf_vector":"1"}},{"base_weights":[-2.3484154E-2,-1.758369E-1,2.3021805E0,-2.415612E-1,2.0093474E0,2.48023E0,3.7156007E-1,-2.934928E-2,1.4908816E-1,2.0675643E-1,-2.4245014E-2,2.566913E-1,5.0286572E-2,1.4094888E-1,1.1718366E-3],"categories":[],"categories_nodes":[],"categories_segments":[],"categories_sizes":[],"default_left":[0,0,0,0,0,0,0,0,0,0,0,0,0,0,0],"id":65,"left_children":[1,3,5,7,9,11,13,-1,-1,-1,-1,-1,-1,-1,-1],"loss_changes":[2.145333E3,8.1621436E2,1.23823E2,4.9671817E2,2.4225159E1,5.3292236E1,1.1463424E1,0E0,0E0,0E0,0E0,0E0,0E0,0E0,0E0],"parents":[2147483647,0,0,1,1,2,2,3,3,4,4,5,5,6,6],"right_children":[2,4,6,8,10,12,14,-1,-1,-1,-1,-1,-1,-1,-1],"split_conditions":[1E0,1E0,1E0,1E0,1.299E1,2.47E0,1E0,-2.934928E-2,1.4908816E-1,2.0675643E-1,-2.4245014E-2,2.566913E-1,5.0286572E-2,1.4094888E-1,1.1718366E-3],"split_indices":[37,36,25,35,15,13,35,0,0,0,0,0,0,0,0],"split_type":[0,0,0,0,0,0,0,0,0,0,0,0,0,0,0],"sum_hessian":[6.055903E3,5.6855234E3,3.7037924E2,5.521487E3,1.6403659E2,3.382203E2,3.215896E1,5.3627603E3,1.5872656E2,1.6041806E2,3.6185222E0,3.2307596E2,1.5144343E1,6.2816386E0,2.5877321E1],"tree_param":{"num_deleted":"0","num_feature":"89","num_nodes":"15","size_leaf_vector":"1"}},{"base_weights":[8.457361E-3,-1.5684566E-2,1.436458E0,-6.6255644E-2,4.6422622E-1,1.5098625E0,9.1201E-1,-8.013115E-3,9.425607E-2,2.3546934E-1,4.1638892E-2,1.5349026E-1,5.7687998E-2,1.0600143E-1,9.327726E-3],"categories":[],"categories_nodes":[],"categories_segments":[],"categories_sizes":[],"default_left":[0,0,0,0,0,0,0,0,0,0,0,0,0,0,0],"id":66,"left_children":[1,3,5,7,9,11,13,-1,-1,-1,-1,-1,-1,-1,-1],"loss_changes":[1.5912379E3,1.1004655E3,2.4934814E1,5.7380054E2,3.8672052E2,1.21936035E1,1.099202E1,0E0,0E0,0E0,0E0,0E0,0E0,0E0,0E0],"parents":[2147483647,0,0,1,1,2,2,3,3,4,4,5,5,6,6],"right_children":[2,4,6,8,10,12,14,-1,-1,-1,-1,-1,-1,-1,-1],"split_conditions":[1E0,1E0,2.43E0,6.55E0,4.2E0,1E0,3.31E0,-8.013115E-3,9.425607E-2,2.3546934E-1,4.1638892E-2,1.5349026E-1,5.7687998E-2,1.0600143E-1,9.327726E-3],"split_indices":[55,71,13,15,3,25,10,0,0,0,0,0,0,0,0],"split_type":[0,0,0,0,0,0,0,0,0,0,0,0,0,0,0],"sum_hessian":[4.6118617E4,4.5353105E4,7.655099E2,4.1032617E4,4.320488E3,6.670492E2,9.846066E1,4.0478414E4,5.5420435E2,1.0398919E2,4.2164985E3,6.475648E2,1.9484358E1,8.204569E1,1.6414972E1],"tree_param":{"num_deleted":"0","num_feature":"89","num_nodes":"15","size_leaf_vector":"1"}},{"base_weights":[-8.893117E-3,-4.7607663E-1,1.1664997E0,-4.98054E-1,4.3265703E-1,7.7247554E-1,1.4489362E0,-5.035637E-2,8.2575105E-2,-2.3229433E-2,9.67007E-2,4.8009645E-2,1.3400514E-1,1.7043534E-1,1.2790424E-1],"categories":[],"categories_nodes":[],"categories_segments":[],"categories_sizes":[],"default_left":[0,0,0,0,0,0,0,0,0,0,0,0,0,0,0],"id":67,"left_children":[1,3,5,7,9,11,13,-1,-1,-1,-1,-1,-1,-1,-1],"loss_changes":[2.0373877E4,5.307202E2,1.1703994E3,1.8959277E2,2.238378E2,7.292759E2,2.6000977E2,0E0,0E0,0E0,0E0,0E0,0E0,0E0,0E0],"parents":[2147483647,0,0,1,1,2,2,3,3,4,4,5,5,6,6],"right_children":[2,4,6,8,10,12,14,-1,-1,-1,-1,-1,-1,-1,-1],"split_conditions":[2.83E1,4.17E0,3.53E0,1E0,2.09E1,9.8E-1,7.9E0,-5.035637E-2,8.2575105E-2,-2.3229433E-2,9.67007E-2,4.8009645E-2,1.3400514E-1,1.7043534E-1,1.2790424E-1],"split_indices":[4,14,14,69,4,10,88,0,0,0,0,0,0,0,0],"split_type":[0,0,0,0,0,0,0,0,0,0,0,0,0,0,0],"sum_hessian":[3.7099844E4,2.6549168E4,1.0550676E4,2.5923979E4,6.251897E2,4.4092686E3,6.1414077E3,2.581831E4,1.0566822E2,2.7831113E2,3.468786E2,2.9133884E3,1.4958801E3,2.4445608E3,3.6968467E3],"tree_param":{"num_deleted":"0","num_feature":"89","num_nodes":"15","size_leaf_vector":"1"}},{"base_weights":[-1.2735324E-3,-1.3207923E-1,1.6084567E0,-2.912342E-1,4.8188353E-1,1.3451331E0,1.792554E0,-3.6134694E-2,9.737211E-3,7.701374E-2,-3.155515E-2,1.0700281E-1,1.6304605E-1,1.8257113E-1,3.8384225E-2],"categories":[],"categories_nodes":[],"categories_segments":[],"categories_sizes":[],"default_left":[0,0,0,0,0,0,0,0,0,0,0,0,0,0,0],"id":68,"left_children":[1,3,5,7,9,11,13,-1,-1,-1,-1,-1,-1,-1,-1],"loss_changes":[7.7123047E3,3.3107488E3,1.2631055E2,7.334358E2,1.6039747E3,8.4110596E1,7.2145996E1,0E0,0E0,0E0,0E0,0E0,0E0,0E0,0E0],"parents":[2147483647,0,0,1,1,2,2,3,3,4,4,5,5,6,6],"right_children":[2,4,6,8,10,12,14,-1,-1,-1,-1,-1,-1,-1,-1],"split_conditions":[1E0,1.0714E0,2.105E1,3.23E0,3.07E1,6.1E-1,3.077E1,-3.6134694E-2,9.737211E-3,7.701374E-2,-3.155515E-2,1.0700281E-1,1.6304605E-1,1.8257113E-1,3.8384225E-2],"split_indices":[24,0,5,18,4,19,9,0,0,0,0,0,0,0,0],"split_type":[0,0,0,0,0,0,0,0,0,0,0,0,0,0,0],"sum_hessian":[3.66295E4,3.387876E4,2.7507412E3,2.6906309E4,6.972451E3,1.1400518E3,1.6106895E3,2.2795787E4,4.110521E3,5.1220728E3,1.8503785E3,5.8641406E2,5.536377E2,1.5725254E3,3.816404E1],"tree_param":{"num_deleted":"0","num_feature":"89","num_nodes":"15","size_leaf_vector":"1"}},{"base_weights":[-5.906449E-3,-4.3763614E-1,1.3760104E0,-4.6476623E-1,1.268485E0,7.6566863E-1,1.5032794E0,-4.9390282E-2,2.315913E-2,1.7082886E-1,6.31902E-2,5.2169394E-2,1.6409166E-1,1.5716305E-1,8.2992606E-2],"categories":[],"categories_nodes":[],"categories_segments":[],"categories_sizes":[],"default_left":[0,0,0,0,0,0,0,0,0,0,0,0,0,0,0],"id":69,"left_children":[1,3,5,7,9,11,13,-1,-1,-1,-1,-1,-1,-1,-1],"loss_changes":[1.8313684E4,1.0830864E3,5.6352344E2,4.6762305E2,9.851965E1,2.668468E2,2.7367383E2,0E0,0E0,0E0,0E0,0E0,0E0,0E0,0E0],"parents":[2147483647,0,0,1,1,2,2,3,3,4,4,5,5,6,6],"right_children":[2,4,6,8,10,12,14,-1,-1,-1,-1,-1,-1,-1,-1],"split_conditions":[2.381E1,1E0,3.784E1,9.52E0,2.19E1,1E0,3.95E1,-4.9390282E-2,2.315913E-2,1.7082886E-1,6.31902E-2,5.2169394E-2,1.6409166E-1,1.5716305E-1,8.2992606E-2],"split_indices":[9,39,9,11,3,39,3,0,0,0,0,0,0,0,0],"split_type":[0,0,0,0,0,0,0,0,0,0,0,0,0,0,0],"sum_hessian":[3.0693625E4,2.338859E4,7.305035E3,2.302431E4,3.642796E2,1.2638182E3,6.0412173E3,2.2101318E4,9.229915E2,2.1280603E2,1.5147357E2,9.913923E2,2.7242596E2,5.481108E3,5.601092E2],"tree_param":{"num_deleted":"0","num_feature":"89","num_nodes":"15","size_leaf_vector":"1"}},{"base_weights":[-3.4717802E-2,-2.8334162E-1,8.5777116E-1,-4.0009168E-1,8.380643E-2,5.570718E-1,1.3143643E0,-4.2658474E-2,-7.190343E-3,-2.6325941E-2,4.8003804E-2,1.8011354E-3,7.437119E-2,1.4971407E-1,2.38512E-2],"categories":[],"categories_nodes":[],"categories_segments":[],"categories_sizes":[],"default_left":[0,0,0,0,0,0,0,0,0,0,0,0,0,0,0],"id":70,"left_children":[1,3,5,7,9,11,13,-1,-1,-1,-1,-1,-1,-1,-1],"loss_changes":[1.0149394E3,1.537724E2,1.3384747E2,2.3152527E1,1.1915737E2,6.0201584E1,7.516907E1,0E0,0E0,0E0,0E0,0E0,0E0,0E0,0E0],"parents":[2147483647,0,0,1,1,2,2,3,3,4,4,5,5,6,6],"right_children":[2,4,6,8,10,12,14,-1,-1,-1,-1,-1,-1,-1,-1],"split_conditions":[1.702E1,1E0,4.545E1,1E0,1.0143E0,1.0589E0,2.62E1,-4.2658474E-2,-7.190343E-3,-2.6325941E-2,4.8003804E-2,1.8011354E-3,7.437119E-2,1.4971407E-1,2.38512E-2],"split_indices":[7,43,7,44,1,0,4,0,0,0,0,0,0,0,0],"split_type":[0,0,0,0,0,0,0,0,0,0,0,0,0,0,0],"sum_hessian":[4.572307E3,3.5778328E3,9.944745E2,2.71624E3,8.615928E2,6.0319556E2,3.912789E2,2.5104395E3,2.058005E2,4.58479E2,4.0311377E2,1.5682654E2,4.4636905E2,3.3316333E2,5.8115574E1],"tree_param":{"num_deleted":"0","num_feature":"89","num_nodes":"15","size_leaf_vector":"1"}},{"base_weights":[4.6887198E-3,-3.8906264E-1,3.626498E-1,-4.5733333E-1,-1.1515616E-1,6.145492E-1,-2.8064343E-1,-4.6098873E-2,1.7033586E-2,1.8123988E-2,-3.8555857E-2,8.301281E-2,2.3075356E-3,-2.6069793E-3,-4.2376697E-2],"categories":[],"categories_nodes":[],"categories_segments":[],"categories_sizes":[],"default_left":[0,0,0,0,0,0,0,0,0,0,0,0,0,0,0],"id":71,"left_children":[1,3,5,7,9,11,13,-1,-1,-1,-1,-1,-1,-1,-1],"loss_changes":[6.005827E3,3.7883008E2,3.6175718E3,3.7649414E1,3.2514648E2,2.044667E3,2.2845505E2,0E0,0E0,0E0,0E0,0E0,0E0,0E0,0E0],"parents":[2147483647,0,0,1,1,2,2,3,3,4,4,5,5,6,6],"right_children":[2,4,6,8,10,12,14,-1,-1,-1,-1,-1,-1,-1,-1],"split_conditions":[1.07E1,8.7E0,2.67E1,4.9E-1,4E1,1.0641E0,3.32E1,-4.6098873E-2,1.7033586E-2,1.8123988E-2,-3.8555857E-2,8.301281E-2,2.3075356E-3,-2.6069793E-3,-4.2376697E-2],"split_indices":[4,4,4,13,3,0,4,0,0,0,0,0,0,0,0],"split_type":[0,0,0,0,0,0,0,0,0,0,0,0,0,0,0],"sum_hessian":[4.2606793E4,2.0287898E4,2.2318895E4,1.6236611E4,4.0512876E3,1.6039561E4,6.279333E3,1.6144436E4,9.217592E1,1.9315381E3,2.1197495E3,1.1753494E4,4.2860664E3,2.262735E3,4.0165981E3],"tree_param":{"num_deleted":"0","num_feature":"89","num_nodes":"15","size_leaf_vector":"1"}},{"base_weights":[1.9835446E-3,-4.6805874E-1,5.852166E-1,-4.9774823E-1,1.5607224E-1,7.603132E-1,-2.6617618E-2,-5.4042768E-2,-2.7588641E-2,-1.2784051E-2,6.781026E-2,4.024363E-2,9.188672E-2,-2.8640544E-2,4.8724692E-2],"categories":[],"categories_nodes":[],"categories_segments":[],"categories_sizes":[],"default_left":[0,0,0,0,0,0,0,0,0,0,0,0,0,0,0],"id":72,"left_children":[1,3,5,7,9,11,13,-1,-1,-1,-1,-1,-1,-1,-1],"loss_changes":[2.0447828E4,7.6574316E2,3.5666738E3,3.723623E2,2.786043E2,1.4667803E3,9.889176E2,0E0,0E0,0E0,0E0,0E0,0E0,0E0,0E0],"parents":[2147483647,0,0,1,1,2,2,3,3,4,4,5,5,6,6],"right_children":[2,4,6,8,10,12,14,-1,-1,-1,-1,-1,-1,-1,-1],"split_conditions":[4.47E1,2.8E0,1.59E1,3.79E1,1.06E0,1.056E0,7.9E-1,-5.4042768E-2,-2.7588641E-2,-1.2784051E-2,6.781026E-2,4.024363E-2,9.188672E-2,-2.8640544E-2,4.8724692E-2],"split_indices":[3,87,4,3,0,0,87,0,0,0,0,0,0,0,0],"split_type":[0,0,0,0,0,0,0,0,0,0,0,0,0,0,0],"sum_hessian":[7.45838E4,4.1298887E4,3.3284914E4,3.9425195E4,1.8736931E3,2.587956E4,7.4053535E3,3.3059133E4,6.3660596E3,1.21349E3,6.602031E2,7.9491665E3,1.7930393E4,4.9203228E3,2.4850305E3],"tree_param":{"num_deleted":"0","num_feature":"89","num_nodes":"15","size_leaf_vector":"1"}},{"base_weights":[-8.575284E-4,-2.1774037E-1,1.3210558E0,-2.8236434E-1,1.7583578E0,1.4421222E0,2.3183495E-1,-3.0715773E-2,1.3117635E-1,2.4582803E-1,1.632426E-2,1.6276813E-1,8.233487E-2,1.4953615E-2,2.174305E-1],"categories":[],"categories_nodes":[],"categories_segments":[],"categories_sizes":[],"default_left":[0,0,0,0,0,0,0,0,0,0,0,0,0,0,0],"id":73,"left_children":[1,3,5,7,9,11,13,-1,-1,-1,-1,-1,-1,-1,-1],"loss_changes":[5.398968E3,2.0659797E3,3.479458E2,6.192379E2,5.689166E2,2.695703E2,4.032982E1,0E0,0E0,0E0,0E0,0E0,0E0,0E0,0E0],"parents":[2147483647,0,0,1,1,2,2,3,3,4,4,5,5,6,6],"right_children":[2,4,6,8,10,12,14,-1,-1,-1,-1,-1,-1,-1,-1],"split_conditions":[1E0,1E0,1.79E1,1E0,7.6E1,3.24E1,2.119E1,-3.0715773E-2,1.3117635E-1,2.4582803E-1,1.632426E-2,1.6276813E-1,8.233487E-2,1.4953615E-2,2.174305E-1],"split_indices":[29,34,4,31,60,3,15,0,0,0,0,0,0,0,0],"split_type":[0,0,0,0,0,0,0,0,0,0,0,0,0,0,0],"sum_hessian":[1.8830965E4,1.6178748E4,2.6522163E3,1.5668364E4,5.1038385E2,2.3856704E3,2.6654602E2,1.5430402E4,2.379614E2,3.5366486E2,1.5671901E2,1.8319203E3,5.5375006E2,2.580432E2,8.502802E0],"tree_param":{"num_deleted":"0","num_feature":"89","num_nodes":"15","size_leaf_vector":"1"}},{"base_weights":[-3.1040395E-2,-2.8422022E-1,8.3761364E-1,-4.6420544E-1,1.1587477E-1,1.2175109E0,-3.8087547E-2,-4.7135793E-2,-7.5141224E-4,-3.725981E-3,2.5525334E-1,1.3966708E-1,-2.4391677E-2,-1.4698433E-2,7.862913E-2],"categories":[],"categories_nodes":[],"categories_segments":[],"categories_sizes":[],"default_left":[0,0,0,0,0,0,0,0,0,0,0,0,0,0,0],"id":74,"left_children":[1,3,5,7,9,11,13,-1,-1,-1,-1,-1,-1,-1,-1],"loss_changes":[6.425842E2,1.6347647E2,2.2037216E2,4.69458E0,2.645118E2,1.2216901E2,1.7674322E1,0E0,0E0,0E0,0E0,0E0,0E0,0E0,0E0],"parents":[2147483647,0,0,1,1,2,2,3,3,4,4,5,5,6,6],"right_children":[2,4,6,8,10,12,14,-1,-1,-1,-1,-1,-1,-1,-1],"split_conditions":[1.768E1,1.79E1,3.06E1,2.29E0,7.333E1,1.0663E0,5.128E1,-4.7135793E-2,-7.5141224E-4,-3.725981E-3,2.5525334E-1,1.3966708E-1,-2.4391677E-2,-1.4698433E-2,7.862913E-2],"split_indices":[7,4,3,13,5,0,5,0,0,0,0,0,0,0,0],"split_type":[0,0,0,0,0,0,0,0,0,0,0,0,0,0,0],"sum_hessian":[2.9201106E3,2.26281E3,6.573004E2,1.5619742E3,7.008359E2,4.5859915E2,1.9870125E2,1.5359977E3,2.5976572E1,6.607812E2,4.0054672E1,4.0910913E2,4.9490025E1,1.7776987E2,2.093138E1],"tree_param":{"num_deleted":"0","num_feature":"89","num_nodes":"15","size_leaf_vector":"1"}},{"base_weights":[7.69852E-3,2.3021258E-1,-4.264984E-1,4.042698E-1,-2.7832264E-1,-2.2142728E-1,-5.103832E-1,1.7800886E-2,6.7589946E-2,-4.8656794E-3,-3.5863575E-2,-4.5702048E-2,-8.406894E-3,-4.291599E-2,-5.302589E-2],"categories":[],"categories_nodes":[],"categories_segments":[],"categories_sizes":[],"default_left":[0,0,0,0,0,0,0,0,0,0,0,0,0,0,0],"id":75,"left_children":[1,3,5,7,9,11,13,-1,-1,-1,-1,-1,-1,-1,-1],"loss_changes":[6.942581E3,4.205878E3,4.1799658E2,2.1746665E3,2.2309131E2,2.2839651E2,2.6651367E1,0E0,0E0,0E0,0E0,0E0,0E0,0E0,0E0],"parents":[2147483647,0,0,1,1,2,2,3,3,4,4,5,5,6,6],"right_children":[2,4,6,8,10,12,14,-1,-1,-1,-1,-1,-1,-1,-1],"split_conditions":[1.24E1,1.061E0,1.65E1,1E0,6.44E0,2.83E1,1.99E1,1.7800886E-2,6.7589946E-2,-4.8656794E-3,-3.5863575E-2,-4.5702048E-2,-8.406894E-3,-4.291599E-2,-5.302589E-2],"split_indices":[4,0,4,28,2,3,4,0,0,0,0,0,0,0,0],"split_type":[0,0,0,0,0,0,0,0,0,0,0,0,0,0,0],"sum_hessian":[7.1856266E4,4.7511E4,2.4345264E4,3.5397492E4,1.2113509E4,7.0724004E3,1.7272863E4,1.9314867E4,1.6082626E4,3.1420256E3,8.971483E3,2.600906E3,4.471494E3,3.4124053E3,1.3860458E4],"tree_param":{"num_deleted":"0","num_feature":"89","num_nodes":"15","size_leaf_vector":"1"}},{"base_weights":[-1.0265113E-2,-3.0449376E-1,1.1353146E0,6.032995E-2,-4.5037642E-1,1.4074957E0,9.7538926E-2,4.9743406E-4,2.1431497E-1,-4.5583446E-2,2.0322148E-2,5.2463766E-2,1.7134222E-1,-4.9764286E-3,1.0280887E-1],"categories":[],"categories_nodes":[],"categories_segments":[],"categories_sizes":[],"default_left":[0,0,0,0,0,0,0,0,0,0,0,0,0,0,0],"id":76,"left_children":[1,3,5,7,9,11,13,-1,-1,-1,-1,-1,-1,-1,-1],"loss_changes":[2.7621008E3,3.4750494E2,4.7143213E2,2.1295468E2,1.7013672E1,3.5450244E2,4.897695E1,0E0,0E0,0E0,0E0,0E0,0E0,0E0,0E0],"parents":[2147483647,0,0,1,1,2,2,3,3,4,4,5,5,6,6],"right_children":[2,4,6,8,10,12,14,-1,-1,-1,-1,-1,-1,-1,-1],"split_conditions":[7.2E1,5.8E0,5.7E0,1E0,1E0,2.54E1,9.302E1,4.9743406E-4,2.1431497E-1,-4.5583446E-2,2.0322148E-2,5.2463766E-2,1.7134222E-1,-4.9764286E-3,1.0280887E-1],"split_indices":[5,4,4,30,30,3,5,0,0,0,0,0,0,0,0],"split_type":[0,0,0,0,0,0,0,0,0,0,0,0,0,0,0],"sum_hessian":[8.192976E3,6.52039E3,1.6725851E3,1.8611871E3,4.659203E3,1.3238865E3,3.4869852E2,1.8152065E3,4.598067E1,4.6224624E3,3.6740726E1,3.427017E2,9.811848E2,3.017673E2,4.6931225E1],"tree_param":{"num_deleted":"0","num_feature":"89","num_nodes":"15","size_leaf_vector":"1"}},{"base_weights":[-1.0492351E-3,-4.7292495E-1,8.298651E-1,-4.9597192E-1,-1.130842E-1,9.801752E-1,5.9829697E-2,-5.001412E-2,-1.0239667E-2,-1.3421814E-2,