{"learner":{"attributes":{},"feature_names":[],"feature_types":[],"gradient_booster":{"model":{"cats":{"enc":[],"feature_segments":[],"sorted_idx":[]},"gbtree_model_param":{"num_parallel_tree":"1","num_trees":"2800"},"iteration_indptr":[0,14,28,42,56,70,84,98,112,126,140,154,168,182,196,210,224,238,252,266,280,294,308,322,336,350,364,378,392,406,420,434,448,462,476,490,504,518,532,546,560,574,588,602,616,630,644,658,672,686,700,714,728,742,756,770,784,798,812,826,840,854,868,882,896,910,924,938,952,966,980,994,1008,1022,1036,1050,1064,1078,1092,1106,1120,1134,1148,1162,1176,1190,1204,1218,1232,1246,1260,1274,1288,1302,1316,1330,1344,1358,1372,1386,1400,1414,1428,1442,1456,1470,1484,1498,1512,1526,1540,1554,1568,1582,1596,1610,1624,1638,1652,1666,1680,1694,1708,1722,1736,1750,1764,1778,1792,1806,1820,1834,1848,1862,1876,1890,1904,1918,1932,1946,1960,1974,1988,2002,2016,2030,2044,2058,2072,2086,2100,2114,2128,2142,2156,2170,2184,2198,2212,2226,2240,2254,2268,2282,2296,2310,2324,2338,2352,2366,2380,2394,2408,2422,2436,2450,2464,2478,2492,2506,2520,2534,2548,2562,2576,2590,2604,2618,2632,2646,2660,2674,2688,2702,2716,2730,2744,2758,2772,2786,2800],"tree_info":[0,1,2,3,4,5,6,7,8,9,10,11,12,13,0,1,2,3,4,5,6,7,8,9,10,11,12,13,0,1,2,3,4,5,6,7,8,9,10,11,12,13,0,1,2,3,4,5,6,7,8,9,10,11,12,13,0,1,2,3,4,5,6,7,8,9,10,11,12,13,0,1,2,3,4,5,6,7,8,9,10,11,12,13,0,1,2,3,4,5,6,7,8,9,10,11,12,13,0,1,2,3,4,5,6,7,8,9,10,11,12,13,0,1,2,3,4,5,6,7,8,9,10,11,12,13,0,1,2,3,4,5,6,7,8,9,10,11,12,13,0,1,2,3,4,5,6,7,8,9,10,11,12,13,0,1,2,3,4,5,6,7,8,9,10,11,12,13,0,1,2,3,4,5,6,7,8,9,10,11,12,13,0,1,2,3,4,5,6,7,8,9,10,11,12,13,0,1,2,3,4,5,6,7,8,9,10,11,12,13,0,1,2,3,4,5,6,7,8,9,10,11,12,13,0,1,2,3,4,5,6,7,8,9,10,11,12,13,0,1,2,3,4,5,6,7,8,9,10,11,12,13,0,1,2,3,4,5,6,7,8,9,10,11,12,13,0,1,2,3,4,5,6,7,8,9,10,11,12,13,0,1,2,3,4,5,6,7,8,9,10,11,12,13,0,1,2,3,4,5,6,7,8,9,10,11,12,13,0,1,2,3,4,5,6,7,8,9,10,11,12,13,0,1,2,3,4,5,6,7,8,9,10,11,12,13,0,1,2,3,4,5,6,7,8,9,10,11,12,13,0,1,2,3,4,5,6,7,8,9,10,11,12,13,0,1,2,3,4,5,6,7,8,9,10,11,12,13,0,1,2,3,4,5,6,7,8,9,10,11,12,13,0,1,2,3,4,5,6,7,8,9,10,11,12,13,0,1,2,3,4,5,6,7,8,9,10,11,12,13,0,1,2,3,4,5,6,7,8,9,10,11,12,13,0,1,2,3,4,5,6,7,8,9,10,11,12,13,0,1,2,3,4,5,6,7,8,9,10,11,12,13,0,1,2,3,4,5,6,7,8,9,10,11,12,13,0,1,2,3,4,5,6,7,8,9,10,11,12,13,0,1,2,3,4,5,6,7,8,9,10,11,12,13,0,1,2,3,4,5,6,7,8,9,10,11,12,13,0,1,2,3,4,5,6,7,8,9,10,11,12,13,0,1,2,3,4,5,6,7,8,9,10,11,12,13,0,1,2,3,4,5,6,7,8,9,10,11,12,13,0,1,2,3,4,5,6,7,8,9,10,11,12,13,0,1,2,3,4,5,6,7,8,9,10,11,12,13,0,1,2,3,4,5,6,7,8,9,10,11,12,13,0,1,2,3,4,5,6,7,8,9,10,11,12,13,0,1,2,3,4,5,6,7,8,9,10,11,12,13,0,1,2,3,4,5,6,7,8,9,10,11,12,13,0,1,2,3,4,5,6,7,8,9,10,11,12,13,0,1,2,3,4,5,6,7,8,9,10,11,12,13,0,1,2,3,4,5,6,7,8,9,10,11,12,13,0,1,2,3,4,5,6,7,8,9,10,11,12,13,0,1,2,3,4,5,6,7,8,9,10,11,12,13,0,1,2,3,4,5,6,7,8,9,10,11,12,13,0,1,2,3,4,5,6,7,8,9,10,11,12,13,0,1,2,3,4,5,6,7,8,9,10,11,12,13,0,1,2,3,4,5,6,7,8,9,10,11,12,13,0,1,2,3,4,5,6,7,8,9,10,11,12,13,0,1,2,3,4,5,6,7,8,9,10,11,12,13,0,1,2,3,4,5,6,7,8,9,10,11,12,13,0,1,2,3,4,5,6,7,8,9,10,11,12,13,0,1,2,3,4,5,6,7,8,9,10,11,12,13,0,1,2,3,4,5,6,7,8,9,10,11,12,13,0,1,2,3,4,5,6,7,8,9,10,11,12,13,0,1,2,3,4,5,6,7,8,9,10,11,12,13,0,1,2,3,4,5,6,7,8,9,10,11,12,13,0,1,2,3,4,5,6,7,8,9,10,11,12,13,0,1,2,3,4,5,6,7,8,9,10,11,12,13,0,1,2,3,4,5,6,7,8,9,10,11,12,13,0,1,2,3,4,5,6,7,8,9,10,11,12,13,0,1,2,3,4,5,6,7,8,9,10,11,12,13,0,1,2,3,4,5,6,7,8,9,10,11,12,13,0,1,2,3,4,5,6,7,8,9,10,11,12,13,0,1,2,3,4,5,6,7,8,9,10,11,12,13,0,1,2,3,4,5,6,7,8,9,10,11,12,13,0,1,2,3,4,5,6,7,8,9,10,11,12,13,0,1,2,3,4,5,6,7,8,9,10,11,12,13,0,1,2,3,4,5,6,7,8,9,10,11,12,13,0,1,2,3,4,5,6,7,8,9,10,11,12,13,0,1,2,3,4,5,6,7,8,9,10,11,12,13,0,1,2,3,4,5,6,7,8,9,10,11,12,13,0,1,2,3,4,5,6,7,8,9,10,11,12,13,0,1,2,3,4,5,6,7,8,9,10,11,12,13,0,1,2,3,4,5,6,7,8,9,10,11,12,13,0,1,2,3,4,5,6,7,8,9,10,11,12,13,0,1,2,3,4,5,6,7,8,9,10,11,12,13,0,1,2,3,4,5,6,7,8,9,10,11,12,13,0,1,2,3,4,5,6,7,8,9,10,11,12,13,0,1,2,3,4,5,6,7,8,9,10,11,12,13,0,1,2,3,4,5,6,7,8,9,10,11,12,13,0,1,2,3,4,5,6,7,8,9,10,11,12,13,0,1,2,3,4,5,6,7,8,9,10,11,12,13,0,1,2,3,4,5,6,7,8,9,10,11,12,13,0,1,2,3,4,5,6,7,8,9,10,11,12,13,0,1,2,3,4,5,6,7,8,9,10,11,12,13,0,1,2,3,4,5,6,7,8,9,10,11,12,13,0,1,2,3,4,5,6,7,8,9,10,11,12,13,0,1,2,3,4,5,6,7,8,9,10,11,12,13,0,1,2,3,4,5,6,7,8,9,10,11,12,13,0,1,2,3,4,5,6,7,8,9,10,11,12,13,0,1,2,3,4,5,6,7,8,9,10,11,12,13,0,1,2,3,4,5,6,7,8,9,10,11,12,13,0,1,2,3,4,5,6,7,8,9,10,11,12,13,0,1,2,3,4,5,6,7,8,9,10,11,12,13,0,1,2,3,4,5,6,7,8,9,10,11,12,13,0,1,2,3,4,5,6,7,8,9,10,11,12,13,0,1,2,3,4,5,6,7,8,9,10,11,12,13,0,1,2,3,4,5,6,7,8,9,10,11,12,13,0,1,2,3,4,5,6,7,8,9,10,11,12,13,0,1,2,3,4,5,6,7,8,9,10,11,12,13,0,1,2,3,4,5,6,7,8,9,10,11,12,13,0,1,2,3,4,5,6,7,8,9,10,11,12,13,0,1,2,3,4,5,6,7,8,9,10,11,12,13,0,1,2,3,4,5,6,7,8,9,10,11,12,13,0,1,2,3,4,5,6,7,8,9,10,11,12,13,0,1,2,3,4,5,6,7,8,9,10,11,12,13,0,1,2,3,4,5,6,7,8,9,10,11,12,13,0,1,2,3,4,5,6,7,8,9,10,11,12,13,0,1,2,3,4,5,6,7,8,9,10,11,12,13,0,1,2,3,4,5,6,7,8,9,10,11,12,13,0,1,2,3,4,5,6,7,8,9,10,11,12,13,0,1,2,3,4,5,6,7,8,9,10,11,12,13,0,1,2,3,4,5,6,7,8,9,10,11,12,13,0,1,2,3,4,5,6,7,8,9,10,11,12,13,0,1,2,3,4,5,6,7,8,9,10,11,12,13,0,1,2,3,4,5,6,7,8,9,10,11,12,13,0,1,2,3,4,5,6,7,8,9,10,11,12,13,0,1,2,3,4,5,6,7,8,9,10,11,12,13,0,1,2,3,4,5,6,7,8,9,10,11,12,13,0,1,2,3,4,5,6,7,8,9,10,11,12,13,0,1,2,3,4,5,6,7,8,9,10,11,12,13,0,1,2,3,4,5,6,7,8,9,10,11,12,13,0,1,2,3,4,5,6,7,8,9,10,11,12,13,0,1,2,3,4,5,6,7,8,9,10,11,12,13,0,1,2,3,4,5,6,7,8,9,10,11,12,13,0,1,2,3,4,5,6,7,8,9,10,11,12,13,0,1,2,3,4,5,6,7,8,9,10,11,12,13,0,1,2,3,4,5,6,7,8,9,10,11,12,13,0,1,2,3,4,5,6,7,8,9,10,11,12,13,0,1,2,3,4,5,6,7,8,9,10,11,12,13,0,1,2,3,4,5,6,7,8,9,10,11,12,13,0,1,2,3,4,5,6,7,8,9,10,11,12,13,0,1,2,3,4,5,6,7,8,9,10,11,12,13,0,1,2,3,4,5,6,7,8,9,10,11,12,13,0,1,2,3,4,5,6,7,8,9,10,11,12,13,0,1,2,3,4,5,6,7,8,9,10,11,12,13,0,1,2,3,4,5,6,7,8,9,10,11,12,13,0,1,2,3,4,5,6,7,8,9,10,11,12,13,0,1,2,3,4,5,6,7,8,9,10,11,12,13,0,1,2,3,4,5,6,7,8,9,10,11,12,13,0,1,2,3,4,5,6,7,8,9,10,11,12,13,0,1,2,3,4,5,6,7,8,9,10,11,12,13,0,1,2,3,4,5,6,7,8,9,10,11,12,13,0,1,2,3,4,5,6,7,8,9,10,11,12,13,0,1,2,3,4,5,6,7,8,9,10,11,12,13,0,1,2,3,4,5,6,7,8,9,10,11,12,13,0,1,2,3,4,5,6,7,8,9,10,11,12,13,0,1,2,3,4,5,6,7,8,9,10,11,12,13,0,1,2,3,4,5,6,7,8,9,10,11,12,13,0,1,2,3,4,5,6,7,8,9,10,11,12,13,0,1,2,3,4,5,6,7,8,9,10,11,12,13,0,1,2,3,4,5,6,7,8,9,10,11,12,13,0,1,2,3,4,5,6,7,8,9,10,11,12,13,0,1,2,3,4,5,6,7,8,9,10,11,12,13,0,1,2,3,4,5,6,7,8,9,10,11,12,13,0,1,2,3,4,5,6,7,8,9,10,11,12,13,0,1,2,3,4,5,6,7,8,9,10,11,12,13,0,1,2,3,4,5,6,7,8,9,10,11,12,13,0,1,2,3,4,5,6,7,8,9,10,11,12,13,0,1,2,3,4,5,6,7,8,9,10,11,12,13,0,1,2,3,4,5,6,7,8,9,10,11,12,13,0,1,2,3,4,5,6,7,8,9,10,11,12,13,0,1,2,3,4,5,6,7,8,9,10,11,12,13,0,1,2,3,4,5,6,7,8,9,10,11,12,13,0,1,2,3,4,5,6,7,8,9,10,11,12,13,0,1,2,3,4,5,6,7,8,9,10,11,12,13,0,1,2,3,4,5,6,7,8,9,10,11,12,13,0,1,2,3,4,5,6,7,8,9,10,11,12,13,0,1,2,3,4,5,6,7,8,9,10,11,12,13,0,1,2,3,4,5,6,7,8,9,10,11,12,13,0,1,2,3,4,5,6,7,8,9,10,11,12,13,0,1,2,3,4,5,6,7,8,9,10,11,12,13,0,1,2,3,4,5,6,7,8,9,10,11,12,13,0,1,2,3,4,5,6,7,8,9,10,11,12,13,0,1,2,3,4,5,6,7,8,9,10,11,12,13,0,1,2,3,4,5,6,7,8,9,10,11,12,13,0,1,2,3,4,5,6,7,8,9,10,11,12,13,0,1,2,3,4,5,6,7,8,9,10,11,12,13,0,1,2,3,4,5,6,7,8,9,10,11,12,13,0,1,2,3,4,5,6,7,8,9,10,11,12,13,0,1,2,3,4,5,6,7,8,9,10,11,12,13,0,1,2,3,4,5,6,7,8,9,10,11,12,13,0,1,2,3,4,5,6,7,8,9,10,11,12,13,0,1,2,3,4,5,6,7,8,9,10,11,12,13,0,1,2,3,4,5,6,7,8,9,10,11,12,13,0,1,2,3,4,5,6,7,8,9,10,11,12,13,0,1,2,3,4,5,6,7,8,9,10,11,12,13,0,1,2,3,4,5,6,7,8,9,10,11,12,13,0,1,2,3,4,5,6,7,8,9,10,11,12,13,0,1,2,3,4,5,6,7,8,9,10,11,12,13,0,1,2,3,4,5,6,7,8,9,10,11,12,13,0,1,2,3,4,5,6,7,8,9,10,11,12,13],"trees":[{"base_weights":[2.8178927E-5,-3.431348E-1,3.1183581E0,-4.2554766E-1,6.0946876E-1,5.202536E-1,1.1969905E1,-4.3026883E-2,1.2556408E-1,-1.2317303E-2,1.6541919E-1,1.7368058E-2,3.1978384E-1,6.275903E-1,1.3799018E0],"categories":[],"categories_nodes":[],"categories_segments":[],"categories_sizes":[],"default_left":[0,0,0,0,0,0,0,0,0,0,0,0,0,0,0],"id":0,"left_children":[1,3,5,7,9,11,13,-1,-1,-1,-1,-1,-1,-1,-1],"loss_changes":[1.4031934E4,9.2753503E2,2.9874117E4,8.659192E1,7.2143274E2,9.305929E2,2.893375E3,0E0,0E0,0E0,0E0,0E0,0E0,0E0,0E0],"parents":[2147483647,0,0,1,1,2,2,3,3,4,4,5,5,6,6],"right_children":[2,4,6,8,10,12,14,-1,-1,-1,-1,-1,-1,-1,-1],"split_conditions":[1E0,1.584E1,1.064E0,1E0,1.0606E0,1.0584E0,5.71E0,-4.3026883E-2,1.2556408E-1,-1.2317303E-2,1.6541919E-1,1.7368058E-2,3.1978384E-1,6.275903E-1,1.3799018E0],"split_indices":[29,7,0,66,0,0,7,0,0,0,0,0,0,0,0],"split_type":[0,0,0,0,0,0,0,0,0,0,0,0,0,0,0],"sum_hessian":[1.3106883E4,1.180874E4,1.298143E3,1.0870236E4,9.385042E2,1.0051626E3,2.9298038E2,1.0841672E4,2.8563877E1,5.5212744E2,3.8637677E2,8.9199475E2,1.1316785E2,7.333912E1,2.1964127E2],"tree_param":{"num_deleted":"0","num_feature":"89","num_nodes":"15","size_leaf_vector":"1"}},{"base_weights":[1.5588732E-3,-1.6463974E-1,4.6703738E-1,-2.596293E-1,3.9883143E-1,1.2822472E0,2.487718E-2,-3.072325E-2,4.5866847E-2,8.16167E-2,-2.2773137E-2,1.6456322E-1,3.078954E-2,3.0398196E-2,-1.7600589E-2],"categories":[],"categories_nodes":[],"categories_segments":[],"categories_sizes":[],"default_left":[0,0,0,0,0,0,0,0,0,0,0,0,0,0,0],"id":1,"left_children":[1,3,5,7,9,11,13,-1,-1,-1,-1,-1,-1,-1,-1],"loss_changes":[3.1011494E3,1.580929E3,3.8006924E3,8.6443933E2,1.1148394E3,1.3103975E3,3.8376212E2,0E0,0E0,0E0,0E0,0E0,0E0,0E0,0E0],"parents":[2147483647,0,0,1,1,2,2,3,3,4,4,5,5,6,6],"right_children":[2,4,6,8,10,12,14,-1,-1,-1,-1,-1,-1,-1,-1],"split_conditions":[1E0,3E-1,2.93E1,2.1E-1,1.43E0,1.0603E0,4.03E1,-3.072325E-2,4.5866847E-2,8.16167E-2,-2.2773137E-2,1.6456322E-1,3.078954E-2,3.0398196E-2,-1.7600589E-2],"split_indices":[27,13,3,14,14,0,3,0,0,0,0,0,0,0,0],"split_type":[0,0,0,0,0,0,0,0,0,0,0,0,0,0,0],"sum_hessian":[4.007926E4,2.9533666E4,1.0545596E4,2.5275283E4,4.258383E3,3.706497E3,6.839098E3,2.3706447E4,1.5688363E3,2.556421E3,1.701962E3,2.6980942E3,1.00840283E3,2.863652E3,3.975446E3],"tree_param":{"num_deleted":"0","num_feature":"89","num_nodes":"15","size_leaf_vector":"1"}},{"base_weights":[4.903327E-4,-4.521314E-1,1.3238395E0,-5.2155536E-1,1.3208655E-1,1.7778397E0,1.8030049E-1,-5.6205537E-2,-2.3959504E-2,-2.3489917E-2,7.60672E-2,1.0144573E-1,2.1318229E-1,-2.4560738E-2,1.1530024E-1],"categories":[],"categories_nodes":[],"categories_segments":[],"categories_sizes":[],"default_left":[0,0,0,0,0,0,0,0,0,0,0,0,0,0,0],"id":2,"left_children":[1,3,5,7,9,11,13,-1,-1,-1,-1,-1,-1,-1,-1],"loss_changes":[3.9206457E4,1.9786035E3,8.658549E3,4.9688477E2,1.1957874E3,3.2199492E3,1.9664133E3,0E0,0E0,0E0,0E0,0E0,0E0,0E0,0E0],"parents":[2147483647,0,0,1,1,2,2,3,3,4,4,5,5,6,6],"right_children":[2,4,6,8,10,12,14,-1,-1,-1,-1,-1,-1,-1,-1],"split_conditions":[5.02E1,1.2E0,1.54E1,4.03E1,4.01E1,1.0558E0,5E0,-5.6205537E-2,-2.3959504E-2,-2.3489917E-2,7.60672E-2,1.0144573E-1,2.1318229E-1,-2.4560738E-2,1.1530024E-1],"split_indices":[3,87,4,3,3,0,65,0,0,0,0,0,0,0,0],"split_type":[0,0,0,0,0,0,0,0,0,0,0,0,0,0,0],"sum_hessian":[6.54508E4,4.877052E4,1.6680281E4,4.3592035E4,5.1784873E3,1.1938693E4,4.7415884E3,3.8112766E4,5.4792686E3,3.26948E3,1.9090071E3,3.7852227E3,8.15347E3,3.2980227E3,1.4435654E3],"tree_param":{"num_deleted":"0","num_feature":"89","num_nodes":"15","size_leaf_vector":"1"}},{"base_weights":[-4.432068E-3,-2.4123688E-1,2.1596284E0,-2.6734036E-1,4.746896E0,3.1662128E0,3.838358E-2,6.036679E-2,-3.153994E-2,6.917385E-1,2.6019803E-1,5.063147E-1,1.2230416E-1,-3.2927361E-3,2.9304484E-1],"categories":[],"categories_nodes":[],"categories_segments":[],"categories_sizes":[],"default_left":[0,0,0,0,0,0,0,0,0,0,0,0,0,0,0],"id":3,"left_children":[1,3,5,7,9,11,13,-1,-1,-1,-1,-1,-1,-1,-1],"loss_changes":[1.183223E4,2.7088042E3,4.859589E3,8.669603E2,4.6275195E2,5.675005E3,1.5422849E2,0E0,0E0,0E0,0E0,0E0,0E0,0E0,0E0],"parents":[2147483647,0,0,1,1,2,2,3,3,4,4,5,5,6,6],"right_children":[2,4,6,8,10,12,14,-1,-1,-1,-1,-1,-1,-1,-1],"split_conditions":[1E0,1E0,1.54E1,7E1,2.41E1,2.88E1,1.151E1,6.036679E-2,-3.153994E-2,6.917385E-1,2.6019803E-1,5.063147E-1,1.2230416E-1,-3.2927361E-3,2.9304484E-1],"split_indices":[29,31,4,60,3,3,15,0,0,0,0,0,0,0,0],"split_type":[0,0,0,0,0,0,0,0,0,0,0,0,0,0,0],"sum_hessian":[2.3088537E4,2.0813078E4,2.2754587E3,2.070664E4,1.0643909E2,1.5422905E3,7.3316815E2,1.0807289E3,1.962591E4,5.066125E1,5.577784E1,7.78706E2,7.635845E2,7.1702325E2,1.6144936E1],"tree_param":{"num_deleted":"0","num_feature":"89","num_nodes":"15","size_leaf_vector":"1"}},{"base_weights":[-1.3900782E-2,-2.0720321E-1,5.070655E0,-4.616767E-1,4.82352E-1,8.027149E0,4.588612E-1,-4.7771353E-2,1.7141057E-2,-3.77263E-3,4.6263185E-1,2.2554229E-1,1.292078E0,2.5324467E-1,-1.7762613E-2],"categories":[],"categories_nodes":[],"categories_segments":[],"categories_sizes":[],"default_left":[0,0,0,0,0,0,0,0,0,0,0,0,0,0,0],"id":4,"left_children":[1,3,5,7,9,11,13,-1,-1,-1,-1,-1,-1,-1,-1],"loss_changes":[1.1803365E4,2.0312346E3,5.982993E3,8.625879E1,6.7279033E3,7.496879E3,2.3233858E2,0E0,0E0,0E0,0E0,0E0,0E0,0E0,0E0],"parents":[2147483647,0,0,1,1,2,2,3,3,4,4,5,5,6,6],"right_children":[2,4,6,8,10,12,14,-1,-1,-1,-1,-1,-1,-1,-1],"split_conditions":[4.297E1,1.79E1,5.92E0,2.778E1,3.636E1,1.56E1,1.0656E0,-4.7771353E-2,1.7141057E-2,-3.77263E-3,4.6263185E-1,2.2554229E-1,1.292078E0,2.5324467E-1,-1.7762613E-2],"split_indices":[7,4,2,7,5,4,0,0,0,0,0,0,0,0,0],"split_type":[0,0,0,0,0,0,0,0,0,0,0,0,0,0,0],"sum_hessian":[1.200962E4,1.1571636E4,4.3798367E2,8.45372E3,3.1179167E3,2.659415E2,1.7204219E2,8.246619E3,2.0709984E2,2.7716904E3,3.4622617E2,1.2334281E2,1.4259868E2,3.9425198E1,1.3261699E2],"tree_param":{"num_deleted":"0","num_feature":"89","num_nodes":"15","size_leaf_vector":"1"}},{"base_weights":[-1.4243991E-3,2.4095613E-1,-4.1685918E-1,-4.29352E-2,7.9391205E-1,-2.9364458E-1,-4.8084426E-1,-3.0597633E-2,3.776982E-2,1.003254E-1,-4.314446E-2,-2.2628494E-2,-5.4461807E-2,-4.4941302E-2,-5.6246247E-2],"categories":[],"categories_nodes":[],"categories_segments":[],"categories_sizes":[],"default_left":[0,0,0,0,0,0,0,0,0,0,0,0,0,0,0],"id":5,"left_children":[1,3,5,7,9,11,13,-1,-1,-1,-1,-1,-1,-1,-1],"loss_changes":[6.276234E3,6.1796636E3,1.8015088E2,2.877929E3,3.4268633E3,1.3198505E2,3.7433594E1,0E0,0E0,0E0,0E0,0E0,0E0,0E0,0E0],"parents":[2147483647,0,0,1,1,2,2,3,3,4,4,5,5,6,6],"right_children":[2,4,6,8,10,12,14,-1,-1,-1,-1,-1,-1,-1,-1],"split_conditions":[1.0609E0,1E0,1.067E0,1E0,4.1E-1,1.16E0,3E-1,-3.0597633E-2,3.776982E-2,1.003254E-1,-4.314446E-2,-2.2628494E-2,-5.4461807E-2,-4.4941302E-2,-5.6246247E-2],"split_indices":[0,28,0,27,13,13,13,0,0,0,0,0,0,0,0],"split_type":[0,0,0,0,0,0,0,0,0,0,0,0,0,0,0],"sum_hessian":[6.2325023E4,3.9359766E4,2.2965258E4,2.6007504E4,1.335226E4,7.8576274E3,1.5107632E4,1.6002771E4,1.0004733E4,1.1404863E4,1.9473961E3,6.2003887E3,1.6572385E3,1.092345E4,4.184181E3],"tree_param":{"num_deleted":"0","num_feature":"89","num_nodes":"15","size_leaf_vector":"1"}},{"base_weights":[1.7584767E-3,-3.824621E-1,3.5007913E0,-3.9533097E-1,2.1729958E0,6.7018514E0,5.231039E-1,-4.3445278E-2,3.8146263E-3,1.5000533E-1,4.1263413E-1,4.8449707E-1,1.0010437E0,2.4691284E-1,-2.011149E-2],"categories":[],"categories_nodes":[],"categories_segments":[],"categories_sizes":[],"default_left":[0,0,0,0,0,0,0,0,0,0,0,0,0,0,0],"id":6,"left_children":[1,3,5,7,9,11,13,-1,-1,-1,-1,-1,-1,-1,-1],"loss_changes":[2.1021762E4,4.6335425E2,1.4734418E4,2.3810303E2,7.6490875E1,4.47659E3,1.1355172E3,0E0,0E0,0E0,0E0,0E0,0E0,0E0,0E0],"parents":[2147483647,0,0,1,1,2,2,3,3,4,4,5,5,6,6],"right_children":[2,4,6,8,10,12,14,-1,-1,-1,-1,-1,-1,-1,-1],"split_conditions":[1E0,1E0,6.15E0,1E0,1.322E1,1E0,1.843E1,-4.3445278E-2,3.8146263E-3,1.5000533E-1,4.1263413E-1,4.8449707E-1,1.0010437E0,2.4691284E-1,-2.011149E-2],"split_indices":[29,31,7,44,16,44,7,0,0,0,0,0,0,0,0],"split_type":[0,0,0,0,0,0,0,0,0,0,0,0,0,0,0],"sum_hessian":[1.5630868E4,1.408557E4,1.5452985E3,1.401688E4,6.869017E1,7.43464E2,8.018345E2,1.2858355E4,1.1585247E3,5.3845737E1,1.4844431E1,4.7928842E2,2.6417557E2,2.1658157E2,5.852529E2],"tree_param":{"num_deleted":"0","num_feature":"89","num_nodes":"15","size_leaf_vector":"1"}},{"base_weights":[3.7103184E-4,-3.51366E-1,2.209131E0,-4.37915E-1,5.4259574E-1,2.778182E0,8.4329474E-1,-4.6081994E-2,2.3885213E-3,3.255072E-2,1.4856683E-1,3.1746438E-1,7.214921E-2,1.794595E-1,1.1679748E-2],"categories":[],"categories_nodes":[],"categories_segments":[],"categories_sizes":[],"default_left":[0,0,0,0,0,0,0,0,0,0,0,0,0,0,0],"id":7,"left_children":[1,3,5,7,9,11,13,-1,-1,-1,-1,-1,-1,-1,-1],"loss_changes":[1.7275838E4,1.4843394E3,2.3668193E3,1.8538062E2,3.4416763E2,1.7497129E3,6.2102576E2,0E0,0E0,0E0,0E0,0E0,0E0,0E0,0E0],"parents":[2147483647,0,0,1,1,2,2,3,3,4,4,5,5,6,6],"right_children":[2,4,6,8,10,12,14,-1,-1,-1,-1,-1,-1,-1,-1],"split_conditions":[2.94E0,1.38E0,9.6E-1,1.19E0,1.59E0,5.49E1,3.14E0,-4.6081994E-2,2.3885213E-3,3.255072E-2,1.4856683E-1,3.1746438E-1,7.214921E-2,1.794595E-1,1.1679748E-2],"split_indices":[13,14,10,13,13,3,14,0,0,0,0,0,0,0,0],"split_type":[0,0,0,0,0,0,0,0,0,0,0,0,0,0,0],"sum_hessian":[2.223108E4,1.9178193E4,3.0528867E3,1.7487074E4,1.6911182E3,2.1532422E3,8.996446E2,1.6662473E4,8.246012E2,1.3774329E3,3.1368527E2,1.8040602E3,3.4918195E2,3.8786765E2,5.1177692E2],"tree_param":{"num_deleted":"0","num_feature":"89","num_nodes":"15","size_leaf_vector":"1"}},{"base_weights":[2.504681E-3,-4.5438316E-1,8.005514E0,-4.682053E-1,7.468093E-1,4.592746E0,8.320644E0,-4.8309702E-2,-4.0165696E-2,3.8963728E-2,2.5547093E-1,5.3387105E-1,1.987561E-1,8.7015927E-1,5.5205566E-1],"categories":[],"categories_nodes":[],"categories_segments":[],"categories_sizes":[],"default_left":[0,0,0,0,0,0,0,0,0,0,0,0,0,0,0],"id":8,"left_children":[1,3,5,7,9,11,13,-1,-1,-1,-1,-1,-1,-1,-1],"loss_changes":[8.184228E4,3.5193408E2,1.2183672E3,1.963379E1,1.5119385E2,1.8119336E2,1.0768047E3,0E0,0E0,0E0,0E0,0E0,0E0,0E0,0E0],"parents":[2147483647,0,0,1,1,2,2,3,3,4,4,5,5,6,6],"right_children":[2,4,6,8,10,12,14,-1,-1,-1,-1,-1,-1,-1,-1],"split_conditions":[1E0,1E0,1.63E1,4.167E1,6.923E1,3.125E1,1.28E1,-4.8309702E-2,-4.0165696E-2,3.8963728E-2,2.5547093E-1,5.3387105E-1,1.987561E-1,8.7015927E-1,5.5205566E-1],"split_indices":[25,80,3,5,5,9,4,0,0,0,0,0,0,0,0],"split_type":[0,0,0,0,0,0,0,0,0,0,0,0,0,0,0],"sum_hessian":[2.2377371E4,2.1170402E4,1.206969E3,2.093138E4,2.3902118E2,1.0469202E2,1.102277E3,1.7084078E4,3.8473022E3,2.0186018E2,3.7161E1,7.962493E1,2.5067085E1,9.665732E2,1.3570377E2],"tree_param":{"num_deleted":"0","num_feature":"89","num_nodes":"15","size_leaf_vector":"1"}},{"base_weights":[7.859188E-4,6.354044E0,-2.64344E-1,1.7012659E0,1.0283215E1,-2.8495473E-1,8.799346E0,1.296356E-1,8.1009495E-1,1.2694719E0,5.629372E-1,-3.253191E-2,2.9962042E-1,9.789425E-1,1.5171057E-1],"categories":[],"categories_nodes":[],"categories_segments":[],"categories_sizes":[],"default_left":[0,0,0,0,0,0,0,0,0,0,0,0,0,0,0],"id":9,"left_children":[1,3,5,7,9,11,13,-1,-1,-1,-1,-1,-1,-1,-1],"loss_changes":[2.3843555E4,1.0324127E4,2.5352163E3,6.513418E2,3.2972578E3,1.7949329E3,1.848855E2,0E0,0E0,0E0,0E0,0E0,0E0,0E0,0E0],"parents":[2147483647,0,0,1,1,2,2,3,3,4,4,5,5,6,6],"right_children":[2,4,6,8,10,12,14,-1,-1,-1,-1,-1,-1,-1,-1],"split_conditions":[1.02E1,8E0,1E0,1E0,1.0114E0,1E0,1E0,1.296356E-1,8.1009495E-1,1.2694719E0,5.629372E-1,-3.253191E-2,2.9962042E-1,9.789425E-1,1.5171057E-1],"split_indices":[3,9,36,76,1,76,25,0,0,0,0,0,0,0,0],"split_type":[0,0,0,0,0,0,0,0,0,0,0,0,0,0,0],"sum_hessian":[1.4148424E4,5.652065E2,1.3583217E4,2.6008765E2,3.0511884E2,1.355428E4,2.8936644E1,2.4682832E2,1.3259338E1,1.9875166E2,1.0636717E2,1.3391466E4,1.6281435E2,2.4809889E1,4.126756E0],"tree_param":{"num_deleted":"0","num_feature":"89","num_nodes":"15","size_leaf_vector":"1"}},{"base_weights":[-2.505729E-3,-3.155887E-2,3.1803377E0,-8.858836E-2,6.2605745E-1,3.543608E0,1.4660288E0,-1.0049901E-2,1.3956411E-1,1.002016E-1,5.6410115E-4,3.7211195E-1,2.0555432E-1,1.719868E-1,2.4192572E-2],"categories":[],"categories_nodes":[],"categories_segments":[],"categories_sizes":[],"default_left":[0,0,0,0,0,0,0,0,0,0,0,0,0,0,0],"id":10,"left_children":[1,3,5,7,9,11,13,-1,-1,-1,-1,-1,-1,-1,-1],"loss_changes":[3.923668E3,1.5776454E3,2.2514941E2,6.8367633E2,7.8209827E2,6.414111E1,1.952298E1,0E0,0E0,0E0,0E0,0E0,0E0,0E0,0E0],"parents":[2147483647,0,0,1,1,2,2,3,3,4,4,5,5,6,6],"right_children":[2,4,6,8,10,12,14,-1,-1,-1,-1,-1,-1,-1,-1],"split_conditions":[1E0,1E0,2.33E0,3.25E1,1E0,1.765E1,3.33E0,-1.0049901E-2,1.3956411E-1,1.002016E-1,5.6410115E-4,3.7211195E-1,2.0555432E-1,1.719868E-1,2.4192572E-2],"split_indices":[55,71,13,18,81,5,10,0,0,0,0,0,0,0,0],"split_type":[0,0,0,0,0,0,0,0,0,0,0,0,0,0,0],"sum_hessian":[4.245615E4,4.207419E4,3.8195642E2,3.871929E4,3.354902E3,3.131323E2,6.882413E1,3.8413324E4,3.0596204E2,2.0874478E3,1.2674545E3,2.7676907E2,3.636321E1,5.580777E1,1.3016359E1],"tree_param":{"num_deleted":"0","num_feature":"89","num_nodes":"15","size_leaf_vector":"1"}},{"base_weights":[-9.5319474E-4,-4.564549E-1,2.9660418E0,-4.995483E-1,7.68335E-1,1.3999647E0,3.866287E0,-5.208639E-2,9.267235E-3,3.3300426E-2,3.205416E-1,7.847729E-2,3.4135586E-1,3.172904E-1,5.055835E-1],"categories":[],"categories_nodes":[],"categories_segments":[],"categories_sizes":[],"default_left":[0,0,0,0,0,0,0,0,0,0,0,0,0,0,0],"id":11,"left_children":[1,3,5,7,9,11,13,-1,-1,-1,-1,-1,-1,-1,-1],"loss_changes":[4.8686406E4,1.6489077E3,6.745074E3,3.8133154E2,1.1212859E3,2.1633882E3,2.4732734E3,0E0,0E0,0E0,0E0,0E0,0E0,0E0,0E0],"parents":[2147483647,0,0,1,1,2,2,3,3,4,4,5,5,6,6],"right_children":[2,4,6,8,10,12,14,-1,-1,-1,-1,-1,-1,-1,-1],"split_conditions":[3.09E1,3.12E0,2.31E0,2.66E1,1.61E0,9.6E-1,1.61E0,-5.208639E-2,9.267235E-3,3.3300426E-2,3.205416E-1,7.847729E-2,3.4135586E-1,3.172904E-1,5.055835E-1],"split_indices":[4,14,14,4,10,10,10,0,0,0,0,0,0,0,0],"split_type":[0,0,0,0,0,0,0,0,0,0,0,0,0,0,0],"sum_hessian":[3.602262E4,3.1229959E4,4.7926626E3,3.017023E4,1.0597294E3,1.7514651E3,3.0411975E3,2.912365E4,1.0465801E3,9.0120123E2,1.5852814E2,1.3438777E3,4.075874E2,1.9260244E3,1.115173E3],"tree_param":{"num_deleted":"0","num_feature":"89","num_nodes":"15","size_leaf_vector":"1"}},{"base_weights":[-7.095536E-4,-1.5397403E-1,4.370088E0,-3.1927216E-1,1.6185832E0,3.0739598E0,5.184511E0,-4.1223828E-2,8.561972E-2,9.809735E-2,3.1091195E-1,2.4279861E-1,4.3565565E-1,5.40312E-1,2.9269198E-1],"categories":[],"categories_nodes":[],"categories_segments":[],"categories_sizes":[],"default_left":[0,0,0,0,0,0,0,0,0,0,0,0,0,0,0],"id":12,"left_children":[1,3,5,7,9,11,13,-1,-1,-1,-1,-1,-1,-1,-1],"loss_changes":[2.38931E4,1.0097914E4,1.2389941E3,3.445456E3,2.7846729E3,3.6507666E2,3.2835742E2,0E0,0E0,0E0,0E0,0E0,0E0,0E0,0E0],"parents":[2147483647,0,0,1,1,2,2,3,3,4,4,5,5,6,6],"right_children":[2,4,6,8,10,12,14,-1,-1,-1,-1,-1,-1,-1,-1],"split_conditions":[1E0,1E0,1.34E0,1.0832E0,1.0651E0,5.867E1,4.77E1,-4.1223828E-2,8.561972E-2,9.809735E-2,3.1091195E-1,2.4279861E-1,4.3565565E-1,5.40312E-1,2.9269198E-1],"split_indices":[24,23,18,0,0,5,3,0,0,0,0,0,0,0,0],"split_type":[0,0,0,0,0,0,0,0,0,0,0,0,0,0,0],"sum_hessian":[3.5668945E4,3.446248E4,1.2064669E3,3.1524672E4,2.937807E3,4.693646E2,7.371023E2,2.9215951E4,2.3087212E3,2.060164E3,8.776428E2,3.1615128E2,1.532133E2,6.693347E2,6.776759E1],"tree_param":{"num_deleted":"0","num_feature":"89","num_nodes":"15","size_leaf_vector":"1"}},{"base_weights":[2.593485E-3,-4.2320243E-1,4.174316E0,-4.604776E-1,3.418085E0,2.8794246E0,5.9962993E0,-4.864573E-2,5.9769005E-2,4.6173316E-1,2.0735185E-1,-5.9718534E-4,3.5325506E-1,6.0477287E-1,7.658331E-2],"categories":[],"categories_nodes":[],"categories_segments":[],"categories_sizes":[],"default_left":[0,0,0,0,0,0,0,0,0,0,0,0,0,0,0],"id":13,"left_children":[1,3,5,7,9,11,13,-1,-1,-1,-1,-1,-1,-1,-1],"loss_changes":[5.5812348E4,4.0824102E3,6.8260156E3,7.766919E2,4.1839307E2,3.2159492E3,3.103125E2,0E0,0E0,0E0,0E0,0E0,0E0,0E0,0E0],"parents":[2147483647,0,0,1,1,2,2,3,3,4,4,5,5,6,6],"right_children":[2,4,6,8,10,12,14,-1,-1,-1,-1,-1,-1,-1,-1],"split_conditions":[3.429E1,1E0,1E0,2.222E1,2.17E1,9.5E0,1E0,-4.864573E-2,5.9769005E-2,4.6173316E-1,2.0735185E-1,-5.9718534E-4,3.5325506E-1,6.0477287E-1,7.658331E-2],"split_indices":[9,39,39,9,3,3,66,0,0,0,0,0,0,0,0],"split_type":[0,0,0,0,0,0,0,0,0,0,0,0,0,0,0],"sum_hessian":[3.141504E4,2.850688E4,2.9081582E3,2.8234746E4,2.7213547E2,1.7030406E3,1.2051177E3,2.755991E4,6.748363E2,1.4112657E2,1.3100888E2,3.1443832E2,1.3886023E3,1.1929364E3,1.2181241E1],"tree_param":{"num_deleted":"0","num_feature":"89","num_nodes":"15","size_leaf_vector":"1"}},{"base_weights":[-3.1698057E-3,-3.353467E-1,1.9615444E0,-4.1470402E-1,6.5207124E-1,2.5882512E-1,3.6301012E0,-4.4753436E-2,-1.5831608E-2,2.8413709E-3,1.6944782E-1,-3.2046754E-2,7.5047046E-2,4.0481946E-1,1.9336876E-1],"categories":[],"categories_nodes":[],"categories_segments":[],"categories_sizes":[],"default_left":[0,0,0,0,0,0,0,0,0,0,0,0,0,0,0],"id":14,"left_children":[1,3,5,7,9,11,13,-1,-1,-1,-1,-1,-1,-1,-1],"loss_changes":[8.706658E3,8.9465796E2,5.476229E3,8.829541E1,5.503738E2,2.7340268E2,6.712715E2,0E0,0E0,0E0,0E0,0E0,0E0,0E0,0E0],"parents":[2147483647,0,0,1,1,2,2,3,3,4,4,5,5,6,6],"right_children":[2,4,6,8,10,12,14,-1,-1,-1,-1,-1,-1,-1,-1],"split_conditions":[1E0,1.818E1,1.0603E0,7.48E0,1.0632E0,5.9E0,3.34E1,-4.4753436E-2,-1.5831608E-2,2.8413709E-3,1.6944782E-1,-3.2046754E-2,7.5047046E-2,4.0481946E-1,1.9336876E-1],"split_indices":[29,7,0,7,0,4,3,0,0,0,0,0,0,0,0],"split_type":[0,0,0,0,0,0,0,0,0,0,0,0,0,0,0],"sum_hessian":[1.3339228E4,1.1411788E4,1.9274395E3,1.0564656E4,8.471319E2,9.5526373E2,9.721757E2,9.361258E3,1.2033981E3,5.317244E2,3.1540747E2,4.380437E2,5.1722003E2,7.774917E2,1.9468405E2],"tree_param":{"num_deleted":"0","num_feature":"89","num_nodes":"15","size_leaf_vector":"1"}},{"base_weights":[3.5562885E-3,-4.428154E-1,4.5092332E-1,-4.783864E-1,-1.9482963E-1,8.552304E-1,-3.3437964E-1,-4.995702E-2,-3.9729554E-2,3.763506E-3,-3.315393E-2,1.3307087E-1,5.5796825E-3,-4.829248E-3,-4.3622993E-2],"categories":[],"categories_nodes":[],"categories_segments":[],"categories_sizes":[],"default_left":[0,0,0,0,0,0,0,0,0,0,0,0,0,0,0],"id":15,"left_children":[1,3,5,7,9,11,13,-1,-1,-1,-1,-1,-1,-1,-1],"loss_changes":[7.9542114E3,1.75125E2,6.3176895E3,2.881543E1,7.995164E1,4.9913135E3,1.965871E2,0E0,0E0,0E0,0E0,0E0,0E0,0E0,0E0],"parents":[2147483647,0,0,1,1,2,2,3,3,4,4,5,5,6,6],"right_children":[2,4,6,8,10,12,14,-1,-1,-1,-1,-1,-1,-1,-1],"split_conditions":[9.9E0,8.5E0,2.71E1,6.8E0,5.3E0,6.17E0,3.19E1,-4.995702E-2,-3.9729554E-2,3.763506E-3,-3.315393E-2,1.3307087E-1,5.5796825E-3,-4.829248E-3,-4.3622993E-2],"split_indices":[4,4,4,4,2,2,4,0,0,0,0,0,0,0,0],"split_type":[0,0,0,0,0,0,0,0,0,0,0,0,0,0,0],"sum_hessian":[3.982867E4,1.9935572E4,1.98931E4,1.7430238E4,2.505335E3,1.3132732E4,6.7603667E3,1.3804097E4,3.6261404E3,9.2594934E2,1.5793857E3,8.233442E3,4.8992896E3,1.7777946E3,4.9825723E3],"tree_param":{"num_deleted":"0","num_feature":"89","num_nodes":"15","size_leaf_vector":"1"}},{"base_weights":[2.9226075E-4,-4.3972227E-1,1.126166E0,-5.1042134E-1,1.18187584E-1,5.1076776E-1,1.6593082E0,-5.54982E-2,-2.4364758E-2,-2.0940695E-2,7.250954E-2,7.771495E-2,-3.438502E-2,1.1356167E-1,1.7988633E-1],"categories":[],"categories_nodes":[],"categories_segments":[],"categories_sizes":[],"default_left":[0,0,0,0,0,0,0,0,0,0,0,0,0,0,0],"id":16,"left_children":[1,3,5,7,9,11,13,-1,-1,-1,-1,-1,-1,-1,-1],"loss_changes":[3.2199701E4,1.8437139E3,5.9890566E3,4.9213965E2,1.0457185E3,1.9317393E3,7.088301E2,0E0,0E0,0E0,0E0,0E0,0E0,0E0,0E0],"parents":[2147483647,0,0,1,1,2,2,3,3,4,4,5,5,6,6],"right_children":[2,4,6,8,10,12,14,-1,-1,-1,-1,-1,-1,-1,-1],"split_conditions":[5.02E1,1.15E0,5E0,3.96E1,1.0584E0,1.03E0,1.0543E0,-5.54982E-2,-2.4364758E-2,-2.0940695E-2,7.250954E-2,7.771495E-2,-3.438502E-2,1.1356167E-1,1.7988633E-1],"split_indices":[3,87,65,3,0,14,0,0,0,0,0,0,0,0,0],"split_type":[0,0,0,0,0,0,0,0,0,0,0,0,0,0,0],"sum_hessian":[6.49924E4,4.672981E4,1.8262592E4,4.147564E4,5.2541655E3,8.479753E3,9.78284E3,3.5534875E4,5.940768E3,3.4121685E3,1.841997E3,6.465606E3,2.0141471E3,2.063266E3,7.719573E3],"tree_param":{"num_deleted":"0","num_feature":"89","num_nodes":"15","size_leaf_vector":"1"}},{"base_weights":[7.90479E-4,-2.3252419E-1,1.7146841E0,-2.588785E-1,3.04719E0,2.304438E0,9.782779E-2,5.3814646E-2,-3.0717192E-2,3.695353E-1,1.7920958E-1,1.8893628E-1,4.1670224E-1,9.941493E-2,-1.5076915E-2],"categories":[],"categories_nodes":[],"categories_segments":[],"categories_sizes":[],"default_left":[0,0,0,0,0,0,0,0,0,0,0,0,0,0,0],"id":17,"left_children":[1,3,5,7,9,11,13,-1,-1,-1,-1,-1,-1,-1,-1],"loss_changes":[9.200499E3,1.7492421E3,2.6263975E3,7.7335E2,1.1430017E2,1.5416807E3,1.6569388E2,0E0,0E0,0E0,0E0,0E0,0E0,0E0,0E0],"parents":[2147483647,0,0,1,1,2,2,3,3,4,4,5,5,6,6],"right_children":[2,4,6,8,10,12,14,-1,-1,-1,-1,-1,-1,-1,-1],"split_conditions":[1E0,1E0,1.49E1,7E1,1.053E0,1.5E1,1.79E1,5.3814646E-2,-3.0717192E-2,3.695353E-1,1.7920958E-1,1.8893628E-1,4.1670224E-1,9.941493E-2,-1.5076915E-2],"split_indices":[29,31,4,60,0,8,4,0,0,0,0,0,0,0,0],"split_type":[0,0,0,0,0,0,0,0,0,0,0,0,0,0,0],"sum_hessian":[2.3001506E4,2.0246434E4,2.7550715E3,2.0086988E4,1.594469E2,2.0177704E3,7.373012E2,1.1455006E3,1.8941486E4,1.0232796E2,5.7118942E1,1.6534773E3,3.6429306E2,1.5962845E2,5.776727E2],"tree_param":{"num_deleted":"0","num_feature":"89","num_nodes":"15","size_leaf_vector":"1"}},{"base_weights":[-7.191565E-4,-3.553941E-1,2.6933956E0,-4.2711693E-1,4.4638795E-1,-1.4529175E-1,5.5877E0,-4.9747452E-2,-2.4790367E-2,1.578355E-2,2.6808724E-1,-2.8325766E-2,3.4610674E-1,6.843094E-1,3.4232773E-2],"categories":[],"categories_nodes":[],"categories_segments":[],"categories_sizes":[],"default_left":[0,0,0,0,0,0,0,0,0,0,0,0,0,0,0],"id":18,"left_children":[1,3,5,7,9,11,13,-1,-1,-1,-1,-1,-1,-1,-1],"loss_changes":[1.1564903E4,6.154901E2,1.1573877E4,1.2296838E2,5.6308307E2,3.5359985E2,4.5815547E3,0E0,0E0,0E0,0E0,0E0,0E0,0E0,0E0],"parents":[2147483647,0,0,1,1,2,2,3,3,4,4,5,5,6,6],"right_children":[2,4,6,8,10,12,14,-1,-1,-1,-1,-1,-1,-1,-1],"split_conditions":[1E0,1.786E1,1.33E1,1.83E1,1E0,6.222E1,1.0664E0,-4.9747452E-2,-2.4790367E-2,1.578355E-2,2.6808724E-1,-2.8325766E-2,3.4610674E-1,6.843094E-1,3.4232773E-2],"split_indices":[29,7,4,4,32,7,0,0,0,0,0,0,0,0,0],"split_type":[0,0,0,0,0,0,0,0,0,0,0,0,0,0,0],"sum_hessian":[1.2101443E4,1.0695344E4,1.4060996E3,9.818924E3,8.764202E2,7.106091E2,6.9549054E2,7.045064E3,2.7738599E3,7.7827765E2,9.81426E1,6.8629443E2,2.431469E1,5.605955E2,1.3489497E2],"tree_param":{"num_deleted":"0","num_feature":"89","num_nodes":"15","size_leaf_vector":"1"}},{"base_weights":[1.8386132E-3,2.9120773E-1,-4.6533E-1,5.185758E-1,-2.8340766E-1,-2.4551614E-1,-5.238198E-1,7.3723845E-2,-3.711791E-2,-3.3091211E-3,-3.717671E-2,-4.6859976E-2,-6.2769274E-3,-4.468374E-2,-5.4338556E-2],"categories":[],"categories_nodes":[],"categories_segments":[],"categories_sizes":[],"default_left":[0,0,0,0,0,0,0,0,0,0,0,0,0,0,0],"id":19,"left_children":[1,3,5,7,9,11,13,-1,-1,-1,-1,-1,-1,-1,-1],"loss_changes":[8.372121E3,4.997133E3,3.036543E2,5.332412E3,2.39453E2,2.0271411E2,2.6882324E1,0E0,0E0,0E0,0E0,0E0,0E0,0E0,0E0],"parents":[2147483647,0,0,1,1,2,2,3,3,4,4,5,5,6,6],"right_children":[2,4,6,8,10,12,14,-1,-1,-1,-1,-1,-1,-1,-1],"split_conditions":[1.29E1,1.0609E0,1.62E1,2.025E1,6.47E0,2.91E1,1.99E1,7.3723845E-2,-3.711791E-2,-3.3091211E-3,-3.717671E-2,-4.6859976E-2,-6.2769274E-3,-4.468374E-2,-5.4338556E-2],"split_indices":[4,0,4,9,2,3,4,0,0,0,0,0,0,0,0],"split_type":[0,0,0,0,0,0,0,0,0,0,0,0,0,0,0],"sum_hessian":[6.1928617E4,3.824301E4,2.3685604E4,2.7402033E4,1.084098E4,4.982967E3,1.8702637E4,2.1997328E4,5.4047046E3,2.8315493E3,8.009431E3,2.2404497E3,2.742517E3,3.8078909E3,1.4894746E4],"tree_param":{"num_deleted":"0","num_feature":"89","num_nodes":"15","size_leaf_vector":"1"}},{"base_weights":[-9.6422463E-4,-2.4293193E-1,3.888084E0,-4.252411E-1,1.2071885E0,1.4561565E0,5.289319E0,-4.3661516E-2,1.4215699E-1,3.7776008E-1,-1.576391E-2,8.829593E-2,3.4401932E-1,1.6919121E-1,5.836343E-1],"categories":[],"categories_nodes":[],"categories_segments":[],"categories_sizes":[],"default_left":[0,0,0,0,0,0,0,0,0,0,0,0,0,0,0],"id":20,"left_children":[1,3,5,7,9,11,13,-1,-1,-1,-1,-1,-1,-1,-1],"loss_changes":[1.4839727E4,3.9260178E3,3.1276318E3,2.7743677E2,5.8218955E3,3.778576E2,1.1267236E3,0E0,0E0,0E0,0E0,0E0,0E0,0E0,0E0],"parents":[2147483647,0,0,1,1,2,2,3,3,4,4,5,5,6,6],"right_children":[2,4,6,8,10,12,14,-1,-1,-1,-1,-1,-1,-1,-1],"split_conditions":[8.872E1,1E0,1E0,1E0,6.15E0,1E0,2.24E1,-4.3661516E-2,1.4215699E-1,3.7776008E-1,-1.576391E-2,8.829593E-2,3.4401932E-1,1.6919121E-1,5.836343E-1],"split_indices":[5,29,29,31,4,44,3,0,0,0,0,0,0,0,0],"split_type":[0,0,0,0,0,0,0,0,0,0,0,0,0,0,0],"sum_hessian":[1.576935E4,1.4847523E4,9.21826E2,1.3191039E4,1.6564841E3,3.3857968E2,5.8324634E2,1.3112157E4,7.8881516E1,5.735868E2,1.0828973E3,2.6509442E2,7.3485245E1,7.818732E1,5.0505902E2],"tree_param":{"num_deleted":"0","num_feature":"89","num_nodes":"15","size_leaf_vector":"1"}},{"base_weights":[-2.1223865E-4,-4.6763077E-1,1.5125486E0,-5.020944E-1,8.4011346E-2,1.8410845E0,2.9200336E-1,-5.0677307E-2,1.7257169E-2,-2.8395522E-3,1.0117324E-1,2.2027655E-1,7.952962E-2,1.2198825E-1,-5.9818155E-3],"categories":[],"categories_nodes":[],"categories_segments":[],"categories_sizes":[],"default_left":[0,0,0,0,0,0,0,0,0,0,0,0,0,0,0],"id":21,"left_children":[1,3,5,7,9,11,13,-1,-1,-1,-1,-1,-1,-1,-1],"loss_changes":[1.5711129E4,3.2317163E2,2.1002832E3,5.0885254E1,1.04997406E2,1.5569141E3,3.6513287E2,0E0,0E0,0E0,0E0,0E0,0E0,0E0,0E0],"parents":[2147483647,0,0,1,1,2,2,3,3,4,4,5,5,6,6],"right_children":[2,4,6,8,10,12,14,-1,-1,-1,-1,-1,-1,-1,-1],"split_conditions":[2.27E1,1.94E1,5.25E1,4.26E0,4.81E0,4.91E0,6.06E0,-5.0677307E-2,1.7257169E-2,-2.8395522E-3,1.0117324E-1,2.2027655E-1,7.952962E-2,1.2198825E-1,-5.9818155E-3],"split_indices":[4,4,3,13,13,14,2,0,0,0,0,0,0,0,0],"split_type":[0,0,0,0,0,0,0,0,0,0,0,0,0,0,0],"sum_hessian":[2.2216896E4,1.6974035E4,5.242862E3,1.5977552E4,9.964834E2,4.1296426E3,1.1132189E3,1.5869223E4,1.0832928E2,8.8957556E2,1.06907845E2,3.0663132E3,1.0633293E3,3.0546085E2,8.0775806E2],"tree_param":{"num_deleted":"0","num_feature":"89","num_nodes":"15","size_leaf_vector":"1"}},{"base_weights":[-6.239313E-3,-4.518856E-1,3.6649358E0,-4.658245E-1,6.228883E-1,3.7984824E0,2.9429133E0,-4.680882E-2,2.528088E-3,3.4685355E-2,1.9072893E-1,2.2709611E-1,3.8457975E-1,3.0903897E-1,1.5624142E-1],"categories":[],"categories_nodes":[],"categories_segments":[],"categories_sizes":[],"default_left":[0,0,0,0,0,0,0,0,0,0,0,0,0,0,0],"id":22,"left_children":[1,3,5,7,9,11,13,-1,-1,-1,-1,-1,-1,-1,-1],"loss_changes":[3.6927203E4,3.0196436E2,2.0917969E2,2.24917E1,8.823511E1,1.27134766E2,6.663159E1,0E0,0E0,0E0,0E0,0E0,0E0,0E0,0E0],"parents":[2147483647,0,0,1,1,2,2,3,3,4,4,5,5,6,6],"right_children":[2,4,6,8,10,12,14,-1,-1,-1,-1,-1,-1,-1,-1],"split_conditions":[1E0,1E0,1.0667E0,9E1,7.067E1,9.5E0,5.76E1,-4.680882E-2,2.528088E-3,3.4685355E-2,1.9072893E-1,2.2709611E-1,3.8457975E-1,3.0903897E-1,1.5624142E-1],"split_indices":[25,80,0,60,5,3,3,0,0,0,0,0,0,0,0],"split_type":[0,0,0,0,0,0,0,0,0,0,0,0,0,0,0],"sum_hessian":[2.2568955E4,2.0127518E4,2.4414385E3,1.9871639E4,2.5587881E2,2.0527063E3,3.887322E2,1.9782271E4,8.936739E1,2.1309357E2,4.2785244E1,6.493538E1,1.9877709E3,3.4858618E2,4.014603E1],"tree_param":{"num_deleted":"0","num_feature":"89","num_nodes":"15","size_leaf_vector":"1"}},{"base_weights":[-2.1240846E-3,-1.857476E-1,7.403394E0,2.266275E0,-3.918821E-1,5.836012E0,1.0653467E1,5.574564E-2,2.9707322E-1,-4.080291E-2,3.447437E-1,6.4703697E-1,1.306708E-1,1.1583742E0,4.1984683E-1],"categories":[],"categories_nodes":[],"categories_segments":[],"categories_sizes":[],"default_left":[0,0,0,0,0,0,0,0,0,0,0,0,0,0,0],"id":23,"left_children":[1,3,5,7,9,11,13,-1,-1,-1,-1,-1,-1,-1,-1],"loss_changes":[1.9409965E4,7.0424224E3,1.6302676E3,1.2945425E3,7.969094E2,6.594536E2,5.568369E2,0E0,0E0,0E0,0E0,0E0,0E0,0E0,0E0],"parents":[2147483647,0,0,1,1,2,2,3,3,4,4,5,5,6,6],"right_children":[2,4,6,8,10,12,14,-1,-1,-1,-1,-1,-1,-1,-1],"split_conditions":[1E0,1.19E1,1E1,2.86E0,1E0,1E0,2.31E1,5.574564E-2,2.9707322E-1,-4.080291E-2,3.447437E-1,6.4703697E-1,1.306708E-1,1.1583742E0,4.1984683E-1],"split_indices":[37,3,4,9,36,25,4,0,0,0,0,0,0,0,0],"split_type":[0,0,0,0,0,0,0,0,0,0,0,0,0,0,0],"sum_hessian":[1.4274636E4,1.3931125E4,3.435108E2,1.0785759E3,1.285255E4,2.354136E2,1.08097206E2,3.1616577E2,7.624102E2,1.2800589E4,5.1960674E1,2.0563292E2,2.9780695E1,9.308106E1,1.5016142E1],"tree_param":{"num_deleted":"0","num_feature":"89","num_nodes":"15","size_leaf_vector":"1"}},{"base_weights":[6.425871E-3,-2.1262242E-2,2.3500965E0,-7.680846E-2,5.8383864E-1,2.5873792E0,1.3877155E0,-8.943429E-3,1.061635E-1,1.4721729E-2,9.9271454E-2,2.6592025E-1,7.4992664E-2,1.5456076E-1,5.724334E-3],"categories":[],"categories_nodes":[],"categories_segments":[],"categories_sizes":[],"default_left":[0,0,0,0,0,0,0,0,0,0,0,0,0,0,0],"id":24,"left_children":[1,3,5,7,9,11,13,-1,-1,-1,-1,-1,-1,-1,-1],"loss_changes":[2.7447498E3,1.4036995E3,1.0275635E2,5.493487E2,6.2558875E2,4.5322754E1,1.9981247E1,0E0,0E0,0E0,0E0,0E0,0E0,0E0,0E0],"parents":[2147483647,0,0,1,1,2,2,3,3,4,4,5,5,6,6],"right_children":[2,4,6,8,10,12,14,-1,-1,-1,-1,-1,-1,-1,-1],"split_conditions":[1E0,1E0,2.17E1,2.727E1,8.2E0,1E0,6.73E0,-8.943429E-3,1.061635E-1,1.4721729E-2,9.9271454E-2,2.6592025E-1,7.4992664E-2,1.5456076E-1,5.724334E-3],"split_indices":[55,71,4,18,4,25,10,0,0,0,0,0,0,0,0],"split_type":[0,0,0,0,0,0,0,0,0,0,0,0,0,0,0],"sum_hessian":[4.226354E4,4.177152E4,4.92018E2,3.82622E4,3.509321E3,3.9148676E2,1.0053126E2,3.7844934E4,4.1726523E2,1.6993025E3,1.8100184E3,3.7551834E2,1.5968391E1,8.902797E1,1.1503294E1],"tree_param":{"num_deleted":"0","num_feature":"89","num_nodes":"15","size_leaf_vector":"1"}},{"base_weights":[-1.3320798E-3,-4.6565026E-1,2.1330347E0,-4.9708223E-1,6.8880075E-1,1.32462E0,2.789158E0,-5.2087516E-2,-5.682708E-3,-2.38949E-2,1.397871E-1,8.079969E-2,2.5786626E-1,2.8837976E-1,1.1118319E-1],"categories":[],"categories_nodes":[],"categories_segments":[],"categories_sizes":[],"default_left":[0,0,0,0,0,0,0,0,0,0,0,0,0,0,0],"id":25,"left_children":[1,3,5,7,9,11,13,-1,-1,-1,-1,-1,-1,-1,-1],"loss_changes":[3.578363E4,1.0766475E3,3.4116406E3,3.0190234E2,5.1875604E2,1.8684507E3,5.556172E2,0E0,0E0,0E0,0E0,0E0,0E0,0E0,0E0],"parents":[2147483647,0,0,1,1,2,2,3,3,4,4,5,5,6,6],"right_children":[2,4,6,8,10,12,14,-1,-1,-1,-1,-1,-1,-1,-1],"split_conditions":[3E1,3.85E0,3.51E0,2.46E1,2.17E1,9.6E-1,3.7E-1,-5.2087516E-2,-5.682708E-3,-2.38949E-2,1.397871E-1,8.079969E-2,2.5786626E-1,2.8837976E-1,1.1118319E-1],"split_indices":[4,14,14,4,4,10,87,0,0,0,0,0,0,0,0],"split_type":[0,0,0,0,0,0,0,0,0,0,0,0,0,0,0],"sum_hessian":[3.6105406E4,2.9655814E4,6.4495933E3,2.8871527E4,7.8428827E2,2.8925457E3,3.5570474E3,2.7389055E4,1.4824717E3,3.3976566E2,4.4452264E2,2.0512288E3,8.4131683E2,3.3653286E3,1.917188E2],"tree_param":{"num_deleted":"0","num_feature":"89","num_nodes":"15","size_leaf_vector":"1"}},{"base_weights":[-1.2182682E-3,-2.1203241E-1,1.6020526E0,-3.6184037E-1,7.021811E-1,2.112803E0,-3.3671826E-1,-4.095235E-2,4.868334E-3,1.0006189E-1,-3.116466E-2,2.6850304E-1,1.3431917E-2,-3.8854446E-2,4.4988565E-2],"categories":[],"categories_nodes":[],"categories_segments":[],"categories_sizes":[],"default_left":[0,0,0,0,0,0,0,0,0,0,0,0,0,0,0],"id":26,"left_children":[1,3,5,7,9,11,13,-1,-1,-1,-1,-1,-1,-1,-1],"loss_changes":[1.2025787E4,4.307307E3,4.0971045E3,5.293218E2,1.3408115E3,3.702625E3,3.5468094E1,0E0,0E0,0E0,0E0,0E0,0E0,0E0,0E0],"parents":[2147483647,0,0,1,1,2,2,3,3,4,4,5,5,6,6],"right_children":[2,4,6,8,10,12,14,-1,-1,-1,-1,-1,-1,-1,-1],"split_conditions":[1E0,7.54E0,1E0,5.33E0,2.41E0,2.727E1,8.16E0,-4.095235E-2,4.868334E-3,1.0006189E-1,-3.116466E-2,2.6850304E-1,1.3431917E-2,-3.8854446E-2,4.4988565E-2],"split_indices":[23,2,25,18,13,9,2,0,0,0,0,0,0,0,0],"split_type":[0,0,0,0,0,0,0,0,0,0,0,0,0,0,0],"sum_hessian":[3.5579863E4,3.1447027E4,4.132835E3,2.702123E4,4.425797E3,3.271312E3,8.6152295E2,2.4211133E4,2.8100964E3,3.4199402E3,1.00585657E3,2.5365789E3,7.3473315E2,8.1016144E2,5.1361515E1],"tree_param":{"num_deleted":"0","num_feature":"89","num_nodes":"15","size_leaf_vector":"1"}},{"base_weights":[-4.582381E-3,-4.3731052E-1,2.6081991E0,-4.678218E-1,2.1414344E0,1.9701451E0,3.3554106E0,-4.9433794E-2,2.3624053E-2,1.6177729E-1,4.1185388E-1,1.4221582E-1,4.0152237E-1,3.3796212E-1,8.634078E-3],"categories":[],"categories_nodes":[],"categories_segments":[],"categories_sizes":[],"default_left":[0,0,0,0,0,0,0,0,0,0,0,0,0,0,0],"id":27,"left_children":[1,3,5,7,9,11,13,-1,-1,-1,-1,-1,-1,-1,-1],"loss_changes":[3.564784E4,2.128834E3,2.1190742E3,4.9958154E2,3.103025E2,2.6985732E3,1.5956836E2,0E0,0E0,0E0,0E0,0E0,0E0,0E0,0E0],"parents":[2147483647,0,0,1,1,2,2,3,3,4,4,5,5,6,6],"right_children":[2,4,6,8,10,12,14,-1,-1,-1,-1,-1,-1,-1,-1],"split_conditions":[2.963E1,1E0,1E0,9.41E0,2.143E1,1E0,1E0,-4.9433794E-2,2.3624053E-2,1.6177729E-1,4.1185388E-1,1.4221582E-1,4.0152237E-1,3.3796212E-1,8.634078E-3],"split_indices":[9,39,39,11,11,40,36,0,0,0,0,0,0,0,0],"split_type":[0,0,0,0,0,0,0,0,0,0,0,0,0,0,0],"sum_hessian":[3.1527262E4,2.704924E4,4.478022E3,2.6734762E4,3.1447748E2,2.4196858E3,2.0583362E3,2.5766127E4,9.686364E2,2.5162502E2,6.2852463E1,1.9111401E3,5.085456E2,2.0428839E3,1.545215E1],"tree_param":{"num_deleted":"0","num_feature":"89","num_nodes":"15","size_leaf_vector":"1"}},{"base_weights":[-4.0759845E-3,-3.2429224E-1,1.5780119E0,-4.1334888E-1,5.2439886E-1,2.684953E-1,2.5161166E0,-4.245177E-2,2.8214587E-2,-3.3895657E-3,1.0839492E-1,3.6180613E-3,1.426526E-1,1.11531295E-1,2.657098E-1],"categories":[],"categories_nodes":[],"categories_segments":[],"categories_sizes":[],"default_left":[0,0,0,0,0,0,0,0,0,0,0,0,0,0,0],"id":28,"left_children":[1,3,5,7,9,11,13,-1,-1,-1,-1,-1,-1,-1,-1],"loss_changes":[6.713659E3,8.3348425E2,2.7366523E3,7.785498E1,3.2797485E2,2.497901E2,2.4785156E2,0E0,0E0,0E0,0E0,0E0,0E0,0E0,0E0],"parents":[2147483647,0,0,1,1,2,2,3,3,4,4,5,5,6,6],"right_children":[2,4,6,8,10,12,14,-1,-1,-1,-1,-1,-1,-1,-1],"split_conditions":[1E0,1.584E1,5.83E0,1.5E2,1.0145E0,1.569E1,5.49E0,-4.245177E-2,2.8214587E-2,-3.3895657E-3,1.0839492E-1,3.6180613E-3,1.426526E-1,1.11531295E-1,2.657098E-1],"split_indices":[29,7,2,62,1,21,4,0,0,0,0,0,0,0,0],"split_type":[0,0,0,0,0,0,0,0,0,0,0,0,0,0,0],"sum_hessian":[1.3250502E4,1.1021706E4,2.2287969E3,9.976755E3,1.0449512E3,9.31619E2,1.2971777E3,9.820984E3,1.557705E2,5.231721E2,5.21779E2,7.7815393E2,1.5346509E2,1.2067303E2,1.1765048E3],"tree_param":{"num_deleted":"0","num_feature":"89","num_nodes":"15","size_leaf_vector":"1"}},{"base_weights":[3.5268283E-3,-4.338469E-1,4.1536173E-1,-4.7364247E-1,-1.8152864E-1,7.592722E-1,-3.2757702E-1,-4.767635E-2,3.2773964E-2,6.6287057E-3,-4.0139757E-2,1.1464554E-1,7.55201E-3,-7.1843043E-3,-4.3110516E-2],"categories":[],"categories_nodes":[],"categories_segments":[],"categories_sizes":[],"default_left":[0,0,0,0,0,0,0,0,0,0,0,0,0,0,0],"id":29,"left_children":[1,3,5,7,9,11,13,-1,-1,-1,-1,-1,-1,-1,-1],"loss_changes":[7.1598394E3,1.928357E2,5.231844E3,4.204956E1,1.4373972E2,3.704142E3,1.71047E2,0E0,0E0,0E0,0E0,0E0,0E0,0E0,0E0],"parents":[2147483647,0,0,1,1,2,2,3,3,4,4,5,5,6,6],"right_children":[2,4,6,8,10,12,14,-1,-1,-1,-1,-1,-1,-1,-1],"split_conditions":[1E1,8.5E0,2.71E1,5.5E-1,3.99E1,1.0616E0,3.23E1,-4.767635E-2,3.2773964E-2,6.6287057E-3,-4.0139757E-2,1.1464554E-1,7.55201E-3,-7.1843043E-3,-4.3110516E-2],"split_indices":[4,4,4,13,3,0,4,0,0,0,0,0,0,0,0],"split_type":[0,0,0,0,0,0,0,0,0,0,0,0,0,0,0],"sum_hessian":[3.9745496E4,1.9274053E4,2.0471443E4,1.6643977E4,2.6300757E3,1.3994442E4,6.4770015E3,1.658121E4,6.276609E1,1.235247E3,1.3948286E3,8.933335E3,5.061108E3,1.8697386E3,4.6072627E3],"tree_param":{"num_deleted":"0","num_feature":"89","num_nodes":"15","size_leaf_vector":"1"}},{"base_weights":[3.7128525E-3,-4.4601193E-1,9.581741E-1,-5.104995E-1,5.36187E-2,1.2597016E0,1.2233214E-1,-5.4923106E-2,-2.6887402E-2,-2.3188593E-2,5.9728898E-2,7.3776096E-2,1.4885122E-1,-2.3476303E-2,8.173423E-2],"categories":[],"categories_nodes":[],"categories_segments":[],"categories_sizes":[],"default_left":[0,0,0,0,0,0,0,0,0,0,0,0,0,0,0],"id":30,"left_children":[1,3,5,7,9,11,13,-1,-1,-1,-1,-1,-1,-1,-1],"loss_changes":[2.7797857E4,1.4186855E3,5.2259355E3,3.6389844E2,7.816476E2,1.8163086E3,1.3662366E3,0E0,0E0,0E0,0E0,0E0,0E0,0E0,0E0],"parents":[2147483647,0,0,1,1,2,2,3,3,4,4,5,5,6,6],"right_children":[2,4,6,8,10,12,14,-1,-1,-1,-1,-1,-1,-1,-1],"split_conditions":[4.85E1,1.15E0,1.49E1,3.93E1,1.0588E0,1.056E0,5E0,-5.4923106E-2,-2.6887402E-2,-2.3188593E-2,5.9728898E-2,7.3776096E-2,1.4885122E-1,-2.3476303E-2,8.173423E-2],"split_indices":[3,87,4,3,0,0,65,0,0,0,0,0,0,0,0],"split_type":[0,0,0,0,0,0,0,0,0,0,0,0,0,0,0],"sum_hessian":[6.47552E4,4.4015836E4,2.0739365E4,3.898561E4,5.0302266E3,1.5239725E4,5.4996416E3,3.3594645E4,5.390965E3,3.2978704E3,1.7323561E3,4.6482075E3,1.0591517E4,3.633009E3,1.8666324E3],"tree_param":{"num_deleted":"0","num_feature":"89","num_nodes":"15","size_leaf_vector":"1"}},{"base_weights":[4.8357656E-4,-2.2581798E-1,1.4221338E0,-2.9405224E-1,3.0923486E0,1.8141083E0,1.57281E-1,-3.196603E-2,2.1260457E-1,1.6616805E-1,6.705082E-1,2.4581492E-1,1.1353246E-1,8.136081E-2,-7.584342E-3],"categories":[],"categories_nodes":[],"categories_segments":[],"categories_sizes":[],"default_left":[0,0,0,0,0,0,0,0,0,0,0,0,0,0,0],"id":31,"left_children":[1,3,5,7,9,11,13,-1,-1,-1,-1,-1,-1,-1,-1],"loss_changes":[7.3775776E3,4.477585E3,1.5590942E3,1.2009448E3,2.0317253E3,1.0424648E3,1.1512224E2,0E0,0E0,0E0,0E0,0E0,0E0,0E0,0E0],"parents":[2147483647,0,0,1,1,2,2,3,3,4,4,5,5,6,6],"right_children":[2,4,6,8,10,12,14,-1,-1,-1,-1,-1,-1,-1,-1],"split_conditions":[1E0,1E0,1.47E1,1E0,1E0,5.538E1,1.79E1,-3.196603E-2,2.1260457E-1,1.6616805E-1,6.705082E-1,2.4581492E-1,1.1353246E-1,8.136081E-2,-7.584342E-3],"split_indices":[29,34,4,31,47,5,4,0,0,0,0,0,0,0,0],"split_type":[0,0,0,0,0,0,0,0,0,0,0,0,0,0,0],"sum_hessian":[2.29247E4,1.977744E4,3.14726E3,1.9380838E4,3.9660233E2,2.4015505E3,7.4570953E2,1.9179844E4,2.0099303E2,2.862009E2,1.104014E2,1.2291816E3,1.172369E3,1.9519806E2,5.505115E2],"tree_param":{"num_deleted":"0","num_feature":"89","num_nodes":"15","size_leaf_vector":"1"}},{"base_weights":[-1.5283901E-2,-3.5344866E-1,1.928142E0,-4.2830083E-1,3.9115903E-1,1.5861013E0,3.6892855E0,-4.33492E-2,6.341144E-2,1.4749306E-2,1.902536E-1,6.1655756E-2,2.1995664E-1,3.9848205E-1,4.649241E-2],"categories":[],"categories_nodes":[],"categories_segments":[],"categories_sizes":[],"default_left":[0,0,0,0,0,0,0,0,0,0,0,0,0,0,0],"id":32,"left_children":[1,3,5,7,9,11,13,-1,-1,-1,-1,-1,-1,-1,-1],"loss_changes":[7.938447E3,5.739127E2,1.0631045E3,5.1920288E1,3.4389078E2,8.88905E2,2.6851392E2,0E0,0E0,0E0,0E0,0E0,0E0,0E0,0E0],"parents":[2147483647,0,0,1,1,2,2,3,3,4,4,5,5,6,6],"right_children":[2,4,6,8,10,12,14,-1,-1,-1,-1,-1,-1,-1,-1],"split_conditions":[1E0,1.739E1,1.97E0,1E0,1E0,9.3E0,1.0661E0,-4.33492E-2,6.341144E-2,1.4749306E-2,1.902536E-1,6.1655756E-2,2.1995664E-1,3.9848205E-1,4.649241E-2],"split_indices":[29,7,13,31,32,7,0,0,0,0,0,0,0,0,0],"split_type":[0,0,0,0,0,0,0,0,0,0,0,0,0,0,0],"sum_hessian":[1.2077498E4,1.02891E4,1.7883982E3,9.351011E3,9.38089E2,1.5008995E3,2.874986E2,9.307428E3,4.3582554E1,8.100799E2,1.280091E2,5.8361957E2,9.1728E2,2.627187E2,2.477989E1],"tree_param":{"num_deleted":"0","num_feature":"89","num_nodes":"15","size_leaf_vector":"1"}},{"base_weights":[5.028055E-3,1.9440724E-1,-3.9230993E-1,-4.3204177E-2,6.3386375E-1,2.534666E-2,-4.1951922E-1,-2.9062724E-2,2.9057378E-2,7.66E-2,-4.15263E-2,-4.6732377E-2,4.0379547E-2,-4.7950424E-2,-3.3762377E-2],"categories":[],"categories_nodes":[],"categories_segments":[],"categories_sizes":[],"default_left":[0,0,0,0,0,0,0,0,0,0,0,0,0,0,0],"id":33,"left_children":[1,3,5,7,9,11,13,-1,-1,-1,-1,-1,-1,-1,-1],"loss_changes":[4.6514307E3,4.372139E3,2.2708936E2,2.2442705E3,2.0378423E3,2.2779156E2,9.103467E1,0E0,0E0,0E0,0E0,0E0,0E0,0E0,0E0],"parents":[2147483647,0,0,1,1,2,2,3,3,4,4,5,5,6,6],"right_children":[2,4,6,8,10,12,14,-1,-1,-1,-1,-1,-1,-1,-1],"split_conditions":[6.19E0,1E0,1.009E0,1E0,6.7E-1,1E0,1E0,-2.9062724E-2,2.9057378E-2,7.66E-2,-4.15263E-2,-4.6732377E-2,4.0379547E-2,-4.7950424E-2,-3.3762377E-2],"split_indices":[2,28,1,27,14,75,28,0,0,0,0,0,0,0,0],"split_type":[0,0,0,0,0,0,0,0,0,0,0,0,0,0,0],"sum_hessian":[6.1813555E4,4.186361E4,1.9949945E4,2.7171748E4,1.4691862E4,1.2182938E3,1.8731652E4,1.5606063E4,1.1565684E4,1.3049592E4,1.6422709E3,5.281107E2,6.9018317E2,1.0801008E4,7.930644E3],"tree_param":{"num_deleted":"0","num_feature":"89","num_nodes":"15","size_leaf_vector":"1"}},{"base_weights":[-2.2681856E-3,-2.6507214E-1,2.4105244E0,2.4793223E-1,-4.5191625E-1,2.7787192E0,6.304539E-1,7.04053E-2,-3.626653E-2,-4.7326665E-2,-1.866342E-2,2.969025E-1,-1.3378327E-2,2.2083635E-2,1.576891E-1],"categories":[],"categories_nodes":[],"categories_segments":[],"categories_sizes":[],"default_left":[0,0,0,0,0,0,0,0,0,0,0,0,0,0,0],"id":34,"left_children":[1,3,5,7,9,11,13,-1,-1,-1,-1,-1,-1,-1,-1],"loss_changes":[9.978183E3,1.3608477E3,1.0068779E3,1.0561102E3,5.8213867E1,7.1247754E2,1.0160657E2,0E0,0E0,0E0,0E0,0E0,0E0,0E0,0E0],"parents":[2147483647,0,0,1,1,2,2,3,3,4,4,5,5,6,6],"right_children":[2,4,6,8,10,12,14,-1,-1,-1,-1,-1,-1,-1,-1],"split_conditions":[8.5E1,5.7E0,5.7E0,6.06E0,1E0,1E0,1E0,7.04053E-2,-3.626653E-2,-4.7326665E-2,-1.866342E-2,2.969025E-1,-1.3378327E-2,2.2083635E-2,1.576891E-1],"split_indices":[5,4,4,9,44,23,44,0,0,0,0,0,0,0,0],"split_type":[0,0,0,0,0,0,0,0,0,0,0,0,0,0,0],"sum_hessian":[1.573535E4,1.4191586E4,1.5437638E3,3.7874644E3,1.0404122E4,1.2779198E3,2.6584402E2,2.168608E3,1.6188566E3,9.624842E3,7.792798E2,1.1997809E3,7.813897E1,1.8776094E2,7.8083084E1],"tree_param":{"num_deleted":"0","num_feature":"89","num_nodes":"15","size_leaf_vector":"1"}},{"base_weights":[1.5607222E-3,-3.518204E-1,1.3988534E0,-4.3462336E-1,3.9775637E-1,1.6514648E0,6.16443E-1,-4.5271624E-2,-4.04116E-3,2.4765713E-2,1.0877412E-1,9.638848E-2,2.0645793E-1,1.10659435E-1,-1.2535602E-3],"categories":[],"categories_nodes":[],"categories_segments":[],"categories_sizes":[],"default_left":[0,0,0,0,0,0,0,0,0,0,0,0,0,0,0],"id":35,"left_children":[1,3,5,7,9,11,13,-1,-1,-1,-1,-1,-1,-1,-1],"loss_changes":[1.0941047E4,1.0979036E3,8.802168E2,1.1313867E2,1.8054288E2,9.536074E2,3.3866724E2,0E0,0E0,0E0,0E0,0E0,0E0,0E0,0E0],"parents":[2147483647,0,0,1,1,2,2,3,3,4,4,5,5,6,6],"right_children":[2,4,6,8,10,12,14,-1,-1,-1,-1,-1,-1,-1,-1],"split_conditions":[2.61E0,1.32E0,2.04E0,1.19E0,1.31E0,4.4E0,3.8E0,-4.5271624E-2,-4.04116E-3,2.4765713E-2,1.0877412E-1,9.638848E-2,2.0645793E-1,1.10659435E-1,-1.2535602E-3],"split_indices":[13,14,10,13,13,13,14,0,0,0,0,0,0,0,0],"split_type":[0,0,0,0,0,0,0,0,0,0,0,0,0,0,0],"sum_hessian":[2.2152383E4,1.7681447E4,4.4709355E3,1.5924264E4,1.7571827E3,3.3773672E3,1.0935684E3,1.5223146E4,7.0111725E2,1.4463005E3,3.108822E2,1.2706857E3,2.1066814E3,6.1458234E2,4.78986E2],"tree_param":{"num_deleted":"0","num_feature":"89","num_nodes":"15","size_leaf_vector":"1"}},{"base_weights":[-1.4165423E-2,-4.4857785E-1,2.5908866E0,-4.6268585E-1,5.7869256E-1,2.304395E0,2.7747614E0,-4.7926627E-2,-3.98331E-2,2.2081427E-2,1.3457821E-1,2.4817662E-1,1.7733535E-1,2.788466E-1,8.843341E-2],"categories":[],"categories_nodes":[],"categories_segments":[],"categories_sizes":[],"default_left":[0,0,0,0,0,0,0,0,0,0,0,0,0,0,0],"id":36,"left_children":[1,3,5,7,9,11,13,-1,-1,-1,-1,-1,-1,-1,-1],"loss_changes":[2.5412463E4,2.7935156E2,1.5292383E2,1.9163086E1,6.970522E1,1.0761426E2,4.2676758E1,0E0,0E0,0E0,0E0,0E0,0E0,0E0,0E0],"parents":[2147483647,0,0,1,1,2,2,3,3,4,4,5,5,6,6],"right_children":[2,4,6,8,10,12,14,-1,-1,-1,-1,-1,-1,-1,-1],"split_conditions":[1E0,1E0,3.415E1,4.9E0,5.479E1,9.5E0,6.6E1,-4.7926627E-2,-3.98331E-2,2.2081427E-2,1.3457821E-1,2.4817662E-1,1.7733535E-1,2.788466E-1,8.843341E-2],"split_indices":[25,80,5,9,5,4,58,0,0,0,0,0,0,0,0],"split_type":[0,0,0,0,0,0,0,0,0,0,0,0,0,0,0],"sum_hessian":[2.245364E4,1.9246068E4,3.207572E3,1.8987154E4,2.5891568E2,1.2654926E3,1.9420795E3,1.5077454E4,3.9096987E3,1.7892879E2,7.99869E1,9.423467E2,3.2314587E2,1.9267831E3,1.5296357E1],"tree_param":{"num_deleted":"0","num_feature":"89","num_nodes":"15","size_leaf_vector":"1"}},{"base_weights":[-9.654166E-3,1.8716372E0,-3.263003E-1,2.202925E0,-0E0,-3.6699477E-1,1.6927205E0,8.498552E-2,2.7699074E-1,-1.4535278E-2,3.1173053E-1,3.7747115E-4,-4.5058973E-2,3.3374324E-1,8.310958E-2],"categories":[],"categories_nodes":[],"categories_segments":[],"categories_sizes":[],"default_left":[0,0,0,0,0,0,0,0,0,0,0,0,0,0,0],"id":37,"left_children":[1,3,5,7,9,11,13,-1,-1,-1,-1,-1,-1,-1,-1],"loss_changes":[8.508514E3,1.2768794E3,1.00468286E3,1.3338887E3,1.4038103E2,3.7194458E2,3.335647E2,0E0,0E0,0E0,0E0,0E0,0E0,0E0,0E0],"parents":[2147483647,0,0,1,1,2,2,3,3,4,4,5,5,6,6],"right_children":[2,4,6,8,10,12,14,-1,-1,-1,-1,-1,-1,-1,-1],"split_conditions":[1.45E1,1E0,1E0,2.94E0,1E0,2.3E1,8.3E0,8.498552E-2,2.7699074E-1,-1.4535278E-2,3.1173053E-1,3.7747115E-4,-4.5058973E-2,3.3374324E-1,8.310958E-2],"split_indices":[3,39,76,9,36,3,88,0,0,0,0,0,0,0,0],"split_type":[0,0,0,0,0,0,0,0,0,0,0,0,0,0,0],"sum_hessian":[1.4281589E4,2.0557832E3,1.2225806E4,1.7465602E3,3.0922305E2,1.1986152E4,2.3965268E2,5.1755865E2,1.2290015E3,2.972773E2,1.19457245E1,2.2036926E3,9.78246E3,8.022084E1,1.5943184E2],"tree_param":{"num_deleted":"0","num_feature":"89","num_nodes":"15","size_leaf_vector":"1"}},{"base_weights":[6.317467E-3,-1.9680617E-2,1.8514775E0,-7.421722E-2,5.420436E-1,1.9958892E0,1.128732E0,-9.2619825E-3,6.672957E-2,8.220568E-2,2.2312733E-3,2.0301667E-1,2.0202816E-2,7.6325245E-2,1.3913038E-1],"categories":[],"categories_nodes":[],"categories_segments":[],"categories_sizes":[],"default_left":[0,0,0,0,0,0,0,0,0,0,0,0,0,0,0],"id":38,"left_children":[1,3,5,7,9,11,13,-1,-1,-1,-1,-1,-1,-1,-1],"loss_changes":[2.0190518E3,1.2701682E3,5.4213257E1,5.155091E2,5.3320276E2,2.7105957E1,6.052658E0,0E0,0E0,0E0,0E0,0E0,0E0,0E0,0E0],"parents":[2147483647,0,0,1,1,2,2,3,3,4,4,5,5,6,6],"right_children":[2,4,6,8,10,12,14,-1,-1,-1,-1,-1,-1,-1,-1],"split_conditions":[1E0,1E0,2.31E1,1E0,1E0,1E0,5.99E0,-9.2619825E-3,6.672957E-2,8.220568E-2,2.2312733E-3,2.0301667E-1,2.0202816E-2,7.6325245E-2,1.3913038E-1],"split_indices":[55,49,4,70,81,29,2,0,0,0,0,0,0,0,0],"split_type":[0,0,0,0,0,0,0,0,0,0,0,0,0,0,0],"sum_hessian":[4.2053625E4,4.1470676E4,5.8294727E2,3.780353E4,3.6671455E3,4.8217004E2,1.00777214E2,3.6890754E4,9.1277594E2,2.381411E3,1.2857345E3,4.724253E2,9.744741E0,4.6507393E1,5.426982E1],"tree_param":{"num_deleted":"0","num_feature":"89","num_nodes":"15","size_leaf_vector":"1"}},{"base_weights":[-1.6510559E-3,-4.659682E-1,1.667524E0,-5.0071234E-1,4.301903E-1,7.68144E-1,1.9620384E0,-5.0618906E-2,8.0779634E-2,1.5649512E-2,2.0124316E-1,4.9184E-2,1.9535615E-1,1.66852E-1,2.4012223E-1],"categories":[],"categories_nodes":[],"categories_segments":[],"categories_sizes":[],"default_left":[0,0,0,0,0,0,0,0,0,0,0,0,0,0,0],"id":39,"left_children":[1,3,5,7,9,11,13,-1,-1,-1,-1,-1,-1,-1,-1],"loss_changes":[2.7818805E4,8.748804E2,2.0640273E3,1.9425977E2,4.5152142E2,6.285314E2,7.4745703E2,0E0,0E0,0E0,0E0,0E0,0E0,0E0,0E0],"parents":[2147483647,0,0,1,1,2,2,3,3,4,4,5,5,6,6],"right_children":[2,4,6,8,10,12,14,-1,-1,-1,-1,-1,-1,-1,-1],"split_conditions":[2.96E1,3.12E0,1.01E0,1E0,3.45E0,4.82E0,9.6E-1,-5.0618906E-2,8.0779634E-2,1.5649512E-2,2.0124316E-1,4.9184E-2,1.9535615E-1,1.66852E-1,2.4012223E-1],"split_indices":[4,14,14,69,10,10,10,0,0,0,0,0,0,0,0],"split_type":[0,0,0,0,0,0,0,0,0,0,0,0,0,0,0],"sum_hessian":[3.5891613E4,2.8081875E4,7.809738E3,2.7035473E4,1.0464025E3,1.9288942E3,5.8808438E3,2.6924564E4,1.1090853E2,8.942805E2,1.5212193E2,1.5669865E3,3.6190775E2,3.5314773E3,2.3493667E3],"tree_param":{"num_deleted":"0","num_feature":"89","num_nodes":"15","size_leaf_vector":"1"}},{"base_weights":[8.2206546E-4,-1.4231719E-1,2.4794278E0,-3.0431736E-1,1.1373193E0,2.0010362E0,2.7535505E0,-4.1315358E-2,5.8234792E-2,1.5355848E-1,-3.171652E-2,2.1428166E-1,3.2349434E-2,3.0292773E-1,2.4478684E-1],"categories":[],"categories_nodes":[],"categories_segments":[],"categories_sizes":[],"default_left":[0,0,0,0,0,0,0,0,0,0,0,0,0,0,0],"id":40,"left_children":[1,3,5,7,9,11,13,-1,-1,-1,-1,-1,-1,-1,-1],"loss_changes":[1.257043E4,6.9426636E3,2.3944531E2,2.8692466E3,2.1818877E3,1.6610059E2,8.476758E1,0E0,0E0,0E0,0E0,0E0,0E0,0E0,0E0],"parents":[2147483647,0,0,1,1,2,2,3,3,4,4,5,5,6,6],"right_children":[2,4,6,8,10,12,14,-1,-1,-1,-1,-1,-1,-1,-1],"split_conditions":[1E0,1E0,3.03E0,1.0795E0,1E0,3.23E1,1E0,-4.1315358E-2,5.8234792E-2,1.5355848E-1,-3.171652E-2,2.1428166E-1,3.2349434E-2,3.0292773E-1,2.4478684E-1],"split_indices":[24,23,18,0,25,4,23,0,0,0,0,0,0,0,0],"split_type":[0,0,0,0,0,0,0,0,0,0,0,0,0,0,0],"sum_hessian":[3.5421758E4,3.348916E4,1.9325951E3,2.9727744E4,3.761416E3,7.107205E2,1.2218746E3,2.6479402E4,3.2483425E3,2.9532432E3,8.081728E2,6.543935E2,5.632699E1,6.32286E2,5.895886E2],"tree_param":{"num_deleted":"0","num_feature":"89","num_nodes":"15","size_leaf_vector":"1"}},{"base_weights":[-1.9930832E-3,-4.3900952E-1,1.9604012E0,-4.6898615E-1,9.09504E-1,2.602688E-1,2.1177626E0,-4.8574366E-2,3.132137E-2,1.8317012E-1,4.396692E-2,-1.0192429E-2,1.0334938E-1,2.3849478E-1,1.1679914E-1],"categories":[],"categories_nodes":[],"categories_segments":[],"categories_sizes":[],"default_left":[0,0,0,0,0,0,0,0,0,0,0,0,0,0,0],"id":41,"left_children":[1,3,5,7,9,11,13,-1,-1,-1,-1,-1,-1,-1,-1],"loss_changes":[2.6971223E4,1.0402471E3,1.5294004E3,3.30292E2,2.3895187E2,1.3760587E2,1.3220703E3,0E0,0E0,0E0,0E0,0E0,0E0,0E0,0E0],"parents":[2147483647,0,0,1,1,2,2,3,3,4,4,5,5,6,6],"right_children":[2,4,6,8,10,12,14,-1,-1,-1,-1,-1,-1,-1,-1],"split_conditions":[2.727E1,1.818E1,8.7E0,1.905E1,2.57E1,1.0113E0,3E1,-4.8574366E-2,3.132137E-2,1.8317012E-1,4.396692E-2,-1.0192429E-2,1.0334938E-1,2.3849478E-1,1.1679914E-1],"split_indices":[9,11,3,9,3,1,3,0,0,0,0,0,0,0,0],"split_type":[0,0,0,0,0,0,0,0,0,0,0,0,0,0,0],"sum_hessian":[3.1447508E4,2.5721348E4,5.7261597E3,2.5163809E4,5.5753937E2,4.8597668E2,5.240183E3,2.4637768E4,5.260404E2,1.857586E2,3.7178076E2,3.3129755E2,1.5467915E2,4.0868103E3,1.1533728E3],"tree_param":{"num_deleted":"0","num_feature":"89","num_nodes":"15","size_leaf_vector":"1"}},{"base_weights":[-7.5936527E-3,-3.2360238E-1,1.3361443E0,-4.1417637E-1,4.7419566E-1,1.2449537E-1,1.9711283E0,-4.2037107E-2,1.17655575E-1,-7.4411905E-3,1.028196E-1,4.4174995E-2,-3.674696E-2,2.1424472E-1,1.1442461E-1],"categories":[],"categories_nodes":[],"categories_segments":[],"categories_sizes":[],"default_left":[0,0,0,0,0,0,0,0,0,0,0,0,0,0,0],"id":42,"left_children":[1,3,5,7,9,11,13,-1,-1,-1,-1,-1,-1,-1,-1],"loss_changes":[5.588656E3,7.7041614E2,1.9255967E3,9.4603516E1,3.3116632E2,1.3522226E2,2.2549023E2,0E0,0E0,0E0,0E0,0E0,0E0,0E0,0E0],"parents":[2147483647,0,0,1,1,2,2,3,3,4,4,5,5,6,6],"right_children":[2,4,6,8,10,12,14,-1,-1,-1,-1,-1,-1,-1,-1],"split_conditions":[1E0,1.6E1,1.0573E0,1E0,1.0606E0,6.667E1,3.38E1,-4.2037107E-2,1.17655575E-1,-7.4411905E-3,1.028196E-1,4.4174995E-2,-3.674696E-2,2.1424472E-1,1.1442461E-1],"split_indices":[29,7,0,66,0,5,3,0,0,0,0,0,0,0,0],"split_type":[0,0,0,0,0,0,0,0,0,0,0,0,0,0,0],"sum_hessian":[1.3159438E4,1.0655586E4,2.5038518E3,9.570951E3,1.084635E3,8.621967E2,1.6416552E3,9.535712E3,3.5238884E1,5.450037E2,5.396313E2,5.2533765E2,3.368591E2,1.356612E3,2.8504306E2],"tree_param":{"num_deleted":"0","num_feature":"89","num_nodes":"15","size_leaf_vector":"1"}},{"base_weights":[4.5108246E-3,-4.3553883E-1,3.7238634E-1,-4.7500023E-1,-2.3906687E-1,6.4776593E-1,-3.10697E-1,-4.781668E-2,2.9676676E-2,5.8471505E-3,-3.3034258E-2,9.613532E-2,4.1572964E-3,-3.3331004E-3,-4.170677E-2],"categories":[],"categories_nodes":[],"categories_segments":[],"categories_sizes":[],"default_left":[0,0,0,0,0,0,0,0,0,0,0,0,0,0,0],"id":43,"left_children":[1,3,5,7,9,11,13,-1,-1,-1,-1,-1,-1,-1,-1],"loss_changes":[6.425994E3,1.3930908E2,4.0678845E3,3.718506E1,8.2562836E1,2.9286328E3,1.8288623E2,0E0,0E0,0E0,0E0,0E0,0E0,0E0,0E0],"parents":[2147483647,0,0,1,1,2,2,3,3,4,4,5,5,6,6],"right_children":[2,4,6,8,10,12,14,-1,-1,-1,-1,-1,-1,-1,-1],"split_conditions":[9.7E0,8E0,2.71E1,4.1E-1,4.83E0,6.12E0,3.19E1,-4.781668E-2,2.9676676E-2,5.8471505E-3,-3.3034258E-2,9.613532E-2,4.1572964E-3,-3.3331004E-3,-4.170677E-2],"split_indices":[4,4,4,13,2,2,4,0,0,0,0,0,0,0,0],"split_type":[0,0,0,0,0,0,0,0,0,0,0,0,0,0,0],"sum_hessian":[3.9691805E4,1.8071807E4,2.1619996E4,1.5043393E4,3.0284148E3,1.54092295E4,6.2107676E3,1.498372E4,5.9672955E1,7.0890265E2,2.3195122E3,1.0154012E4,5.255218E3,1.7244958E3,4.486272E3],"tree_param":{"num_deleted":"0","num_feature":"89","num_nodes":"15","size_leaf_vector":"1"}},{"base_weights":[4.7887134E-4,-4.5774764E-1,8.1252694E-1,-5.016757E-1,9.945206E-2,1.0648463E0,7.867476E-2,-5.3887572E-2,-2.4830313E-2,-2.126493E-2,5.9332352E-2,5.971664E-2,1.2606983E-1,-2.47872E-2,7.114724E-2],"categories":[],"categories_nodes":[],"categories_segments":[],"categories_sizes":[],"default_left":[0,0,0,0,0,0,0,0,0,0,0,0,0,0,0],"id":44,"left_children":[1,3,5,7,9,11,13,-1,-1,-1,-1,-1,-1,-1,-1],"loss_changes":[2.393796E4,1.0070176E3,4.295959E3,3.5838867E2,4.637911E2,1.5787207E3,1.2282509E3,0E0,0E0,0E0,0E0,0E0,0E0,0E0,0E0],"parents":[2147483647,0,0,1,1,2,2,3,3,4,4,5,5,6,6],"right_children":[2,4,6,8,10,12,14,-1,-1,-1,-1,-1,-1,-1,-1],"split_conditions":[4.65E1,1.52E0,1.49E1,3.93E1,1.0579E0,5.53E0,5E0,-5.3887572E-2,-2.4830313E-2,-2.126493E-2,5.9332352E-2,5.971664E-2,1.2606983E-1,-2.47872E-2,7.114724E-2],"split_indices":[3,87,4,3,0,2,65,0,0,0,0,0,0,0,0],"split_type":[0,0,0,0,0,0,0,0,0,0,0,0,0,0,0],"sum_hessian":[6.4327227E4,4.1122293E4,2.3204932E4,3.811882E4,3.0034714E3,1.7266295E4,5.938637E3,3.3233992E4,4.8848306E3,1.8400112E3,1.1634601E3,5.0999155E3,1.2166379E4,3.9170684E3,2.0215686E3],"tree_param":{"num_deleted":"0","num_feature":"89","num_nodes":"15","size_leaf_vector":"1"}},{"base_weights":[7.3371787E-4,-8.40446E-2,1.4502423E0,-1.0763652E-1,1.8151098E0,1.9869602E0,2.7678823E-1,4.1319956E-3,-3.688295E-2,2.337843E-1,8.609011E-2,1.0619118E-1,3.0087826E-1,-1.0850198E-2,6.844012E-2],"categories":[],"categories_nodes":[],"categories_segments":[],"categories_sizes":[],"default_left":[0,0,0,0,0,0,0,0,0,0,0,0,0,0,0],"id":45,"left_children":[1,3,5,7,9,11,13,-1,-1,-1,-1,-1,-1,-1,-1],"loss_changes":[2.8143315E3,9.67896E2,7.940818E2,8.314912E2,1.2574945E2,8.106531E2,6.3416164E1,0E0,0E0,0E0,0E0,0E0,0E0,0E0,0E0],"parents":[2147483647,0,0,1,1,2,2,3,3,4,4,5,5,6,6],"right_children":[2,4,6,8,10,12,14,-1,-1,-1,-1,-1,-1,-1,-1],"split_conditions":[1.939E1,1E0,6.08E0,6.05E0,2.73E1,8E0,1E0,4.1319956E-3,-3.688295E-2,2.337843E-1,8.609011E-2,1.0619118E-1,3.0087826E-1,-1.0850198E-2,6.844012E-2],"split_indices":[8,31,2,2,3,7,43,0,0,0,0,0,0,0,0],"split_type":[0,0,0,0,0,0,0,0,0,0,0,0,0,0,0],"sum_hessian":[2.288867E4,2.162503E4,1.2636404E3,2.1361857E4,2.6317136E2,8.656842E2,3.9795618E2,1.3602662E4,7.759197E3,1.6771864E2,9.545271E1,4.567742E2,4.0891E2,2.0420581E2,1.9375037E2],"tree_param":{"num_deleted":"0","num_feature":"89","num_nodes":"15","size_leaf_vector":"1"}},{"base_weights":[-1.44777745E-2,-3.434867E-1,1.5825859E0,-4.1995165E-1,3.5957697E-1,-2.0376535E-1,2.5716486E0,-4.9739774E-2,-2.3392422E-2,-3.0980363E-2,9.8434195E-2,-2.9785236E-2,2.7565992E-1,2.9508588E-1,6.1608102E-2],"categories":[],"categories_nodes":[],"categories_segments":[],"categories_sizes":[],"default_left":[0,0,0,0,0,0,0,0,0,0,0,0,0,0,0],"id":46,"left_children":[1,3,5,7,9,11,13,-1,-1,-1,-1,-1,-1,-1,-1],"loss_changes":[6.308747E3,5.3564453E2,3.6263994E3,1.28578E2,4.0957916E2,2.0338419E2,9.72791E2,0E0,0E0,0E0,0E0,0E0,0E0,0E0,0E0],"parents":[2147483647,0,0,1,1,2,2,3,3,4,4,5,5,6,6],"right_children":[2,4,6,8,10,12,14,-1,-1,-1,-1,-1,-1,-1,-1],"split_conditions":[1E0,1.739E1,1.25E1,1.77E1,1.52E1,7.75E1,6.21E0,-4.9739774E-2,-2.3392422E-2,-3.0980363E-2,9.8434195E-2,-2.9785236E-2,2.7565992E-1,2.9508588E-1,6.1608102E-2],"split_indices":[29,7,4,4,4,7,2,0,0,0,0,0,0,0,0],"split_type":[0,0,0,0,0,0,0,0,0,0,0,0,0,0,0],"sum_hessian":[1.2004649E4,9.955679E3,2.0489714E3,8.980876E3,9.7480286E2,7.304006E2,1.3185708E3,6.3356016E3,2.6452742E3,4.7039172E2,5.0441113E2,7.097927E2,2.0607815E1,1.1032585E3,2.1531235E2],"tree_param":{"num_deleted":"0","num_feature":"89","num_nodes":"15","size_leaf_vector":"1"}},{"base_weights":[4.3529742E-3,2.7098098E-1,-4.4536972E-1,3.801897E-1,-4.12334E-1,-2.1205257E-1,-5.083595E-1,5.323512E-2,-5.958122E-3,-4.4782724E-2,-1.5550512E-2,-3.3375245E-2,3.9058723E-3,-4.2315375E-2,-5.3342026E-2],"categories":[],"categories_nodes":[],"categories_segments":[],"categories_sizes":[],"default_left":[0,0,0,0,0,0,0,0,0,0,0,0,0,0,0],"id":47,"left_children":[1,3,5,7,9,11,13,-1,-1,-1,-1,-1,-1,-1,-1],"loss_changes":[7.38067E3,2.884058E3,3.3587744E2,2.2301929E3,4.7899048E1,1.4929135E2,3.7279297E1,0E0,0E0,0E0,0E0,0E0,0E0,0E0,0E0],"parents":[2147483647,0,0,1,1,2,2,3,3,4,4,5,5,6,6],"right_children":[2,4,6,8,10,12,14,-1,-1,-1,-1,-1,-1,-1,-1],"split_conditions":[1.26E1,2.759E1,1.58E1,1.0152E0,9.1E-1,1E0,1.99E1,5.323512E-2,-5.958122E-3,-4.4782724E-2,-1.5550512E-2,-3.3375245E-2,3.9058723E-3,-4.2315375E-2,-5.3342026E-2],"split_indices":[4,9,4,1,87,27,4,0,0,0,0,0,0,0,0],"split_type":[0,0,0,0,0,0,0,0,0,0,0,0,0,0,0],"sum_hessian":[6.154996E4,3.864252E4,2.2907443E4,3.331941E4,5.3231074E3,4.8743164E3,1.8033125E4,2.4755506E4,8.563905E3,4.6726685E3,6.5043896E2,3.2850222E3,1.5892943E3,4.1136943E3,1.3919432E4],"tree_param":{"num_deleted":"0","num_feature":"89","num_nodes":"15","size_leaf_vector":"1"}},{"base_weights":[-1.2754651E-2,-2.6976192E-1,1.7444556E0,2.4315129E-1,-4.3636164E-1,6.876858E-1,2.2077842E0,6.811063E-2,-3.6402717E-2,-4.639773E-2,-1.1153248E-2,2.3841923E-2,1.20352685E-1,2.5580344E-1,7.778994E-2],"categories":[],"categories_nodes":[],"categories_segments":[],"categories_sizes":[],"default_left":[0,0,0,0,0,0,0,0,0,0,0,0,0,0,0],"id":48,"left_children":[1,3,5,7,9,11,13,-1,-1,-1,-1,-1,-1,-1,-1],"loss_changes":[7.0604795E3,1.1660651E3,9.714258E2,8.901026E2,9.180127E1,1.3990103E2,6.872925E2,0E0,0E0,0E0,0E0,0E0,0E0,0E0,0E0],"parents":[2147483647,0,0,1,1,2,2,3,3,4,4,5,5,6,6],"right_children":[2,4,6,8,10,12,14,-1,-1,-1,-1,-1,-1,-1,-1],"split_conditions":[8.333E1,5.3E0,2.69E1,6.15E0,1E0,9.245E1,5.26E0,6.811063E-2,-3.6402717E-2,-4.639773E-2,-1.1153248E-2,2.3841923E-2,1.20352685E-1,2.5580344E-1,7.778994E-2],"split_indices":[5,4,3,9,44,5,4,0,0,0,0,0,0,0,0],"split_type":[0,0,0,0,0,0,0,0,0,0,0,0,0,0,0],"sum_hessian":[1.5632815E4,1.363991E4,1.9929058E3,3.3427083E3,1.0297202E4,6.094012E2,1.3835045E3,1.9426549E3,1.4000532E3,9.487227E3,8.099749E2,3.2804584E2,2.8135535E2,1.1096437E3,2.738609E2],"tree_param":{"num_deleted":"0","num_feature":"89","num_nodes":"15","size_leaf_vector":"1"}},{"base_weights":[1.5808869E-3,-4.651279E-1,1.1106724E0,-4.9792895E-1,3.8172755E-2,1.2998246E0,1.5343383E-1,-5.0242007E-2,-5.4310313E-3,-7.331297E-3,5.2343786E-2,1.469249E-1,4.9077388E-2,7.269192E-2,-1.7728841E-2],"categories":[],"categories_nodes":[],"categories_segments":[],"categories_sizes":[],"default_left":[0,0,0,0,0,0,0,0,0,0,0,0,0,0,0],"id":49,"left_children":[1,3,5,7,9,11,13,-1,-1,-1,-1,-1,-1,-1,-1],"loss_changes":[1.1449067E4,2.5740796E2,1.1845679E3,2.8595947E1,5.198676E1,7.466826E2,2.0625685E2,0E0,0E0,0E0,0E0,0E0,0E0,0E0,0E0],"parents":[2147483647,0,0,1,1,2,2,3,3,4,4,5,5,6,6],"right_children":[2,4,6,8,10,12,14,-1,-1,-1,-1,-1,-1,-1,-1],"split_conditions":[2.24E1,1.94E1,5.49E1,3.96E0,4.21E0,5.91E0,1.0651E0,-5.0242007E-2,-5.4310313E-3,-7.331297E-3,5.2343786E-2,1.469249E-1,4.9077388E-2,7.269192E-2,-1.7728841E-2],"split_indices":[4,4,3,13,13,14,0,0,0,0,0,0,0,0,0],"split_type":[0,0,0,0,0,0,0,0,0,0,0,0,0,0,0],"sum_hessian":[2.21138E4,1.5564517E4,6.5492837E3,1.4613815E4,9.507015E2,5.4673706E3,1.0819132E3,1.446521E4,1.486054E2,7.72943E2,1.777585E2,4.5185703E3,9.4880035E2,3.9584912E2,6.860641E2],"tree_param":{"num_deleted":"0","num_feature":"89","num_nodes":"15","size_leaf_vector":"1"}},{"base_weights":[-6.703103E-3,-4.422728E-1,2.0363111E0,-4.5784265E-1,5.644061E-1,2.0767484E0,1.5640701E0,-4.6050534E-2,6.55253E-3,-1.4432305E-3,9.356403E-2,1.7536101E-1,2.14703E-1,1.7239287E-1,1.0530066E-1],"categories":[],"categories_nodes":[],"categories_segments":[],"categories_sizes":[],"default_left":[0,0,0,0,0,0,0,0,0,0,0,0,0,0,0],"id":50,"left_children":[1,3,5,7,9,11,13,-1,-1,-1,-1,-1,-1,-1,-1],"loss_changes":[1.9816805E4,2.8811646E2,6.562793E1,2.5586914E1,6.0889E1,7.141699E1,2.0246338E1,0E0,0E0,0E0,0E0,0E0,0E0,0E0,0E0],"parents":[2147483647,0,0,1,1,2,2,3,3,4,4,5,5,6,6],"right_children":[2,4,6,8,10,12,14,-1,-1,-1,-1,-1,-1,-1,-1],"split_conditions":[1E0,1E0,4.89E1,9E1,1.68E1,8.3E0,8.9E0,-4.6050534E-2,6.55253E-3,-1.4432305E-3,9.356403E-2,1.7536101E-1,2.14703E-1,1.7239287E-1,1.0530066E-1],"split_indices":[25,80,3,60,3,88,4,0,0,0,0,0,0,0,0],"split_type":[0,0,0,0,0,0,0,0,0,0,0,0,0,0,0],"sum_hessian":[2.2266998E4,1.8355482E4,3.9115151E3,1.8077736E4,2.7774652E2,3.5955476E3,3.1596744E2,1.7988064E4,8.967059E1,1.08327614E2,1.6941891E2,6.53054E2,2.9424937E3,2.3607155E2,7.989588E1],"tree_param":{"num_deleted":"0","num_feature":"89","num_nodes":"15","size_leaf_vector":"1"}},{"base_weights":[-1.0441581E-2,-1.8216032E-1,3.0714357E0,-2.541576E-1,2.6945832E0,3.3976028E0,1.763852E0,-3.0273257E-2,1.8273339E-1,2.7310675E-1,-2.3240402E-2,4.0781665E-1,3.0213222E-1,2.1591203E-1,4.9722973E-2],"categories":[],"categories_nodes":[],"categories_segments":[],"categories_sizes":[],"default_left":[0,0,0,0,0,0,0,0,0,0,0,0,0,0,0],"id":51,"left_children":[1,3,5,7,9,11,13,-1,-1,-1,-1,-1,-1,-1,-1],"loss_changes":[7.494637E3,2.7784827E3,3.032915E2,1.323562E3,3.8272705E1,1.2371484E2,7.264862E1,0E0,0E0,0E0,0E0,0E0,0E0,0E0,0E0],"parents":[2147483647,0,0,1,1,2,2,3,3,4,4,5,5,6,6],"right_children":[2,4,6,8,10,12,14,-1,-1,-1,-1,-1,-1,-1,-1],"split_conditions":[1E0,1E0,1E0,1E0,1.29E1,8.13E0,1E0,-3.0273257E-2,1.8273339E-1,2.7310675E-1,-2.3240402E-2,4.0781665E-1,3.0213222E-1,2.1591203E-1,4.9722973E-2],"split_indices":[37,36,80,35,15,9,25,0,0,0,0,0,0,0,0],"split_type":[0,0,0,0,0,0,0,0,0,0,0,0,0,0,0],"sum_hessian":[1.4162605E4,1.341704E4,7.455659E2,1.3091379E4,3.256606E2,5.938319E2,1.5173398E2,1.2794781E4,2.9659747E2,3.2206042E2,3.6001797E0,2.0414447E2,3.8968747E2,1.1414019E2,3.759379E1],"tree_param":{"num_deleted":"0","num_feature":"89","num_nodes":"15","size_leaf_vector":"1"}},{"base_weights":[9.158742E-3,-5.476983E-2,5.950202E-1,3.8309403E-2,-2.2983913E-1,1.4304288E-1,9.033673E-1,8.8385E-3,-3.4415673E-2,6.0909905E-2,-2.5283605E-2,2.2174524E-1,5.993714E-3,1.2638538E-1,3.3797875E-2],"categories":[],"categories_nodes":[],"categories_segments":[],"categories_sizes":[],"default_left":[0,0,0,0,0,0,0,0,0,0,0,0,0,0,0],"id":52,"left_children":[1,3,5,7,9,11,13,-1,-1,-1,-1,-1,-1,-1,-1],"loss_changes":[1.5729587E3,6.170199E2,5.747307E2,4.731385E2,2.5355365E2,2.8727588E2,4.9817566E2,0E0,0E0,0E0,0E0,0E0,0E0,0E0,0E0],"parents":[2147483647,0,0,1,1,2,2,3,3,4,4,5,5,6,6],"right_children":[2,4,6,8,10,12,14,-1,-1,-1,-1,-1,-1,-1,-1],"split_conditions":[1E0,7.65E1,7.4E0,1E0,3.4E0,5.1E0,2.62E1,8.8385E-3,-3.4415673E-2,6.0909905E-2,-2.5283605E-2,2.2174524E-1,5.993714E-3,1.2638538E-1,3.3797875E-2],"split_indices":[49,60,4,29,3,3,4,0,0,0,0,0,0,0,0],"split_type":[0,0,0,0,0,0,0,0,0,0,0,0,0,0,0],"sum_hessian":[4.1982164E4,3.785202E4,4.1301455E3,2.471067E4,1.314135E4,1.6771832E3,2.452962E3,2.1853123E4,2.8575454E3,3.4837448E2,1.2792976E4,6.2379646E1,1.6148036E3,1.4955955E3,9.573666E2],"tree_param":{"num_deleted":"0","num_feature":"89","num_nodes":"15","size_leaf_vector":"1"}},{"base_weights":[-2.7250142E-3,-4.6590716E-1,1.3664738E0,-4.9891433E-1,3.4023568E-1,6.421235E-1,1.5960727E0,-5.0443288E-2,7.264738E-2,7.463721E-3,1.5370262E-1,3.549276E-2,1.416956E-1,1.6408019E-1,-2.5821367E-2],"categories":[],"categories_nodes":[],"categories_segments":[],"categories_sizes":[],"default_left":[0,0,0,0,0,0,0,0,0,0,0,0,0,0,0],"id":53,"left_children":[1,3,5,7,9,11,13,-1,-1,-1,-1,-1,-1,-1,-1],"loss_changes":[2.2683293E4,7.1163135E2,1.4998086E3,1.741333E2,3.326199E2,4.8267523E2,5.7116797E2,0E0,0E0,0E0,0E0,0E0,0E0,0E0,0E0],"parents":[2147483647,0,0,1,1,2,2,3,3,4,4,5,5,6,6],"right_children":[2,4,6,8,10,12,14,-1,-1,-1,-1,-1,-1,-1,-1],"split_conditions":[2.92E1,3.03E0,1.18E0,1E0,1.47E0,2.2E0,1E0,-5.0443288E-2,7.264738E-2,7.463721E-3,1.5370262E-1,3.549276E-2,1.416956E-1,1.6408019E-1,-2.5821367E-2],"split_indices":[4,14,14,69,10,10,29,0,0,0,0,0,0,0,0],"split_type":[0,0,0,0,0,0,0,0,0,0,0,0,0,0,0],"sum_hessian":[3.5764934E4,2.672579E4,9.0391455E3,2.5676246E4,1.0495437E3,2.1781458E3,6.8609995E3,2.5562906E4,1.13340256E2,8.6111566E2,1.8842801E2,1.5918954E3,5.862503E2,6.700052E3,1.6094766E2],"tree_param":{"num_deleted":"0","num_feature":"89","num_nodes":"15","size_leaf_vector":"1"}},{"base_weights":[5.830596E-4,-1.3524531E-1,1.927291E0,-2.943788E-1,9.837951E-1,1.6428392E0,2.196144E0,-4.2400923E-2,4.1415103E-2,1.279976E-1,-3.1434342E-2,1.7189056E-1,3.782961E-2,2.2296575E-1,5.8724802E-2],"categories":[],"categories_nodes":[],"categories_segments":[],"categories_sizes":[],"default_left":[0,0,0,0,0,0,0,0,0,0,0,0,0,0,0],"id":54,"left_children":[1,3,5,7,9,11,13,-1,-1,-1,-1,-1,-1,-1,-1],"loss_changes":[9.237818E3,5.8708916E3,1.678418E2,2.6515955E3,1.5796301E3,1.0651953E2,5.9243164E1,0E0,0E0,0E0,0E0,0E0,0E0,0E0,0E0],"parents":[2147483647,0,0,1,1,2,2,3,3,4,4,5,5,6,6],"right_children":[2,4,6,8,10,12,14,-1,-1,-1,-1,-1,-1,-1,-1],"split_conditions":[1E0,1E0,4.39E1,1.0746E0,1E0,3.36E0,3E1,-4.2400923E-2,4.1415103E-2,1.279976E-1,-3.1434342E-2,1.7189056E-1,3.782961E-2,2.2296575E-1,5.8724802E-2],"split_indices":[24,23,5,0,25,13,9,0,0,0,0,0,0,0,0],"split_type":[0,0,0,0,0,0,0,0,0,0,0,0,0,0,0],"sum_hessian":[3.528954E4,3.2966742E4,2.3227986E3,2.8864219E4,4.1025225E3,1.1365853E3,1.1862131E3,2.4401701E4,4.462517E3,3.3409402E3,7.615822E2,1.0708344E3,6.575102E1,1.1607917E3,2.542137E1],"tree_param":{"num_deleted":"0","num_feature":"89","num_nodes":"15","size_leaf_vector":"1"}},{"base_weights":[-5.959026E-3,-4.3674862E-1,1.5854033E0,-4.6516967E-1,1.5360378E0,1.9213708E-1,1.6985035E0,-4.9388696E-2,2.2761457E-2,2.0086281E-1,7.525108E-2,-2.2550143E-2,1.7796655E-1,1.7746058E-1,-8.454913E-3],"categories":[],"categories_nodes":[],"categories_segments":[],"categories_sizes":[],"default_left":[0,0,0,0,0,0,0,0,0,0,0,0,0,0,0],"id":55,"left_children":[1,3,5,7,9,11,13,-1,-1,-1,-1,-1,-1,-1,-1],"loss_changes":[2.1371861E4,1.3760679E3,1.0443145E3,4.8166455E2,1.2388452E2,3.3442334E2,8.3512695E2,0E0,0E0,0E0,0E0,0E0,0E0,0E0,0E0],"parents":[2147483647,0,0,1,1,2,2,3,3,4,4,5,5,6,6],"right_children":[2,4,6,8,10,12,14,-1,-1,-1,-1,-1,-1,-1,-1],"split_conditions":[2.632E1,1E0,8.7E0,9.41E0,2.286E1,1E0,1E0,-4.9388696E-2,2.2761457E-2,2.0086281E-1,7.525108E-2,-2.2550143E-2,1.7796655E-1,1.7746058E-1,-8.454913E-3],"split_indices":[9,39,3,11,3,39,25,0,0,0,0,0,0,0,0],"split_type":[0,0,0,0,0,0,0,0,0,0,0,0,0,0,0],"sum_hessian":[3.1172818E4,2.4533387E4,6.639432E3,2.4186783E4,3.4660315E2,4.9943713E2,6.139995E3,2.3225787E4,9.609971E2,2.1371931E2,1.3288383E2,3.962465E2,1.0319063E2,5.889127E3,2.5086795E2],"tree_param":{"num_deleted":"0","num_feature":"89","num_nodes":"15","size_leaf_vector":"1"}},{"base_weights":[-6.5926155E-3,-2.5318423E-1,1.1779538E0,-3.5051757E-1,1.6105284E-1,3.249245E-1,1.5948561E0,-4.302838E-2,-1.6168207E-2,-1.840676E-2,4.6668347E-2,5.096352E-3,7.7644296E-2,1.7872034E-1,3.1167208E-3],"categories":[],"categories_nodes":[],"categories_segments":[],"categories_sizes":[],"default_left":[0,0,0,0,0,0,0,0,0,0,0,0,0,0,0],"id":56,"left_children":[1,3,5,7,9,11,13,-1,-1,-1,-1,-1,-1,-1,-1],"loss_changes":[3.8143044E3,4.3615656E2,7.975298E2,1.3126196E2,2.1732333E2,9.095768E1,4.5255298E2,0E0,0E0,0E0,0E0,0E0,0E0,0E0,0E0],"parents":[2147483647,0,0,1,1,2,2,3,3,4,4,5,5,6,6],"right_children":[2,4,6,8,10,12,14,-1,-1,-1,-1,-1,-1,-1,-1],"split_conditions":[2.041E1,5.97E0,1.0616E0,1.0637E0,1.0605E0,1.0549E0,4.37E1,-4.302838E-2,-1.6168207E-2,-1.840676E-2,4.6668347E-2,5.096352E-3,7.7644296E-2,1.7872034E-1,3.1167208E-3],"split_indices":[7,7,0,0,0,0,3,0,0,0,0,0,0,0,0],"split_type":[0,0,0,0,0,0,0,0,0,0,0,0,0,0,0],"sum_hessian":[1.3057202E4,1.0809185E4,2.2480176E3,8.7544795E3,2.054705E3,7.397455E2,1.5082721E3,6.149848E3,2.6046309E3,9.6404877E2,1.0906564E3,4.628502E2,2.7689526E2,1.3423441E3,1.6592798E2],"tree_param":{"num_deleted":"0","num_feature":"89","num_nodes":"15","size_leaf_vector":"1"}},{"base_weights":[6.8461583E-3,-4.2303365E-1,3.515496E-1,-4.6487394E-1,-1.772483E-1,5.9010595E-1,-3.3029413E-1,-4.681727E-2,2.0297391E-2,4.369436E-3,-3.8889237E-2,8.179604E-2,-4.0326244E-3,-1.46147E-2,-4.373526E-2],"categories":[],"categories_nodes":[],"categories_segments":[],"categories_sizes":[],"default_left":[0,0,0,0,0,0,0,0,0,0,0,0,0,0,0],"id":57,"left_children":[1,3,5,7,9,11,13,-1,-1,-1,-1,-1,-1,-1,-1],"loss_changes":[5.856306E3,1.8015967E2,3.5684734E3,3.3500244E1,1.2023259E2,2.3351602E3,1.1147302E2,0E0,0E0,0E0,0E0,0E0,0E0,0E0,0E0],"parents":[2147483647,0,0,1,1,2,2,3,3,4,4,5,5,6,6],"right_children":[2,4,6,8,10,12,14,-1,-1,-1,-1,-1,-1,-1,-1],"split_conditions":[9.9E0,8.4E0,2.79E1,4.1E-1,4.01E1,6.44E0,3.42E1,-4.681727E-2,2.0297391E-2,4.369436E-3,-3.8889237E-2,8.179604E-2,-4.0326244E-3,-1.46147E-2,-4.373526E-2],"split_indices":[4,4,4,13,3,2,4,0,0,0,0,0,0,0,0],"split_type":[0,0,0,0,0,0,0,0,0,0,0,0,0,0,0],"sum_hessian":[3.9517992E4,1.758493E4,2.193306E4,1.5022522E4,2.5624075E3,1.6249389E4,5.6836714E3,1.4950503E4,7.201932E1,1.2524171E3,1.3099902E3,1.1936153E4,4.3132354E3,2.0940652E3,3.589606E3],"tree_param":{"num_deleted":"0","num_feature":"89","num_nodes":"15","size_leaf_vector":"1"}},{"base_weights":[2.4628392E-3,-4.5265257E-1,7.2808737E-1,-5.0903755E-1,-5.2286133E-2,2.9887357E-1,1.0877808E0,-5.4003753E-2,-3.2563623E-2,-2.746017E-2,3.7297647E-2,4.9625598E-2,-3.887103E-2,1.1355209E-1,4.4017024E-2],"categories":[],"categories_nodes":[],"categories_segments":[],"categories_sizes":[],"default_left":[0,0,0,0,0,0,0,0,0,0,0,0,0,0,0],"id":58,"left_children":[1,3,5,7,9,11,13,-1,-1,-1,-1,-1,-1,-1,-1],"loss_changes":[2.109414E4,8.8559717E2,3.7993223E3,1.9454688E2,4.5860168E2,1.5244463E3,4.1182324E2,0E0,0E0,0E0,0E0,0E0,0E0,0E0,0E0],"parents":[2147483647,0,0,1,1,2,2,3,3,4,4,5,5,6,6],"right_children":[2,4,6,8,10,12,14,-1,-1,-1,-1,-1,-1,-1,-1],"split_conditions":[4.61E1,8.7E-1,5.6E-1,3.8E1,1.0588E0,5.5E-1,7E-1,-5.4003753E-2,-3.2563623E-2,-2.746017E-2,3.7297647E-2,4.9625598E-2,-3.887103E-2,1.1355209E-1,4.4017024E-2],"split_indices":[3,87,87,3,0,13,13,0,0,0,0,0,0,0,0],"split_type":[0,0,0,0,0,0,0,0,0,0,0,0,0,0,0],"sum_hessian":[6.387021E4,3.925119E4,2.4619021E4,3.4403414E4,4.8477773E3,1.122739E4,1.3391632E4,2.9422041E4,4.9813726E3,3.1852634E3,1.6625138E3,8.7246E3,2.50279E3,1.2469694E4,9.2193805E2],"tree_param":{"num_deleted":"0","num_feature":"89","num_nodes":"15","size_leaf_vector":"1"}},{"base_weights":[4.288163E-3,-2.1261594E-1,1.1631931E0,-2.7952257E-1,2.1089733E0,1.4189322E0,-4.0273983E-2,-3.0587316E-2,1.4171182E-1,3.001117E-1,2.5737692E-2,2.0779698E-1,8.442942E-2,6.395431E-3,-4.5462444E-2],"categories":[],"categories_nodes":[],"categories_segments":[],"categories_sizes":[],"default_left":[0,0,0,0,0,0,0,0,0,0,0,0,0,0,0],"id":59,"left_children":[1,3,5,7,9,11,13,-1,-1,-1,-1,-1,-1,-1,-1],"loss_changes":[5.7381816E3,2.9858008E3,1.1089541E3,8.353865E2,8.8518115E2,1.1186069E3,2.7678928E1,0E0,0E0,0E0,0E0,0E0,0E0,0E0,0E0],"parents":[2147483647,0,0,1,1,2,2,3,3,4,4,5,5,6,6],"right_children":[2,4,6,8,10,12,14,-1,-1,-1,-1,-1,-1,-1,-1],"split_conditions":[1E0,1E0,1.0649E0,1E0,7.6E1,2.51E1,5.652E1,-3.0587316E-2,1.4171182E-1,3.001117E-1,2.5737692E-2,2.0779698E-1,8.442942E-2,6.395431E-3,-4.5462444E-2],"split_indices":[29,34,0,31,60,3,7,0,0,0,0,0,0,0,0],"split_type":[0,0,0,0,0,0,0,0,0,0,0,0,0,0,0],"sum_hessian":[2.2820635E4,1.9223486E4,3.597148E3,1.8686936E4,5.3655133E2,2.9670244E3,6.301236E2,1.8403133E4,2.8380246E2,3.610035E2,1.7554782E2,1.3790773E3,1.5879471E3,5.03087E2,1.2703658E2],"tree_param":{"num_deleted":"0","num_feature":"89","num_nodes":"15","size_leaf_vector":"1"}},{"base_weights":[-8.437707E-4,-3.314618E-1,1.3475033E0,-4.8079675E-1,-5.9708964E-2,-6.1058447E-2,2.1257844E0,-4.9616683E-2,-3.7794944E-2,-1.6880626E-2,2.7659065E-1,-3.0468984E-2,7.7172294E-2,2.437547E-1,6.257506E-2],"categories":[],"categories_nodes":[],"categories_segments":[],"categories_sizes":[],"default_left":[0,0,0,0,0,0,0,0,0,0,0,0,0,0,0],"id":60,"left_children":[1,3,5,7,9,11,13,-1,-1,-1,-1,-1,-1,-1,-1],"loss_changes":[5.3343467E3,3.8955652E2,2.5850117E3,8.71228E0,1.050734E3,1.7046074E2,7.0451904E2,0E0,0E0,0E0,0E0,0E0,0E0,0E0,0E0],"parents":[2147483647,0,0,1,1,2,2,3,3,4,4,5,5,6,6],"right_children":[2,4,6,8,10,12,14,-1,-1,-1,-1,-1,-1,-1,-1],"split_conditions":[1E0,1.58E1,1.47E1,1.24E1,1E0,1.08E1,1.0605E0,-4.9616683E-2,-3.7794944E-2,-1.6880626E-2,2.7659065E-1,-3.0468984E-2,7.7172294E-2,2.437547E-1,6.257506E-2],"split_indices":[29,4,4,4,32,4,0,0,0,0,0,0,0,0,0],"split_type":[0,0,0,0,0,0,0,0,0,0,0,0,0,0,0],"sum_hessian":[1.1964345E4,9.6099795E3,2.354365E3,6.1989507E3,3.4110288E3,8.38119E2,1.5162461E3,5.379647E3,8.1930365E2,3.286189E3,1.2483979E2,6.5011945E2,1.8799957E2,1.2539135E3,2.6233258E2],"tree_param":{"num_deleted":"0","num_feature":"89","num_nodes":"15","size_leaf_vector":"1"}},{"base_weights":[5.5687586E-3,2.4543978E-1,-4.548273E-1,4.1981253E-1,-2.567846E-1,-2.8909895E-1,-5.185588E-1,5.702233E-2,-3.429508E-2,-1.6535707E-3,-3.4569804E-2,-4.7540814E-2,-1.2886765E-2,-5.2775618E-2,-4.3196592E-2],"categories":[],"categories_nodes":[],"categories_segments":[],"categories_sizes":[],"default_left":[0,0,0,0,0,0,0,0,0,0,0,0,0,0,0],"id":61,"left_children":[1,3,5,7,9,11,13,-1,-1,-1,-1,-1,-1,-1,-1],"loss_changes":[6.7747393E3,3.5325898E3,2.2097607E2,3.4356602E3,2.217301E2,1.7383441E2,1.0844238E1,0E0,0E0,0E0,0E0,0E0,0E0,0E0,0E0],"parents":[2147483647,0,0,1,1,2,2,3,3,4,4,5,5,6,6],"right_children":[2,4,6,8,10,12,14,-1,-1,-1,-1,-1,-1,-1,-1],"split_conditions":[1.32E1,1.0609E0,1.77E1,2.025E1,6.47E0,2.9E1,3.1E-1,5.702233E-2,-3.429508E-2,-1.6535707E-3,-3.4569804E-2,-4.7540814E-2,-1.2886765E-2,-5.2775618E-2,-4.3196592E-2],"split_indices":[4,0,4,9,2,3,87,0,0,0,0,0,0,0,0],"split_type":[0,0,0,0,0,0,0,0,0,0,0,0,0,0,0],"sum_hessian":[6.1343465E4,4.033252E4,2.1010943E4,2.9939496E4,1.0393024E4,5.842251E3,1.5168691E4,2.5009422E4,4.9300747E3,2.8105422E3,7.582482E3,2.697169E3,3.145082E3,1.3694868E4,1.4738232E3],"tree_param":{"num_deleted":"0","num_feature":"89","num_nodes":"15","size_leaf_vector":"1"}},{"base_weights":[-3.624781E-3,-3.6516652E-1,1.4492544E0,-4.2035508E-1,5.505122E-1,5.486476E-1,2.2215695E0,-4.333269E-2,1.2833102E-1,9.317523E-2,-1.8340893E-2,1.0010617E-2,1.3740501E-1,2.3149823E-1,-3.6226463E-2],"categories":[],"categories_nodes":[],"categories_segments":[],"categories_sizes":[],"default_left":[0,0,0,0,0,0,0,0,0,0,0,0,0,0,0],"id":62,"left_children":[1,3,5,7,9,11,13,-1,-1,-1,-1,-1,-1,-1,-1],"loss_changes":[8.1781406E3,6.304254E2,2.1531372E3,2.6023926E2,1.9924847E2,5.2981213E2,4.0603027E2,0E0,0E0,0E0,0E0,0E0,0E0,0E0,0E0],"parents":[2147483647,0,0,1,1,2,2,3,3,4,4,5,5,6,6],"right_children":[2,4,6,8,10,12,14,-1,-1,-1,-1,-1,-1,-1,-1],"split_conditions":[1E0,8.571E1,2.96E1,1E0,5.76E0,7.857E1,6E-1,-4.333269E-2,1.2833102E-1,9.317523E-2,-1.8340893E-2,1.0010617E-2,1.3740501E-1,2.3149823E-1,-3.6226463E-2],"split_indices":[29,5,3,31,2,5,13,0,0,0,0,0,0,0,0],"split_type":[0,0,0,0,0,0,0,0,0,0,0,0,0,0,0],"sum_hessian":[1.5567253E4,1.2466898E4,3.1003552E3,1.1760041E4,7.068566E2,1.433268E3,1.6670874E3,1.1673041E4,8.700074E1,4.6563763E2,2.4121902E2,9.3064154E2,5.026264E2,1.6094238E3,5.7663536E1],"tree_param":{"num_deleted":"0","num_feature":"89","num_nodes":"15","size_leaf_vector":"1"}},{"base_weights":[3.0041689E-3,-4.76168E-1,9.258649E-1,-5.0448626E-1,-1.9466227E-1,5.885601E-1,1.2911025E0,-5.067761E-2,-5.547305E-3,-3.2203823E-2,6.86698E-4,1.6617555E-2,9.2043966E-2,1.5366082E-1,3.5117887E-2],"categories":[],"categories_nodes":[],"categories_segments":[],"categories_sizes":[],"default_left":[0,0,0,0,0,0,0,0,0,0,0,0,0,0,0],"id":63,"left_children":[1,3,5,7,9,11,13,-1,-1,-1,-1,-1,-1,-1,-1],"loss_changes":[9.753382E3,1.14948E2,9.256992E2,1.3027832E1,3.4479923E1,5.488163E2,8.319448E2,0E0,0E0,0E0,0E0,0E0,0E0,0E0,0E0],"parents":[2147483647,0,0,1,1,2,2,3,3,4,4,5,5,6,6],"right_children":[2,4,6,8,10,12,14,-1,-1,-1,-1,-1,-1,-1,-1],"split_conditions":[2.14E1,1.74E1,1E0,4.11E0,1E0,2.94E0,4.76E0,-5.067761E-2,-5.547305E-3,-3.2203823E-2,6.86698E-4,1.6617555E-2,9.2043966E-2,1.5366082E-1,3.5117887E-2],"split_indices":[4,4,27,13,27,13,10,0,0,0,0,0,0,0,0],"split_type":[0,0,0,0,0,0,0,0,0,0,0,0,0,0,0],"sum_hessian":[2.2051479E4,1.4514937E4,7.536541E3,1.3184182E4,1.3307544E3,3.9218176E3,3.6147236E3,1.3115166E4,6.9016075E1,8.1729626E2,5.134581E2,1.7279656E3,2.193852E3,2.864456E3,7.5026746E2],"tree_param":{"num_deleted":"0","num_feature":"89","num_nodes":"15","size_leaf_vector":"1"}},{"base_weights":[-1.4295136E-2,-4.3895048E-1,1.679016E0,-4.5443565E-1,4.8585287E-1,1.710744E0,1.2070432E0,-4.5713656E-2,6.631025E-3,1.5865033E-2,1.1095369E-1,1.3937558E-1,1.7515875E-1,1.2405759E-1,-5.5894135E-3],"categories":[],"categories_nodes":[],"categories_segments":[],"categories_sizes":[],"default_left":[0,0,0,0,0,0,0,0,0,0,0,0,0,0,0],"id":64,"left_children":[1,3,5,7,9,11,13,-1,-1,-1,-1,-1,-1,-1,-1],"loss_changes":[1.58194E4,2.5228735E2,5.9751953E1,2.4724121E1,5.7710785E1,4.6240234E1,1.3239227E1,0E0,0E0,0E0,0E0,0E0,0E0,0E0,0E0],"parents":[2147483647,0,0,1,1,2,2,3,3,4,4,5,5,6,6],"right_children":[2,4,6,8,10,12,14,-1,-1,-1,-1,-1,-1,-1,-1],"split_conditions":[1E0,1E0,7.93E0,9E1,5.479E1,1.9E1,4.93E1,-4.5713656E-2,6.631025E-3,1.5865033E-2,1.1095369E-1,1.3937558E-1,1.7515875E-1,1.2405759E-1,-5.5894135E-3],"split_indices":[25,80,2,60,5,3,4,0,0,0,0,0,0,0,0],"split_type":[0,0,0,0,0,0,0,0,0,0,0,0,0,0,0],"sum_hessian":[2.1997414E4,1.7588396E4,4.4090166E3,1.7300572E4,2.8782565E2,4.125056E3,2.8396005E2,1.7213152E4,8.741927E1,1.9120007E2,9.662558E1,4.8063385E2,3.6444224E3,2.7730307E2,6.6569967E0],"tree_param":{"num_deleted":"0","num_feature":"89","num_nodes":"15","size_leaf_vector":"1"}},{"base_weights":[-1.1852428E-2,-1.7793474E-1,2.3439503E0,-3.569528E-1,7.263581E-1,2.4509661E0,8.6913455E-1,-3.9785698E-2,1.2671061E-1,1.7324911E-1,2.2662465E-2,2.2451723E-1,3.0714318E-1,1.1637034E-1,-4.000586E-2],"categories":[],"categories_nodes":[],"categories_segments":[],"categories_sizes":[],"default_left":[0,0,0,0,0,0,0,0,0,0,0,0,0,0,0],"id":65,"left_children":[1,3,5,7,9,11,13,-1,-1,-1,-1,-1,-1,-1,-1],"loss_changes":[5.5048423E3,2.1285718E3,1.3947314E2,7.2940686E2,1.0899314E3,9.283057E1,2.6218262E1,0E0,0E0,0E0,0E0,0E0,0E0,0E0,0E0],"parents":[2147483647,0,0,1,1,2,2,3,3,4,4,5,5,6,6],"right_children":[2,4,6,8,10,12,14,-1,-1,-1,-1,-1,-1,-1,-1],"split_conditions":[1E0,2E1,1E0,1E0,1.0091E0,1E0,8.1E-1,-3.9785698E-2,1.2671061E-1,1.7324911E-1,2.2662465E-2,2.2451723E-1,3.0714318E-1,1.1637034E-1,-4.000586E-2],"split_indices":[37,9,25,35,1,23,11,0,0,0,0,0,0,0,0],"split_type":[0,0,0,0,0,0,0,0,0,0,0,0,0,0,0],"sum_hessian":[1.4070513E4,1.3145814E4,9.2469885E2,1.0975177E4,2.1706377E3,8.6046106E2,6.42378E1,1.0707415E4,2.6776117E2,7.1826404E2,1.4523735E3,6.5359357E2,2.0686748E2,5.280556E1,1.143224E1],"tree_param":{"num_deleted":"0","num_feature":"89","num_nodes":"15","size_leaf_vector":"1"}},{"base_weights":[7.98464E-3,-1.5798327E-2,1.4510217E0,-6.521491E-2,4.5094195E-1,1.5389619E0,8.4880936E-1,-7.9531185E-3,9.466805E-2,6.634969E-2,1.0761056E-3,1.5987968E-1,7.108091E-2,9.6596345E-2,-1.9782208E-2],"categories":[],"categories_nodes":[],"categories_segments":[],"categories_sizes":[],"default_left":[0,0,0,0,0,0,0,0,0,0,0,0,0,0,0],"id":66,"left_children":[1,3,5,7,9,11,13,-1,-1,-1,-1,-1,-1,-1,-1],"loss_changes":[1.439188E3,9.504511E2,3.1562012E1,5.394149E2,3.6851416E2,2.5159668E1,1.2286552E1,0E0,0E0,0E0,0E0,0E0,0E0,0E0,0E0],"parents":[2147483647,0,0,1,1,2,2,3,3,4,4,5,5,6,6],"right_children":[2,4,6,8,10,12,14,-1,-1,-1,-1,-1,-1,-1,-1],"split_conditions":[1E0,1E0,2.41E0,5.56E0,1E0,1.471E1,6.13E0,-7.9531185E-3,9.466805E-2,6.634969E-2,1.0761056E-3,1.5987968E-1,7.108091E-2,9.6596345E-2,-1.9782208E-2],"split_indices":[55,71,13,15,81,9,10,0,0,0,0,0,0,0,0],"split_type":[0,0,0,0,0,0,0,0,0,0,0,0,0,0,0],"sum_hessian":[4.189611E4,4.1218027E4,6.780814E2,3.727492E4,3.9431062E3,5.8793677E2,9.014465E1,3.675742E4,5.1749866E2,2.6571497E3,1.2859567E3,5.4575726E2,4.217947E1,8.192873E1,8.21593E0],"tree_param":{"num_deleted":"0","num_feature":"89","num_nodes":"15","size_leaf_vector":"1"}},{"base_weights":[-4.5532803E-3,-4.729727E-1,1.1516503E0,-5.107735E-1,1.1257217E-2,7.964099E-1,1.4860959E0,-5.1719334E-2,4.409301E-2,-1.9576345E-2,1.3516156E-1,4.7738E-2,1.4108655E-1,1.764469E-1,1.3079937E-1],"categories":[],"categories_nodes":[],"categories_segments":[],"categories_sizes":[],"default_left":[0,0,0,0,0,0,0,0,0,0,0,0,0,0,0],"id":67,"left_children":[1,3,5,7,9,11,13,-1,-1,-1,-1,-1,-1,-1,-1],"loss_changes":[1.920436E4,4.6237598E2,1.2105225E3,1.4352295E2,5.0859872E2,9.7002295E2,2.5403027E2,0E0,0E0,0E0,0E0,0E0,0E0,0E0,0E0],"parents":[2147483647,0,0,1,1,2,2,3,3,4,4,5,5,6,6],"right_children":[2,4,6,8,10,12,14,-1,-1,-1,-1,-1,-1,-1,-1],"split_conditions":[2.83E1,2.27E1,4.03E0,1E0,3.33E0,9.6E-1,8.3E0,-5.1719334E-2,4.409301E-2,-1.9576345E-2,1.3516156E-1,4.7738E-2,1.4108655E-1,1.764469E-1,1.3079937E-1],"split_indices":[4,4,14,50,10,10,88,0,0,0,0,0,0,0,0],"split_type":[0,0,0,0,0,0,0,0,0,0,0,0,0,0,0],"sum_hessian":[3.5456695E4,2.5234943E4,1.022175E4,2.3409191E4,1.825753E3,4.9610425E3,5.2607075E3,2.3254064E4,1.5512558E2,1.5823085E3,2.4344461E2,3.2686208E3,1.6924218E3,2.0442704E3,3.2164373E3],"tree_param":{"num_deleted":"0","num_feature":"89","num_nodes":"15","size_leaf_vector":"1"}},{"base_weights":[-1.6554206E-3,-1.3213874E-1,1.6092521E0,-2.9035863E-1,4.9945483E-1,1.6648753E0,6.739878E-1,-3.602611E-2,1.2188832E-2,7.925913E-2,-2.8728088E-2,1.7133872E-1,8.3851635E-2,1.020331E-1,1.12954825E-2],"categories":[],"categories_nodes":[],"categories_segments":[],"categories_sizes":[],"default_left":[0,0,0,0,0,0,0,0,0,0,0,0,0,0,0],"id":68,"left_children":[1,3,5,7,9,11,13,-1,-1,-1,-1,-1,-1,-1,-1],"loss_changes":[7.373332E3,3.2434236E3,1.3267188E2,7.482693E2,1.5001956E3,9.454053E1,2.8263489E1,0E0,0E0,0E0,0E0,0E0,0E0,0E0,0E0],"parents":[2147483647,0,0,1,1,2,2,3,3,4,4,5,5,6,6],"right_children":[2,4,6,8,10,12,14,-1,-1,-1,-1,-1,-1,-1,-1],"split_conditions":[1E0,1.0716E0,8E-1,3.5E0,3E1,2E1,1E0,-3.602611E-2,1.2188832E-2,7.925913E-2,-2.8728088E-2,1.7133872E-1,8.3851635E-2,1.020331E-1,1.12954825E-2],"split_indices":[24,0,14,18,4,9,41,0,0,0,0,0,0,0,0],"split_type":[0,0,0,0,0,0,0,0,0,0,0,0,0,0,0],"sum_hessian":[3.5080523E4,3.2453982E4,2.626543E3,2.5954492E4,6.4994897E3,2.4768826E3,1.4966049E2,2.219355E4,3.760942E3,4.735949E3,1.7635404E3,2.3366912E3,1.4019138E2,9.0662254E1,5.899824E1],"tree_param":{"num_deleted":"0","num_feature":"89","num_nodes":"15","size_leaf_vector":"1"}},{"base_weights":[-3.3342023E-3,-4.4170627E-1,1.3153185E0,-4.682966E-1,1.2462888E0,1.0152724E0,1.662469E0,-4.971234E-2,1.8738532E-2,9.045028E-2,2.0848925E-1,7.281409E-2,1.9348775E-1,1.6750142E-1,8.919633E-5],"categories":[],"categories_nodes":[],"categories_segments":[],"categories_sizes":[],"default_left":[0,0,0,0,0,0,0,0,0,0,0,0,0,0,0],"id":69,"left_children":[1,3,5,7,9,11,13,-1,-1,-1,-1,-1,-1,-1,-1],"loss_changes":[1.7879469E4,1.0423896E3,7.983916E2,4.324497E2,9.716272E1,1.0896841E3,7.305762E1,0E0,0E0,0E0,0E0,0E0,0E0,0E0,0E0],"parents":[2147483647,0,0,1,1,2,2,3,3,4,4,5,5,6,6],"right_children":[2,4,6,8,10,12,14,-1,-1,-1,-1,-1,-1,-1,-1],"split_conditions":[2.222E1,1E0,1E0,9.41E0,1.855E1,1E0,1E0,-4.971234E-2,1.8738532E-2,9.045028E-2,2.0848925E-1,7.281409E-2,1.9348775E-1,1.6750142E-1,8.919633E-5],"split_indices":[9,39,39,11,11,38,66,0,0,0,0,0,0,0,0],"split_type":[0,0,0,0,0,0,0,0,0,0,0,0,0,0,0],"sum_hessian":[3.0927674E4,2.3212727E4,7.714949E3,2.2854547E4,3.5817834E2,4.1434385E3,3.5715107E3,2.189374E4,9.6080707E2,2.579186E2,1.0025976E2,3.1607769E3,9.826615E2,3.5442249E3,2.7285759E1],"tree_param":{"num_deleted":"0","num_feature":"89","num_nodes":"15","size_leaf_vector":"1"}},{"base_weights":[-5.465404E-3,-2.6802617E-1,9.56425E-1,-3.8820294E-1,8.304858E-2,5.50501E-2,1.2368405E0,-4.1327316E-2,-9.847593E-4,-2.8651759E-2,6.0362983E-2,-1.202752E-2,5.8439936E-2,1.4085273E-1,2.4844706E-2],"categories":[],"categories_nodes":[],"categories_segments":[],"categories_sizes":[],"default_left":[0,0,0,0,0,0,0,0,0,0,0,0,0,0,0],"id":70,"left_children":[1,3,5,7,9,11,13,-1,-1,-1,-1,-1,-1,-1,-1],"loss_changes":[3.2655364E3,4.2897565E2,6.995281E2,7.144812E1,4.990045E2,6.182375E1,3.566377E2,0E0,0E0,0E0,0E0,0E0,0E0,0E0,0E0],"parents":[2147483647,0,0,1,1,2,2,3,3,4,4,5,5,6,6],"right_children":[2,4,6,8,10,12,14,-1,-1,-1,-1,-1,-1,-1,-1],"split_conditions":[1.695E1,1E0,1.0568E0,1.034E1,1.0601E0,5.328E1,2.71E1,-4.1327316E-2,-9.847593E-4,-2.8651759E-2,6.0362983E-2,-1.202752E-2,5.8439936E-2,1.4085273E-1,2.4844706E-2],"split_indices":[7,43,0,7,0,7,4,0,0,0,0,0,0,0,0],"split_type":[0,0,0,0,0,0,0,0,0,0,0,0,0,0,0],"sum_hessian":[1.2928606E4,1.015805E4,2.7705566E3,7.5692407E3,2.5888096E3,6.5864264E2,2.1119138E3,7.0965957E3,4.7264474E2,1.5135344E3,1.0752753E3,4.9463794E2,1.640047E2,1.7979569E3,3.13957E2],"tree_param":{"num_deleted":"0","num_feature":"89","num_nodes":"15","size_leaf_vector":"1"}},{"base_weights":[6.670496E-3,-3.846367E-1,3.5269362E-1,-4.469534E-1,-7.535428E-2,6.2008464E-1,-2.4903163E-1,-4.8256967E-2,-3.4298245E-2,1.6009007E-2,-3.0765591E-2,8.4598325E-2,4.7663166E-4,4.8699304E-3,-3.862324E-2],"categories":[],"categories_nodes":[],"categories_segments":[],"categories_sizes":[],"default_left":[0,0,0,0,0,0,0,0,0,0,0,0,0,0,0],"id":71,"left_children":[1,3,5,7,9,11,13,-1,-1,-1,-1,-1,-1,-1,-1],"loss_changes":[5.3293257E3,3.554751E2,3.3616592E3,5.5908203E1,1.6987296E2,2.0097959E3,2.6286646E2,0E0,0E0,0E0,0E0,0E0,0E0,0E0,0E0],"parents":[2147483647,0,0,1,1,2,2,3,3,4,4,5,5,6,6],"right_children":[2,4,6,8,10,12,14,-1,-1,-1,-1,-1,-1,-1,-1],"split_conditions":[1.07E1,9E0,2.58E1,6.8E0,3.84E1,1.0641E0,3.09E1,-4.8256967E-2,-3.4298245E-2,1.6009007E-2,-3.0765591E-2,8.4598325E-2,4.7663166E-4,4.8699304E-3,-3.862324E-2],"split_indices":[4,4,4,4,3,0,4,0,0,0,0,0,0,0,0],"split_type":[0,0,0,0,0,0,0,0,0,0,0,0,0,0,0],"sum_hessian":[3.9355977E4,1.846819E4,2.0887785E4,1.5368126E4,3.100064E3,1.4462419E4,6.4253667E3,1.1435775E4,3.9323503E3,1.5380859E3,1.561978E3,1.0577195E4,3.8852244E3,2.0253268E3,4.4000396E3],"tree_param":{"num_deleted":"0","num_feature":"89","num_nodes":"15","size_leaf_vector":"1"}},{"base_weights":[8.122705E-4,-4.5237255E-1,6.506148E-1,-4.942547E-1,4.97101E-2,2.603673E-1,9.642703E-1,-5.3171452E-2,-2.828056E-2,-2.3029663E-2,4.5618873E-2,5.2146997E-2,-2.8482515E-2,1.0378094E-1,5.7103284E-2],"categories":[],"categories_nodes":[],"categories_segments":[],"categories_sizes":[],"default_left":[0,0,0,0,0,0,0,0,0,0,0,0,0,0,0],"id":72,"left_children":[1,3,5,7,9,11,13,-1,-1,-1,-1,-1,-1,-1,-1],"loss_changes":[1.8625973E4,7.839702E2,3.1795332E3,2.7145996E2,3.2693106E2,1.6494634E3,4.1413672E2,0E0,0E0,0E0,0E0,0E0,0E0,0E0,0E0],"parents":[2147483647,0,0,1,1,2,2,3,3,4,4,5,5,6,6],"right_children":[2,4,6,8,10,12,14,-1,-1,-1,-1,-1,-1,-1,-1],"split_conditions":[4.54E1,1.58E0,5E0,3.8E1,1.0578E0,1.62E1,1.49E1,-5.3171452E-2,-2.828056E-2,-2.3029663E-2,4.5618873E-2,5.2146997E-2,-2.8482515E-2,1.0378094E-1,5.7103284E-2],"split_indices":[3,87,65,3,0,4,4,0,0,0,0,0,0,0,0],"split_type":[0,0,0,0,0,0,0,0,0,0,0,0,0,0,0],"sum_hessian":[6.3245973E4,3.7259637E4,2.5986334E4,3.439245E4,2.8671887E3,1.158209E4,1.4404245E4,2.921073E4,5.1817173E3,1.6969436E3,1.1702452E3,7.8325693E3,3.7495208E3,1.2130529E4,2.2737156E3],"tree_param":{"num_deleted":"0","num_feature":"89","num_nodes":"15","size_leaf_vector":"1"}},{"base_weights":[5.472052E-3,-2.1007729E-1,1.0362034E0,-2.7441785E-1,1.6320754E0,1.2303942E0,-9.6696906E-2,-3.003378E-2,1.1925306E-1,2.1745315E-1,1.8207869E-2,1.5716103E-1,5.7992633E-2,-1.4312761E-2,2.1538411E-1],"categories":[],"categories_nodes":[],"categories_segments":[],"categories_sizes":[],"default_left":[0,0,0,0,0,0,0,0,0,0,0,0,0,0,0],"id":73,"left_children":[1,3,5,7,9,11,13,-1,-1,-1,-1,-1,-1,-1,-1],"loss_changes":[5.0405347E3,2.2232358E3,8.644614E2,6.892334E2,4.951123E2,7.401494E2,5.8973293E1,0E0,0E0,0E0,0E0,0E0,0E0,0E0,0E0],"parents":[2147483647,0,0,1,1,2,2,3,3,4,4,5,5,6,6],"right_children":[2,4,6,8,10,12,14,-1,-1,-1,-1,-1,-1,-1,-1],"split_conditions":[1E0,1E0,1.79E1,1E0,5.74E0,2.96E1,2.107E1,-3.003378E-2,1.1925306E-1,2.1745315E-1,1.8207869E-2,1.5716103E-1,5.7992633E-2,-1.4312761E-2,2.1538411E-1],"split_indices":[29,34,4,31,2,3,15,0,0,0,0,0,0,0,0],"split_type":[0,0,0,0,0,0,0,0,0,0,0,0,0,0,0],"sum_hessian":[2.2680562E4,1.8758402E4,3.9221597E3,1.8127309E4,6.310937E2,3.3487417E3,5.73418E2,1.7814588E4,3.127205E2,4.5817566E2,1.7291803E2,2.19394E3,1.1548016E3,5.638944E2,9.523637E0],"tree_param":{"num_deleted":"0","num_feature":"89","num_nodes":"15","size_leaf_vector":"1"}},{"base_weights":[-1.6417233E-2,-2.8959346E-1,9.762923E-1,-4.7018194E-1,1.22398436E-1,1.4195722E0,9.812756E-2,-4.952761E-2,-3.507199E-2,-3.6450585E-3,1.9093375E-1,1.7968085E-2,1.745256E-1,4.598864E-2,-3.1590316E-2],"categories":[],"categories_nodes":[],"categories_segments":[],"categories_sizes":[],"default_left":[0,0,0,0,0,0,0,0,0,0,0,0,0,0,0],"id":74,"left_children":[1,3,5,7,9,11,13,-1,-1,-1,-1,-1,-1,-1,-1],"loss_changes":[3.1927532E3,6.8749207E2,9.8738916E2,1.8212769E1,8.0059247E2,6.7921216E2,1.2842766E2,0E0,0E0,0E0,0E0,0E0,0E0,0E0,0E0],"parents":[2147483647,0,0,1,1,2,2,3,3,4,4,5,5,6,6],"right_children":[2,4,6,8,10,12,14,-1,-1,-1,-1,-1,-1,-1,-1],"split_conditions":[1.72E1,1.83E1,5.63E0,1.24E1,7.368E1,1.38E1,1.0661E0,-4.952761E-2,-3.507199E-2,-3.6450585E-3,1.9093375E-1,1.7968085E-2,1.745256E-1,4.598864E-2,-3.1590316E-2],"split_indices":[7,4,2,4,5,4,0,0,0,0,0,0,0,0,0],"split_type":[0,0,0,0,0,0,0,0,0,0,0,0,0,0,0],"sum_hessian":[1.17717295E4,9.233106E3,2.5386223E3,6.420576E3,2.8125305E3,1.6856378E3,8.529845E2,5.2953096E3,1.1252666E3,2.5841504E3,2.2838013E2,3.518003E2,1.3338375E3,4.5621515E2,3.9676935E2],"tree_param":{"num_deleted":"0","num_feature":"89","num_nodes":"15","size_leaf_vector":"1"}},{"base_weights":[4.9359254E-3,2.2195041E-1,-4.5311883E-1,3.7928316E-1,-2.5177187E-1,-2.7721715E-1,-5.056912E-1,1.2089597E-2,7.431446E-2,-2.16997E-3,-3.3939462E-2,-4.6287205E-2,-1.2014355E-2,-5.1622283E-2,-4.0869664E-2],"categories":[],"categories_nodes":[],"categories_segments":[],"categories_sizes":[],"default_left":[0,0,0,0,0,0,0,0,0,0,0,0,0,0,0],"id":75,"left_children":[1,3,5,7,9,11,13,-1,-1,-1,-1,-1,-1,-1,-1],"loss_changes":[6.0784575E3,3.0929023E3,1.8085327E2,2.9278062E3,2.0822748E2,1.315292E2,1.4276855E1,0E0,0E0,0E0,0E0,0E0,0E0,0E0,0E0],"parents":[2147483647,0,0,1,1,2,2,3,3,4,4,5,5,6,6],"right_children":[2,4,6,8,10,12,14,-1,-1,-1,-1,-1,-1,-1,-1],"split_conditions":[1.35E1,1.0609E0,1.7E1,1E0,6.47E0,2.9E1,5E0,1.2089597E-2,7.431446E-2,-2.16997E-3,-3.3939462E-2,-4.6287205E-2,-1.2014355E-2,-5.1622283E-2,-4.0869664E-2],"split_indices":[4,0,4,28,2,3,65,0,0,0,0,0,0,0,0],"split_type":[0,0,0,0,0,0,0,0,0,0,0,0,0,0,0],"sum_hessian":[6.114696E4,4.1491957E4,1.9655006E4,3.114893E4,1.0343026E4,4.5290474E3,1.5125958E4,1.821722E4,1.2931708E4,2.855999E3,7.487028E3,2.0715466E3,2.457501E3,1.3629326E4,1.4966317E3],"tree_param":{"num_deleted":"0","num_feature":"89","num_nodes":"15","size_leaf_vector":"1"}},{"base_weights":[-5.8597894E-3,-3.0697542E-1,1.1071113E0,6.581088E-2,-4.551299E-1,3.9068586E-1,1.4894265E0,6.1129633E-4,2.3670645E-1,-3.4101766E-2,-4.8905354E-2,2.9882945E-3,7.971832E-2,1.7576519E-1,2.8682923E-2],"categories":[],"categories_nodes":[],"categories_segments":[],"categories_sizes":[],"default_left":[0,0,0,0,0,0,0,0,0,0,0,0,0,0,0],"id":76,"left_children":[1,3,5,7,9,11,13,-1,-1,-1,-1,-1,-1,-1,-1],"loss_changes":[5.172778E3,6.7145447E2,8.9751514E2,4.72679E2,3.26521E1,1.6745837E2,6.881221E2,0E0,0E0,0E0,0E0,0E0,0E0,0E0,0E0],"parents":[2147483647,0,0,1,1,2,2,3,3,4,4,5,5,6,6],"right_children":[2,4,6,8,10,12,14,-1,-1,-1,-1,-1,-1,-1,-1],"split_conditions":[7.207E1,5.8E0,2.79E1,1E0,8.6E0,8.936E1,6.12E0,6.1129633E-4,2.3670645E-1,-3.4101766E-2,-4.8905354E-2,2.9882945E-3,7.971832E-2,1.7576519E-1,2.8682923E-2],"split_indices":[5,4,3,30,4,5,2,0,0,0,0,0,0,0,0],"split_type":[0,0,0,0,0,0,0,0,0,0,0,0,0,0,0],"sum_hessian":[1.5433303E4,1.2148591E4,3.2847117E3,3.4536948E3,8.694896E3,1.1450154E3,2.1396963E3,3.3685342E3,8.516048E1,2.0029363E3,6.69196E3,6.087617E2,5.362536E2,1.7482163E3,3.9148E2],"tree_param":{"num_deleted":"0","num_feature":"89","num_nodes":"15","size_leaf_vector":"1"}},{"base_weights":[3.5034816E-3,-4.5176575E-1,