{"learner":{"attributes":{},"feature_names":[],"feature_types":[],"gradient_booster":{"model":{"gbtree_model_param":{"num_parallel_tree":"1","num_trees":"1500"},"iteration_indptr":[0,15,30,45,60,75,90,105,120,135,150,165,180,195,210,225,240,255,270,285,300,315,330,345,360,375,390,405,420,435,450,465,480,495,510,525,540,555,570,585,600,615,630,645,660,675,690,705,720,735,750,765,780,795,810,825,840,855,870,885,900,915,930,945,960,975,990,1005,1020,1035,1050,1065,1080,1095,1110,1125,1140,1155,1170,1185,1200,1215,1230,1245,1260,1275,1290,1305,1320,1335,1350,1365,1380,1395,1410,1425,1440,1455,1470,1485,1500],"tree_info":[0,1,2,3,4,5,6,7,8,9,10,11,12,13,14,0,1,2,3,4,5,6,7,8,9,10,11,12,13,14,0,1,2,3,4,5,6,7,8,9,10,11,12,13,14,0,1,2,3,4,5,6,7,8,9,10,11,12,13,14,0,1,2,3,4,5,6,7,8,9,10,11,12,13,14,0,1,2,3,4,5,6,7,8,9,10,11,12,13,14,0,1,2,3,4,5,6,7,8,9,10,11,12,13,14,0,1,2,3,4,5,6,7,8,9,10,11,12,13,14,0,1,2,3,4,5,6,7,8,9,10,11,12,13,14,0,1,2,3,4,5,6,7,8,9,10,11,12,13,14,0,1,2,3,4,5,6,7,8,9,10,11,12,13,14,0,1,2,3,4,5,6,7,8,9,10,11,12,13,14,0,1,2,3,4,5,6,7,8,9,10,11,12,13,14,0,1,2,3,4,5,6,7,8,9,10,11,12,13,14,0,1,2,3,4,5,6,7,8,9,10,11,12,13,14,0,1,2,3,4,5,6,7,8,9,10,11,12,13,14,0,1,2,3,4,5,6,7,8,9,10,11,12,13,14,0,1,2,3,4,5,6,7,8,9,10,11,12,13,14,0,1,2,3,4,5,6,7,8,9,10,11,12,13,14,0,1,2,3,4,5,6,7,8,9,10,11,12,13,14,0,1,2,3,4,5,6,7,8,9,10,11,12,13,14,0,1,2,3,4,5,6,7,8,9,10,11,12,13,14,0,1,2,3,4,5,6,7,8,9,10,11,12,13,14,0,1,2,3,4,5,6,7,8,9,10,11,12,13,14,0,1,2,3,4,5,6,7,8,9,10,11,12,13,14,0,1,2,3,4,5,6,7,8,9,10,11,12,13,14,0,1,2,3,4,5,6,7,8,9,10,11,12,13,14,0,1,2,3,4,5,6,7,8,9,10,11,12,13,14,0,1,2,3,4,5,6,7,8,9,10,11,12,13,14,0,1,2,3,4,5,6,7,8,9,10,11,12,13,14,0,1,2,3,4,5,6,7,8,9,10,11,12,13,14,0,1,2,3,4,5,6,7,8,9,10,11,12,13,14,0,1,2,3,4,5,6,7,8,9,10,11,12,13,14,0,1,2,3,4,5,6,7,8,9,10,11,12,13,14,0,1,2,3,4,5,6,7,8,9,10,11,12,13,14,0,1,2,3,4,5,6,7,8,9,10,11,12,13,14,0,1,2,3,4,5,6,7,8,9,10,11,12,13,14,0,1,2,3,4,5,6,7,8,9,10,11,12,13,14,0,1,2,3,4,5,6,7,8,9,10,11,12,13,14,0,1,2,3,4,5,6,7,8,9,10,11,12,13,14,0,1,2,3,4,5,6,7,8,9,10,11,12,13,14,0,1,2,3,4,5,6,7,8,9,10,11,12,13,14,0,1,2,3,4,5,6,7,8,9,10,11,12,13,14,0,1,2,3,4,5,6,7,8,9,10,11,12,13,14,0,1,2,3,4,5,6,7,8,9,10,11,12,13,14,0,1,2,3,4,5,6,7,8,9,10,11,12,13,14,0,1,2,3,4,5,6,7,8,9,10,11,12,13,14,0,1,2,3,4,5,6,7,8,9,10,11,12,13,14,0,1,2,3,4,5,6,7,8,9,10,11,12,13,14,0,1,2,3,4,5,6,7,8,9,10,11,12,13,14,0,1,2,3,4,5,6,7,8,9,10,11,12,13,14,0,1,2,3,4,5,6,7,8,9,10,11,12,13,14,0,1,2,3,4,5,6,7,8,9,10,11,12,13,14,0,1,2,3,4,5,6,7,8,9,10,11,12,13,14,0,1,2,3,4,5,6,7,8,9,10,11,12,13,14,0,1,2,3,4,5,6,7,8,9,10,11,12,13,14,0,1,2,3,4,5,6,7,8,9,10,11,12,13,14,0,1,2,3,4,5,6,7,8,9,10,11,12,13,14,0,1,2,3,4,5,6,7,8,9,10,11,12,13,14,0,1,2,3,4,5,6,7,8,9,10,11,12,13,14,0,1,2,3,4,5,6,7,8,9,10,11,12,13,14,0,1,2,3,4,5,6,7,8,9,10,11,12,13,14,0,1,2,3,4,5,6,7,8,9,10,11,12,13,14,0,1,2,3,4,5,6,7,8,9,10,11,12,13,14,0,1,2,3,4,5,6,7,8,9,10,11,12,13,14,0,1,2,3,4,5,6,7,8,9,10,11,12,13,14,0,1,2,3,4,5,6,7,8,9,10,11,12,13,14,0,1,2,3,4,5,6,7,8,9,10,11,12,13,14,0,1,2,3,4,5,6,7,8,9,10,11,12,13,14,0,1,2,3,4,5,6,7,8,9,10,11,12,13,14,0,1,2,3,4,5,6,7,8,9,10,11,12,13,14,0,1,2,3,4,5,6,7,8,9,10,11,12,13,14,0,1,2,3,4,5,6,7,8,9,10,11,12,13,14,0,1,2,3,4,5,6,7,8,9,10,11,12,13,14,0,1,2,3,4,5,6,7,8,9,10,11,12,13,14,0,1,2,3,4,5,6,7,8,9,10,11,12,13,14,0,1,2,3,4,5,6,7,8,9,10,11,12,13,14,0,1,2,3,4,5,6,7,8,9,10,11,12,13,14,0,1,2,3,4,5,6,7,8,9,10,11,12,13,14,0,1,2,3,4,5,6,7,8,9,10,11,12,13,14,0,1,2,3,4,5,6,7,8,9,10,11,12,13,14,0,1,2,3,4,5,6,7,8,9,10,11,12,13,14,0,1,2,3,4,5,6,7,8,9,10,11,12,13,14,0,1,2,3,4,5,6,7,8,9,10,11,12,13,14,0,1,2,3,4,5,6,7,8,9,10,11,12,13,14,0,1,2,3,4,5,6,7,8,9,10,11,12,13,14,0,1,2,3,4,5,6,7,8,9,10,11,12,13,14,0,1,2,3,4,5,6,7,8,9,10,11,12,13,14,0,1,2,3,4,5,6,7,8,9,10,11,12,13,14,0,1,2,3,4,5,6,7,8,9,10,11,12,13,14,0,1,2,3,4,5,6,7,8,9,10,11,12,13,14,0,1,2,3,4,5,6,7,8,9,10,11,12,13,14,0,1,2,3,4,5,6,7,8,9,10,11,12,13,14,0,1,2,3,4,5,6,7,8,9,10,11,12,13,14,0,1,2,3,4,5,6,7,8,9,10,11,12,13,14,0,1,2,3,4,5,6,7,8,9,10,11,12,13,14,0,1,2,3,4,5,6,7,8,9,10,11,12,13,14,0,1,2,3,4,5,6,7,8,9,10,11,12,13,14,0,1,2,3,4,5,6,7,8,9,10,11,12,13,14,0,1,2,3,4,5,6,7,8,9,10,11,12,13,14],"trees":[{"base_weights":[2.08653E0,8.627381E-1,4.274411E0,1.387056E0,-4.2767733E-2,4.917915E0,3.3439487E-1,2.0001371E-1,-1.2953389E-3,1.2623762E-1,5.1373816E-1,7.457786E-2,-4.7169826E-3],"categories":[],"categories_nodes":[],"categories_segments":[],"categories_sizes":[],"default_left":[0,0,0,0,0,0,0,0,0,0,0,0,0],"id":0,"left_children":[1,3,5,7,-1,9,11,-1,-1,-1,-1,-1,-1],"loss_changes":[1.1937259E2,2.2377903E1,3.7388977E1,2.0676922E1,0E0,1.5002136E0,9.3213177E-1,0E0,0E0,0E0,0E0,0E0,0E0],"parents":[2147483647,0,0,1,1,2,2,3,3,5,5,6,6],"right_children":[2,4,6,8,-1,10,12,-1,-1,-1,-1,-1,-1],"split_conditions":[7.816E1,2.99E1,2.9E1,1E0,-4.2767733E-2,4.1E0,4.9E1,2.0001371E-1,-1.2953389E-3,1.2623762E-1,5.1373816E-1,7.457786E-2,-4.7169826E-3],"split_indices":[6,4,4,43,0,4,4,0,0,0,0,0,0],"split_type":[0,0,0,0,0,0,0,0,0,0,0,0,0],"sum_hessian":[4.5920002E1,3.0488892E1,1.5431112E1,2.1902224E1,8.586667E0,1.2942224E1,2.4888892E0,1.5182223E1,6.7200007E0,1.2444446E0,1.1697779E1,1.368889E0,1.1200001E0],"tree_param":{"num_deleted":"0","num_feature":"69","num_nodes":"13","size_leaf_vector":"1"}},{"base_weights":[-3.4159267E-1,7.706866E-2,-4.3309978E-1,3.6280724E-1,-2.4907751E-2,-4.8243573E-1,4.2452827E-2,-5.508921E-3,1.1679174E-1,-5.064127E-2,-8.630628E-4],"categories":[],"categories_nodes":[],"categories_segments":[],"categories_sizes":[],"default_left":[0,0,0,0,0,0,0,0,0,0,0],"id":1,"left_children":[1,3,5,7,-1,9,-1,-1,-1,-1,-1],"loss_changes":[1.9946198E0,9.130677E-1,1.89784E0,2.506384E0,0E0,1.7217731E-1,0E0,0E0,0E0,0E0,0E0],"parents":[2147483647,0,0,1,1,2,2,3,3,5,5],"right_children":[2,4,6,8,-1,10,-1,-1,-1,-1,-1],"split_conditions":[4.1E0,1.051E0,1.436E1,1.0475E0,-2.4907751E-2,1E0,4.2452827E-2,-5.508921E-3,1.1679174E-1,-5.064127E-2,-8.630628E-4],"split_indices":[4,0,18,0,0,45,0,0,0,0,0],"split_type":[0,0,0,0,0,0,0,0,0,0,0],"sum_hessian":[4.554667E1,7.217778E0,3.832889E1,4.604445E0,2.6133335E0,3.7208893E1,1.1200001E0,3.235556E0,1.368889E0,3.434667E1,2.8622224E0],"tree_param":{"num_deleted":"0","num_feature":"69","num_nodes":"11","size_leaf_vector":"1"}},{"base_weights":[-2.5339302E-1,-3.9871883E-1,1.7225392E-1,-4.4172445E-1,4.2452827E-2,-4.858465E-2,1.1768899E-2],"categories":[],"categories_nodes":[],"categories_segments":[],"categories_sizes":[],"default_left":[0,0,0,0,0,0,0],"id":2,"left_children":[1,3,-1,5,-1,-1,-1],"loss_changes":[1.3283756E1,1.7559547E0,0E0,1.3010664E0,0E0,0E0,0E0],"parents":[2147483647,0,0,1,1,3,3],"right_children":[2,4,-1,6,-1,-1,-1],"split_conditions":[2.11E1,1.515E1,1.7225392E-1,3.37E0,4.2452827E-2,-4.858465E-2,1.1768899E-2],"split_indices":[59,13,0,18,0,0,0],"split_type":[0,0,0,0,0,0,0],"sum_hessian":[4.5173336E1,4.305778E1,2.1155558E0,4.1937782E1,1.1200001E0,3.9822227E1,2.1155558E0],"tree_param":{"num_deleted":"0","num_feature":"69","num_nodes":"7","size_leaf_vector":"1"}},{"base_weights":[-4.094206E-1,-4.4687408E-1,6.935269E-2,-4.671983E-1,-0E0,4.2452827E-2,-7.425744E-3,-4.8802707E-2,-0E0],"categories":[],"categories_nodes":[],"categories_segments":[],"categories_sizes":[],"default_left":[0,0,0,0,0,0,0,0,0],"id":3,"left_children":[1,3,5,7,-1,-1,-1,-1,-1],"loss_changes":[1.0767288E0,5.994606E-1,3.7826937E-1,4.9622536E-1,0E0,0E0,0E0,0E0,0E0],"parents":[2147483647,0,0,1,1,2,2,3,3],"right_children":[2,4,6,8,-1,-1,-1,-1,-1],"split_conditions":[1E0,4.176E1,1.054E0,9.57E0,-0E0,4.2452827E-2,-7.425744E-3,-4.8802707E-2,-0E0],"split_indices":[27,12,0,11,0,0,0,0,0],"split_type":[0,0,0,0,0,0,0,0,0],"sum_hessian":[4.6791115E1,4.442667E1,2.3644447E0,4.330667E1,1.1200001E0,1.1200001E0,1.2444446E0,4.1688892E1,1.617778E0],"tree_param":{"num_deleted":"0","num_feature":"69","num_nodes":"9","size_leaf_vector":"1"}},{"base_weights":[-4.5320308E-1,-4.9232736E-1,1.4487368E-2,-5.1259793E-2,-0E0],"categories":[],"categories_nodes":[],"categories_segments":[],"categories_sizes":[],"default_left":[0,0,0,0,0],"id":4,"left_children":[1,3,-1,-1,-1],"loss_changes":[1.3895388E0,3.9990425E-1,0E0,0E0,0E0],"parents":[2147483647,0,0,1,1],"right_children":[2,4,-1,-1,-1],"split_conditions":[1.49E1,9.461E1,1.4487368E-2,-5.1259793E-2,-0E0],"split_indices":[7,6,0,0,0],"split_type":[0,0,0,0,0],"sum_hessian":[4.7911114E1,4.5920002E1,1.9911113E0,4.3804447E1,2.1155558E0],"tree_param":{"num_deleted":"0","num_feature":"69","num_nodes":"5","size_leaf_vector":"1"}},{"base_weights":[3.441617E-1,4.6991697E-1,-1.7581049E-1,-3.0198738E-1,1.769949E-1,-4.0348932E-2,3.2460134E-2],"categories":[],"categories_nodes":[],"categories_segments":[],"categories_sizes":[],"default_left":[0,0,0,0,0,0,0],"id":5,"left_children":[1,-1,3,5,-1,-1,-1],"loss_changes":[1.1384624E2,0E0,1.0739351E1,2.9012592E0,0E0,0E0,0E0],"parents":[2147483647,0,0,2,2,3,3],"right_children":[2,-1,4,6,-1,-1,-1],"split_conditions":[1.56E1,4.6991697E-1,7.5E1,7.368E1,1.769949E-1,-4.0348932E-2,3.2460134E-2],"split_indices":[59,0,5,21,0,0,0],"split_type":[0,0,0,0,0,0,0],"sum_hessian":[4.7911114E1,4.355556E0,4.355556E1,4.1937782E1,1.617778E0,3.7084446E1,4.853334E0],"tree_param":{"num_deleted":"0","num_feature":"69","num_nodes":"7","size_leaf_vector":"1"}},{"base_weights":[-3.85763E-1,-5.121396E-2,9.782608E-1,-0E0,1.8396227E-1],"categories":[],"categories_nodes":[],"categories_segments":[],"categories_sizes":[],"default_left":[0,0,0,0,0],"id":6,"left_children":[1,-1,3,-1,-1],"loss_changes":[8.356047E0,0E0,3.3593109E0,0E0,0E0],"parents":[2147483647,0,0,2,2],"right_children":[2,-1,4,-1,-1],"split_conditions":[5.238E1,-5.121396E-2,4.46E0,-0E0,1.8396227E-1],"split_indices":[9,0,2,0,0],"split_type":[0,0,0,0,0],"sum_hessian":[4.5920002E1,4.293334E1,2.986667E0,1.8666668E0,1.1200001E0],"tree_param":{"num_deleted":"0","num_feature":"69","num_nodes":"5","size_leaf_vector":"1"}},{"base_weights":[-4.512694E-1,-4.9209598E-1,4.2452827E-2,-5.129769E-2,-0E0],"categories":[],"categories_nodes":[],"categories_segments":[],"categories_sizes":[],"default_left":[0,0,0,0,0],"id":7,"left_children":[1,3,-1,-1,-1],"loss_changes":[1.9515028E0,6.847553E-1,0E0,0E0,0E0],"parents":[2147483647,0,0,1,1],"right_children":[2,4,-1,-1,-1],"split_conditions":[4.44E0,1.712E1,4.2452827E-2,-5.129769E-2,-0E0],"split_indices":[15,13,0,0,0],"split_type":[0,0,0,0,0],"sum_hessian":[4.6791115E1,4.5671116E1,1.1200001E0,4.4551113E1,1.1200001E0],"tree_param":{"num_deleted":"0","num_feature":"69","num_nodes":"5","size_leaf_vector":"1"}},{"base_weights":[-3.2735074E-1,7.4817514E-1,-4.6622243E-2,1.4114391E0,-1.7441861E-2,2.1534653E-1,-0E0],"categories":[],"categories_nodes":[],"categories_segments":[],"categories_sizes":[],"default_left":[0,0,0,0,0,0,0],"id":8,"left_children":[1,3,-1,5,-1,-1,-1],"loss_changes":[7.4016833E0,4.218031E0,0E0,3.2100754E0,0E0,0E0,0E0],"parents":[2147483647,0,0,1,1,3,3],"right_children":[2,4,-1,6,-1,-1,-1],"split_conditions":[1.83E1,5.24E0,-4.6622243E-2,7E-2,-1.7441861E-2,2.1534653E-1,-0E0],"split_indices":[59,2,0,21,0,0,0],"split_type":[0,0,0,0,0,0,0],"sum_hessian":[4.7164448E1,4.4800005E0,4.268445E1,2.6133335E0,1.8666668E0,1.2444446E0,1.368889E0],"tree_param":{"num_deleted":"0","num_feature":"69","num_nodes":"7","size_leaf_vector":"1"}},{"base_weights":[-3.2948214E-1,5.9055094E-2,-4.13475E-1,-3.6937904E-2,1.0185184E0,-4.599645E-1,4.2452827E-2,1.3679245E-1,-0E0,-5.073126E-2,-0E0],"categories":[],"categories_nodes":[],"categories_segments":[],"categories_sizes":[],"default_left":[0,0,0,0,0,0,0,0,0,0,0],"id":9,"left_children":[1,3,5,-1,7,9,-1,-1,-1,-1,-1],"loss_changes":[1.7896886E0,4.1811547E0,1.8178968E0,0E0,6.0587025E-1,9.066038E-1,0E0,0E0,0E0,0E0,0E0],"parents":[2147483647,0,0,1,1,2,2,4,4,5,5],"right_children":[2,4,6,-1,8,10,-1,-1,-1,-1,-1],"split_conditions":[1.9E1,1.89E1,2.841E1,-3.6937904E-2,1.05E0,8.16E0,4.2452827E-2,1.3679245E-1,-0E0,-5.073126E-2,-0E0],"split_indices":[59,59,12,0,0,7,0,0,0,0,0],"split_type":[0,0,0,0,0,0,0,0,0,0,0],"sum_hessian":[4.7662228E1,7.466667E0,4.019556E1,5.226667E0,2.2400002E0,3.9075558E1,1.1200001E0,1.1200001E0,1.1200001E0,3.546667E1,3.608889E0],"tree_param":{"num_deleted":"0","num_feature":"69","num_nodes":"11","size_leaf_vector":"1"}},{"base_weights":[-7.439828E-3,7.755884E-1,-4.1517323E-1,1.5466189E0,-3.923077E-2,-0E0,-4.6699172E-1,3.6422197E-2,2.0053223E-1,-2.5862068E-2,4.2452827E-2,-4.993763E-2,-0E0],"categories":[],"categories_nodes":[],"categories_segments":[],"categories_sizes":[],"default_left":[0,0,0,0,0,0,0,0,0,0,0,0,0],"id":10,"left_children":[1,3,5,7,-1,9,11,-1,-1,-1,-1,-1,-1],"loss_changes":[1.5876682E1,1.6316032E1,6.891446E-1,3.8243217E0,0E0,6.320754E-1,6.4773655E-1,0E0,0E0,0E0,0E0,0E0,0E0],"parents":[2147483647,0,0,1,1,2,2,3,3,5,5,6,6],"right_children":[2,4,6,8,-1,10,12,-1,-1,-1,-1,-1,-1],"split_conditions":[1.009E0,3.8E1,4.6E0,2.1E1,-3.923077E-2,1.057E0,1.6E1,3.6422197E-2,2.0053223E-1,-2.5862068E-2,4.2452827E-2,-4.993763E-2,-0E0],"split_indices":[1,3,4,3,0,0,7,0,0,0,0,0,0],"split_type":[0,0,0,0,0,0,0,0,0,0,0,0,0],"sum_hessian":[4.8284447E1,1.5804446E1,3.2480003E1,9.582223E0,6.222223E0,3.857778E0,2.8622225E1,3.4844446E0,6.0977783E0,2.737778E0,1.1200001E0,2.7502224E1,1.1200001E0],"tree_param":{"num_deleted":"0","num_feature":"69","num_nodes":"13","size_leaf_vector":"1"}},{"base_weights":[1.240632E-2,3.1919057E0,-3.6645997E-1,3.7544587E-1,7.457786E-2,1.383105E-1,-4.7771305E-2,9.359805E-2,-1.803724E-2],"categories":[],"categories_nodes":[],"categories_segments":[],"categories_sizes":[],"default_left":[0,0,0,0,0,0,0,0,0],"id":11,"left_children":[1,3,5,-1,-1,7,-1,-1,-1],"loss_changes":[5.7603443E1,1.9770508E0,2.5701694E0,0E0,0E0,2.4458141E0,0E0,0E0,0E0],"parents":[2147483647,0,0,1,1,2,2,5,5],"right_children":[2,4,6,-1,-1,8,-1,-1,-1],"split_conditions":[1.4E1,4.72E0,2.5E1,3.7544587E-1,7.457786E-2,1E0,-4.7771305E-2,9.359805E-2,-1.803724E-2],"split_indices":[3,2,3,0,0,1,0,0,0],"split_type":[0,0,0,0,0,0,0,0,0],"sum_hessian":[4.467556E1,4.106667E0,4.0568893E1,2.737778E0,1.368889E0,6.471112E0,3.4097782E1,1.7422223E0,4.7288895E0],"tree_param":{"num_deleted":"0","num_feature":"69","num_nodes":"9","size_leaf_vector":"1"}},{"base_weights":[-1.1538463E-1,-3.284755E-1,1.8251076E-1,-0E0,-4.080202E-1,4.8005784E-1,-3.81692E-2,-3.278323E-2,7.457786E-2,-4.8305083E-2,-0E0,9.712983E-3,2.3113206E-1],"categories":[],"categories_nodes":[],"categories_segments":[],"categories_sizes":[],"default_left":[0,0,0,0,0,0,0,0,0,0,0,0,0],"id":12,"left_children":[1,3,5,7,9,11,-1,-1,-1,-1,-1,-1,-1],"loss_changes":[3.1587553E0,8.153801E-1,3.5131047E0,1.8530016E0,6.3118696E-1,8.260881E0,0E0,0E0,0E0,0E0,0E0,0E0,0E0],"parents":[2147483647,0,0,1,1,2,2,3,3,4,4,5,5],"right_children":[2,4,6,8,10,12,-1,-1,-1,-1,-1,-1,-1],"split_conditions":[5.15E0,1.9E1,1.081E0,6.4E0,2.1E0,1.076E0,-3.81692E-2,-3.278323E-2,7.457786E-2,-4.8305083E-2,-0E0,9.712983E-3,2.3113206E-1],"split_indices":[12,59,0,2,12,0,0,0,0,0,0,0,0],"split_type":[0,0,0,0,0,0,0,0,0,0,0,0,0],"sum_hessian":[4.666667E1,2.8124447E1,1.8542223E1,5.3511114E0,2.2773335E1,1.2817779E1,5.724445E0,3.9822226E0,1.368889E0,1.8666668E1,4.106667E0,1.1697779E1,1.1200001E0],"tree_param":{"num_deleted":"0","num_feature":"69","num_nodes":"13","size_leaf_vector":"1"}},{"base_weights":[1.093765E0,-3.352539E-1,5.2407956E0,-4.652147E-1,1.6153844E-1,1.1679174E-1,5.6100374E-1,-4.9823064E-2,-0E0,7.596291E-2,-1.37075735E-2],"categories":[],"categories_nodes":[],"categories_segments":[],"categories_sizes":[],"default_left":[0,0,0,0,0,0,0,0,0,0,0],"id":13,"left_children":[1,3,5,7,9,-1,-1,-1,-1,-1,-1],"loss_changes":[2.7710403E2,2.4930253E0,8.031952E0,6.09591E-1,1.7052803E0,0E0,0E0,0E0,0E0,0E0,0E0],"parents":[2147483647,0,0,1,1,2,2,3,3,4,4],"right_children":[2,4,6,8,10,-1,-1,-1,-1,-1,-1],"split_conditions":[2.99E1,1.525E1,2.51E1,1.019E0,1.061E0,1.1679174E-1,5.6100374E-1,-4.9823064E-2,-0E0,7.596291E-2,-1.37075735E-2],"split_indices":[4,4,3,1,0,0,0,0,0,0,0],"split_type":[0,0,0,0,0,0,0,0,0,0,0],"sum_hessian":[4.5048893E1,3.4097782E1,1.0951112E1,2.7875557E1,6.222223E0,1.368889E0,9.582223E0,2.6631113E1,1.2444446E0,2.1155558E0,4.106667E0],"tree_param":{"num_deleted":"0","num_feature":"69","num_nodes":"11","size_leaf_vector":"1"}},{"base_weights":[-4.9090108E-1,-5.122724E-2,-0E0],"categories":[],"categories_nodes":[],"categories_segments":[],"categories_sizes":[],"default_left":[0,0,0],"id":14,"left_children":[1,-1,-1],"loss_changes":[6.473379E-1,0E0,0E0],"parents":[2147483647,0,0],"right_children":[2,-1,-1],"split_conditions":[1.607E1,-5.122724E-2,-0E0],"split_indices":[7,0,0],"split_type":[0,0,0],"sum_hessian":[4.442667E1,4.3182224E1,1.2444446E0],"tree_param":{"num_deleted":"0","num_feature":"69","num_nodes":"3","size_leaf_vector":"1"}},{"base_weights":[1.5479975E0,5.824035E-1,2.6736283E0,2.3831643E-1,1.6424658E0,3.112217E0,3.8276768E-1,6.451101E-2,-2.7398909E-2,2.0628254E-1,-6.58426E-3,2.0423502E-2,3.3283192E-1,-1.6648393E-3,1.0376891E-1],"categories":[],"categories_nodes":[],"categories_segments":[],"categories_sizes":[],"default_left":[0,0,0,0,0,0,0,0,0,0,0,0,0,0,0],"id":15,"left_children":[1,3,5,7,9,11,13,-1,-1,-1,-1,-1,-1,-1,-1],"loss_changes":[5.8580032E1,1.0378746E1,2.2904694E1,5.731553E0,6.4063625E0,1.0917267E1,1.9551494E0,0E0,0E0,0E0,0E0,0E0,0E0,0E0,0E0],"parents":[2147483647,0,0,1,1,2,2,3,3,4,4,5,5,6,6],"right_children":[2,4,6,8,10,12,14,-1,-1,-1,-1,-1,-1,-1,-1],"split_conditions":[7.267E1,3.333E1,2.032E1,1.525E1,9.6E1,1.9E1,5E0,6.451101E-2,-2.7398909E-2,2.0628254E-1,-6.58426E-3,2.0423502E-2,3.3283192E-1,-1.6648393E-3,1.0376891E-1],"split_indices":[6,9,4,4,9,59,65,0,0,0,0,0,0,0,0],"split_type":[0,0,0,0,0,0,0,0,0,0,0,0,0,0,0],"sum_hessian":[5.582679E1,3.1105402E1,2.4721388E1,2.4763779E1,6.341623E0,2.0264856E1,4.456532E0,1.4202837E1,1.0560941E1,5.157653E0,1.18397E0,1.6963743E0,1.8568481E1,2.899405E0,1.557127E0],"tree_param":{"num_deleted":"0","num_feature":"69","num_nodes":"15","size_leaf_vector":"1"}},{"base_weights":[-3.012104E-1,-3.8778448E-1,8.7483555E-2,3.837732E-1,-4.803716E-1,-0E0,9.815011E-2,-5.056556E-2,-0E0],"categories":[],"categories_nodes":[],"categories_segments":[],"categories_sizes":[],"default_left":[0,0,0,0,0,0,0,0,0],"id":16,"left_children":[1,3,-1,5,7,-1,-1,-1,-1],"loss_changes":[4.476067E0,3.1730776E0,0E0,1.2811222E0,5.608177E-1,0E0,0E0,0E0,0E0],"parents":[2147483647,0,0,1,1,3,3,4,4],"right_children":[2,4,-1,6,8,-1,-1,-1,-1],"split_conditions":[5.88E0,3.6E0,8.7483555E-2,3.338E1,2.11E1,-0E0,9.815011E-2,-5.056556E-2,-0E0],"split_indices":[18,4,0,9,59,0,0,0,0],"split_type":[0,0,0,0,0,0,0,0,0],"sum_hessian":[4.2022545E1,4.016149E1,1.8610523E0,3.387453E0,3.677404E1,2.3868034E0,1.0006496E0,3.5284267E1,1.4897707E0],"tree_param":{"num_deleted":"0","num_feature":"69","num_nodes":"9","size_leaf_vector":"1"}},{"base_weights":[-2.4223004E-1,-3.877447E-1,1.0537153E0,-4.74439E-2,-0E0,-1.1737179E-2,1.842714E-1,8.730479E-2,-2.4590816E-2],"categories":[],"categories_nodes":[],"categories_segments":[],"categories_sizes":[],"default_left":[0,0,0,0,0,0,0,0,0],"id":17,"left_children":[1,3,5,-1,7,-1,-1,-1,-1],"loss_changes":[8.479381E0,1.4510698E0,5.1637235E0,0E0,2.068471E0,0E0,0E0,0E0,0E0],"parents":[2147483647,0,0,1,1,2,2,4,4],"right_children":[2,4,6,-1,8,-1,-1,-1,-1],"split_conditions":[3.37E0,8.4E0,1.065E0,-4.74439E-2,1.01E0,-1.1737179E-2,1.842714E-1,8.730479E-2,-2.4590816E-2],"split_indices":[18,2,0,0,1,0,0,0,0],"split_type":[0,0,0,0,0,0,0,0,0],"sum_hessian":[4.3563766E1,4.0142952E1,3.4208133E0,3.292717E1,7.215783E0,1.46455E0,1.9562633E0,1.1534768E0,6.0623064E0],"tree_param":{"num_deleted":"0","num_feature":"69","num_nodes":"9","size_leaf_vector":"1"}},{"base_weights":[-4.2494813E-1,-4.4464874E-1,-0E0,-4.652119E-1,-0E0,-9.320395E-3,-5.0699186E-2],"categories":[],"categories_nodes":[],"categories_segments":[],"categories_sizes":[],"default_left":[0,0,0,0,0,0,0],"id":18,"left_children":[1,3,-1,5,-1,-1,-1],"loss_changes":[5.911007E-1,6.13637E-1,0E0,3.3697796E-1,0E0,0E0,0E0],"parents":[2147483647,0,0,1,1,3,3],"right_children":[2,4,-1,6,-1,-1,-1],"split_conditions":[4.176E1,1.9E1,-0E0,1.045E0,-0E0,-9.320395E-3,-5.0699186E-2],"split_indices":[12,7,0,0,0,0,0],"split_type":[0,0,0,0,0,0,0],"sum_hessian":[4.5097073E1,4.4092506E1,1.004568E0,4.3029648E1,1.0628583E0,5.879247E0,3.7150402E1],"tree_param":{"num_deleted":"0","num_feature":"69","num_nodes":"7","size_leaf_vector":"1"}},{"base_weights":[-4.4378886E-1,-5.0964724E-2,4.4116184E-2],"categories":[],"categories_nodes":[],"categories_segments":[],"categories_sizes":[],"default_left":[0,0,0],"id":19,"left_children":[1,-1,-1],"loss_changes":[2.8655767E0,0E0,0E0],"parents":[2147483647,0,0],"right_children":[2,-1,-1],"split_conditions":[9.461E1,-5.0964724E-2,4.4116184E-2],"split_indices":[6,0,0],"split_type":[0,0,0],"sum_hessian":[4.372261E1,4.1614723E1,2.1078858E0],"tree_param":{"num_deleted":"0","num_feature":"69","num_nodes":"3","size_leaf_vector":"1"}},{"base_weights":[3.8074866E-1,3.2693005E-1,4.0147784E-3,5.3583604E-1,-3.786333E-1,8.050206E-2,-3.2642122E-2,-4.8765298E-2,1.0903875E-2],"categories":[],"categories_nodes":[],"categories_segments":[],"categories_sizes":[],"default_left":[0,0,0,0,0,0,0,0,0],"id":20,"left_children":[1,-1,3,5,7,-1,-1,-1,-1],"loss_changes":[5.169535E1,0E0,9.341186E0,5.048889E0,1.621069E0,0E0,0E0,0E0,0E0],"parents":[2147483647,0,0,2,2,3,3,4,4],"right_children":[2,-1,4,6,8,-1,-1,-1,-1],"split_conditions":[1.11E1,3.2693005E-1,4.285E1,1.94E1,4.86E0,8.050206E-2,-3.2642122E-2,-4.8765298E-2,1.0903875E-2],"split_indices":[59,0,6,59,7,0,0,0,0],"split_type":[0,0,0,0,0,0,0,0,0],"sum_hessian":[4.8020756E1,4.5014377E0,4.3519318E1,1.8589355E1,2.4929964E1,1.465921E1,3.9301457E0,2.1213074E1,3.7168903E0],"tree_param":{"num_deleted":"0","num_feature":"69","num_nodes":"9","size_leaf_vector":"1"}},{"base_weights":[-3.8056207E-1,-5.09592E-2,9.1665655E-1,1.3823429E0,-1.9996655E-3,1.8143885E-1,-0E0],"categories":[],"categories_nodes":[],"categories_segments":[],"categories_sizes":[],"default_left":[0,0,0,0,0,0,0],"id":21,"left_children":[1,-1,3,5,-1,-1,-1],"loss_changes":[7.929386E0,0E0,2.519012E0,1.0384235E0,0E0,0E0,0E0],"parents":[2147483647,0,0,2,2,3,3],"right_children":[2,-1,4,6,-1,-1,-1],"split_conditions":[5.614E1,-5.09592E-2,2.08E1,8.98E1,-1.9996655E-3,1.8143885E-1,-0E0],"split_indices":[9,0,3,9,0,0,0],"split_type":[0,0,0,0,0,0,0],"sum_hessian":[4.4798763E1,4.1648712E1,3.15005E0,2.1427152E0,1.0073346E0,1.1396534E0,1.0030619E0],"tree_param":{"num_deleted":"0","num_feature":"69","num_nodes":"7","size_leaf_vector":"1"}},{"base_weights":[-4.8823333E-1,-5.1007997E-2,-0E0],"categories":[],"categories_nodes":[],"categories_segments":[],"categories_sizes":[],"default_left":[0,0,0],"id":22,"left_children":[1,-1,-1],"loss_changes":[7.0534325E-1,0E0,0E0],"parents":[2147483647,0,0],"right_children":[2,-1,-1],"split_conditions":[4.08E0,-5.1007997E-2,-0E0],"split_indices":[15,0,0],"split_type":[0,0,0],"sum_hessian":[4.352246E1,4.2501316E1,1.0211452E0],"tree_param":{"num_deleted":"0","num_feature":"69","num_nodes":"3","size_leaf_vector":"1"}},{"base_weights":[-3.2038656E-1,8.097585E-1,-4.854836E-1,1.6994886E-1,-3.869187E-3,-5.071166E-2,-7.845199E-2,-1.6703922E-2,-0E0,-2.2847889E-2,-0E0],"categories":[],"categories_nodes":[],"categories_segments":[],"categories_sizes":[],"default_left":[0,0,0,0,0,0,0,0,0,0,0],"id":23,"left_children":[1,3,5,-1,7,-1,9,-1,-1,-1,-1],"loss_changes":[8.976146E0,5.1710777E0,3.6434174E-2,0E0,7.807997E-2,0E0,1.4919406E-1,0E0,0E0,0E0,0E0],"parents":[2147483647,0,0,1,1,2,2,4,4,6,6],"right_children":[2,4,6,-1,8,-1,10,-1,-1,-1,-1],"split_conditions":[1.83E1,1.051E0,5E1,1.6994886E-1,8.11E0,-5.071166E-2,8.43E0,-1.6703922E-2,-0E0,-2.2847889E-2,-0E0],"split_indices":[59,0,9,0,7,0,21,0,0,0,0],"split_type":[0,0,0,0,0,0,0,0,0,0,0],"sum_hessian":[4.586992E1,4.9630303E0,4.0906887E1,2.1441166E0,2.8189137E0,3.744258E1,3.4643078E0,1.8004036E0,1.0185101E0,2.3843255E0,1.0799823E0],"tree_param":{"num_deleted":"0","num_feature":"69","num_nodes":"11","size_leaf_vector":"1"}},{"base_weights":[-3.211406E-1,-4.2889065E-1,8.1224196E-2,-4.527235E-1,-0E0,1.1853187E0,-3.921146E-2,-4.7695525E-2,-0E0,-3.2403928E-3,1.932445E-1],"categories":[],"categories_nodes":[],"categories_segments":[],"categories_sizes":[],"default_left":[0,0,0,0,0,0,0,0,0,0,0],"id":24,"left_children":[1,3,5,7,-1,9,-1,-1,-1,-1,-1],"loss_changes":[2.2487102E0,5.905714E-1,5.9828568E0,4.5197916E-1,0E0,4.2025194E0,0E0,0E0,0E0,0E0,0E0],"parents":[2147483647,0,0,1,1,2,2,3,3,5,5],"right_children":[2,4,6,8,-1,10,-1,-1,-1,-1,-1],"split_conditions":[1E0,4.496E1,1.052E0,8.958E1,-0E0,5.1E0,-3.921146E-2,-4.7695525E-2,-0E0,-3.2403928E-3,1.932445E-1],"split_indices":[42,12,0,21,0,4,0,0,0,0,0],"split_type":[0,0,0,0,0,0,0,0,0,0,0],"sum_hessian":[4.6054512E1,3.7254723E1,8.799788E0,3.6214443E1,1.0402775E0,2.5061605E0,6.2936277E0,3.451598E1,1.6984651E0,1.06224E0,1.4439206E0],"tree_param":{"num_deleted":"0","num_feature":"69","num_nodes":"11","size_leaf_vector":"1"}},{"base_weights":[2.1992652E-3,7.8480405E-1,-4.080612E-1,1.3535092E0,-2.3399115E-1,-4.6669695E-1,1.8570554E-2,1.8419416E-1,-0E0,-0E0,-3.527927E-2,-4.985678E-2,-0E0],"categories":[],"categories_nodes":[],"categories_segments":[],"categories_sizes":[],"default_left":[0,0,0,0,0,0,0,0,0,0,0,0,0],"id":25,"left_children":[1,3,5,7,9,11,-1,-1,-1,-1,-1,-1,-1],"loss_changes":[1.6046745E1,1.0961122E1,1.3408928E0,7.211258E0,3.3809236E-1,6.593709E-1,0E0,0E0,0E0,0E0,0E0,0E0,0E0],"parents":[2147483647,0,0,1,1,2,2,3,3,4,4,5,5],"right_children":[2,4,6,8,10,12,-1,-1,-1,-1,-1,-1,-1],"split_conditions":[1.009E0,3.8E1,8.39E0,3.333E1,4.6E0,5.88E0,1.8570554E-2,1.8419416E-1,-0E0,-0E0,-3.527927E-2,-4.985678E-2,-0E0],"split_indices":[1,3,11,9,4,18,0,0,0,0,0,0,0],"split_type":[0,0,0,0,0,0,0,0,0,0,0,0,0],"sum_hessian":[4.7394554E1,1.6405516E1,3.098904E1,1.063253E1,5.7729845E0,2.916502E1,1.8240201E0,7.4067245E0,3.225806E0,1.0770938E0,4.6958904E0,2.808436E1,1.08066E0],"tree_param":{"num_deleted":"0","num_feature":"69","num_nodes":"13","size_leaf_vector":"1"}},{"base_weights":[-0E0,1.9357396E0,-4.2856616E-1,2.4592025E0,-0E0,-4.7466636E-1,-0E0,2.7277884E-1,4.0274348E-2,-5.028766E-2,-0E0,-2.7046451E-2,4.472364E-2],"categories":[],"categories_nodes":[],"categories_segments":[],"categories_sizes":[],"default_left":[0,0,0,0,0,0,0,0,0,0,0,0,0],"id":26,"left_children":[1,3,5,7,-1,9,11,-1,-1,-1,-1,-1,-1],"loss_changes":[3.881864E1,8.543581E0,6.9218063E-1,1.0209122E0,0E0,6.6782E-1,7.0100796E-1,0E0,0E0,0E0,0E0,0E0,0E0],"parents":[2147483647,0,0,1,1,2,2,3,3,5,5,6,6],"right_children":[2,4,6,8,-1,10,12,-1,-1,-1,-1,-1,-1],"split_conditions":[2.03E1,1E0,1.468E1,1.069E0,-0E0,1.176E1,6.5E0,2.7277884E-1,4.0274348E-2,-5.028766E-2,-0E0,-2.7046451E-2,4.472364E-2],"split_indices":[3,43,9,0,0,14,2,0,0,0,0,0,0],"split_type":[0,0,0,0,0,0,0,0,0,0,0,0,0],"sum_hessian":[4.4689068E1,7.487161E0,3.7201904E1,5.6712747E0,1.8158866E0,3.3213955E1,3.9879487E0,4.51235E0,1.1589246E0,3.2123783E1,1.0901713E0,2.915082E0,1.0728668E0],"tree_param":{"num_deleted":"0","num_feature":"69","num_nodes":"13","size_leaf_vector":"1"}},{"base_weights":[-1.3581249E-1,-3.2555398E-1,1.2273736E-1,-0E0,-4.079532E-1,3.9899606E-1,-3.8331132E-2,-3.1385727E-2,8.519041E-2,-4.7828E-2,-7.1550137E-3,1.5891589E-3,2.220112E-1],"categories":[],"categories_nodes":[],"categories_segments":[],"categories_sizes":[],"default_left":[0,0,0,0,0,0,0,0,0,0,0,0,0],"id":27,"left_children":[1,3,5,7,9,11,-1,-1,-1,-1,-1,-1,-1],"loss_changes":[2.4796357E0,9.3291545E-1,2.9266996E0,2.0488465E0,2.585802E-1,8.563427E0,0E0,0E0,0E0,0E0,0E0,0E0,0E0],"parents":[2147483647,0,0,1,1,2,2,3,3,4,4,5,5],"right_children":[2,4,6,8,10,12,-1,-1,-1,-1,-1,-1,-1],"split_conditions":[5.15E0,1.9E1,1.081E0,6.4E0,5E0,8E0,-3.8331132E-2,-3.1385727E-2,8.519041E-2,-4.7828E-2,-7.1550137E-3,1.5891589E-3,2.220112E-1],"split_indices":[12,59,0,2,65,2,0,0,0,0,0,0,0],"split_type":[0,0,0,0,0,0,0,0,0,0,0,0,0],"sum_hessian":[4.6663723E1,2.7878956E1,1.8784767E1,4.882298E0,2.2996658E1,1.292722E1,5.8575478E0,3.6966763E0,1.1856215E0,1.7442215E1,5.554444E0,1.1740647E1,1.186573E0],"tree_param":{"num_deleted":"0","num_feature":"69","num_nodes":"13","size_leaf_vector":"1"}},{"base_weights":[9.0007424E-1,-4.7307184E-1,3.269904E0,-5.0035365E-2,-0E0,1.0204353E0,3.5687344E0,-0E0,-1.4887737E-2,-2.9119358E-3,1.5823297E-1,3.7283853E-1,4.3556236E-2],"categories":[],"categories_nodes":[],"categories_segments":[],"categories_sizes":[],"default_left":[0,0,0,0,0,0,0,0,0,0,0,0,0],"id":28,"left_children":[1,3,5,-1,7,9,11,-1,-1,-1,-1,-1,-1],"loss_changes":[1.6978973E2,1.888237E-1,6.8824615E0,0E0,5.9474904E-2,3.08307E0,4.415863E0,0E0,0E0,0E0,0E0,0E0,0E0],"parents":[2147483647,0,0,1,1,2,2,4,4,5,5,6,6],"right_children":[2,4,6,-1,8,10,12,-1,-1,-1,-1,-1,-1],"split_conditions":[2.5E1,8.3E1,4.706E1,-5.0035365E-2,8.98E1,2E0,8.762E1,-0E0,-1.4887737E-2,-2.9119358E-3,1.5823297E-1,3.7283853E-1,4.3556236E-2],"split_indices":[4,3,22,0,22,14,6,0,0,0,0,0,0],"split_type":[0,0,0,0,0,0,0,0,0,0,0,0,0],"sum_hessian":[5.0271713E1,3.220223E1,1.8069487E1,2.943446E1,2.767769E0,2.8328629E0,1.5236624E1,1.0844246E0,1.6833445E0,1.0081267E0,1.8247362E0,1.4165278E1,1.0713453E0],"tree_param":{"num_deleted":"0","num_feature":"69","num_nodes":"13","size_leaf_vector":"1"}},{"base_weights":[-5.1146513E-1],"categories":[],"categories_nodes":[],"categories_segments":[],"categories_sizes":[],"default_left":[0],"id":29,"left_children":[-1],"loss_changes":[0E0],"parents":[2147483647],"right_children":[-1],"split_conditions":[-5.1146515E-2],"split_indices":[0],"split_type":[0],"sum_hessian":[4.521886E1],"tree_param":{"num_deleted":"0","num_feature":"69","num_nodes":"1","size_leaf_vector":"1"}},{"base_weights":[1.4187204E0,3.431286E-1,2.2569988E0,-1.52506E-1,1.0278705E0,2.8467932E0,-4.541355E-2,-3.888861E-2,3.2346066E-2,1.6750877E-1,-1.6138773E-2,2.9381794E-1,-0E0,-2.3234008E-2,2.7407631E-2],"categories":[],"categories_nodes":[],"categories_segments":[],"categories_sizes":[],"default_left":[0,0,0,0,0,0,0,0,0,0,0,0,0,0,0],"id":30,"left_children":[1,3,5,7,9,11,13,-1,-1,-1,-1,-1,-1,-1,-1],"loss_changes":[5.718788E1,1.085363E1,5.109233E1,2.181777E0,1.1222613E1,6.3930054E0,5.357653E-1,0E0,0E0,0E0,0E0,0E0,0E0,0E0,0E0],"parents":[2147483647,0,0,1,1,2,2,3,3,4,4,5,5,6,6],"right_children":[2,4,6,8,10,12,14,-1,-1,-1,-1,-1,-1,-1,-1],"split_conditions":[3.9E1,1.629E1,2.99E1,2.97E1,1.25E1,6.8E-1,1.522E1,-3.888861E-2,3.2346066E-2,1.6750877E-1,-1.6138773E-2,2.9381794E-1,-0E0,-2.3234008E-2,2.7407631E-2],"split_indices":[3,6,4,3,4,15,12,0,0,0,0,0,0,0,0],"split_type":[0,0,0,0,0,0,0,0,0,0,0,0,0,0,0],"sum_hessian":[6.472696E1,2.9229055E1,3.5497906E1,1.6983221E1,1.2245833E1,2.8243633E1,7.2542715E0,1.217178E1,4.811442E0,7.937831E0,4.3080025E0,2.7193338E1,1.0502954E0,5.7360225E0,1.5182487E0],"tree_param":{"num_deleted":"0","num_feature":"69","num_nodes":"15","size_leaf_vector":"1"}},{"base_weights":[-3.1275946E-1,-3.917323E-1,5.223485E-1,2.1255508E-2,-4.533589E-1,9.125172E-2,-2.5161046E-3,-2.8093426E-2,7.417681E-2,-4.747544E-2,-4.0344535E-3],"categories":[],"categories_nodes":[],"categories_segments":[],"categories_sizes":[],"default_left":[0,0,0,0,0,0,0,0,0,0,0],"id":31,"left_children":[1,3,5,7,9,-1,-1,-1,-1,-1,-1],"loss_changes":[3.138679E0,1.3116355E0,1.2806922E0,1.6236984E0,6.1086655E-2,0E0,0E0,0E0,0E0,0E0,0E0],"parents":[2147483647,0,0,1,1,2,2,3,3,4,4],"right_children":[2,4,6,8,10,-1,-1,-1,-1,-1,-1],"split_conditions":[2.11E1,3.6E0,1.062E0,3.338E1,9.91E1,9.125172E-2,-2.5161046E-3,-2.8093426E-2,7.417681E-2,-4.747544E-2,-4.0344535E-3],"split_indices":[59,4,0,9,22,0,0,0,0,0,0],"split_type":[0,0,0,0,0,0,0,0,0,0,0],"sum_hessian":[4.4478813E1,4.1668076E1,2.8107393E0,4.441992E0,3.722608E1,1.785153E0,1.0255864E0,3.0703845E0,1.3716074E0,3.4099518E1,3.1265647E0],"tree_param":{"num_deleted":"0","num_feature":"69","num_nodes":"11","size_leaf_vector":"1"}},{"base_weights":[-2.6620078E-1,-3.882222E-1,8.635774E-1,-4.2996067E-1,6.714267E-2,-1.9440982E-2,2.0874937E-1,-4.5328774E-2,-0E0,4.772162E-2,-9.795256E-3],"categories":[],"categories_nodes":[],"categories_segments":[],"categories_sizes":[],"default_left":[0,0,0,0,0,0,0,0,0,0,0],"id":32,"left_children":[1,3,5,7,9,-1,-1,-1,-1,-1,-1],"loss_changes":[6.294041E0,1.002007E0,6.910201E0,5.951214E-1,4.6362942E-1,0E0,0E0,0E0,0E0,0E0,0E0],"parents":[2147483647,0,0,1,1,2,2,3,3,4,4],"right_children":[2,4,6,8,10,-1,-1,-1,-1,-1,-1],"split_conditions":[2.11E1,3.37E0,1.062E0,9.333E1,7.42E0,-1.9440982E-2,2.0874937E-1,-4.5328774E-2,-0E0,4.772162E-2,-9.795256E-3],"split_indices":[59,18,0,21,18,0,0,0,0,0,0],"split_type":[0,0,0,0,0,0,0,0,0,0,0],"sum_hessian":[4.3948414E1,4.065628E1,3.2921333E0,3.8299572E1,2.356708E0,1.9978067E0,1.2943267E0,3.725518E1,1.0443891E0,1.0031149E0,1.3535932E0],"tree_param":{"num_deleted":"0","num_feature":"69","num_nodes":"11","size_leaf_vector":"1"}},{"base_weights":[-3.7142083E-1,6.887089E-2,-4.5250824E-1,-3.3651687E-2,1.1131835E-1,-4.7731027E-1,-0E0,-5.033369E-2,-0E0],"categories":[],"categories_nodes":[],"categories_segments":[],"categories_sizes":[],"default_left":[0,0,0,0,0,0,0,0,0],"id":33,"left_children":[1,3,5,-1,-1,7,-1,-1,-1],"loss_changes":[1.7802582E0,3.5962956E0,6.4514875E-1,0E0,0E0,6.1445236E-1,0E0,0E0,0E0],"parents":[2147483647,0,0,1,1,2,2,5,5],"right_children":[2,4,6,-1,-1,8,-1,-1,-1],"split_conditions":[1.045E0,5.26E0,3.333E1,-3.3651687E-2,1.1131835E-1,1.607E1,-0E0,-5.033369E-2,-0E0],"split_indices":[0,12,12,0,0,7,0,0,0],"split_type":[0,0,0,0,0,0,0,0,0],"sum_hessian":[4.2618546E1,5.6926813E0,3.6925865E1,4.2441425E0,1.4485388E0,3.5918633E1,1.0072323E0,3.462468E1,1.2939547E0],"tree_param":{"num_deleted":"0","num_feature":"69","num_nodes":"9","size_leaf_vector":"1"}},{"base_weights":[-4.3690285E-1,-4.8176673E-1,1.5997134E-2,-5.0584942E-2,-0E0],"categories":[],"categories_nodes":[],"categories_segments":[],"categories_sizes":[],"default_left":[0,0,0,0,0],"id":34,"left_children":[1,3,-1,-1,-1],"loss_changes":[1.3683624E0,6.860151E-1,0E0,0E0,0E0],"parents":[2147483647,0,0,1,1],"right_children":[2,4,-1,-1,-1],"split_conditions":[9.787E1,1.966E1,1.5997134E-2,-5.0584942E-2,-0E0],"split_indices":[6,7,0,0,0],"split_type":[0,0,0,0,0],"sum_hessian":[4.1213467E1,3.9290737E1,1.9227295E0,3.8226665E1,1.0640724E0],"tree_param":{"num_deleted":"0","num_feature":"69","num_nodes":"5","size_leaf_vector":"1"}},{"base_weights":[3.3335924E-1,2.6820564E-1,-4.725178E-2,-1.7951918E-1,1.305657E0,-2.653617E-2,1.1928735E-1,1.7776145E-1,-0E0],"categories":[],"categories_nodes":[],"categories_segments":[],"categories_sizes":[],"default_left":[0,0,0,0,0,0,0,0,0],"id":35,"left_children":[1,-1,3,5,7,-1,-1,-1,-1],"loss_changes":[4.743471E1,0E0,7.7367787E0,4.8330493E0,1.7423363E0,0E0,0E0,0E0,0E0],"parents":[2147483647,0,0,2,2,3,3,4,4],"right_children":[2,-1,4,6,8,-1,-1,-1,-1],"split_conditions":[1.11E1,2.6820564E-1,7.5E1,1E2,1.05E0,-2.653617E-2,1.1928735E-1,1.7776145E-1,-0E0],"split_indices":[59,0,5,21,0,0,0,0,0],"split_type":[0,0,0,0,0,0,0,0,0],"sum_hessian":[5.0447052E1,6.37497E0,4.4072083E1,4.127382E1,2.7982605E0,3.994618E1,1.3276439E0,1.6005094E0,1.197751E0],"tree_param":{"num_deleted":"0","num_feature":"69","num_nodes":"9","size_leaf_vector":"1"}},{"base_weights":[-3.2701376E-1,-4.848746E-1,2.7375722E-1,-0E0,-5.066187E-2,-0E0,-1.53307635E-2],"categories":[],"categories_nodes":[],"categories_segments":[],"categories_sizes":[],"default_left":[0,0,0,0,0,0,0],"id":36,"left_children":[1,3,-1,5,-1,-1,-1],"loss_changes":[2.142517E1,2.1694946E-1,0E0,6.398372E-2,0E0,0E0,0E0],"parents":[2147483647,0,0,1,1,3,3],"right_children":[2,4,-1,6,-1,-1,-1],"split_conditions":[1E0,3.2E0,2.7375722E-1,1.18E1,-5.066187E-2,-0E0,-1.53307635E-2],"split_indices":[39,4,0,3,0,0,0],"split_type":[0,0,0,0,0,0,0],"sum_hessian":[4.287164E1,4.1727154E1,1.1444848E0,2.7437162E0,3.898344E1,1.0213786E0,1.7223376E0],"tree_param":{"num_deleted":"0","num_feature":"69","num_nodes":"7","size_leaf_vector":"1"}},{"base_weights":[-4.3852547E-1,-8.8027425E-2,-5.026303E-2,-2.7512845E-1,4.04386E-2,-3.8172543E-2,-0E0],"categories":[],"categories_nodes":[],"categories_segments":[],"categories_sizes":[],"default_left":[0,0,0,0,0,0,0],"id":37,"left_children":[1,3,-1,5,-1,-1,-1],"loss_changes":[6.279545E-1,8.828401E-1,0E0,4.022783E-1,0E0,0E0,0E0],"parents":[2147483647,0,0,1,1,3,3],"right_children":[2,4,-1,6,-1,-1,-1],"split_conditions":[1E0,1.082E0,-5.026303E-2,2.01E0,4.04386E-2,-3.8172543E-2,-0E0],"split_indices":[1,0,0,19,0,0,0],"split_type":[0,0,0,0,0,0,0],"sum_hessian":[4.20613E1,8.076318E0,3.3984978E1,6.908127E0,1.1681906E0,5.868848E0,1.0392792E0],"tree_param":{"num_deleted":"0","num_feature":"69","num_nodes":"7","size_leaf_vector":"1"}},{"base_weights":[-3.5141915E-1,4.9035987E-1,-4.806678E-1,9.9445444E-1,-1.8174183E-2,-0E0,-5.0440527E-2,1.4307441E-1,-0E0,-9.617296E-3,-0E0],"categories":[],"categories_nodes":[],"categories_segments":[],"categories_sizes":[],"default_left":[0,0,0,0,0,0,0,0,0,0,0],"id":38,"left_children":[1,3,5,7,-1,9,-1,-1,-1,-1,-1],"loss_changes":[5.0375986E0,2.5727074E0,3.1109524E-1,1.338742E0,0E0,2.18927E-2,0E0,0E0,0E0,0E0,0E0],"parents":[2147483647,0,0,1,1,2,2,3,3,5,5],"right_children":[2,4,6,8,-1,10,-1,-1,-1,-1,-1],"split_conditions":[1.83E1,5.24E0,3.2E0,1.013E0,-1.8174183E-2,7E-2,-5.0440527E-2,1.4307441E-1,-0E0,-9.617296E-3,-0E0],"split_indices":[59,2,4,1,0,21,0,0,0,0,0],"split_type":[0,0,0,0,0,0,0,0,0,0,0],"sum_hessian":[4.3180126E1,4.8606873E0,3.831944E1,2.9285278E0,1.9321595E0,2.3909562E0,3.5928482E1,1.5519031E0,1.3766247E0,1.3669732E0,1.0239829E0],"tree_param":{"num_deleted":"0","num_feature":"69","num_nodes":"11","size_leaf_vector":"1"}},{"base_weights":[-3.445334E-1,-4.2382458E-1,7.683538E-2,-4.4833606E-1,-0E0,9.465273E-2,-3.213584E-2,-4.99846E-2,-0E0],"categories":[],"categories_nodes":[],"categories_segments":[],"categories_sizes":[],"default_left":[0,0,0,0,0,0,0,0,0],"id":39,"left_children":[1,3,5,7,-1,-1,-1,-1,-1],"loss_changes":[1.6285048E0,5.806999E-1,2.8990862E0,6.6158724E-1,0E0,0E0,0E0,0E0,0E0],"parents":[2147483647,0,0,1,1,2,2,3,3],"right_children":[2,4,6,8,-1,-1,-1,-1,-1],"split_conditions":[7.013E1,3.231E1,1.9E1,8.16E0,-0E0,9.465273E-2,-3.213584E-2,-4.99846E-2,-0E0],"split_indices":[21,12,59,7,0,0,0,0,0],"split_type":[0,0,0,0,0,0,0,0,0],"sum_hessian":[4.1574394E1,3.59839E1,5.590496E0,3.4939445E1,1.0444528E0,1.7176371E0,3.8728588E0,3.056186E1,4.3775873E0],"tree_param":{"num_deleted":"0","num_feature":"69","num_nodes":"9","size_leaf_vector":"1"}},{"base_weights":[1.06105186E-1,-4.979473E-2,3.1630802E-1,5.536436E-1,-3.4426507E-1,8.764782E-3,1.12699546E-1,1.8600402E-2,-4.5930404E-2],"categories":[],"categories_nodes":[],"categories_segments":[],"categories_sizes":[],"default_left":[0,0,0,0,0,0,0,0,0],"id":40,"left_children":[1,3,-1,5,7,-1,-1,-1,-1],"loss_changes":[2.3973665E1,8.129985E0,0E0,3.2141232E0,2.1495168E0,0E0,0E0,0E0,0E0],"parents":[2147483647,0,0,1,1,3,3,4,4],"right_children":[2,4,-1,6,8,-1,-1,-1,-1],"split_conditions":[2.39E1,2.57E1,3.1630802E-1,2.2E1,4.6E0,8.764782E-3,1.12699546E-1,1.8600402E-2,-4.5930404E-2],"split_indices":[59,3,0,3,4,0,0,0,0],"split_type":[0,0,0,0,0,0,0,0,0],"sum_hessian":[4.5706566E1,4.4269077E1,1.4374882E0,1.3672614E1,3.0596464E1,8.659489E0,5.013125E0,4.569631E0,2.6026834E1],"tree_param":{"num_deleted":"0","num_feature":"69","num_nodes":"9","size_leaf_vector":"1"}},{"base_weights":[4.8476826E-2,1.6804464E0,-4.00609E-1,2.2547626E-1,7.809675E-1,-4.7238198E-1,4.3739807E-2,1.396738E-1,-0E0,-5.0085466E-2,-0E0,-2.4036603E-2,5.7767253E-2],"categories":[],"categories_nodes":[],"categories_segments":[],"categories_sizes":[],"default_left":[0,0,0,0,0,0,0,0,0,0,0,0,0],"id":41,"left_children":[1,3,5,-1,7,9,11,-1,-1,-1,-1,-1,-1],"loss_changes":[3.639778E1,2.2813854E0,1.4503355E0,0E0,3.3799076E0,6.68694E-1,1.1032718E0,0E0,0E0,0E0,0E0,0E0,0E0],"parents":[2147483647,0,0,1,1,2,2,4,4,5,5,6,6],"right_children":[2,4,6,-1,8,10,12,-1,-1,-1,-1,-1,-1],"split_conditions":[2.03E1,1.008E0,1.468E1,2.2547626E-1,7.924E1,1.744E1,9.303E1,1.396738E-1,-0E0,-5.0085466E-2,-0E0,-2.4036603E-2,5.7767253E-2],"split_indices":[3,1,9,0,22,10,22,0,0,0,0,0,0],"split_type":[0,0,0,0,0,0,0,0,0,0,0,0,0],"sum_hessian":[4.6871372E1,9.763271E0,3.71081E1,4.6998215E0,5.06345E0,3.286222E1,4.2458825E0,2.6281466E0,2.4353032E0,3.1787294E1,1.0749245E0,2.5189307E0,1.7269521E0],"tree_param":{"num_deleted":"0","num_feature":"69","num_nodes":"13","size_leaf_vector":"1"}},{"base_weights":[-8.999168E-2,-2.2668202E-1,4.4598693E-1,-2.9445913E-1,6.988524E-2,1.4763916E0,-8.1977606E-2,-3.4219425E-2,4.5100912E-2,2.8807273E-2,1.9510865E-1,-3.1508625E-2,1.4565731E-2],"categories":[],"categories_nodes":[],"categories_segments":[],"categories_sizes":[],"default_left":[0,0,0,0,0,0,0,0,0,0,0,0,0],"id":42,"left_children":[1,3,5,7,-1,9,11,-1,-1,-1,-1,-1,-1],"loss_changes":[3.4556494E0,2.4552202E0,5.824371E0,1.438721E0,0E0,2.8764486E-1,4.867237E-1,0E0,0E0,0E0,0E0,0E0,0E0],"parents":[2147483647,0,0,1,1,2,2,3,3,5,5,6,6],"right_children":[2,4,6,8,-1,10,12,-1,-1,-1,-1,-1,-1],"split_conditions":[8.668E1,1E0,9.039E1,1.25E1,6.988524E-2,1E0,7.86E0,-3.4219425E-2,4.5100912E-2,2.8807273E-2,1.9510865E-1,-3.1508625E-2,1.4565731E-2],"split_indices":[6,28,22,14,0,45,2,0,0,0,0,0,0],"split_type":[0,0,0,0,0,0,0,0,0,0,0,0,0],"sum_hessian":[4.628444E1,3.808228E1,8.202161E0,3.6622482E1,1.4597957E0,2.4910805E0,5.7110806E0,3.5557304E1,1.0651791E0,1.4703854E0,1.0206952E0,3.7170136E0,1.9940671E0],"tree_param":{"num_deleted":"0","num_feature":"69","num_nodes":"13","size_leaf_vector":"1"}},{"base_weights":[7.840081E-1,-4.3752778E-1,2.3178751E0,-4.658014E-1,-0E0,2.4228888E0,-0E0,-4.9671926E-2,-0E0,2.5189665E-1,5.579057E-2],"categories":[],"categories_nodes":[],"categories_segments":[],"categories_sizes":[],"default_left":[0,0,0,0,0,0,0,0,0,0,0],"id":43,"left_children":[1,3,5,7,-1,9,-1,-1,-1,-1,-1],"loss_changes":[1.068281E2,4.966488E-1,5.380005E0,5.1044273E-1,0E0,1.3453827E0,0E0,0E0,0E0,0E0,0E0],"parents":[2147483647,0,0,1,1,2,2,3,3,5,5],"right_children":[2,4,6,8,-1,10,-1,-1,-1,-1,-1],"split_conditions":[2.5E1,1.019E0,4.1E-1,2.032E1,-0E0,1.49E1,-0E0,-4.9671926E-2,-0E0,2.5189665E-1,5.579057E-2],"split_indices":[4,1,19,4,0,7,0,0,0,0,0],"split_type":[0,0,0,0,0,0,0,0,0,0,0],"sum_hessian":[5.4972286E1,3.0818186E1,2.41541E1,2.9361765E1,1.4564205E0,2.2937342E1,1.2167584E0,2.7768547E1,1.593218E0,2.122513E1,1.7122118E0],"tree_param":{"num_deleted":"0","num_feature":"69","num_nodes":"11","size_leaf_vector":"1"}},{"base_weights":[-4.8277602E-1,-5.0591808E-2,-0E0],"categories":[],"categories_nodes":[],"categories_segments":[],"categories_sizes":[],"default_left":[0,0,0],"id":44,"left_children":[1,-1,-1],"loss_changes":[5.2277946E-1,0E0,0E0],"parents":[2147483647,0,0],"right_children":[2,-1,-1],"split_conditions":[1.607E1,-5.0591808E-2,-0E0],"split_indices":[7,0,0],"split_type":[0,0,0],"sum_hessian":[4.0249695E1,3.8604733E1,1.6449617E0],"tree_param":{"num_deleted":"0","num_feature":"69","num_nodes":"3","size_leaf_vector":"1"}},{"base_weights":[1.1926188E0,1.4478635E0,-0E0,8.476526E-1,2.035104E0,-3.1537408E-1,5.6460184E-1,1.9868221E-2,1.4156471E-1,2.1426824E-1,-5.862242E-3,-4.0866915E-2,-0E0,1.0650235E-1,-0E0],"categories":[],"categories_nodes":[],"categories_segments":[],"categories_sizes":[],"default_left":[0,0,0,0,0,0,0,0,0,0,0,0,0,0,0],"id":45,"left_children":[1,3,5,7,9,11,13,-1,-1,-1,-1,-1,-1,-1,-1],"loss_changes":[2.1436943E1,1.7476448E1,2.6571536E0,1.0374794E1,7.579796E0,4.4421935E-1,1.8031325E0,0E0,0E0,0E0,0E0,0E0,0E0,0E0,0E0],"parents":[2147483647,0,0,1,1,2,2,3,3,4,4,5,5,6,6],"right_children":[2,4,6,8,10,12,14,-1,-1,-1,-1,-1,-1,-1,-1],"split_conditions":[2.11E1,1E0,1.081E1,7.69E0,8.623E1,8.917E1,3.76E1,1.9868221E-2,1.4156471E-1,2.1426824E-1,-5.862242E-3,-4.0866915E-2,-0E0,1.0650235E-1,-0E0],"split_indices":[4,41,12,6,5,22,4,0,0,0,0,0,0,0,0],"split_type":[0,0,0,0,0,0,0,0,0,0,0,0,0,0,0],"sum_hessian":[7.024654E1,5.7566628E1,1.2679913E1,3.009837E1,2.7468256E1,8.2216425E0,4.458271E0,1.5088672E1,1.5009698E1,2.6330778E1,1.1374795E0,7.1516533E0,1.0699887E0,2.1236646E0,2.3346062E0],"tree_param":{"num_deleted":"0","num_feature":"69","num_nodes":"15","size_leaf_vector":"1"}},{"base_weights":[-3.2842004E-1,2.7452642E-1,-4.0694955E-1,5.8009744E-1,-9.719313E-3,-4.5369938E-1,3.36122E-2,-2.522023E-3,1.02299504E-1,-4.767618E-2,-0E0],"categories":[],"categories_nodes":[],"categories_segments":[],"categories_sizes":[],"default_left":[0,0,0,0,0,0,0,0,0,0,0],"id":46,"left_children":[1,3,5,7,-1,9,-1,-1,-1,-1,-1],"loss_changes":[2.2769732E0,8.625801E-1,1.6133075E0,1.4926414E0,0E0,4.3857384E-1,0E0,0E0,0E0,0E0,0E0],"parents":[2147483647,0,0,1,1,2,2,3,3,5,5],"right_children":[2,4,6,8,-1,10,-1,-1,-1,-1,-1],"split_conditions":[3.6E0,3.24E1,1.2E1,1.3E1,-9.719313E-3,6.471E1,3.36122E-2,-2.522023E-3,1.02299504E-1,-4.767618E-2,-0E0],"split_indices":[4,3,18,3,0,9,0,0,0,0,0],"split_type":[0,0,0,0,0,0,0,0,0,0,0],"sum_hessian":[4.3331226E1,3.971942E0,3.9359283E1,2.6105053E0,1.3614366E0,3.8029022E1,1.3302603E0,1.0244689E0,1.5860364E0,3.6273926E1,1.7550974E0],"tree_param":{"num_deleted":"0","num_feature":"69","num_nodes":"11","size_leaf_vector":"1"}},{"base_weights":[-2.8438786E-1,-3.6393818E-1,6.0163265E-1,-4.0839103E-1,4.397331E-2,-1.0454235E-2,1.3444339E-1,-4.508738E-2,-0E0],"categories":[],"categories_nodes":[],"categories_segments":[],"categories_sizes":[],"default_left":[0,0,0,0,0,0,0,0,0],"id":47,"left_children":[1,3,5,7,-1,-1,-1,-1,-1],"loss_changes":[3.2308967E0,1.66082E0,2.6061792E0,8.922353E-1,0E0,0E0,0E0,0E0,0E0],"parents":[2147483647,0,0,1,1,2,2,3,3],"right_children":[2,4,6,8,-1,-1,-1,-1,-1],"split_conditions":[2.11E1,1.723E1,1.06E0,3.37E0,4.397331E-2,-1.0454235E-2,1.3444339E-1,-4.508738E-2,-0E0],"split_indices":[59,13,0,18,0,0,0,0,0],"split_type":[0,0,0,0,0,0,0,0,0],"sum_hessian":[4.3418896E1,4.0900276E1,2.518619E0,3.9812164E1,1.0881124E0,1.3865597E0,1.1320592E0,3.687263E1,2.939533E0],"tree_param":{"num_deleted":"0","num_feature":"69","num_nodes":"9","size_leaf_vector":"1"}},{"base_weights":[-3.8579273E-1,-4.3149912E-1,4.8012707E-2,-4.5416236E-1,-0E0,-4.7575187E-2,-0E0],"categories":[],"categories_nodes":[],"categories_segments":[],"categories_sizes":[],"default_left":[0,0,0,0,0,0,0],"id":48,"left_children":[1,3,-1,5,-1,-1,-1],"loss_changes":[1.8236761E0,5.9537363E-1,0E0,1.8653774E-1,0E0,0E0,0E0],"parents":[2147483647,0,0,1,1,3,3],"right_children":[2,4,-1,6,-1,-1,-1],"split_conditions":[3.333E1,1.6E1,4.8012707E-2,8.718E1,-0E0,-4.7575187E-2,-0E0],"split_indices":[12,7,0,21,0,0,0],"split_type":[0,0,0,0,0,0,0],"sum_hessian":[4.0457687E1,3.9454254E1,1.0034319E0,3.840403E1,1.0502247E0,3.5733036E1,2.6709929E0],"tree_param":{"num_deleted":"0","num_feature":"69","num_nodes":"7","size_leaf_vector":"1"}},{"base_weights":[-3.88057E-1,-4.545759E-1,3.8298023E-1,-5.0318092E-2,1.682829E-2,-8.204022E-3,9.6516706E-2],"categories":[],"categories_nodes":[],"categories_segments":[],"categories_sizes":[],"default_left":[0,0,0,0,0,0,0],"id":49,"left_children":[1,3,5,-1,-1,-1,-1],"loss_changes":[2.376943E0,1.4615955E0,1.4145414E0,0E0,0E0,0E0,0E0],"parents":[2147483647,0,0,1,1,2,2],"right_children":[2,4,6,-1,-1,-1,-1],"split_conditions":[9.461E1,1.49E1,1.073E0,-5.0318092E-2,1.682829E-2,-8.204022E-3,9.6516706E-2],"split_indices":[6,7,0,0,0,0,0],"split_type":[0,0,0,0,0,0,0],"sum_hessian":[4.1252163E1,3.895072E1,2.301442E0,3.705409E1,1.8966359E0,1.279609E0,1.0218331E0],"tree_param":{"num_deleted":"0","num_feature":"69","num_nodes":"7","size_leaf_vector":"1"}},{"base_weights":[4.0821204E-1,2.0873766E0,-8.6434465E-3,2.2405735E-1,3.2859616E-2,4.3923008E-1,-3.6667192E-1,7.644778E-2,-2.1768091E-2,-4.7998242E-2,3.3479847E-3],"categories":[],"categories_nodes":[],"categories_segments":[],"categories_sizes":[],"default_left":[0,0,0,0,0,0,0,0,0,0,0],"id":50,"left_children":[1,3,5,-1,-1,7,9,-1,-1,-1,-1],"loss_changes":[3.6956367E1,7.927933E-1,6.8345213E0,0E0,0E0,4.376281E0,1.3465533E0,0E0,0E0,0E0,0E0],"parents":[2147483647,0,0,1,1,2,2,5,5,6,6],"right_children":[2,4,6,-1,-1,8,10,-1,-1,-1,-1],"split_conditions":[1.56E1,4.11E1,3.338E1,2.2405735E-1,3.2859616E-2,1.212E1,4.86E0,7.644778E-2,-2.1768091E-2,-4.7998242E-2,3.3479847E-3],"split_indices":[59,3,6,0,0,9,7,0,0,0,0],"split_type":[0,0,0,0,0,0,0,0,0,0,0],"sum_hessian":[5.0286507E1,9.442508E0,4.0843998E1,8.172433E0,1.2700754E0,1.7424095E1,2.3419903E1,1.2053564E1,5.370531E0,1.9069921E1,4.3499813E0],"tree_param":{"num_deleted":"0","num_feature":"69","num_nodes":"11","size_leaf_vector":"1"}},{"base_weights":[-3.236944E-1,-5.042992E-2,1.1061051E0,1.5183692E-1,-0E0],"categories":[],"categories_nodes":[],"categories_segments":[],"categories_sizes":[],"default_left":[0,0,0,0,0],"id":51,"left_children":[1,-1,3,-1,-1],"loss_changes":[1.1450991E1,0E0,1.8887696E0,0E0,0E0],"parents":[2147483647,0,0,2,2],"right_children":[2,-1,4,-1,-1],"split_conditions":[5.614E1,-5.042992E-2,8.98E1,1.5183692E-1,-0E0],"split_indices":[9,0,9,0,0],"split_type":[0,0,0,0,0],"sum_hessian":[4.2349503E1,3.8485237E1,3.8642619E0,2.400663E0,1.4635991E0],"tree_param":{"num_deleted":"0","num_feature":"69","num_nodes":"5","size_leaf_vector":"1"}},{"base_weights":[-4.3316117E-1,-4.801229E-1,4.6306927E-2,-5.0424565E-2,-0E0],"categories":[],"categories_nodes":[],"categories_segments":[],"categories_sizes":[],"default_left":[0,0,0,0,0],"id":52,"left_children":[1,3,-1,-1,-1],"loss_changes":[1.9698992E0,6.980696E-1,0E0,0E0,0E0],"parents":[2147483647,0,0,1,1],"right_children":[2,4,-1,-1,-1],"split_conditions":[1.905E1,1.429E1,4.6306927E-2,-5.0424565E-2,-0E0],"split_indices":[15,13,0,0,0],"split_type":[0,0,0,0,0],"sum_hessian":[4.0318684E1,3.928249E1,1.0361904E0,3.8265965E1,1.0165256E0],"tree_param":{"num_deleted":"0","num_feature":"69","num_nodes":"5","size_leaf_vector":"1"}},{"base_weights":[-2.7553174E-1,7.398478E-1,-4.5036173E-1,1.5053904E0,-6.1265975E-3,-0E0,-4.7261145E-2,2.1521938E-1,-0E0,-1.706153E-2,-0E0,-1.4723304E-2,-0E0],"categories":[],"categories_nodes":[],"categories_segments":[],"categories_sizes":[],"default_left":[0,0,0,0,0,0,0,0,0,0,0,0,0],"id":53,"left_children":[1,3,5,7,9,11,-1,-1,-1,-1,-1,-1,-1],"loss_changes":[7.8176694E0,4.34017E0,1.6883612E-1,2.5861607E0,8.245031E-2,5.8160383E-2,0E0,0E0,0E0,0E0,0E0,0E0,0E0],"parents":[2147483647,0,0,1,1,2,2,3,3,4,4,5,5],"right_children":[2,4,6,8,10,12,-1,-1,-1,-1,-1,-1,-1],"split_conditions":[1.83E1,1.051E0,3.2E0,7E-2,8.42E0,3E0,-4.7261145E-2,2.1521938E-1,-0E0,-1.706153E-2,-0E0,-1.4723304E-2,-0E0],"split_indices":[59,0,4,21,7,4,0,0,0,0,0,0,0],"split_type":[0,0,0,0,0,0,0,0,0,0,0,0,0],"sum_hessian":[4.1976925E1,5.27118E0,3.6705746E1,2.4298434E0,2.8413367E0,2.7107809E0,3.3994965E1,1.2364014E0,1.1934419E0,1.8373653E0,1.0039715E0,1.6829754E0,1.0278054E0],"tree_param":{"num_deleted":"0","num_feature":"69","num_nodes":"13","size_leaf_vector":"1"}},{"base_weights":[-3.6960816E-1,-4.082652E-1,4.131763E-2,-4.3019435E-1,-0E0,-1.1597888E-2,4.5414355E-2,-4.53161E-2,-0E0],"categories":[],"categories_nodes":[],"categories_segments":[],"categories_sizes":[],"default_left":[0,0,0,0,0,0,0,0,0],"id":54,"left_children":[1,3,5,7,-1,-1,-1,-1,-1],"loss_changes":[8.8789654E-1,5.585456E-1,4.501719E-1,5.870695E-1,0E0,0E0,0E0,0E0,0E0],"parents":[2147483647,0,0,1,1,2,2,3,3],"right_children":[2,4,6,8,-1,-1,-1,-1,-1],"split_conditions":[1E0,1.723E1,3.45E0,1.744E1,-0E0,-1.1597888E-2,4.5414355E-2,-4.53161E-2,-0E0],"split_indices":[27,13,12,10,0,0,0,0,0],"split_type":[0,0,0,0,0,0,0,0,0],"sum_hessian":[4.2282745E1,3.9765156E1,2.5175903E0,3.8733143E1,1.0320102E0,1.4666562E0,1.0509342E0,3.7666576E1,1.0665686E0],"tree_param":{"num_deleted":"0","num_feature":"69","num_nodes":"9","size_leaf_vector":"1"}},{"base_weights":[1.3378474E-1,8.7767667E-1,-3.8958085E-1,1.3150909E0,-2.1336053E-1,7.88536E-3,-4.8806325E-2,1.6946664E-2,1.5786651E-1,-0E0,-3.393529E-2,3.4787323E-2,-2.065183E-2],"categories":[],"categories_nodes":[],"categories_segments":[],"categories_sizes":[],"default_left":[0,0,0,0,0,0,0,0,0,0,0,0,0],"id":55,"left_children":[1,3,5,7,9,11,-1,-1,-1,-1,-1,-1,-1],"loss_changes":[1.9139454E1,1.0559003E1,1.3506036E0,3.392765E0,3.278723E-1,5.500025E-1,0E0,0E0,0E0,0E0,0E0,0E0,0E0],"parents":[2147483647,0,0,1,1,2,2,3,3,4,4,5,5],"right_children":[2,4,6,8,10,12,-1,-1,-1,-1,-1,-1,-1],"split_conditions":[1.009E0,3.82E1,2E1,1.6E1,4.4E0,1.22E1,-4.8806325E-2,1.6946664E-2,1.5786651E-1,-0E0,-3.393529E-2,3.4787323E-2,-2.065183E-2],"split_indices":[1,3,22,3,4,4,0,0,0,0,0,0,0],"split_type":[0,0,0,0,0,0,0,0,0,0,0,0,0],"sum_hessian":[4.665521E1,1.9383133E1,2.7272076E1,1.4016582E1,5.366551E0,4.5900254E0,2.268205E1,3.2837453E0,1.0732836E1,1.0027705E0,4.36378E0,2.4362721E0,2.153753E0],"tree_param":{"num_deleted":"0","num_feature":"69","num_nodes":"13","size_leaf_vector":"1"}},{"base_weights":[-3.547124E-2,-2.4618433E-1,6.4472723E-1,6.580557E-2,-4.4181606E-1,1.7954702E-2,1.0287688E0,3.4339555E-2,-3.336637E-2,-4.8382204E-2,-0E0,9.189012E-2,-3.02178E-2,1.3927999E-1,1.1281959E-2],"categories":[],"categories_nodes":[],"categories_segments":[],"categories_sizes":[],"default_left":[0,0,0,0,0,0,0,0,0,0,0,0,0,0,0],"id":56,"left_children":[1,3,5,7,9,11,13,-1,-1,-1,-1,-1,-1,-1,-1],"loss_changes":[6.2418404E0,2.338081E0,1.8850069E0,1.5918064E0,6.376014E-1,2.1270604E0,1.003696E0,0E0,0E0,0E0,0E0,0E0,0E0,0E0,0E0],"parents":[2147483647,0,0,1,1,2,2,3,3,4,4,5,5,6,6],"right_children":[2,4,6,8,10,12,14,-1,-1,-1,-1,-1,-1,-1,-1],"split_conditions":[1.212E1,6.744E1,1.051E0,2.1E1,1.662E1,3.1E0,3.597E1,3.4339555E-2,-3.336637E-2,-4.8382204E-2,-0E0,9.189012E-2,-3.02178E-2,1.3927999E-1,1.1281959E-2],"split_indices":[9,22,0,4,21,4,9,0,0,0,0,0,0,0,0],"split_type":[0,0,0,0,0,0,0,0,0,0,0,0,0,0,0],"sum_hessian":[4.283265E1,3.3750507E1,9.082143E0,1.2277838E1,2.147267E1,4.342952E0,4.739191E0,8.06531E0,4.2125278E0,2.0463678E1,1.0089904E0,1.0577139E0,3.2852378E0,2.6281717E0,2.1110194E0],"tree_param":{"num_deleted":"0","num_feature":"69","num_nodes":"15","size_leaf_vector":"1"}},{"base_weights":[-1.0037093E-1,-2.1922651E-1,3.655783E-1,-2.8656653E-1,5.936688E-2,1.0930587E0,-4.491848E-2,-3.530767E-2,1.9832652E-2,-0E0,1.5932916E-1,-2.9572302E-2,1.7799197E-2],"categories":[],"categories_nodes":[],"categories_segments":[],"categories_sizes":[],"default_left":[0,0,0,0,0,0,0,0,0,0,0,0,0],"id":57,"left_children":[1,3,5,7,-1,9,11,-1,-1,-1,-1,-1,-1],"loss_changes":[2.5639198E0,2.1113195E0,3.2320237E0,1.3271759E0,0E0,1.5642891E0,4.588504E-1,0E0,0E0,0E0,0E0,0E0,0E0],"parents":[2147483647,0,0,1,1,2,2,3,3,5,5,6,6],"right_children":[2,4,6,8,-1,10,12,-1,-1,-1,-1,-1,-1],"split_conditions":[8.636E1,1E0,9.039E1,1.286E1,5.936688E-2,1E0,9.787E1,-3.530767E-2,1.9832652E-2,-0E0,1.5932916E-1,-2.9572302E-2,1.7799197E-2],"split_indices":[6,28,22,10,0,45,6,0,0,0,0,0,0],"split_type":[0,0,0,0,0,0,0,0,0,0,0,0,0],"sum_hessian":[4.5170467E1,3.7266907E1,7.90356E0,3.5581875E1,1.6850326E0,2.6905847E0,5.2129755E0,3.243583E1,3.1460445E0,1.3374107E0,1.3531741E0,3.3547895E0,1.8581859E0],"tree_param":{"num_deleted":"0","num_feature":"69","num_nodes":"13","size_leaf_vector":"1"}},{"base_weights":[5.966811E-1,-3.7640816E-1,1.8359511E0,-4.9156394E-2,3.631001E-2,1.981483E-1,4.3510398E-1,-2.8925464E-2,5.0985437E-2,1.265663E-1,-1.9230073E-2],"categories":[],"categories_nodes":[],"categories_segments":[],"categories_sizes":[],"default_left":[0,0,0,0,0,0,0,0,0,0,0],"id":58,"left_children":[1,3,5,-1,7,-1,9,-1,-1,-1,-1],"loss_changes":[6.970119E1,1.781569E0,3.0875168E0,0E0,1.342319E0,0E0,2.857038E0,0E0,0E0,0E0,0E0],"parents":[2147483647,0,0,1,1,2,2,4,4,6,6],"right_children":[2,4,6,-1,8,-1,10,-1,-1,-1,-1],"split_conditions":[2.9E1,1.525E1,1.546E1,-4.9156394E-2,5.941E1,1.981483E-1,6.03E0,-2.8925464E-2,5.0985437E-2,1.265663E-1,-1.9230073E-2],"split_indices":[4,4,21,0,6,0,12,0,0,0,0],"split_type":[0,0,0,0,0,0,0,0,0,0,0],"sum_hessian":[5.5620953E1,3.1320518E1,2.4300434E1,2.5285776E1,6.034743E0,2.1314669E1,2.985765E0,3.181053E0,2.8536897E0,1.1900327E0,1.7957321E0],"tree_param":{"num_deleted":"0","num_feature":"69","num_nodes":"11","size_leaf_vector":"1"}},{"base_weights":[-4.817122E-1,-5.0467428E-2,-0E0],"categories":[],"categories_nodes":[],"categories_segments":[],"categories_sizes":[],"default_left":[0,0,0],"id":59,"left_children":[1,-1,-1],"loss_changes":[5.813074E-1,0E0,0E0],"parents":[2147483647,0,0],"right_children":[2,-1,-1],"split_conditions":[1.607E1,-5.0467428E-2,-0E0],"split_indices":[7,0,0],"split_type":[0,0,0],"sum_hessian":[4.0724052E1,3.929599E1,1.4280605E0],"tree_param":{"num_deleted":"0","num_feature":"69","num_nodes":"3","size_leaf_vector":"1"}},{"base_weights":[9.7703296E-1,4.393645E-1,1.4818069E0,9.739696E-1,1.2498704E-1,1.6248915E0,4.8638426E-2,1.2214952E-1,-1.9455193E-2,-4.0462103E-2,6.8644494E-2,1.6718154E-1,-0E0,-1.7022962E-2,3.8948923E-2],"categories":[],"categories_nodes":[],"categories_segments":[],"categories_sizes":[],"default_left":[0,0,0,0,0,0,0,0,0,0,0,0,0,0,0],"id":60,"left_children":[1,3,5,7,9,11,13,-1,-1,-1,-1,-1,-1,-1,-1],"loss_changes":[2.0135933E1,6.1695213E0,7.3746567E0,4.8975973E0,8.5561285E0,2.2322693E0,5.5028E-1,0E0,0E0,0E0,0E0,0E0,0E0,0E0,0E0],"parents":[2147483647,0,0,1,1,2,2,3,3,4,4,5,5,6,6],"right_children":[2,4,6,8,10,12,14,-1,-1,-1,-1,-1,-1,-1,-1],"split_conditions":[1E0,4.07E0,1.18E0,3.7E0,5.635E1,7.895E1,7.561E1,1.2214952E-1,-1.9455193E-2,-4.0462103E-2,6.8644494E-2,1.6718154E-1,-0E0,-1.7022962E-2,3.8948923E-2],"split_indices":[41,2,13,13,6,5,6,0,0,0,0,0,0,0,0],"split_type":[0,0,0,0,0,0,0,0,0,0,0,0,0,0,0],"sum_hessian":[7.913075E1,3.970222E1,3.942853E1,1.33358345E1,2.6366386E1,3.541056E1,4.017973E0,1.1320412E1,2.0154238E0,1.32535095E1,1.3112877E1,3.419401E1,1.216548E0,1.8583446E0,2.1596284E0],"tree_param":{"num_deleted":"0","num_feature":"69","num_nodes":"15","size_leaf_vector":"1"}},{"base_weights":[-2.9549935E-1,1.4402299E-1,-4.3850985E-1,6.382222E-1,-3.426336E-2,-4.6637282E-1,-0E0,9.8587744E-2,-9.708169E-3,-4.9486797E-2,-0E0],"categories":[],"categories_nodes":[],"categories_segments":[],"categories_sizes":[],"default_left":[0,0,0,0,0,0,0,0,0,0,0],"id":61,"left_children":[1,3,5,7,-1,9,-1,-1,-1,-1,-1],"loss_changes":[2.8839736E0,2.8524823E0,5.9259367E-1,2.0707436E0,0E0,2.7832222E-1,0E0,0E0,0E0,0E0,0E0],"parents":[2147483647,0,0,1,1,2,2,3,3,5,5],"right_children":[2,4,6,8,-1,10,-1,-1,-1,-1,-1],"split_conditions":[4.5E0,8.896E1,1.784E1,1E0,-3.426336E-2,1E0,-0E0,9.8587744E-2,-9.708169E-3,-4.9486797E-2,-0E0],"split_indices":[4,22,8,41,0,45,0,0,0,0,0],"split_type":[0,0,0,0,0,0,0,0,0,0,0],"sum_hessian":[4.1534706E1,9.336618E0,3.2198086E1,4.987645E0,4.348973E0,3.1074333E1,1.1237522E0,3.6168141E0,1.3708313E0,2.8623417E1,2.4509175E0],"tree_param":{"num_deleted":"0","num_feature":"69","num_nodes":"11","size_leaf_vector":"1"}},{"base_weights":[-2.016723E-1,-3.3414572E-1,1.6970947E-1,-3.7906966E-1,4.3250587E-2,-4.2489633E-2,2.3670364E-2],"categories":[],"categories_nodes":[],"categories_segments":[],"categories_sizes":[],"default_left":[0,0,0,0,0,0,0],"id":62,"left_children":[1,3,-1,5,-1,-1,-1],"loss_changes":[1.0541609E1,1.5383778E0,0E0,1.3115597E0,0E0,0E0,0E0],"parents":[2147483647,0,0,1,1,3,3],"right_children":[2,4,-1,6,-1,-1,-1],"split_conditions":[1E0,1.712E1,1.6970947E-1,9.333E1,4.3250587E-2,-4.2489633E-2,2.3670364E-2],"split_indices":[24,13,0,21,0,0,0],"split_type":[0,0,0,0,0,0,0],"sum_hessian":[4.1363712E1,3.9682487E1,1.6812247E0,3.8579556E1,1.1029307E0,3.695154E1,1.6280159E0],"tree_param":{"num_deleted":"0","num_feature":"69","num_nodes":"7","size_leaf_vector":"1"}},{"base_weights":[-3.781953E-1,-4.2478362E-1,3.4318373E-2,-4.4844297E-1,-0E0,-4.666013E-3,-4.9698975E-2],"categories":[],"categories_nodes":[],"categories_segments":[],"categories_sizes":[],"default_left":[0,0,0,0,0,0,0],"id":63,"left_children":[1,3,-1,5,-1,-1,-1],"loss_changes":[1.521925E0,5.797515E-1,0E0,4.3363476E-1,0E0,0E0,0E0],"parents":[2147483647,0,0,1,1,3,3],"right_children":[2,4,-1,6,-1,-1,-1],"split_conditions":[2.841E1,1.884E1,3.4318373E-2,1.045E0,-0E0,-4.666013E-3,-4.9698975E-2],"split_indices":[12,7,0,0,0,0,0],"split_type":[0,0,0,0,0,0,0],"sum_hessian":[3.873318E1,3.742073E1,1.3124492E0,3.6356495E1,1.0642375E0,5.2410445E0,3.111545E1],"tree_param":{"num_deleted":"0","num_feature":"69","num_nodes":"7","size_leaf_vector":"1"}},{"base_weights":[-3.810725E-1,-4.5039675E-1,4.4865243E-2,-5.0058406E-2,1.6551098E-2],"categories":[],"categories_nodes":[],"categories_segments":[],"categories_sizes":[],"default_left":[0,0,0,0,0],"id":64,"left_children":[1,3,-1,-1,-1],"loss_changes":[2.5413961E0,1.442769E0,0E0,0E0,0E0],"parents":[2147483647,0,0,1,1],"right_children":[2,4,-1,-1,-1],"split_conditions":[9.461E1,1.49E1,4.4865243E-2,-5.0058406E-2,1.6551098E-2],"split_indices":[6,7,0,0,0],"split_type":[0,0,0,0,0],"sum_hessian":[3.9654545E1,3.757491E1,2.0796342E0,3.5667583E1,1.9073246E0],"tree_param":{"num_deleted":"0","num_feature":"69","num_nodes":"5","size_leaf_vector":"1"}},{"base_weights":[2.0519973E-1,-7.9004556E-2,8.8858473E-1,-2.2275591E-1,5.666819E-1,1.3419701E0,-2.3559816E-2,-3.837772E-2,3.7561815E-2,1.0280561E-1,-1.742105E-2,1.4431259E-1,-0E0,1.7651614E-2,-2.7682919E-2],"categories":[],"categories_nodes":[],"categories_segments":[],"categories_sizes":[],"default_left":[0,0,0,0,0,0,0,0,0,0,0,0,0,0,0],"id":65,"left_children":[1,3,5,7,9,11,13,-1,-1,-1,-1,-1,-1,-1,-1],"loss_changes":[1.0487317E1,3.371001E0,7.200242E0,3.1793513E0,2.7772613E0,8.9782715E-1,3.9508837E-1,0E0,0E0,0E0,0E0,0E0,0E0,0E0,0E0],"parents":[2147483647,0,0,1,1,2,2,3,3,4,4,5,5,6,6],"right_children":[2,4,6,8,10,12,14,-1,-1,-1,-1,-1,-1,-1,-1],"split_conditions":[1E0,4.86E0,4.285E1,7.38E1,5.6E1,3.57E0,1.053E0,-3.837772E-2,3.7561815E-2,1.0280561E-1,-1.742105E-2,1.4431259E-1,-0E0,1.7651614E-2,-2.7682919E-2],"split_indices":[43,7,6,21,3,13,0,0,0,0,0,0,0,0,0],"split_type":[0,0,0,0,0,0,0,0,0,0,0,0,0,0,0],"sum_hessian":[5.0551205E1,3.5810974E1,1.4740231E1,3.0459133E1,5.3518405E0,9.897546E0,4.8426847E0,2.4941622E1,5.5175114E0,3.475082E0,1.8767587E0,8.854472E0,1.0430741E0,1.7718436E0,3.0708413E0],"tree_param":{"num_deleted":"0","num_feature":"69","num_nodes":"15","size_leaf_vector":"1"}},{"base_weights":[-3.5983244E-1,-4.7875792E-1,1.7585371E-1,-5.0297476E-2,-0E0],"categories":[],"categories_nodes":[],"categories_segments":[],"categories_sizes":[],"default_left":[0,0,0,0,0],"id":66,"left_children":[1,3,-1,-1,-1],"loss_changes":[1.0541106E1,6.8415356E-1,0E0,0E0,0E0],"parents":[2147483647,0,0,1,1],"right_children":[2,4,-1,-1,-1],"split_conditions":[1E0,1.25E1,1.7585371E-1,-5.0297476E-2,-0E0],"split_indices":[39,11,0,0,0],"split_type":[0,0,0,0,0],"sum_hessian":[4.003981E1,3.8867794E1,1.1720142E0,3.7825512E1,1.0422823E0],"tree_param":{"num_deleted":"0","num_feature":"69","num_nodes":"5","size_leaf_vector":"1"}},{"base_weights":[-4.300451E-1,-4.7765628E-1,4.460768E-2,-5.021561E-2,-0E0],"categories":[],"categories_nodes":[],"categories_segments":[],"categories_sizes":[],"default_left":[0,0,0,0,0],"id":67,"left_children":[1,3,-1,-1,-1],"loss_changes":[1.9233155E0,6.9107723E-1,0E0,0E0,0E0],"parents":[2147483647,0,0,1,1],"right_children":[2,4,-1,-1,-1],"split_conditions":[4.71E0,6.83E0,4.460768E-2,-5.021561E-2,-0E0],"split_indices":[15,19,0,0,0],"split_type":[0,0,0,0,0],"sum_hessian":[3.9621536E1,3.8552006E1,1.0695328E0,3.7527348E1,1.0246574E0],"tree_param":{"num_deleted":"0","num_feature":"69","num_nodes":"5","size_leaf_vector":"1"}},{"base_weights":[-3.3494127E-1,-4.2593318E-1,7.140715E-1,-0E0,-4.463673E-1,9.1299824E-2,-0E0,-1.0945867E-2,-0E0,-4.700316E-2,-0E0],"categories":[],"categories_nodes":[],"categories_segments":[],"categories_sizes":[],"default_left":[0,0,0,0,0,0,0,0,0,0,0],"id":68,"left_children":[1,3,5,7,9,-1,-1,-1,-1,-1,-1],"loss_changes":[4.068543E0,2.0296192E-1,9.746897E-2,2.9285315E-2,2.7654457E-1,0E0,0E0,0E0,0E0,0E0,0E0],"parents":[2147483647,0,0,1,1,2,2,3,3,4,4],"right_children":[2,4,6,8,10,-1,-1,-1,-1,-1,-1],"split_conditions":[8.4E1,3.2E0,3.8E0,7E-2,5E1,9.1299824E-2,-0E0,-1.0945867E-2,-0E0,-4.700316E-2,-0E0],"split_indices":[5,4,4,21,9,0,0,0,0,0,0],"split_type":[0,0,0,0,0,0,0,0,0,0,0],"sum_hessian":[3.9947052E1,3.7743744E1,2.203306E0,2.447422E0,3.529632E1,1.0764155E0,1.1268904E0,1.4442728E0,1.0031494E0,3.2985294E1,2.3110306E0],"tree_param":{"num_deleted":"0","num_feature":"69","num_nodes":"11","size_leaf_vector":"1"}},{"base_weights":[-3.320147E-1,-3.968986E-1,2.9418814E-1,-4.202621E-1,-0E0,9.1396354E-2,-1.3033216E-2,-4.4169433E-2,-0E0],"categories":[],"categories_nodes":[],"categories_segments":[],"categories_sizes":[],"default_left":[0,0,0,0,0,0,0,0,0],"id":69,"left_children":[1,3,5,7,-1,-1,-1,-1,-1],"loss_changes":[1.8081751E0,5.404501E-1,1.4687951E0,2.2431421E-1,0E0,0E0,0E0,0E0,0E0],"parents":[2147483647,0,0,1,1,2,2,3,3],"right_children":[2,4,6,8,-1,-1,-1,-1,-1],"split_conditions":[1E0,3.574E1,3.32E1,9.057E1,-0E0,9.1396354E-2,-1.3033216E-2,-4.4169433E-2,-0E0],"split_indices":[27,12,3,21,0,0,0,0,0],"split_type":[0,0,0,0,0,0,0,0,0],"sum_hessian":[3.936521E1,3.6724644E1,2.640571E0,3.5706757E1,1.0178857E0,1.0835369E0,1.5570343E0,3.3380733E1,2.3260229E0],"tree_param":{"num_deleted":"0","num_feature":"69","num_nodes":"9","size_leaf_vector":"1"}},{"base_weights":[6.611213E-2,7.163323E-1,-3.5847598E-1,1.0383191E0,-1.7426828E-1,-4.2182446E-1,3.3728596E-2,-0E0,1.3605358E-1,-3.0673897E-2,-0E0,-4.881096E-2,-0E0],"categories":[],"categories_nodes":[],"categories_segments":[],"categories_sizes":[],"default_left":[0,0,0,0,0,0,0,0,0,0,0,0,0],"id":70,"left_children":[1,3,5,7,9,11,-1,-1,-1,-1,-1,-1,-1],"loss_changes":[1.3663591E1,6.269763E0,1.4709959E0,4.9620934E0,2.6017135E-1,9.0249634E-1,0E0,0E0,0E0,0E0,0E0,0E0,0E0],"parents":[2147483647,0,0,1,1,2,2,3,3,4,4,5,5],"right_children":[2,4,6,8,10,12,-1,-1,-1,-1,-1,-1,-1],"split_conditions":[1.009E0,3.82E1,8.39E0,1.6E1,5.682E1,6.154E1,3.3728596E-2,-0E0,1.3605358E-1,-3.0673897E-2,-0E0,-4.881096E-2,-0E0],"split_indices":[1,3,11,3,21,21,0,0,0,0,0,0,0],"split_type":[0,0,0,0,0,0,0,0,0,0,0,0,0],"sum_hessian":[4.691393E1,1.8726458E1,2.8187471E1,1.4044411E1,4.682047E0,2.6854733E1,1.3327394E0,3.601453E0,1.0442958E1,3.5991864E0,1.0828602E0,2.3591095E1,3.263638E0],"tree_param":{"num_deleted":"0","num_feature":"69","num_nodes":"13","size_leaf_vector":"1"}},{"base_weights":[7.203869E-2,1.3956531E0,-3.850773E-1,1.6562932E0,-1.1794041E-2,-4.6270606E-1,4.1278858E-2,4.9792644E-2,1.9384678E-1,-4.9438234E-2,-0E0,-2.2842932E-2,5.1601846E-2],"categories":[],"categories_nodes":[],"categories_segments":[],"categories_sizes":[],"default_left":[0,0,0,0,0,0,0,0,0,0,0,0,0],"id":71,"left_children":[1,3,5,7,-1,9,11,-1,-1,-1,-1,-1,-1],"loss_changes":[2.875852E1,5.799534E0,1.3733926E0,1.3479366E0,0E0,6.654868E-1,9.3363076E-1,0E0,0E0,0E0,0E0,0E0,0E0],"parents":[2147483647,0,0,1,1,2,2,3,3,5,5,6,6],"right_children":[2,4,6,8,-1,10,12,-1,-1,-1,-1,-1,-1],"split_conditions":[2.03E1,6.734E1,1.468E1,1.154E1,-1.1794041E-2,1.582E1,9.303E1,4.9792644E-2,1.9384678E-1,-4.9438234E-2,-0E0,-2.2842932E-2,5.1601846E-2],"split_indices":[3,6,9,22,0,14,22,0,0,0,0,0,0],"split_type":[0,0,0,0,0,0,0,0,0,0,0,0,0],"sum_hessian":[4.48078E1,1.1255958E1,3.3551846E1,9.803807E0,1.45215E0,2.9303825E1,4.2480187E0,2.8090038E0,6.994804E0,2.8267736E1,1.0360883E0,2.368216E0,1.879803E0],"tree_param":{"num_deleted":"0","num_feature":"69","num_nodes":"13","size_leaf_vector":"1"}},{"base_weights":[-1.0192474E-1,-4.5575745E-2,3.8055915E-2,3.517236E-1,-2.3188333E-1,-8.886723E-3,8.88169E-2,1.0254255E-2,-4.413418E-2],"categories":[],"categories_nodes":[],"categories_segments":[],"categories_sizes":[],"default_left":[0,0,0,0,0,0,0,0,0],"id":72,"left_children":[1,-1,3,5,7,-1,-1,-1,-1],"loss_changes":[2.4106169E0,0E0,2.809618E0,4.219903E0,1.3832277E0,0E0,0E0,0E0,0E0],"parents":[2147483647,0,0,2,2,3,3,4,4],"right_children":[2,-1,4,6,8,-1,-1,-1,-1],"split_conditions":[1.052E0,-4.5575745E-2,4.37E1,1.652E1,1.01E1,-8.886723E-3,8.88169E-2,1.0254255E-2,-4.413418E-2],"split_indices":[0,0,3,6,4,0,0,0,0],"split_type":[0,0,0,0,0,0,0,0,0],"sum_hessian":[4.310324E1,1.2591484E1,3.0511757E1,1.4829392E1,1.5682364E1,8.088479E0,6.740913E0,5.3167925E0,1.0365572E1],"tree_param":{"num_deleted":"0","num_feature":"69","num_nodes":"9","size_leaf_vector":"1"}},{"base_weights":[5.45998E-1,-4.0129748E-1,1.4818195E0,-4.524342E-1,-1.703642E-2,-0E0,1.5516242E0,-4.881009E-2,-0E0,-2.6833808E-2,1.4910042E-2,1.5979505E-1,-0E0],"categories":[],"categories_nodes":[],"categories_segments":[],"categories_sizes":[],"default_left":[0,0,0,0,0,0,0,0,0,0,0,0,0],"id":73,"left_children":[1,3,5,7,9,-1,11,-1,-1,-1,-1,-1,-1],"loss_changes":[5.59838E1,3.7197924E-1,3.0613174E0,5.562806E-1,3.4428337E-1,0E0,1.6307373E0,0E0,0E0,0E0,0E0,0E0,0E0],"parents":[2147483647,0,0,1,1,2,2,3,3,4,4,6,6],"right_children":[2,4,6,8,10,-1,12,-1,-1,-1,-1,-1,-1],"split_conditions":[2.5E1,1.525E1,2.25E1,1E0,5.941E1,-0E0,3.95E0,-4.881009E-2,-0E0,-2.6833808E-2,1.4910042E-2,1.5979505E-1,-0E0],"split_indices":[4,4,3,50,6,0,15,0,0,0,0,0,0],"split_type":[0,0,0,0,0,0,0,0,0,0,0,0,0],"sum_hessian":[6.0871307E1,3.0268541E1,3.0602766E1,2.5408602E1,4.85994E0,1.5079798E0,2.9094786E1,2.4025074E1,1.3835281E0,2.887165E0,1.972775E0,2.801376E1,1.0810267E0],"tree_param":{"num_deleted":"0","num_feature":"69","num_nodes":"13","size_leaf_vector":"1"}},{"base_weights":[-4.7698802E-1,-5.0109606E-2,-0E0],"categories":[],"categories_nodes":[],"categories_segments":[],"categories_sizes":[],"default_left":[0,0,0],"id":74,"left_children":[1,-1,-1],"loss_changes":[4.771185E-1,0E0,0E0],"parents":[2147483647,0,0],"right_children":[2,-1,-1],"split_conditions":[1.607E1,-5.0109606E-2,-0E0],"split_indices":[7,0,0],"split_type":[0,0,0],"sum_hessian":[3.80806E1,3.6310802E1,1.7697959E0],"tree_param":{"num_deleted":"0","num_feature":"69","num_nodes":"3","size_leaf_vector":"1"}},{"base_weights":[9.054742E-1,2.522672E-1,1.3529037E0,-1.366225E-1,6.6518605E-1,1.5655123E0,-1.11403175E-1,-2.565051E-2,4.077407E-2,9.829881E-2,-6.77542E-3,1.596676E-1,-0E0,-3.054573E-2,2.170963E-3],"categories":[],"categories_nodes":[],"categories_segments":[],"categories_sizes":[],"default_left":[0,0,0,0,0,0,0,0,0,0,0,0,0,0,0],"id":75,"left_children":[1,3,5,7,9,11,13,-1,-1,-1,-1,-1,-1,-1,-1],"loss_changes":[2.4664139E1,6.3898516E0,1.7004112E1,1.3054128E0,4.9548187E0,1.6548691E0,3.3431184E-1,0E0,0E0,0E0,0E0,0E0,0E0,0E0,0E0],"parents":[2147483647,0,0,1,1,2,2,3,3,4,4,5,5,6,6],"right_children":[2,4,6,8,10,12,14,-1,-1,-1,-1,-1,-1,-1,-1],"split_conditions":[3.98E1,1.629E1,3.26E1,1E0,1.3E1,1E0,1E0,-2.565051E-2,4.077407E-2,9.829881E-2,-6.77542E-3,1.596676E-1,-0E0,-3.054573E-2,2.170963E-3],"split_indices":[3,6,4,41,4,44,50,0,0,0,0,0,0,0,0],"split_type":[0,0,0,0,0,0,0,0,0,0,0,0,0,0,0],"sum_hessian":[8.730371E1,3.6580612E1,5.0723095E1,1.8559444E1,1.802117E1,4.4529957E1,6.1931396E0,1.6395943E1,2.1635008E0,1.2808462E1,5.2127075E0,4.3419144E1,1.1108117E0,3.5212655E0,2.671874E0],"tree_param":{"num_deleted":"0","num_feature":"69","num_nodes":"15","size_leaf_vector":"1"}},{"base_weights":[-2.8249627E-1,-3.4377965E-1,2.8938726E-1,-3.9135182E-1,3.1448286E-2,6.88711E-2,-6.365038E-3,-4.654626E-2,2.9334899E-3],"categories":[],"categories_nodes":[],"categories_segments":[],"categories_sizes":[],"default_left":[0,0,0,0,0,0,0,0,0],"id":76,"left_children":[1,3,5,7,-1,-1,-1,-1,-1],"loss_changes":[1.5433652E0,1.3438597E0,8.731448E-1,1.3655148E0,0E0,0E0,0E0,0E0,0E0],"parents":[2147483647,0,0,1,1,2,2,3,3],"right_children":[2,4,6,8,-1,-1,-1,-1,-1],"split_conditions":[2.11E1,1E0,6.29E0,3.612E1,3.1448286E-2,6.88711E-2,-6.365038E-3,-4.654626E-2,2.9334899E-3],"split_indices":[59,23,2,9,0,0,0,0,0],"split_type":[0,0,0,0,0,0,0,0,0],"sum_hessian":[3.942245E1,3.6756744E1,2.665706E0,3.5365925E1,1.3908182E0,1.4692688E0,1.1964372E0,3.0988836E1,4.377089E0],"tree_param":{"num_deleted":"0","num_feature":"69","num_nodes":"9","size_leaf_vector":"1"}},{"base_weights":[-2.4666083E-1,-4.0403044E-1,1.6540743E-1,-4.5048878E-1,2.344514E-2,-4.997813E-2,-0E0],"categories":[],"categories_nodes":[],"categories_segments":[],"categories_sizes":[],"default_left":[0,0,0,0,0,0,0],"id":77,"left_children":[1,3,-1,5,-1,-1,-1],"loss_changes":[1.2629977E1,1.3974342E0,0E0,8.212185E-1,0E0,0E0,0E0],"parents":[2147483647,0,0,1,1,3,3],"right_children":[2,4,-1,6,-1,-1,-1],"split_conditions":[1E0,9.333E1,1.6540743E-1,9.6E0,2.344514E-2,-4.997813E-2,-0E0],"split_indices":[24,21,0,2,0,0,0],"split_type":[0,0,0,0,0,0,0],"sum_hessian":[4.1079395E1,3.8908493E1,2.1709018E0,3.7273853E1,1.6346412E0,3.3384148E1,3.889704E0],"tree_param":{"num_deleted":"0","num_feature":"69","num_nodes":"7","size_leaf_vector":"1"}},{"base_weights":[-3.4676057E-1,9.591382E-2,-4.3690178E-1,-3.1370975E-2,9.746541E-2,-4.6479324E-1,-0E0,-4.944752E-2,-0E0],"categories":[],"categories_nodes":[],"categories_segments":[],"categories_sizes":[],"default_left":[0,0,0,0,0,0,0,0,0],"id":78,"left_children":[1,3,5,-1,-1,7,-1,-1,-1],"loss_changes":[1.752523E0,2.9439926E0,6.033206E-1,0E0,0E0,6.567764E-1,0E0,0E0,0E0],"parents":[2147483647,0,0,1,1,2,2,5,5],"right_children":[2,4,6,-1,-1,8,-1,-1,-1],"split_conditions":[1.045E0,9.7E0,1.6E1,-3.1370975E-2,9.746541E-2,2.836E1,-0E0,-4.944752E-2,-0E0],"split_indices":[0,4,7,0,0,12,0,0,0],"split_type":[0,0,0,0,0,0,0,0,0],"sum_hessian":[3.759649E1,5.411292E0,3.2185196E1,3.741296E0,1.6699959E0,3.111465E1,1.0705463E0,3.0060999E1,1.053652E0],"tree_param":{"num_deleted":"0","num_feature":"69","num_nodes":"9","size_leaf_vector":"1"}},{"base_weights":[-3.9651382E-1,-4.6769595E-1,1.1256684E-2,-4.945977E-2,-1.0311996E-2,4.8801612E-2,-2.446884E-2,-1.7445398E-2,-0E0],"categories":[],"categories_nodes":[],"categories_segments":[],"categories_sizes":[],"default_left":[0,0,0,0,0,0,0,0,0],"id":79,"left_children":[1,3,5,-1,7,-1,-1,-1,-1],"loss_changes":[1.3421988E0,1.5572405E-1,9.255649E-1,0E0,8.829085E-2,0E0,0E0,0E0,0E0],"parents":[2147483647,0,0,1,1,2,2,4,4],"right_children":[2,4,6,-1,8,-1,-1,-1,-1],"split_conditions":[9.43E0,2.04E0,1.1E1,-4.945977E-2,5.4E0,4.8801612E-2,-2.446884E-2,-1.7445398E-2,-0E0],"split_indices":[2,14,2,0,2,0,0,0,0],"split_type":[0,0,0,0,0,0,0,0,0],"sum_hessian":[3.7197308E1,3.2587852E1,4.6094527E0,2.966833E1,2.9195251E0,1.9758246E0,2.633628E0,1.914736E0,1.0047891E0],"tree_param":{"num_deleted":"0","num_feature":"69","num_nodes":"9","size_leaf_vector":"1"}},{"base_weights":[2.4029243E-1,1.5098263E0,-2.7291147E-2,3.9781265E-2,1.6951999E-1,2.860134E-1,-3.5027033E-1,6.076473E-2,-2.8216293E-2,-4.7111895E-2,2.0872403E-3],"categories":[],"categories_nodes":[],"categories_segments":[],"categories_sizes":[],"default_left":[0,0,0,0,0,0,0,0,0,0,0],"id":80,"left_children":[1,3,5,-1,-1,7,9,-1,-1,-1,-1],"loss_changes":[1.8254715E1,1.9550705E-1,4.4973526E0,0E0,0E0,4.2926297E0,1.2430406E0,0E0,0E0,0E0,0E0],"parents":[2147483647,0,0,1,1,2,2,5,5,6,6],"right_children":[2,4,6,-1,-1,8,10,-1,-1,-1,-1],"split_conditions":[1.11E1,3.8E0,4.285E1,3.9781265E-2,1.6951999E-1,7.46E0,4.86E0,6.076473E-2,-2.8216293E-2,-4.7111895E-2,2.0872403E-3],"split_indices":[59,4,6,0,0,9,7,0,0,0,0],"split_type":[0,0,0,0,0,0,0,0,0,0,0],"sum_hessian":[5.0433357E1,8.29663E0,4.2136726E1,2.0203385E0,6.276292E0,2.066099E1,2.1475739E1,1.3710356E1,6.9506335E0,1.7013689E1,4.4620495E0],"tree_param":{"num_deleted":"0","num_feature":"69","num_nodes":"11","size_leaf_vector":"1"}},{"base_weights":[-2.7493295E-1,-4.9763095E-2,1.131338E0,1.520143E-1,-2.1083537E-3],"categories":[],"categories_nodes":[],"categories_segments":[],"categories_sizes":[],"default_left":[0,0,0,0,0],"id":81,"left_children":[1,-1,3,-1,-1],"loss_changes":[1.2497916E1,0E0,3.1773343E0,0E0,0E0],"parents":[2147483647,0,0,2,2],"right_children":[2,-1,4,-1,-1],"split_conditions":[5.238E1,-4.9763095E-2,2.8E1,1.520143E-1,-2.1083537E-3],"split_indices":[9,0,3,0,0],"split_type":[0,0,0,0,0],"sum_hessian":[3.812136E1,3.3774494E1,4.3468666E0,3.33611E0,1.0107563E0],"tree_param":{"num_deleted":"0","num_feature":"69","num_nodes":"5","size_leaf_vector":"1"}},{"base_weights":[-4.4893715E-1,-4.7339496E-1,-0E0,-4.9902327E-2,-0E0],"categories":[],"categories_nodes":[],"categories_segments":[],"categories_sizes":[],"default_left":[0,0,0,0,0],"id":82,"left_children":[1,3,-1,-1,-1],"loss_changes":[6.3762426E-1,6.728878E-1,0E0,0E0,0E0],"parents":[2147483647,0,0,1,1],"right_children":[2,4,-1,-1,-1],"split_conditions":[6.83E0,3.6E0,-0E0,-4.9902327E-2,-0E0],"split_indices":[19,15,0,0,0],"split_type":[0,0,0,0,0],"sum_hessian":[3.742281E1,3.64004E1,1.022413E0,3.5359596E1,1.0407988E0],"tree_param":{"num_deleted":"0","num_feature":"69","num_nodes":"5","size_leaf_vector":"1"}},{"base_weights":[-3.0963007E-1,4.4054297E-1,-4.4348672E-1,-0E0,1.2378144E-1,-8.765971E-2,-4.933971E-2,4.5737967E-2,-2.6723761E-2,1.8916091E-2,-3.250453E-2],"categories":[],"categories_nodes":[],"categories_segments":[],"categories_sizes":[],"default_left":[0,0,0,0,0,0,0,0,0,0,0],"id":83,"left_children":[1,3,5,7,-1,9,-1,-1,-1,-1,-1],"loss_changes":[4.304944E0,2.275146E0,3.0165958E-1,6.9866824E-1,0E0,5.7954806E-1,0E0,0E0,0E0,0E0,0E0],"parents":[2147483647,0,0,1,1,2,2,3,3,5,5],"right_children":[2,4,6,8,-1,10,-1,-1,-1,-1,-1],"split_conditions":[1.83E1,1.28E1,4.3E0,1.047E0,1.2378144E-1,1E0,-4.933971E-2,4.5737967E-2,-2.6723761E-2,1.8916091E-2,-3.250453E-2],"split_indices":[59,59,4,0,0,1,0,0,0,0,0],"split_type":[0,0,0,0,0,0,0,0,0,0,0],"sum_hessian":[3.991094E1,5.1306624E0,3.4780277E1,3.869203E0,1.2614594E0,5.8497634E0,2.8930511E1,1.0286916E0,2.8405116E0,1.8219815E0,4.027782E0],"tree_param":{"num_deleted":"0","num_feature":"69","num_nodes":"11","size_leaf_vector":"1"}},{"base_weights":[-3.0396095E-1,-4.3568817E-1,1.812077E-1,-4.6410042E-1,-0E0,1.0862918E0,-3.492918E-2,-4.9376413E-2,-0E0,-0E0,1.6154657E-1],"categories":[],"categories_nodes":[],"categories_segments":[],"categories_sizes":[],"default_left":[0,0,0,0,0,0,0,0,0,0,0],"id":84,"left_children":[1,3,5,7,-1,9,-1,-1,-1,-1,-1],"loss_changes":[2.760938E0,5.9333277E-1,4.7963057E0,4.331355E-1,0E0,1.7037897E0,0E0,0E0,0E0,0E0,0E0],"parents":[2147483647,0,0,1,1,2,2,3,3,5,5],"right_children":[2,4,6,8,-1,10,-1,-1,-1,-1,-1],"split_conditions":[1E0,1.269E1,1.052E0,1.176E1,-0E0,4.47E0,-3.492918E-2,-4.9376413E-2,-0E0,-0E0,1.6154657E-1],"split_indices":[42,13,0,10,0,12,0,0,0,0,0],"split_type":[0,0,0,0,0,0,0,0,0,0,0],"sum_hessian":[3.8974197E1,3.1542664E1,7.4315343E0,3.0434803E1,1.1078607E0,2.7073538E0,4.72418E0,2.8547842E1,1.8869611E0,1.3781554E0,1.3291985E0],"tree_param":{"num_deleted":"0","num_feature":"69","num_nodes":"11","size_leaf_vector":"1"}},{"base_weights":[-0E0,-1.4610758E-1,1.6579139E-1,1.9248517E-1,-4.101724E-1,5.738915E-2,-2.9959977E-2,-4.4483002E-2,-0E0],"categories":[],"categories_nodes":[],"categories_segments":[],"categories_sizes":[],"default_left":[0,0,0,0,0,0,0,0,0],"id":85,"left_children":[1,3,-1,5,7,-1,-1,-1,-1],"loss_changes":[1.0859791E1,4.046655E0,0E0,3.8303761E0,4.8985863E-1,0E0,0E0,0E0,0E0],"parents":[2147483647,0,0,1,1,3,3,4,4],"right_children":[2,4,-1,6,8,-1,-1,-1,-1],"split_conditions":[2.22E1,1.009E0,1.6579139E-1,3.45E1,7.14E0,5.738915E-2,-2.9959977E-2,-4.4483002E-2,-0E0],"split_indices":[59,1,0,3,11,0,0,0,0],"split_type":[0,0,0,0,0,0,0,0,0],"sum_hessian":[4.4774666E1,4.2158943E1,2.6157224E0,1.7761784E1,2.439716E1,1.0484935E1,7.276848E0,2.3069448E1,1.3277111E0],"tree_param":{"num_deleted":"0","num_feature":"69","num_nodes":"9","size_leaf_vector":"1"}},{"base_weights":[7.01788E-2,1.4084549E0,-3.221548E-1,1.6772382E-1,6.323577E-1,-4.6276224E-1,1.2234982E-1,-0E0,1.205456E-1,-4.946724E-2,-0E0,7.4450694E-2,-1.01461E-2],"categories":[],"categories_nodes":[],"categories_segments":[],"categories_sizes":[],"default_left":[0,0,0,0,0,0,0,0,0,0,0,0,0],"id":86,"left_children":[1,3,5,-1,7,9,11,-1,-1,-1,-1,-1,-1],"loss_changes":[2.6629627E1,1.9239235E-1,2.6191611E0,0E0,2.129156E0,6.608672E-1,1.6690191E0,0E0,0E0,0E0,0E0,0E0,0E0],"parents":[2147483647,0,0,1,1,2,2,4,4,5,5,6,6],"right_children":[2,4,6,-1,8,10,12,-1,-1,-1,-1,-1,-1],"split_conditions":[1.61E1,1.008E0,7.73E0,1.6772382E-1,1.055E0,8.4E0,2.5E1,-0E0,1.205456E-1,-4.946724E-2,-0E0,7.4450694E-2,-1.01461E-2],"split_indices":[3,1,9,0,0,14,3,0,0,0,0,0,0],"split_type":[0,0,0,0,0,0,0,0,0,0,0,0,0],"sum_hessian":[4.781955E1,1.0542582E1,3.727697E1,6.489668E0,4.052914E0,2.9142326E1,8.134641E0,2.1972072E0,1.8557067E0,2.807965E1,1.0626758E0,2.1276507E0,6.00699E0],"tree_param":{"num_deleted":"0","num_feature":"69","num_nodes":"13","size_leaf_vector":"1"}},{"base_weights":[-1.1290287E-1,-2.3333594E-1,3.208053E-1,-3.2774714E-1,6.135222E-1,-0E0,1.23657286E-1,-4.3980535E-2,-8.102401E-3,-8.991472E-3,1.3139796E-1,2.6571292E-2,-3.1471897E-2],"categories":[],"categories_nodes":[],"categories_segments":[],"categories_sizes":[],"default_left":[0,0,0,0,0,0,0,0,0,0,0,0,0],"id":87,"left_children":[1,3,5,7,9,11,-1,-1,-1,-1,-1,-1,-1],"loss_changes":[2.394211E0,3.0076747E0,3.3452837E0,6.542752E-1,2.4631834E0,7.373668E-1,0E0,0E0,0E0,0E0,0E0,0E0,0E0],"parents":[2147483647,0,0,1,1,2,2,3,3,4,4,5,5],"right_children":[2,4,6,8,10,12,-1,-1,-1,-1,-1,-1,-1],"split_conditions":[8.709E1,6.43E0,1E0,1.013E0,5.81E0,8.3E0,1.23657286E-1,-4.3980535E-2,-8.102401E-3,-8.991472E-3,1.3139796E-1,2.6571292E-2,-3.1471897E-2],"split_indices":[6,14,42,1,13,4,0,0,0,0,0,0,0],"split_type":[0,0,0,0,0,0,0,0,0,0,0,0,0],"sum_hessian":[4.4241493E1,3.589025E1,8.35124E0,3.3373085E1,2.517166E0,6.534131E0,1.8171086E0,2.10179E1,1.2355186E1,1.3346521E0,1.1825137E0,2.794106E0,3.7400253E0],"tree_param":{"num_deleted":"0","num_feature":"69","num_nodes":"13","size_leaf_vector":"1"}},{"base_weights":[5.8125395E-1,-4.2396784E-1,1.4011177E0,-4.5595208E-1,-0E0,1.4455729E0,-0E0,-4.882403E-2,-0E0,1.489958E-1,1.771305E-2],"categories":[],"categories_nodes":[],"categories_segments":[],"categories_sizes":[],"default_left":[0,0,0,0,0,0,0,0,0,0,0],"id":88,"left_children":[1,3,5,7,-1,9,-1,-1,-1,-1,-1],"loss_changes":[5.3114777E1,6.022563E-1,1.8416367E0,3.173852E-1,0E0,8.181076E-1,0E0,0E0,0E0,0E0,0E0],"parents":[2147483647,0,0,1,1,2,2,3,3,5,5],"right_children":[2,4,6,8,-1,10,-1,-1,-1,-1,-1],"split_conditions":[2.5E1,1.035E1,4.1E-1,1.8E1,-0E0,7.14E0,-0E0,-4.882403E-2,-0E0,1.489958E-1,1.771305E-2],"split_indices":[4,2,19,4,0,11,0,0,0,0,0],"split_type":[0,0,0,0,0,0,0,0,0,0,0],"sum_hessian":[6.2134735E1,2.7855085E1,3.427965E1,2.6845768E1,1.0093158E0,3.302443E1,1.2552227E0,2.4616E1,2.2297688E0,3.135832E1,1.6661077E0],"tree_param":{"num_deleted":"0","num_feature":"69","num_nodes":"11","size_leaf_vector":"1"}},{"base_weights":[-4.7465146E-1,-4.994443E-2,-0E0],"categories":[],"categories_nodes":[],"categories_segments":[],"categories_sizes":[],"default_left":[0,0,0],"id":89,"left_children":[1,-1,-1],"loss_changes":[6.0346985E-1,0E0,0E0],"parents":[2147483647,0,0],"right_children":[2,-1,-1],"split_conditions":[1.607E1,-4.994443E-2,-0E0],"split_indices":[7,0,0],"split_type":[0,0,0],"sum_hessian":[3.750117E1,3.6192837E1,1.3083357E0],"tree_param":{"num_deleted":"0","num_feature":"69","num_nodes":"3","size_leaf_vector":"1"}},{"base_weights":[8.2190704E-1,-1.2859536E-2,1.0819695E0,6.62274E-1,-2.2728601E-1,1.2398039E0,-1.6282047E-1,-1.5204328E-2,1.24509595E-1,-3.904172E-2,4.7612023E-3,-2.4660584E-2,1.3095658E-1,-3.1983685E-2,-0E0],"categories":[],"categories_nodes":[],"categories_segments":[],"categories_sizes":[],"default_left":[0,0,0,0,0,0,0,0,0,0,0,0,0,0,0],"id":90,"left_children":[1,3,5,7,9,11,13,-1,-1,-1,-1,-1,-1,-1,-1],"loss_changes":[1.9899647E1,3.0752234E0,1.4185493E1,3.0734527E0,9.873168E-1,7.201065E0,2.800281E-1,0E0,0E0,0E0,0E0,0E0,0E0,0E0,0E0],"parents":[2147483647,0,0,1,1,2,2,3,3,4,4,5,5,6,6],"right_children":[2,4,6,8,10,12,14,-1,-1,-1,-1,-1,-1,-1,-1],"split_conditions":[2.97E1,9E0,3.76E1,2.6E0,9.219E1,3.4E0,6.9E1,-1.5204328E-2,1.24509595E-1,-3.904172E-2,4.7612023E-3,-2.4660584E-2,1.3095658E-1,-3.1983685E-2,-0E0],"split_indices":[3,3,4,4,22,4,4,0,0,0,0,0,0,0,0],"split_type":[0,0,0,0,0,0,0,0,0,0,0,0,0,0,0],"sum_hessian":[8.8138435E1,2.0705238E1,6.74332E1,3.925428E0,1.677981E1,6.02051E1,7.2280927E0,1.5879623E0,2.3374658E0,1.1408412E1,5.371398E0,2.2640023E0,5.79411E1,3.8697996E0,3.3582933E0],"tree_param":{"num_deleted":"0","num_feature":"69","num_nodes":"15","size_leaf_vector":"1"}},{"base_weights":[-2.7784085E-1,-3.6767864E-1,6.3035715E-1,1.6810873E-1,-4.6533725E-1,1.469912E-1,-1.1195376E-2,-5.695037E-3,6.89797E-2,-4.930469E-2,-0E0],"categories":[],"categories_nodes":[],"categories_segments":[],"categories_sizes":[],"default_left":[0,0,0,0,0,0,0,0,0,0,0],"id":91,"left_children":[1,3,5,7,9,-1,-1,-1,-1,-1,-1],"loss_changes":[3.35141E0,2.1832986E0,2.9961467E0,1.0261071E0,2.1114588E-1,0E0,0E0,0E0,0E0,0E0,0E0],"parents":[2147483647,0,0,1,1,2,2,3,3,4,4],"right_children":[2,4,6,8,10,-1,-1,-1,-1,-1,-1],"split_conditions":[5.52E0,3.6E0,6.29E0,2.969E1,1E0,1.469912E-1,-1.1195376E-2,-5.695037E-3,6.89797E-2,-4.930469E-2,-0E0],"split_indices":[18,4,2,9,45,0,0,0,0,0,0],"split_type":[0,0,0,0,0,0,0,0,0,0,0],"sum_hessian":[3.8845085E1,3.6391026E1,2.454057E0,4.709869E0,3.1681158E1,1.0077164E0,1.4463406E0,3.2431598E0,1.4667089E0,2.8979542E1,2.7016165E0],"tree_param":{"num_deleted":"0","num_feature":"69","num_nodes":"11","size_leaf_vector":"1"}},{"base_weights":[-2.5891757E-1,-4.5913547E-1,2.0763998E-1,-4.9170334E-2,-0E0,1.005473E0,-2.724483E-1,-0E0,1.1941055E-1,-3.7880775E-2,-0E0],"categories":[],"categories_nodes":[],"categories_segments":[],"categories_sizes":[],"default_left":[0,0,0,0,0,0,0,0,0,0,0],"id":92,"left_children":[1,3,5,-1,-1,7,9,-1,-1,-1,-1],"loss_changes":[3.9983416E0,6.5672874E-1,5.267749E0,0E0,0E0,5.140891E-1,3.9877313E-1,0E0,0E0,0E0,0E0],"parents":[2147483647,0,0,1,1,2,2,5,5,6,6],"right_children":[2,4,6,-1,-1,8,10,-1,-1,-1,-1],"split_conditions":[7.5E0,1.366E1,3.91E1,-4.9170334E-2,-0E0,2.2E1,9.253E1,-0E0,1.1941055E-1,-3.7880775E-2,-0E0],"split_indices":[2,13,3,0,0,3,22,0,0,0,0],"split_type":[0,0,0,0,0,0,0,0,0,0,0],"sum_hessian":[3.943604E1,2.8355278E1,1.108076E1,2.7311695E1,1.0435839E0,4.1429453E0,6.9378147E0,1.1359798E0,3.0069656E0,5.885117E0,1.0526975E0],"tree_param":{"num_deleted":"0","num_feature":"69","num_nodes":"11","size_leaf_vector":"1"}},{"base_weights":[-3.589107E-1,-4.0995136E-1,3.2185774E-2,-4.3592066E-1,-0E0,-2.3285672E-4,-4.900782E-2],"categories":[],"categories_nodes":[],"categories_segments":[],"categories_sizes":[],"default_left":[0,0,0,0,0,0,0],"id":93,"left_children":[1,3,-1,5,-1,-1,-1],"loss_changes":[1.4161234E0,5.4573154E-1,0E0,5.3293085E-1,0E0,0E0,0E0],"parents":[2147483647,0,0,1,1,3,3],"right_children":[2,4,-1,6,-1,-1,-1],"split_conditions":[3.333E1,1.9E1,3.2185774E-2,1.045E0,-0E0,-2.3285672E-4,-4.900782E-2],"split_indices":[12,7,0,0,0,0,0],"split_type":[0,0,0,0,0,0,0],"sum_hessian":[3.4690437E1,3.3324226E1,1.3662112E0,3.222828E1,1.0959462E0,4.7194104E0,2.750887E1],"tree_param":{"num_deleted":"0","num_feature":"69","num_nodes":"7","size_leaf_vector":"1"}},{"base_weights":[-4.2044425E-1,-4.7030047E-1,1.8226504E-2,-5.2190445E-2,-4.9523562E-2,-2.0740952E-2,-0E0],"categories":[],"categories_nodes":[],"categories_segments":[],"categories_sizes":[],"default_left":[0,0,0,0,0,0,0],"id":94,"left_children":[1,3,-1,5,-1,-1,-1],"loss_changes":[1.365489E0,7.529068E-2,0E0,1.2731451E-1,0E0,0E0,0E0],"parents":[2147483647,0,0,1,1,3,3],"right_children":[2,4,-1,6,-1,-1,-1],"split_conditions":[1.49E1,1.89E1,1.8226504E-2,1.014E0,-4.9523562E-2,-2.0740952E-2,-0E0],"split_indices":[7,59,0,1,0,0,0],"split_type":[0,0,0,0,0,0,0],"sum_hessian":[3.679692E1,3.4954735E1,1.8421859E0,3.26993E0,3.1684805E1,2.2298768E0,1.0400532E0],"tree_param":{"num_deleted":"0","num_feature":"69","num_nodes":"7","size_leaf_vector":"1"}},{"base_weights":[1.5855293E-1,1.2321271E0,-1.2243451E-1,1.4503126E0,-8.982922E-3,-2.2478564E-1,9.708166E-2,2.3040054E-2,1.568558E-1,-2.9519325E-2,9.232522E-2],"categories":[],"categories_nodes":[],"categories_segments":[],"categories_sizes":[],"default_left":[0,0,0,0,0,0,0,0,0,0,0],"id":95,"left_children":[1,3,5,7,-1,9,-1,-1,-1,-1,-1],"loss_changes":[1.615483E1,4.0072536E0,4.447519E0,1.6661263E-1,0E0,3.0979347E0,0E0,0E0,0E0,0E0,0E0],"parents":[2147483647,0,0,1,1,2,2,3,3,5,5],"right_children":[2,4,6,8,-1,10,-1,-1,-1,-1,-1],"split_conditions":[1.56E1,4.23E1,7.397E1,4.75E0,-8.982922E-3,3.6E0,9.708166E-2,2.3040054E-2,1.568558E-1,-2.9519325E-2,9.232522E-2],"split_indices":[59,3,5,2,0,15,0,0,0,0,0],"split_type":[0,0,0,0,0,0,0,0,0,0,0],"sum_hessian":[5.021357E1,1.0083146E1,4.013042E1,8.896013E0,1.1871328E0,3.7839584E1,2.2908359E0,1.4202794E0,7.4757338E0,3.6763336E1,1.0762484E0],"tree_param":{"num_deleted":"0","num_feature":"69","num_nodes":"11","size_leaf_vector":"1"}},{"base_weights":[-3.0028638E-1,2.2372343E-1,-4.6120554E-2,-2.4231164E-2,5.209744E-1,-0E0,1.1019825E-1],"categories":[],"categories_nodes":[],"categories_segments":[],"categories_sizes":[],"default_left":[0,0,0,0,0,0,0],"id":96,"left_children":[1,3,-1,-1,5,-1,-1],"loss_changes":[3.5082073E0,1.52614E0,0E0,0E0,1.8756802E0,0E0,0E0],"parents":[2147483647,0,0,1,1,4,4],"right_children":[2,4,-1,-1,6,-1,-1],"split_conditions":[2.08E1,1.15E1,-4.6120554E-2,-2.4231164E-2,9.569E1,-0E0,1.1019825E-1],"split_indices":[3,3,0,0,22,0,0],"split_type":[0,0,0,0,0,0,0],"sum_hessian":[3.797246E1,8.099662E0,2.98728E1,2.571214E0,5.5284476E0,3.5247438E0,2.003704E0],"tree_param":{"num_deleted":"0","num_feature":"69","num_nodes":"7","size_leaf_vector":"1"}},{"base_weights":[-4.7195527E-1,-4.97803E-2,-0E0],"categories":[],"categories_nodes":[],"categories_segments":[],"categories_sizes":[],"default_left":[0,0,0],"id":97,"left_children":[1,-1,-1],"loss_changes":[6.6727066E-1,0E0,0E0],"parents":[2147483647,0,0],"right_children":[2,-1,-1],"split_conditions":[2.841E1,-4.97803E-2,-0E0],"split_indices":[12,0,0],"split_type":[0,0,0],"sum_hessian":[3.628906E1,3.520992E1,1.0791372E0],"tree_param":{"num_deleted":"0","num_feature":"69","num_nodes":"3","size_leaf_vector":"1"}},{"base_weights":[-2.3733068E-1,7.7510136E-1,-4.3384022E-1,1.2368381E0,-1.3307591E-2,-8.696561E-2,-4.8776783E-2,3.6956955E-2,1.7595716E-1,1.6389525E-2,-3.1997364E-2],"categories":[],"categories_nodes":[],"categories_segments":[],"categories_sizes":[],"default_left":[0,0,0,0,0,0,0,0,0,0,0],"id":98,"left_children":[1,3,5,7,-1,9,-1,-1,-1,-1,-1],"loss_changes":[7.6518903E0,3.2583537E0,2.7941036E-1,3.1645298E-1,0E0,5.306652E-1,0E0,0E0,0E0,0E0,0E0],"parents":[2147483647,0,0,1,1,2,2,3,3,5,5],"right_children":[2,4,6,8,-1,10,-1,-1,-1,-1,-1],"split_conditions":[1.83E1,5.24E0,4.3E0,1.11E1,-1.3307591E-2,1E0,-4.8776783E-2,3.6956955E-2,1.7595716E-1,1.6389525E-2,-3.1997364E-2],"split_indices":[59,2,4,59,0,1,0,0,0,0,0],"split_type":[0,0,0,0,0,0,0,0,0,0,0],"sum_hessian":[3.662832E1,5.061636E0,3.1566685E1,3.480658E0,1.580978E0,5.8462973E0,2.5720387E1,2.3106148E0,1.1700431E0,1.9247922E0,3.9215052E0],"tree_param":{"num_deleted":"0","num_feature":"69","num_nodes":"11","size_leaf_vector":"1"}},{"base_weights":[-3.163206E-1,-3.6412916E-1,4.2719893E-2,-4.562698E-2,-0E0,7.127268E-2,-3.793881E-2],"categories":[],"categories_nodes":[],"categories_segments":[],"categories_sizes":[],"default_left":[0,0,0,0,0,0,0],"id":99,"left_children":[1,3,-1,-1,5,-1,-1],"loss_changes":[1.4686487E0,1.0840068E0,0E0,0E0,2.6295362E0,0E0,0E0],"parents":[2147483647,0,0,1,1,4,4],"right_children":[2,4,-1,-1,6,-1,-1],"split_conditions":[3.333E1,1E0,4.2719893E-2,-4.562698E-2,5.04E0,7.127268E-2,-3.793881E-2],"split_indices":[12,42,0,0,2,0,0],"split_type":[0,0,0,0,0,0,0],"sum_hessian":[3.682718E1,3.5713528E1,1.1136523E0,2.7589659E1,8.123867E0,2.2203627E0,5.9035044E0],"tree_param":{"num_deleted":"0","num_feature":"69","num_nodes":"7","size_leaf_vector":"1"}},{"base_weights":[3.8882867E-2,5.440289E-1,-3.7577993E-1,2.6559502E-1,1.5975913E-1,-4.4652578E-1,2.7742138E-2,6.986208E-2,-4.082413E-2,-4.843531E-2,-0E0],"categories":[],"categories_nodes":[],"categories_segments":[],"categories_sizes":[],"default_left":[0,0,0,0,0,0,0,0,0,0,0],"id":100,"left_children":[1,3,5,7,-1,9,-1,-1,-1,-1,-1],"loss_changes":[1.0323556E1,5.2589607E0,1.4264691E0,6.0942183E0,0E0,5.951066E-1,0E0,0E0,0E0,0E0,0E0],"parents":[2147483647,0,0,1,1,2,2,3,3,5,5],"right_children":[2,4,6,8,-1,10,-1,-1,-1,-1,-1],"split_conditions":[1.009E0,1E0,8.39E0,3.45E1,1.5975913E-1,9.09E0,2.7742138E-2,6.986208E-2,-4.082413E-2,-4.843531E-2,-0E0],"split_indices":[1,23,11,3,0,8,0,0,0,0,0],"split_type":[0,0,0,0,0,0,0,0,0,0,0],"sum_hessian":[4.690769E1,2.1549595E1,2.5358093E1,1.8410711E1,3.1388824E0,2.3856182E1,1.5019104E0,1.1637423E1,6.773289E0,2.266203E1,1.1941528E0],"tree_param":{"num_deleted":"0","num_feature":"69","num_nodes":"11","size_leaf_vector":"1"}},{"base_weights":[6.690388E-2,1.0744231E0,-3.9604408E-1,1.2161604E0,-6.0644886E-3,-4.2527768E-1,-0E0,1.3767843E-1,8.1603145E-3,-4.8533026E-2,-0E0],"categories":[],"categories_nodes":[],"categories_segments":[],"categories_sizes":[],"default_left":[0,0,0,0,0,0,0,0,0,0,0],"id":101,"left_children":[1,3,5,7,-1,9,-1,-1,-1,-1,-1],"loss_changes":[2.1213657E1,2.9701366E0,5.449772E-1,1.5733223E0,0E0,5.647564E-1,0E0,0E0,0E0,0E0,0E0],"parents":[2147483647,0,0,1,1,2,2,3,3,5,5],"right_children":[2,4,6,8,-1,10,-1,-1,-1,-1,-1],"split_conditions":[2.03E1,6.734E1,1.812E1,1.102E1,-6.0644886E-3,1.431E1,-0E0,1.3767843E-1,8.1603145E-3,-4.8533026E-2,-0E0],"split_indices":[3,6,10,5,0,9,0,0,0,0,0],"split_type":[0,0,0,0,0,0,0,0,0,0,0],"sum_hessian":[4.2841507E1,1.3412004E1,2.9429502E1,1.2251237E1,1.1607679E0,2.8403069E1,1.0264322E0,1.01588125E1,2.0924244E0,2.3974493E1,4.4285765E0],"tree_param":{"num_deleted":"0","num_feature":"69","num_nodes":"11","size_leaf_vector":"1"}},{"base_weights":[-1.537215E-1,-2.8494462E-1,3.2801908E-1,-3.5723224E-1,5.0149884E-2,-2.891859E-2,1.6627316E-1,-3.812377E-2,-0E0,5.811849E-2,-3.6720756E-2],"categories":[],"categories_nodes":[],"categories_segments":[],"categories_sizes":[],"default_left":[0,0,0,0,0,0,0,0,0,0,0],"id":102,"left_children":[1,3,5,7,-1,9,-1,-1,-1,-1,-1],"loss_changes":[2.9088748E0,2.188919E0,5.274866E0,4.604044E-1,0E0,1.7556391E0,0E0,0E0,0E0,0E0,0E0],"parents":[2147483647,0,0,1,1,2,2,3,3,5,5],"right_children":[2,4,6,8,-1,10,-1,-1,-1,-1,-1],"split_conditions":[8.668E1,1E0,1.129E1,1.837E1,5.0149884E-2,3.53E1,1.6627316E-1,-3.812377E-2,-0E0,5.811849E-2,-3.6720756E-2],"split_indices":[6,28,12,8,0,3,0,0,0,0,0],"split_type":[0,0,0,0,0,0,0,0,0,0,0],"sum_hessian":[4.3877354E1,3.5620865E1,8.256488E0,3.370439E1,1.9164753E0,6.9907074E0,1.2657803E0,3.2639236E1,1.0651532E0,1.7102449E0,5.2804627E0],"tree_param":{"num_deleted":"0","num_feature":"69","num_nodes":"11","size_leaf_vector":"1"}},{"base_weights":[5.350821E-1,-3.8544956E-1,1.2301859E0,-4.5336705E-1,4.6982814E-2,1.2811337E0,-0E0,-4.8729356E-2,-0E0,1.3313062E-1,-0E0],"categories":[],"categories_nodes":[],"categories_segments":[],"categories_sizes":[],"default_left":[0,0,0,0,0,0,0,0,0,0,0],"id":103,"left_children":[1,3,5,7,-1,9,-1,-1,-1,-1,-1],"loss_changes":[4.222699E1,1.8452988E0,2.2469215E0,4.9088E-1,0E0,2.154705E0,0E0,0E0,0E0,0E0,0E0],"parents":[2147483647,0,0,1,1,2,2,3,3,5,5],"right_children":[2,4,6,8,-1,10,-1,-1,-1,-1,-1],"split_conditions":[2.5E1,6.8E-1,4.1E-1,2.032E1,4.6982814E-2,8.803E1,-0E0,-4.8729356E-2,-0E0,1.3313062E-1,-0E0],"split_indices":[4,15,19,4,0,6,0,0,0,0,0],"split_type":[0,0,0,0,0,0,0,0,0,0,0],"sum_hessian":[6.359244E1,2.7241913E1,3.635053E1,2.621473E1,1.0271845E0,3.480789E1,1.5426371E0,2.4624397E1,1.5903319E0,3.33755E1,1.4323924E0],"tree_param":{"num_deleted":"0","num_feature":"69","num_nodes":"11","size_leaf_vector":"1"}},{"base_weights":[-4.9545106E-1],"categories":[],"categories_nodes":[],"categories_segments":[],"categories_sizes":[],"default_left":[0],"id":104,"left_children":[-1],"loss_changes":[0E0],"parents":[2147483647],"right_children":[-1],"split_conditions":[-4.9545106E-2],"split_indices":[0],"split_type":[0],"sum_hessian":[3.2644344E1],"tree_param":{"num_deleted":"0","num_feature":"69","num_nodes":"1","size_leaf_vector":"1"}},{"base_weights":[6.5632385E-1,-9.002365E-2,9.4925994E-1,-3.669554E-1,2.9045132E-1,1.1052715E0,-1.8782741E-1,-4.1820504E-2,-0E0,7.5709954E-2,-3.3177235E-3,1.1591735E-1,-2.2421144E-2,-3.8084652E-2,1.437103E-2],"categories":[],"categories_nodes":[],"categories_segments":[],"categories_sizes":[],"default_left":[0,0,0,0,0,0,0,0,0,0,0,0,0,0,0],"id":105,"left_children":[1,3,5,7,9,11,13,-1,-1,-1,-1,-1,-1,-1,-1],"loss_changes":[2.1280796E1,3.0111716E0,1.2867172E1,5.024197E-1,2.0871434E0,5.099518E0,7.3425746E-1,0E0,0E0,0E0,0E0,0E0,0E0,0E0,0E0],"parents":[2147483647,0,0,1,1,2,2,3,3,4,4,5,5,6,6],"right_children":[2,4,6,8,10,12,14,-1,-1,-1,-1,-1,-1,-1,-1],"split_conditions":[3.45E1,3.338E1,2.9E1,9.333E1,7.04E1,2.11E1,1.255E1,-4.1820504E-2,-0E0,7.5709954E-2,-3.3177235E-3,1.1591735E-1,-2.2421144E-2,-3.8084652E-2,1.437103E-2],"split_indices":[3,6,4,21,6,59,12,0,0,0,0,0,0,0,0],"split_type":[0,0,0,0,0,0,0,0,0,0,0,0,0,0,0],"sum_hessian":[9.3980194E1,2.6203726E1,6.7776474E1,1.5946568E1,1.0257157E1,6.0010563E1,7.765911E0,1.4920264E1,1.026304E0,4.2846227E0,5.972534E0,5.8156857E1,1.853705E0,5.7675047E0,1.9984068E0],"tree_param":{"num_deleted":"0","num_feature":"69","num_nodes":"15","size_leaf_vector":"1"}},{"base_weights":[-2.2381799E-1,3.029397E-1,-4.1646492E-1,-0E0,1.11173294E-1,-4.868753E-2,4.7000453E-2,3.177264E-2,-2.9880052E-2],"categories":[],"categories_nodes":[],"categories_segments":[],"categories_sizes":[],"default_left":[0,0,0,0,0,0,0,0,0],"id":106,"left_children":[1,3,5,7,-1,-1,-1,-1,-1],"loss_changes":[3.8503356E0,2.1408434E0,1.9586067E0,8.692165E-1,0E0,0E0,0E0,0E0,0E0],"parents":[2147483647,0,0,1,1,2,2,3,3],"right_children":[2,4,6,8,-1,-1,-1,-1,-1],"split_conditions":[4.5E0,1E0,1.436E1,8.896E1,1.11173294E-1,-4.868753E-2,4.7000453E-2,3.177264E-2,-2.9880052E-2],"split_indices":[4,42,18,22,0,0,0,0,0],"split_type":[0,0,0,0,0,0,0,0,0],"sum_hessian":[3.513985E1,8.561652E0,2.6578197E1,7.1195307E0,1.442121E0,2.556262E1,1.015578E0,3.7143736E0,3.405157E0],"tree_param":{"num_deleted":"0","num_feature":"69","num_nodes":"9","size_leaf_vector":"1"}},{"base_weights":[-2.6865506E-1,-3.8841978E-1,1.0662252E-1,-4.3772873E-1,8.154667E-2,-4.6501216E-2,-0E0,-7.5077475E-3,4.635054E-2],"categories":[],"categories_nodes":[],"categories_segments":[],"categories_sizes":[],"default_left":[0,0,0,0,0,0,0,0,0],"id":107,"left_children":[1,3,-1,5,7,-1,-1,-1,-1],"loss_changes":[6.156581E0,1.0476584E0,0E0,5.520115E-1,4.262524E-1,0E0,0E0,0E0,0E0],"parents":[2147483647,0,0,1,1,3,3,4,4],"right_children":[2,4,-1,6,8,-1,-1,-1,-1],"split_conditions":[1E0,1.67E0,1.0662252E-1,1.271E1,5.5E0,-4.6501216E-2,-0E0,-7.5077475E-3,4.635054E-2],"split_indices":[24,19,0,2,2,0,0,0,0],"split_type":[0,0,0,0,0,0,0,0,0],"sum_hessian":[3.7038914E1,3.4983776E1,2.0551367E0,3.2686775E1,2.2969997E0,3.1402586E1,1.2841904E0,1.2704457E0,1.026554E0],"tree_param":{"num_deleted":"0","num_feature":"69","num_nodes":"9","size_leaf_vector":"1"}},{"base_weights":[-3.3456263E-1,1.8023472E-2,-4.254776E-1,-3.3413727E-2,7.813926E-1,-4.5591157E-2,-0E0,9.742402E-2,-0E0],"categories":[],"categories_nodes":[],"categories_segments":[],"categories_sizes":[],"default_left":[0,0,0,0,0,0,0,0,0],"id":108,"left_children":[1,3,5,-1,7,-1,-1,-1,-1],"loss_changes":[1.3811169E0,2.4504821E0,5.915308E-1,0E0,3.7895203E-2,0E0,0E0,0E0,0E0],"parents":[2147483647,0,0,1,1,2,2,4,4],"right_children":[2,4,6,-1,8,-1,-1,-1,-1],"split_conditions":[1.045E0,9.7E0,1.9E1,-3.3413727E-2,3.53E1,-4.5591157E-2,-0E0,9.742402E-2,-0E0],"split_indices":[0,4,7,0,3,0,0,0,0],"split_type":[0,0,0,0,0,0,0,0,0],"sum_hessian":[3.549065E1,6.312324E0,2.9178326E1,4.2561526E0,2.0561717E0,2.812963E1,1.0486981E0,1.005929E0,1.0502428E0],"tree_param":{"num_deleted":"0","num_feature":"69","num_nodes":"9","size_leaf_vector":"1"}},{"base_weights":[-3.88474E-1,-4.934239E-2,2.0887218E-1,5.332741E-1,-1.4186441E-2,9.36327E-2,-2.3657605E-3],"categories":[],"categories_nodes":[],"categories_segments":[],"categories_sizes":[],"default_left":[0,0,0,0,0,0,0],"id":109,"left_children":[1,-1,3,5,-1,-1,-1],"loss_changes":[2.543448E0,0E0,8.9358044E-1,1.3296211E0,0E0,0E0,0E0],"parents":[2147483647,0,0,2,2,3,3],"right_children":[2,-1,4,6,-1,-1,-1],"split_conditions":[9.4E0,-4.934239E-2,2.9E-1,7.08E1,-1.4186441E-2,9.36327E-2,-2.3657605E-3],"split_indices":[2,0,10,3,0,0,0],"split_type":[0,0,0,0,0,0,0],"sum_hessian":[3.565748E1,3.118881E1,4.4686675E0,2.7917051E0,1.6769624E0,1.74523E0,1.0464752E0],"tree_param":{"num_deleted":"0","num_feature":"69","num_nodes":"7","size_leaf_vector":"1"}},{"base_weights":[2.825573E-1,1.2105937E0,-6.7400713E-3,1.3879986E-1,-8.884187E-3,-1.6711745E-1,1.3195899E-1,-3.169599E-2,5.0274964E-2],"categories":[],"categories_nodes":[],"categories_segments":[],"categories_sizes":[],"default_left":[0,0,0,0,0,0,0,0,0],"id":110,"left_children":[1,3,5,-1,-1,7,-1,-1,-1],"loss_changes":[1.5015219E1,3.8082829E0,8.469229E0,0E0,0E0,3.904373E0,0E0,0E0,0E0],"parents":[2147483647,0,0,1,1,2,2,5,5],