{"learner":{"attributes":{},"feature_names":[],"feature_types":[],"gradient_booster":{"model":{"gbtree_model_param":{"num_parallel_tree":"1","num_trees":"3000"},"iteration_indptr":[0,15,30,45,60,75,90,105,120,135,150,165,180,195,210,225,240,255,270,285,300,315,330,345,360,375,390,405,420,435,450,465,480,495,510,525,540,555,570,585,600,615,630,645,660,675,690,705,720,735,750,765,780,795,810,825,840,855,870,885,900,915,930,945,960,975,990,1005,1020,1035,1050,1065,1080,1095,1110,1125,1140,1155,1170,1185,1200,1215,1230,1245,1260,1275,1290,1305,1320,1335,1350,1365,1380,1395,1410,1425,1440,1455,1470,1485,1500,1515,1530,1545,1560,1575,1590,1605,1620,1635,1650,1665,1680,1695,1710,1725,1740,1755,1770,1785,1800,1815,1830,1845,1860,1875,1890,1905,1920,1935,1950,1965,1980,1995,2010,2025,2040,2055,2070,2085,2100,2115,2130,2145,2160,2175,2190,2205,2220,2235,2250,2265,2280,2295,2310,2325,2340,2355,2370,2385,2400,2415,2430,2445,2460,2475,2490,2505,2520,2535,2550,2565,2580,2595,2610,2625,2640,2655,2670,2685,2700,2715,2730,2745,2760,2775,2790,2805,2820,2835,2850,2865,2880,2895,2910,2925,2940,2955,2970,2985,3000],"tree_info":[0,1,2,3,4,5,6,7,8,9,10,11,12,13,14,0,1,2,3,4,5,6,7,8,9,10,11,12,13,14,0,1,2,3,4,5,6,7,8,9,10,11,12,13,14,0,1,2,3,4,5,6,7,8,9,10,11,12,13,14,0,1,2,3,4,5,6,7,8,9,10,11,12,13,14,0,1,2,3,4,5,6,7,8,9,10,11,12,13,14,0,1,2,3,4,5,6,7,8,9,10,11,12,13,14,0,1,2,3,4,5,6,7,8,9,10,11,12,13,14,0,1,2,3,4,5,6,7,8,9,10,11,12,13,14,0,1,2,3,4,5,6,7,8,9,10,11,12,13,14,0,1,2,3,4,5,6,7,8,9,10,11,12,13,14,0,1,2,3,4,5,6,7,8,9,10,11,12,13,14,0,1,2,3,4,5,6,7,8,9,10,11,12,13,14,0,1,2,3,4,5,6,7,8,9,10,11,12,13,14,0,1,2,3,4,5,6,7,8,9,10,11,12,13,14,0,1,2,3,4,5,6,7,8,9,10,11,12,13,14,0,1,2,3,4,5,6,7,8,9,10,11,12,13,14,0,1,2,3,4,5,6,7,8,9,10,11,12,13,14,0,1,2,3,4,5,6,7,8,9,10,11,12,13,14,0,1,2,3,4,5,6,7,8,9,10,11,12,13,14,0,1,2,3,4,5,6,7,8,9,10,11,12,13,14,0,1,2,3,4,5,6,7,8,9,10,11,12,13,14,0,1,2,3,4,5,6,7,8,9,10,11,12,13,14,0,1,2,3,4,5,6,7,8,9,10,11,12,13,14,0,1,2,3,4,5,6,7,8,9,10,11,12,13,14,0,1,2,3,4,5,6,7,8,9,10,11,12,13,14,0,1,2,3,4,5,6,7,8,9,10,11,12,13,14,0,1,2,3,4,5,6,7,8,9,10,11,12,13,14,0,1,2,3,4,5,6,7,8,9,10,11,12,13,14,0,1,2,3,4,5,6,7,8,9,10,11,12,13,14,0,1,2,3,4,5,6,7,8,9,10,11,12,13,14,0,1,2,3,4,5,6,7,8,9,10,11,12,13,14,0,1,2,3,4,5,6,7,8,9,10,11,12,13,14,0,1,2,3,4,5,6,7,8,9,10,11,12,13,14,0,1,2,3,4,5,6,7,8,9,10,11,12,13,14,0,1,2,3,4,5,6,7,8,9,10,11,12,13,14,0,1,2,3,4,5,6,7,8,9,10,11,12,13,14,0,1,2,3,4,5,6,7,8,9,10,11,12,13,14,0,1,2,3,4,5,6,7,8,9,10,11,12,13,14,0,1,2,3,4,5,6,7,8,9,10,11,12,13,14,0,1,2,3,4,5,6,7,8,9,10,11,12,13,14,0,1,2,3,4,5,6,7,8,9,10,11,12,13,14,0,1,2,3,4,5,6,7,8,9,10,11,12,13,14,0,1,2,3,4,5,6,7,8,9,10,11,12,13,14,0,1,2,3,4,5,6,7,8,9,10,11,12,13,14,0,1,2,3,4,5,6,7,8,9,10,11,12,13,14,0,1,2,3,4,5,6,7,8,9,10,11,12,13,14,0,1,2,3,4,5,6,7,8,9,10,11,12,13,14,0,1,2,3,4,5,6,7,8,9,10,11,12,13,14,0,1,2,3,4,5,6,7,8,9,10,11,12,13,14,0,1,2,3,4,5,6,7,8,9,10,11,12,13,14,0,1,2,3,4,5,6,7,8,9,10,11,12,13,14,0,1,2,3,4,5,6,7,8,9,10,11,12,13,14,0,1,2,3,4,5,6,7,8,9,10,11,12,13,14,0,1,2,3,4,5,6,7,8,9,10,11,12,13,14,0,1,2,3,4,5,6,7,8,9,10,11,12,13,14,0,1,2,3,4,5,6,7,8,9,10,11,12,13,14,0,1,2,3,4,5,6,7,8,9,10,11,12,13,14,0,1,2,3,4,5,6,7,8,9,10,11,12,13,14,0,1,2,3,4,5,6,7,8,9,10,11,12,13,14,0,1,2,3,4,5,6,7,8,9,10,11,12,13,14,0,1,2,3,4,5,6,7,8,9,10,11,12,13,14,0,1,2,3,4,5,6,7,8,9,10,11,12,13,14,0,1,2,3,4,5,6,7,8,9,10,11,12,13,14,0,1,2,3,4,5,6,7,8,9,10,11,12,13,14,0,1,2,3,4,5,6,7,8,9,10,11,12,13,14,0,1,2,3,4,5,6,7,8,9,10,11,12,13,14,0,1,2,3,4,5,6,7,8,9,10,11,12,13,14,0,1,2,3,4,5,6,7,8,9,10,11,12,13,14,0,1,2,3,4,5,6,7,8,9,10,11,12,13,14,0,1,2,3,4,5,6,7,8,9,10,11,12,13,14,0,1,2,3,4,5,6,7,8,9,10,11,12,13,14,0,1,2,3,4,5,6,7,8,9,10,11,12,13,14,0,1,2,3,4,5,6,7,8,9,10,11,12,13,14,0,1,2,3,4,5,6,7,8,9,10,11,12,13,14,0,1,2,3,4,5,6,7,8,9,10,11,12,13,14,0,1,2,3,4,5,6,7,8,9,10,11,12,13,14,0,1,2,3,4,5,6,7,8,9,10,11,12,13,14,0,1,2,3,4,5,6,7,8,9,10,11,12,13,14,0,1,2,3,4,5,6,7,8,9,10,11,12,13,14,0,1,2,3,4,5,6,7,8,9,10,11,12,13,14,0,1,2,3,4,5,6,7,8,9,10,11,12,13,14,0,1,2,3,4,5,6,7,8,9,10,11,12,13,14,0,1,2,3,4,5,6,7,8,9,10,11,12,13,14,0,1,2,3,4,5,6,7,8,9,10,11,12,13,14,0,1,2,3,4,5,6,7,8,9,10,11,12,13,14,0,1,2,3,4,5,6,7,8,9,10,11,12,13,14,0,1,2,3,4,5,6,7,8,9,10,11,12,13,14,0,1,2,3,4,5,6,7,8,9,10,11,12,13,14,0,1,2,3,4,5,6,7,8,9,10,11,12,13,14,0,1,2,3,4,5,6,7,8,9,10,11,12,13,14,0,1,2,3,4,5,6,7,8,9,10,11,12,13,14,0,1,2,3,4,5,6,7,8,9,10,11,12,13,14,0,1,2,3,4,5,6,7,8,9,10,11,12,13,14,0,1,2,3,4,5,6,7,8,9,10,11,12,13,14,0,1,2,3,4,5,6,7,8,9,10,11,12,13,14,0,1,2,3,4,5,6,7,8,9,10,11,12,13,14,0,1,2,3,4,5,6,7,8,9,10,11,12,13,14,0,1,2,3,4,5,6,7,8,9,10,11,12,13,14,0,1,2,3,4,5,6,7,8,9,10,11,12,13,14,0,1,2,3,4,5,6,7,8,9,10,11,12,13,14,0,1,2,3,4,5,6,7,8,9,10,11,12,13,14,0,1,2,3,4,5,6,7,8,9,10,11,12,13,14,0,1,2,3,4,5,6,7,8,9,10,11,12,13,14,0,1,2,3,4,5,6,7,8,9,10,11,12,13,14,0,1,2,3,4,5,6,7,8,9,10,11,12,13,14,0,1,2,3,4,5,6,7,8,9,10,11,12,13,14,0,1,2,3,4,5,6,7,8,9,10,11,12,13,14,0,1,2,3,4,5,6,7,8,9,10,11,12,13,14,0,1,2,3,4,5,6,7,8,9,10,11,12,13,14,0,1,2,3,4,5,6,7,8,9,10,11,12,13,14,0,1,2,3,4,5,6,7,8,9,10,11,12,13,14,0,1,2,3,4,5,6,7,8,9,10,11,12,13,14,0,1,2,3,4,5,6,7,8,9,10,11,12,13,14,0,1,2,3,4,5,6,7,8,9,10,11,12,13,14,0,1,2,3,4,5,6,7,8,9,10,11,12,13,14,0,1,2,3,4,5,6,7,8,9,10,11,12,13,14,0,1,2,3,4,5,6,7,8,9,10,11,12,13,14,0,1,2,3,4,5,6,7,8,9,10,11,12,13,14,0,1,2,3,4,5,6,7,8,9,10,11,12,13,14,0,1,2,3,4,5,6,7,8,9,10,11,12,13,14,0,1,2,3,4,5,6,7,8,9,10,11,12,13,14,0,1,2,3,4,5,6,7,8,9,10,11,12,13,14,0,1,2,3,4,5,6,7,8,9,10,11,12,13,14,0,1,2,3,4,5,6,7,8,9,10,11,12,13,14,0,1,2,3,4,5,6,7,8,9,10,11,12,13,14,0,1,2,3,4,5,6,7,8,9,10,11,12,13,14,0,1,2,3,4,5,6,7,8,9,10,11,12,13,14,0,1,2,3,4,5,6,7,8,9,10,11,12,13,14,0,1,2,3,4,5,6,7,8,9,10,11,12,13,14,0,1,2,3,4,5,6,7,8,9,10,11,12,13,14,0,1,2,3,4,5,6,7,8,9,10,11,12,13,14,0,1,2,3,4,5,6,7,8,9,10,11,12,13,14,0,1,2,3,4,5,6,7,8,9,10,11,12,13,14,0,1,2,3,4,5,6,7,8,9,10,11,12,13,14,0,1,2,3,4,5,6,7,8,9,10,11,12,13,14,0,1,2,3,4,5,6,7,8,9,10,11,12,13,14,0,1,2,3,4,5,6,7,8,9,10,11,12,13,14,0,1,2,3,4,5,6,7,8,9,10,11,12,13,14,0,1,2,3,4,5,6,7,8,9,10,11,12,13,14,0,1,2,3,4,5,6,7,8,9,10,11,12,13,14,0,1,2,3,4,5,6,7,8,9,10,11,12,13,14,0,1,2,3,4,5,6,7,8,9,10,11,12,13,14,0,1,2,3,4,5,6,7,8,9,10,11,12,13,14,0,1,2,3,4,5,6,7,8,9,10,11,12,13,14,0,1,2,3,4,5,6,7,8,9,10,11,12,13,14,0,1,2,3,4,5,6,7,8,9,10,11,12,13,14,0,1,2,3,4,5,6,7,8,9,10,11,12,13,14,0,1,2,3,4,5,6,7,8,9,10,11,12,13,14,0,1,2,3,4,5,6,7,8,9,10,11,12,13,14,0,1,2,3,4,5,6,7,8,9,10,11,12,13,14,0,1,2,3,4,5,6,7,8,9,10,11,12,13,14,0,1,2,3,4,5,6,7,8,9,10,11,12,13,14,0,1,2,3,4,5,6,7,8,9,10,11,12,13,14,0,1,2,3,4,5,6,7,8,9,10,11,12,13,14,0,1,2,3,4,5,6,7,8,9,10,11,12,13,14,0,1,2,3,4,5,6,7,8,9,10,11,12,13,14,0,1,2,3,4,5,6,7,8,9,10,11,12,13,14,0,1,2,3,4,5,6,7,8,9,10,11,12,13,14,0,1,2,3,4,5,6,7,8,9,10,11,12,13,14,0,1,2,3,4,5,6,7,8,9,10,11,12,13,14,0,1,2,3,4,5,6,7,8,9,10,11,12,13,14,0,1,2,3,4,5,6,7,8,9,10,11,12,13,14,0,1,2,3,4,5,6,7,8,9,10,11,12,13,14,0,1,2,3,4,5,6,7,8,9,10,11,12,13,14,0,1,2,3,4,5,6,7,8,9,10,11,12,13,14,0,1,2,3,4,5,6,7,8,9,10,11,12,13,14,0,1,2,3,4,5,6,7,8,9,10,11,12,13,14,0,1,2,3,4,5,6,7,8,9,10,11,12,13,14,0,1,2,3,4,5,6,7,8,9,10,11,12,13,14,0,1,2,3,4,5,6,7,8,9,10,11,12,13,14,0,1,2,3,4,5,6,7,8,9,10,11,12,13,14,0,1,2,3,4,5,6,7,8,9,10,11,12,13,14,0,1,2,3,4,5,6,7,8,9,10,11,12,13,14,0,1,2,3,4,5,6,7,8,9,10,11,12,13,14,0,1,2,3,4,5,6,7,8,9,10,11,12,13,14,0,1,2,3,4,5,6,7,8,9,10,11,12,13,14,0,1,2,3,4,5,6,7,8,9,10,11,12,13,14,0,1,2,3,4,5,6,7,8,9,10,11,12,13,14,0,1,2,3,4,5,6,7,8,9,10,11,12,13,14,0,1,2,3,4,5,6,7,8,9,10,11,12,13,14,0,1,2,3,4,5,6,7,8,9,10,11,12,13,14,0,1,2,3,4,5,6,7,8,9,10,11,12,13,14,0,1,2,3,4,5,6,7,8,9,10,11,12,13,14,0,1,2,3,4,5,6,7,8,9,10,11,12,13,14,0,1,2,3,4,5,6,7,8,9,10,11,12,13,14,0,1,2,3,4,5,6,7,8,9,10,11,12,13,14,0,1,2,3,4,5,6,7,8,9,10,11,12,13,14,0,1,2,3,4,5,6,7,8,9,10,11,12,13,14,0,1,2,3,4,5,6,7,8,9,10,11,12,13,14,0,1,2,3,4,5,6,7,8,9,10,11,12,13,14,0,1,2,3,4,5,6,7,8,9,10,11,12,13,14,0,1,2,3,4,5,6,7,8,9,10,11,12,13,14,0,1,2,3,4,5,6,7,8,9,10,11,12,13,14,0,1,2,3,4,5,6,7,8,9,10,11,12,13,14,0,1,2,3,4,5,6,7,8,9,10,11,12,13,14,0,1,2,3,4,5,6,7,8,9,10,11,12,13,14,0,1,2,3,4,5,6,7,8,9,10,11,12,13,14,0,1,2,3,4,5,6,7,8,9,10,11,12,13,14,0,1,2,3,4,5,6,7,8,9,10,11,12,13,14],"trees":[{"base_weights":[1.7199649E0,4.8120254E-1,3.347918E0,2.3853017E-1,1.9137402E0,4.299786E0,8.1049293E-1,1.1381759E-2,1.9379884E-1,2.601553E-1,6.282281E-2,4.4685084E-1,-5.194461E-3,1.6859819E-1,-1.3435759E-2],"categories":[],"categories_nodes":[],"categories_segments":[],"categories_sizes":[],"default_left":[0,0,0,0,0,0,0,0,0,0,0,0,0,0,0],"id":0,"left_children":[1,3,5,7,9,11,13,-1,-1,-1,-1,-1,-1,-1,-1],"loss_changes":[1.283911E3,1.2496565E2,6.594326E2,6.5009056E1,4.2968414E1,1.4927686E2,6.4314865E1,0E0,0E0,0E0,0E0,0E0,0E0,0E0,0E0],"parents":[2147483647,0,0,1,1,2,2,3,3,4,4,5,5,6,6],"right_children":[2,4,6,8,10,12,14,-1,-1,-1,-1,-1,-1,-1,-1],"split_conditions":[1E0,8.333E1,1.5E1,1E0,1.2E1,4.9E-1,1E0,1.1381759E-2,1.9379884E-1,2.601553E-1,6.282281E-2,4.4685084E-1,-5.194461E-3,1.6859819E-1,-1.3435759E-2],"split_indices":[41,6,4,28,4,14,50,0,0,0,0,0,0,0,0],"split_type":[0,0,0,0,0,0,0,0,0,0,0,0,0,0,0],"sum_hessian":[6.374045E2,3.6288004E2,2.7452448E2,3.1160892E2,5.1271114E1,1.9898668E2,7.553778E1,2.9157336E2,2.0035557E1,3.2480003E1,1.8791113E1,1.9164445E2,7.3422227E0,3.9075558E1,3.6462227E1],"tree_param":{"num_deleted":"0","num_feature":"69","num_nodes":"15","size_leaf_vector":"1"}},{"base_weights":[-2.1147569E-1,-2.9614237E-1,5.629584E0,-3.9335644E-1,1.4006906E0,5.9941435E-1,1.3679245E-1,-4.516862E-2,-1.8413011E-2,1.6915287E-1,-5.77327E-3],"categories":[],"categories_nodes":[],"categories_segments":[],"categories_sizes":[],"default_left":[0,0,0,0,0,0,0,0,0,0,0],"id":1,"left_children":[1,3,5,7,9,-1,-1,-1,-1,-1,-1],"loss_changes":[3.1478058E2,1.0404219E2,2.2402039E0,6.888893E0,1.5379532E1,0E0,0E0,0E0,0E0,0E0,0E0],"parents":[2147483647,0,0,1,1,2,2,3,3,4,4],"right_children":[2,4,6,8,10,-1,-1,-1,-1,-1,-1],"split_conditions":[1E0,1E0,1.0573E0,4.5E1,7.5E1,5.9941435E-1,1.3679245E-1,-4.516862E-2,-1.8413011E-2,1.6915287E-1,-5.77327E-3],"split_indices":[38,23,0,5,61,0,0,0,0,0,0],"split_type":[0,0,0,0,0,0,0,0,0,0,0],"sum_hessian":[6.3752893E2,6.2944006E2,8.088889E0,5.963378E2,3.3102226E1,6.968889E0,1.1200001E0,4.635556E2,1.3278223E2,2.7751114E1,5.3511114E0],"tree_param":{"num_deleted":"0","num_feature":"69","num_nodes":"11","size_leaf_vector":"1"}},{"base_weights":[-2.5313053E-1,-4.1380116E-1,2.0024536E0,-4.9300537E-1,7.0922896E-2,-0E0,3.6538458E0,-5.0236642E-2,2.8951198E-2,-1.3876653E-2,1.7930953E-1,-3.421649E-2,9.306569E-2,1.9166303E-1,4.6108672E-1],"categories":[],"categories_nodes":[],"categories_segments":[],"categories_sizes":[],"default_left":[0,0,0,0,0,0,0,0,0,0,0,0,0,0,0],"id":2,"left_children":[1,3,5,7,9,11,13,-1,-1,-1,-1,-1,-1,-1,-1],"loss_changes":[2.3220776E2,2.3246002E1,1.4172804E2,4.0313034E0,3.1456722E1,6.582635E0,2.6802643E1,0E0,0E0,0E0,0E0,0E0,0E0,0E0,0E0],"parents":[2147483647,0,0,1,1,2,2,3,3,4,4,5,5,6,6],"right_children":[2,4,6,8,10,12,14,-1,-1,-1,-1,-1,-1,-1,-1],"split_conditions":[1E0,7.48E0,1.065E0,6.35E0,6.857E1,7.4E0,2.734E1,-5.0236642E-2,2.8951198E-2,-1.3876653E-2,1.7930953E-1,-3.421649E-2,9.306569E-2,1.9166303E-1,4.6108672E-1],"split_indices":[23,2,0,18,5,4,5,0,0,0,0,0,0,0,0],"split_type":[0,0,0,0,0,0,0,0,0,0,0,0,0,0,0],"sum_hessian":[6.396445E2,5.980801E2,4.156445E1,5.149512E2,8.31289E1,1.9164446E1,2.2400002E1,5.0984894E2,5.1022224E0,7.466667E1,8.462223E0,1.4684445E1,4.4800005E0,9.20889E0,1.31911125E1],"tree_param":{"num_deleted":"0","num_feature":"69","num_nodes":"15","size_leaf_vector":"1"}},{"base_weights":[-1.9610186E-1,1.8153106E0,-2.8266698E-1,-2.5261254E-3,3.4129343E0,-4.3191203E-1,2.0128833E-1,-3.4105398E-2,8.1153385E-2,3.7924817E-1,-7.425744E-3,-4.5473117E-2,-2.7547697E-2,-2.6917165E-2,7.031396E-2],"categories":[],"categories_nodes":[],"categories_segments":[],"categories_sizes":[],"default_left":[0,0,0,0,0,0,0,0,0,0,0,0,0,0,0],"id":3,"left_children":[1,3,5,7,9,11,13,-1,-1,-1,-1,-1,-1,-1,-1],"loss_changes":[1.1153302E2,7.8346504E1,4.4739925E1,3.6779943E0,2.0923447E1,1.1959381E0,3.4695454E1,0E0,0E0,0E0,0E0,0E0,0E0,0E0,0E0],"parents":[2147483647,0,0,1,1,2,2,3,3,4,4,5,5,6,6],"right_children":[2,4,6,8,10,12,14,-1,-1,-1,-1,-1,-1,-1,-1],"split_conditions":[1.042E0,7E0,1E0,7.444E1,5.84E0,1E0,7.2E1,-3.4105398E-2,8.1153385E-2,3.7924817E-1,-7.425744E-3,-4.5473117E-2,-2.7547697E-2,-2.6917165E-2,7.031396E-2],"split_indices":[0,4,42,6,10,27,6,0,0,0,0,0,0,0,0],"split_type":[0,0,0,0,0,0,0,0,0,0,0,0,0,0,0],"sum_hessian":[6.4101337E2,2.538667E1,6.156267E2,1.2195557E1,1.31911125E1,4.713956E2,1.4423112E2,9.457779E0,2.737778E0,1.1946668E1,1.2444446E0,4.0693338E2,6.446223E1,7.416889E1,7.0062225E1],"tree_param":{"num_deleted":"0","num_feature":"69","num_nodes":"15","size_leaf_vector":"1"}},{"base_weights":[-2.8898394E-1,-3.5647058E-1,1.2027504E0,-5.0207293E-1,-1.8697418E-1,1.06727004E-1,2.6979043E0,-5.1416844E-2,1.08288765E-1,-4.5275014E-2,3.795017E-4,-2.0150904E-2,7.8113616E-2,-0E0,3.3755425E-1],"categories":[],"categories_nodes":[],"categories_segments":[],"categories_sizes":[],"default_left":[0,0,0,0,0,0,0,0,0,0,0,0,0,0,0],"id":4,"left_children":[1,3,5,7,9,11,13,-1,-1,-1,-1,-1,-1,-1,-1],"loss_changes":[6.448813E1,1.4711815E1,4.3589504E1,6.5612717E0,1.476997E1,4.018088E0,2.161412E1,0E0,0E0,0E0,0E0,0E0,0E0,0E0,0E0],"parents":[2147483647,0,0,1,1,2,2,3,3,4,4,5,5,6,6],"right_children":[2,4,6,8,10,12,14,-1,-1,-1,-1,-1,-1,-1,-1],"split_conditions":[1.021E0,1E1,7.273E1,1.1E1,4.171E1,9.1E0,8.1E0,-5.1416844E-2,1.08288765E-1,-4.5275014E-2,3.795017E-4,-2.0150904E-2,7.8113616E-2,-0E0,3.3755425E-1],"split_indices":[1,4,6,2,6,2,4,0,0,0,0,0,0,0,0],"split_type":[0,0,0,0,0,0,0,0,0,0,0,0,0,0,0],"sum_hessian":[6.395201E2,6.128889E2,2.6631113E1,3.2704004E2,2.858489E2,1.6177778E1,1.0453334E1,3.255467E2,1.4933335E0,1.19964455E2,1.6588446E2,1.1075557E1,5.1022224E0,2.2400002E0,8.213334E0],"tree_param":{"num_deleted":"0","num_feature":"69","num_nodes":"15","size_leaf_vector":"1"}},{"base_weights":[8.613049E-1,5.8893666E0,3.8577262E-1,6.1075096E0,1.1768899E-2,-1.1740675E-1,1.2289042E0,8.962264E-2,6.192866E-1,-3.1869754E-2,5.2166987E-2,9.600597E-2,2.9482755E-1],"categories":[],"categories_nodes":[],"categories_segments":[],"categories_sizes":[],"default_left":[0,0,0,0,0,0,0,0,0,0,0,0,0],"id":5,"left_children":[1,3,5,7,-1,9,11,-1,-1,-1,-1,-1,-1],"loss_changes":[1.5281602E3,6.574109E1,2.4978928E2,1.4543701E1,0E0,4.743469E1,9.6861694E1,0E0,0E0,0E0,0E0,0E0,0E0],"parents":[2147483647,0,0,1,1,2,2,3,3,5,5,6,6],"right_children":[2,4,6,8,-1,10,12,-1,-1,-1,-1,-1,-1],"split_conditions":[1.56E1,3.6E-1,1E0,1.0442E0,1.1768899E-2,5.66E0,2.449E1,8.962264E-2,6.192866E-1,-3.1869754E-2,5.2166987E-2,9.600597E-2,2.9482755E-1],"split_indices":[59,16,43,0,0,5,8,0,0,0,0,0,0],"split_type":[0,0,0,0,0,0,0,0,0,0,0,0,0],"sum_hessian":[6.403912E2,5.4257782E1,5.8613336E2,5.2142227E1,2.1155558E0,3.672356E2,2.188978E2,1.1200001E0,5.102223E1,2.802489E2,8.698667E1,1.908978E2,2.8000002E1],"tree_param":{"num_deleted":"0","num_feature":"69","num_nodes":"13","size_leaf_vector":"1"}},{"base_weights":[-1.3732551E-1,-4.5546743E-1,3.406321E0,-4.8886293E-1,1.4510796E0,4.3298306E0,1.1794434E0,-5.076591E-2,1.1684968E-1,3.2460134E-2,2.3385726E-1,4.6746236E-1,-0E0,6.1431136E-2,3.3273894E-1],"categories":[],"categories_nodes":[],"categories_segments":[],"categories_sizes":[],"default_left":[0,0,0,0,0,0,0,0,0,0,0,0,0,0,0],"id":6,"left_children":[1,3,5,7,9,11,13,-1,-1,-1,-1,-1,-1,-1,-1],"loss_changes":[7.189603E2,3.7547752E1,1.0014819E2,1.8239136E1,7.991148E0,5.6496582E1,1.6534616E1,0E0,0E0,0E0,0E0,0E0,0E0,0E0,0E0],"parents":[2147483647,0,0,1,1,2,2,3,3,4,4,5,5,6,6],"right_children":[2,4,6,8,10,12,14,-1,-1,-1,-1,-1,-1,-1,-1],"split_conditions":[4.138E1,1E0,1E0,1.923E1,1.054E0,1E0,1.57E1,-5.076591E-2,1.1684968E-1,3.2460134E-2,2.3385726E-1,4.6746236E-1,-0E0,6.1431136E-2,3.3273894E-1],"split_indices":[9,39,66,11,0,38,4,0,0,0,0,0,0,0,0],"split_type":[0,0,0,0,0,0,0,0,0,0,0,0,0,0,0],"sum_hessian":[6.3665784E2,5.851378E2,5.1520004E1,5.760534E2,9.084445E0,3.5591114E1,1.592889E1,5.705778E2,5.475556E0,4.853334E0,4.2311115E0,3.297778E1,2.6133335E0,1.3813334E1,2.1155558E0],"tree_param":{"num_deleted":"0","num_feature":"69","num_nodes":"15","size_leaf_vector":"1"}},{"base_weights":[-5.294694E-1,-5.3254772E-2,-0E0,4.2452827E-2,-2.1604938E-2],"categories":[],"categories_nodes":[],"categories_segments":[],"categories_sizes":[],"default_left":[0,0,0,0,0],"id":7,"left_children":[1,-1,3,-1,-1],"loss_changes":[1.1598206E0,0E0,5.3331E-1,0E0,0E0],"parents":[2147483647,0,0,2,2],"right_children":[2,-1,4,-1,-1],"split_conditions":[1.25E1,-5.3254772E-2,4.3E0,4.2452827E-2,-2.1604938E-2],"split_indices":[13,0,2,0,0],"split_type":[0,0,0,0,0],"sum_hessian":[6.452445E2,6.418845E2,3.3600004E0,1.1200001E0,2.2400002E0],"tree_param":{"num_deleted":"0","num_feature":"69","num_nodes":"5","size_leaf_vector":"1"}},{"base_weights":[7.7330577E-3,4.9520433E-1,-2.5870374E-1,7.024509E-1,-2.2297825E-1,-3.063166E-1,2.7764168E0,5.3122777E-2,1.858074E-1,-2.93947E-2,1.08288765E-1,-5.4087183E-3,-4.186162E-2,3.4855565E-1,-4.7169826E-3],"categories":[],"categories_nodes":[],"categories_segments":[],"categories_sizes":[],"default_left":[0,0,0,0,0,0,0,0,0,0,0,0,0,0,0],"id":8,"left_children":[1,3,5,7,9,11,13,-1,-1,-1,-1,-1,-1,-1,-1],"loss_changes":[8.3663574E1,3.4330093E1,5.962723E1,3.298188E1,4.6758356E0,1.1352222E1,1.460054E1,0E0,0E0,0E0,0E0,0E0,0E0,0E0,0E0],"parents":[2147483647,0,0,1,1,2,2,3,3,4,4,5,5,6,6],"right_children":[2,4,6,8,10,12,14,-1,-1,-1,-1,-1,-1,-1,-1],"split_conditions":[1.0522E0,1E0,8.7E0,8.05E1,8.73E1,1.0573E0,1E0,5.3122777E-2,1.858074E-1,-2.93947E-2,1.08288765E-1,-5.4087183E-3,-4.186162E-2,3.4855565E-1,-4.7169826E-3],"split_indices":[0,42,16,60,60,0,42,0,0,0,0,0,0,0,0],"split_type":[0,0,0,0,0,0,0,0,0,0,0,0,0,0,0],"sum_hessian":[6.4126227E2,2.2698668E2,4.142756E2,1.7671112E2,5.027556E1,4.0892447E2,5.3511114E0,1.5555557E2,2.1155558E1,4.8782227E1,1.4933335E0,1.2780446E2,2.8112003E2,4.2311115E0,1.1200001E0],"tree_param":{"num_deleted":"0","num_feature":"69","num_nodes":"15","size_leaf_vector":"1"}},{"base_weights":[2.020717E-1,-3.0883232E-1,7.58269E-1,-4.5964834E-1,-4.867541E-2,1.1843576E0,-2.0844075E-1,-4.7734767E-2,1.8437745E-2,2.2929182E-2,-2.4304941E-2,7.5940125E-2,2.696266E-1,1.6685558E-2,-3.9555326E-2],"categories":[],"categories_nodes":[],"categories_segments":[],"categories_sizes":[],"default_left":[0,0,0,0,0,0,0,0,0,0,0,0,0,0,0],"id":9,"left_children":[1,3,5,7,9,11,13,-1,-1,-1,-1,-1,-1,-1,-1],"loss_changes":[1.8303705E2,1.2872702E1,1.2775688E2,2.6375198E0,6.833598E0,1.340698E2,6.8396397E0,0E0,0E0,0E0,0E0,0E0,0E0,0E0,0E0],"parents":[2147483647,0,0,1,1,2,2,3,3,4,4,5,5,6,6],"right_children":[2,4,6,8,10,12,14,-1,-1,-1,-1,-1,-1,-1,-1],"split_conditions":[1E1,6.299E1,2.49E1,1.749E1,1.0111E0,1E0,3.4E1,-4.7734767E-2,1.8437745E-2,2.2929182E-2,-2.4304941E-2,7.5940125E-2,2.696266E-1,1.6685558E-2,-3.9555326E-2],"split_indices":[4,6,4,12,1,50,4,0,0,0,0,0,0,0,0],"split_type":[0,0,0,0,0,0,0,0,0,0,0,0,0,0,0],"sum_hessian":[6.4151117E2,3.3413336E2,3.073778E2,2.0981335E2,1.2432001E2,2.1354669E2,9.3831116E1,2.0520891E2,4.604445E0,5.0026672E1,7.429334E1,1.6812447E2,4.5422226E1,3.0364447E1,6.346667E1],"tree_param":{"num_deleted":"0","num_feature":"69","num_nodes":"15","size_leaf_vector":"1"}},{"base_weights":[-3.8416085E-1,-4.494069E-1,4.3572164E0,1.2479178E-2,-4.7656828E-1,4.7776766E0,8.168317E-2,4.3025464E-2,-4.163409E-2,-4.892533E-2,-2.3143781E-2,1.1679174E-1,5.3252786E-1],"categories":[],"categories_nodes":[],"categories_segments":[],"categories_sizes":[],"default_left":[0,0,0,0,0,0,0,0,0,0,0,0,0],"id":10,"left_children":[1,3,5,7,9,11,-1,-1,-1,-1,-1,-1,-1],"loss_changes":[1.9603569E2,8.092506E0,6.088852E0,6.4069915E0,1.3683624E0,5.0561523E0,0E0,0E0,0E0,0E0,0E0,0E0,0E0],"parents":[2147483647,0,0,1,1,2,2,3,3,4,4,5,5],"right_children":[2,4,6,8,10,12,-1,-1,-1,-1,-1,-1,-1],"split_conditions":[1E0,1.007E0,1.066E0,2.382E1,1E0,5.5E0,8.168317E-2,4.3025464E-2,-4.163409E-2,-4.892533E-2,-2.3143781E-2,1.1679174E-1,5.3252786E-1],"split_indices":[25,1,0,6,23,2,0,0,0,0,0,0,0],"split_type":[0,0,0,0,0,0,0,0,0,0,0,0,0],"sum_hessian":[6.326756E2,6.250845E2,7.5911117E0,3.372445E1,5.9136005E2,6.3466673E0,1.2444446E0,1.7671112E1,1.6053335E1,5.593778E2,3.1982225E1,1.368889E0,4.9777784E0],"tree_param":{"num_deleted":"0","num_feature":"69","num_nodes":"13","size_leaf_vector":"1"}},{"base_weights":[-4.4731933E-1,6.0615194E-1,-4.7888446E-1,1.9072657E0,-1.3120316E-1,-1.685119E-1,-4.9922913E-1,-1.2032087E-2,2.5729927E-1,-3.871893E-2,8.750855E-3,-3.8696337E-2,7.0428334E-2,-2.0897834E-2,-5.086727E-2],"categories":[],"categories_nodes":[],"categories_segments":[],"categories_sizes":[],"default_left":[0,0,0,0,0,0,0,0,0,0,0,0,0,0,0],"id":11,"left_children":[1,3,5,7,9,11,13,-1,-1,-1,-1,-1,-1,-1,-1],"loss_changes":[2.130651E1,1.8812235E1,3.4748535E0,1.0948656E1,8.8070077E-1,7.9209023E0,1.1152039E0,0E0,0E0,0E0,0E0,0E0,0E0,0E0,0E0],"parents":[2147483647,0,0,1,1,2,2,3,3,4,4,5,5,6,6],"right_children":[2,4,6,8,10,12,14,-1,-1,-1,-1,-1,-1,-1,-1],"split_conditions":[1.2E1,1.0087E0,1.8E1,6.5E1,3.03E0,6.55E0,1.0054E0,-1.2032087E-2,2.5729927E-1,-3.871893E-2,8.750855E-3,-3.8696337E-2,7.0428334E-2,-2.0897834E-2,-5.086727E-2],"split_indices":[3,1,3,58,9,21,1,0,0,0,0,0,0,0,0],"split_type":[0,0,0,0,0,0,0,0,0,0,0,0,0,0,0],"sum_hessian":[6.329245E2,1.7422224E1,6.1550226E2,5.973334E0,1.144889E1,3.994667E1,5.755556E2,1.4933335E0,4.4800005E0,5.973334E0,5.475556E0,3.2853336E1,7.0933337E0,2.0533335E1,5.550223E2],"tree_param":{"num_deleted":"0","num_feature":"69","num_nodes":"15","size_leaf_vector":"1"}},{"base_weights":[-1.2193219E-1,1.0289255E0,-1.4716914E-1,5.3278685E-1,3.0445543E-1,-1.6572069E-1,1.374773E0,2.6028734E-3,1.3614899E-1,-2.0921398E-2,2.6843105E-2,2.0850621E-1,-1.8945023E-2],"categories":[],"categories_nodes":[],"categories_segments":[],"categories_sizes":[],"default_left":[0,0,0,0,0,0,0,0,0,0,0,0,0],"id":12,"left_children":[1,3,5,7,-1,9,11,-1,-1,-1,-1,-1,-1],"loss_changes":[1.83139E1,1.00341E1,1.735663E1,4.394218E0,0E0,1.17664585E1,9.505341E0,0E0,0E0,0E0,0E0,0E0,0E0],"parents":[2147483647,0,0,1,1,2,2,3,3,5,5,6,6],"right_children":[2,4,6,8,-1,10,12,-1,-1,-1,-1,-1,-1],"split_conditions":[9.8E0,8E0,1.038E1,5.33E0,3.0445543E-1,1.375E1,1E0,2.6028734E-3,1.3614899E-1,-2.0921398E-2,2.6843105E-2,2.0850621E-1,-1.8945023E-2],"split_indices":[3,19,15,12,0,21,66,0,0,0,0,0,0],"split_type":[0,0,0,0,0,0,0,0,0,0,0,0,0],"sum_hessian":[6.395201E2,1.2444446E1,6.270756E2,1.1200001E1,1.2444446E0,6.2072894E2,6.3466673E0,7.964445E0,3.235556E0,5.657245E2,5.5004448E1,4.355556E0,1.9911113E0],"tree_param":{"num_deleted":"0","num_feature":"69","num_nodes":"13","size_leaf_vector":"1"}},{"base_weights":[3.30152E-1,-2.9700327E-1,4.7056627E0,5.0552964E0,-4.0861797E-1,-3.6937904E-2,5.0695057E0,5.713128E-2,5.7494277E-1,-4.73574E-2,1.2785761E-1,3.239405E-1,5.83491E-1],"categories":[],"categories_nodes":[],"categories_segments":[],"categories_sizes":[],"default_left":[0,0,0,0,0,0,0,0,0,0,0,0,0],"id":13,"left_children":[1,3,5,7,9,-1,11,-1,-1,-1,-1,-1,-1],"loss_changes":[1.7626346E3,3.3517856E2,1.5290417E2,2.9203094E1,6.0593826E1,0E0,8.2029785E1,0E0,0E0,0E0,0E0,0E0,0E0],"parents":[2147483647,0,0,1,1,2,2,3,3,4,4,6,6],"right_children":[2,4,6,8,10,-1,12,-1,-1,-1,-1,-1,-1],"split_conditions":[2.9E1,8E-1,1.56E1,1.8E-1,2.79E0,-3.6937904E-2,3.333E1,5.713128E-2,5.7494277E-1,-4.73574E-2,1.2785761E-1,3.239405E-1,5.83491E-1],"split_indices":[4,4,59,14,13,0,6,0,0,0,0,0,0],"split_type":[0,0,0,0,0,0,0,0,0,0,0,0,0],"sum_hessian":[6.400178E2,5.604978E2,7.9520004E1,1.0453334E1,5.500445E2,5.226667E0,7.429334E1,1.7422223E0,8.711112E0,5.3063116E2,1.9413336E1,2.3644447E1,5.064889E1],"tree_param":{"num_deleted":"0","num_feature":"69","num_nodes":"13","size_leaf_vector":"1"}},{"base_weights":[-5.3255385E-1],"categories":[],"categories_nodes":[],"categories_segments":[],"categories_sizes":[],"default_left":[0],"id":14,"left_children":[-1],"loss_changes":[0E0],"parents":[2147483647],"right_children":[-1],"split_conditions":[-5.3255387E-2],"split_indices":[0],"split_type":[0],"sum_hessian":[6.4312897E2],"tree_param":{"num_deleted":"0","num_feature":"69","num_nodes":"1","size_leaf_vector":"1"}},{"base_weights":[1.3833038E0,4.8126227E-1,2.3068807E0,2.9908672E-1,2.912241E0,2.6749344E0,-3.1561494E-2,7.910456E-3,1.4292511E-1,1.5375748E-1,4.006109E-1,2.2924303E-1,3.773949E-1,-1.9863455E-2,1.4121744E-1],"categories":[],"categories_nodes":[],"categories_segments":[],"categories_sizes":[],"default_left":[0,0,0,0,0,0,0,0,0,0,0,0,0,0,0],"id":15,"left_children":[1,3,5,7,9,11,13,-1,-1,-1,-1,-1,-1,-1,-1],"loss_changes":[6.2516064E2,1.6700034E2,3.2133606E2,8.7965866E1,3.072551E1,1.2341113E2,1.2060692E1,0E0,0E0,0E0,0E0,0E0,0E0,0E0,0E0],"parents":[2147483647,0,0,1,1,2,2,3,3,4,4,5,5,6,6],"right_children":[2,4,6,8,10,12,14,-1,-1,-1,-1,-1,-1,-1,-1],"split_conditions":[1E0,5E0,7.6E-1,8.333E1,5.99E0,5E0,5E0,7.910456E-3,1.4292511E-1,1.5375748E-1,4.006109E-1,2.2924303E-1,3.773949E-1,-1.9863455E-2,1.4121744E-1],"split_indices":[41,65,13,6,6,65,65,0,0,0,0,0,0,0,0],"split_type":[0,0,0,0,0,0,0,0,0,0,0,0,0,0,0],"sum_hessian":[7.5240436E2,3.8168335E2,3.70721E2,3.5631046E2,2.5372904E1,3.2036746E2,5.035355E1,2.9952203E2,5.678841E1,1.2511899E1,1.2861005E1,2.4028043E2,8.0087036E1,4.621425E1,4.139299E0],"tree_param":{"num_deleted":"0","num_feature":"69","num_nodes":"15","size_leaf_vector":"1"}},{"base_weights":[-2.1099374E-1,-3.626465E-1,1.6273078E0,-3.841478E-1,2.4624197E-1,1.0538826E0,3.7390396E-1,-4.2958986E-2,1.9150745E-3,1.3267393E-1,-5.264835E-3],"categories":[],"categories_nodes":[],"categories_segments":[],"categories_sizes":[],"default_left":[0,0,0,0,0,0,0,0,0,0,0],"id":16,"left_children":[1,3,5,7,-1,9,-1,-1,-1,-1,-1],"loss_changes":[1.7376492E2,3.495559E1,5.111328E1,1.07272415E1,0E0,1.2448864E1,0E0,0E0,0E0,0E0,0E0],"parents":[2147483647,0,0,1,1,2,2,3,3,5,5],"right_children":[2,4,6,8,-1,10,-1,-1,-1,-1,-1],"split_conditions":[1E0,1E0,3.03E1,2.727E1,2.4624197E-1,1E0,3.7390396E-1,-4.2958986E-2,1.9150745E-3,1.3267393E-1,-5.264835E-3],"split_indices":[23,38,9,9,0,25,0,0,0,0,0],"split_type":[0,0,0,0,0,0,0,0,0,0,0],"sum_hessian":[6.2244836E2,5.760049E2,4.644346E1,5.7268726E2,3.3176599E0,3.7890427E1,8.553033E0,5.157493E2,5.693793E1,3.0598158E1,7.2922683E0],"tree_param":{"num_deleted":"0","num_feature":"69","num_nodes":"11","size_leaf_vector":"1"}},{"base_weights":[-2.4316962E-1,-4.0572768E-1,1.6414768E0,-4.3408972E-1,1.2932662E0,-2.6550668E-1,2.4280655E0,-4.972876E-2,2.7337063E-3,1.1727743E-2,2.6175138E-1,-4.4614427E-2,1.7726857E-2,2.7745685E-1,3.9087612E-2],"categories":[],"categories_nodes":[],"categories_segments":[],"categories_sizes":[],"default_left":[0,0,0,0,0,0,0,0,0,0,0,0,0,0,0],"id":17,"left_children":[1,3,5,7,9,11,13,-1,-1,-1,-1,-1,-1,-1,-1],"loss_changes":[1.8907416E2,2.7552628E1,7.514636E1,1.6600563E1,1.2816745E1,1.4140044E0,2.1994644E1,0E0,0E0,0E0,0E0,0E0,0E0,0E0,0E0],"parents":[2147483647,0,0,1,1,2,2,3,3,4,4,5,5,6,6],"right_children":[2,4,6,8,10,12,14,-1,-1,-1,-1,-1,-1,-1,-1],"split_conditions":[1E0,6.32E0,1.059E0,7.7E0,5.195E1,7.447E1,1.92E0,-4.972876E-2,2.7337063E-3,1.1727743E-2,2.6175138E-1,-4.4614427E-2,1.7726857E-2,2.7745685E-1,3.9087612E-2],"split_indices":[23,18,0,2,5,5,8,0,0,0,0,0,0,0,0],"split_type":[0,0,0,0,0,0,0,0,0,0,0,0,0,0,0],"sum_hessian":[6.159973E2,5.680508E2,4.794656E1,5.597455E2,8.30528E0,1.4009393E1,3.393717E1,4.932016E2,6.654391E1,5.1754193E0,3.1298604E0,1.074672E1,3.2626727E0,2.8484825E1,5.4523425E0],"tree_param":{"num_deleted":"0","num_feature":"69","num_nodes":"15","size_leaf_vector":"1"}},{"base_weights":[-1.6949815E-1,-4.012539E-1,5.007314E-1,-4.400786E-3,-4.4747895E-1,2.9681604E0,2.2967933E-1,-2.5884135E-2,5.5764318E-2,-0E0,-4.534267E-2,3.2301378E-1,-0E0,-1.7738559E-3,1.0842728E-1],"categories":[],"categories_nodes":[],"categories_segments":[],"categories_sizes":[],"default_left":[0,0,0,0,0,0,0,0,0,0,0,0,0,0,0],"id":18,"left_children":[1,3,5,7,9,11,13,-1,-1,-1,-1,-1,-1,-1,-1],"loss_changes":[9.748554E1,8.334122E0,1.05327515E2,7.2641764E0,9.076538E-1,1.1308853E1,3.14733E1,0E0,0E0,0E0,0E0,0E0,0E0,0E0,0E0],"parents":[2147483647,0,0,1,1,2,2,3,3,4,4,5,5,6,6],"right_children":[2,4,6,8,10,12,14,-1,-1,-1,-1,-1,-1,-1,-1],"split_conditions":[1E0,1.0467E0,1.0421E0,5.71E0,6.76E1,9.04E0,8.571E1,-2.5884135E-2,5.5764318E-2,-0E0,-4.534267E-2,3.2301378E-1,-0E0,-1.7738559E-3,1.0842728E-1],"split_indices":[42,0,0,12,60,9,6,0,0,0,0,0,0,0,0],"split_type":[0,0,0,0,0,0,0,0,0,0,0,0,0,0,0],"sum_hessian":[6.256312E2,4.657343E2,1.5989693E2,4.9831413E1,4.159029E2,1.4658961E1,1.4523796E2,3.5286217E1,1.45452E1,6.4507966E0,4.0945212E2,1.330582E1,1.3531405E0,1.12935555E2,3.2302406E1],"tree_param":{"num_deleted":"0","num_feature":"69","num_nodes":"15","size_leaf_vector":"1"}},{"base_weights":[-2.80708E-1,-3.743542E-1,5.4547745E-1,-4.6881375E-1,-5.157996E-2,-3.0764836E-1,9.9879855E-1,-4.838806E-2,7.3879855E-3,-3.832139E-2,2.273657E-2,-4.2979117E-2,2.7159823E-2,1.4398877E-1,-4.3652512E-2],"categories":[],"categories_nodes":[],"categories_segments":[],"categories_sizes":[],"default_left":[0,0,0,0,0,0,0,0,0,0,0,0,0,0,0],"id":19,"left_children":[1,3,5,7,9,11,13,-1,-1,-1,-1,-1,-1,-1,-1],"loss_changes":[4.79913E1,1.6694962E1,2.496246E1,3.752617E0,1.2043142E1,1.7659757E0,2.7508625E1,0E0,0E0,0E0,0E0,0E0,0E0,0E0,0E0],"parents":[2147483647,0,0,1,1,2,2,3,3,4,4,5,5,6,6],"right_children":[2,4,6,8,10,12,14,-1,-1,-1,-1,-1,-1,-1,-1],"split_conditions":[1.079E0,1E0,3.077E1,7.1E-1,1.17E1,7.69E0,3.3E1,-4.838806E-2,7.3879855E-3,-3.832139E-2,2.273657E-2,-4.2979117E-2,2.7159823E-2,1.4398877E-1,-4.3652512E-2],"split_indices":[0,42,6,15,4,19,4,0,0,0,0,0,0,0,0],"split_type":[0,0,0,0,0,0,0,0,0,0,0,0,0,0,0],"sum_hessian":[6.177563E2,5.5589856E2,6.1857754E1,4.2849765E2,1.2740088E2,2.119267E1,4.0665085E1,4.1792447E2,1.0573192E1,5.885171E1,6.8549164E1,1.842805E1,2.7646217E0,3.136996E1,9.295124E0],"tree_param":{"num_deleted":"0","num_feature":"69","num_nodes":"15","size_leaf_vector":"1"}},{"base_weights":[7.687232E-1,3.3423526E0,3.8091683E-1,3.550195E0,1.3588121E0,1.2453426E0,-2.5721937E-1,3.597886E-1,-0E0,-0E0,1.7173351E-1,1.4422975E-1,-3.0022865E-2,-3.3254232E-2,7.395203E-2],"categories":[],"categories_nodes":[],"categories_segments":[],"categories_sizes":[],"default_left":[0,0,0,0,0,0,0,0,0,0,0,0,0,0,0],"id":20,"left_children":[1,3,5,7,9,11,13,-1,-1,-1,-1,-1,-1,-1,-1],"loss_changes":[6.8943933E2,3.0061035E1,3.3418204E2,1.2510925E1,5.3644276E0,7.928772E1,2.6182457E1,0E0,0E0,0E0,0E0,0E0,0E0,0E0,0E0],"parents":[2147483647,0,0,1,1,2,2,3,3,4,4,5,5,6,6],"right_children":[2,4,6,8,10,12,14,-1,-1,-1,-1,-1,-1,-1,-1],"split_conditions":[1.28E1,4.314E1,2.021E1,1E0,7.517E1,1E0,1E0,3.597886E-1,-0E0,-0E0,1.7173351E-1,1.4422975E-1,-3.0022865E-2,-3.3254232E-2,7.395203E-2],"split_indices":[59,6,6,45,22,23,44,0,0,0,0,0,0,0,0],"split_type":[0,0,0,0,0,0,0,0,0,0,0,0,0,0,0],"sum_hessian":[6.929135E2,8.957199E1,6.033415E2,8.013343E1,9.43856E0,2.5616705E2,3.4717444E2,7.896329E1,1.1701458E0,2.0845854E0,7.3539743E0,2.2755911E2,2.8607939E1,3.2386798E2,2.3306486E1],"tree_param":{"num_deleted":"0","num_feature":"69","num_nodes":"15","size_leaf_vector":"1"}},{"base_weights":[-1.417016E-1,-4.7526327E-1,2.188694E0,-5.0409085E-1,1.618428E0,1.2901119E0,3.5183194E0,-5.1672805E-2,3.2581884E-2,5.019126E-2,3.271055E-1,4.8698436E-2,1.933646E-1,4.0712285E-1,1.8737791E-2],"categories":[],"categories_nodes":[],"categories_segments":[],"categories_sizes":[],"default_left":[0,0,0,0,0,0,0,0,0,0,0,0,0,0,0],"id":21,"left_children":[1,3,5,7,9,11,13,-1,-1,-1,-1,-1,-1,-1,-1],"loss_changes":[4.853662E2,3.3274704E1,8.642172E1,5.93338E0,1.0184113E1,2.2880623E1,5.3667175E1,0E0,0E0,0E0,0E0,0E0,0E0,0E0,0E0],"parents":[2147483647,0,0,1,1,2,2,3,3,4,4,5,5,6,6],"right_children":[2,4,6,8,10,12,14,-1,-1,-1,-1,-1,-1,-1,-1],"split_conditions":[3.636E1,1.864E1,1E0,1E0,9.091E1,1E0,6.5E1,-5.1672805E-2,3.2581884E-2,5.019126E-2,3.271055E-1,4.8698436E-2,1.933646E-1,4.0712285E-1,1.8737791E-2],"split_indices":[9,11,39,39,3,43,61,0,0,0,0,0,0,0,0],"split_type":[0,0,0,0,0,0,0,0,0,0,0,0,0,0,0],"sum_hessian":[6.2316516E2,5.4602094E2,7.714421E1,5.395895E2,6.4314446E0,4.7433926E1,2.9710283E1,5.324614E2,7.128065E0,4.796907E0,1.6345377E0,2.2227636E1,2.5206287E1,2.5161352E1,4.548931E0],"tree_param":{"num_deleted":"0","num_feature":"69","num_nodes":"15","size_leaf_vector":"1"}},{"base_weights":[-5.284972E-1,-5.318005E-2,-0E0,2.116189E-2,-2.122018E-2],"categories":[],"categories_nodes":[],"categories_segments":[],"categories_sizes":[],"default_left":[0,0,0,0,0],"id":22,"left_children":[1,-1,3,-1,-1],"loss_changes":[9.9479675E-1,0E0,2.6636076E-1,0E0,0E0],"parents":[2147483647,0,0,2,2],"right_children":[2,-1,4,-1,-1],"split_conditions":[1.25E1,-5.318005E-2,2.8E1,2.116189E-2,-2.122018E-2],"split_indices":[13,0,4,0,0],"split_type":[0,0,0,0,0],"sum_hessian":[6.003731E2,5.9644293E2,3.9301863E0,1.724831E0,2.2053554E0],"tree_param":{"num_deleted":"0","num_feature":"69","num_nodes":"5","size_leaf_vector":"1"}},{"base_weights":[3.867097E-2,-4.207456E-2,4.348622E0,-9.0973E-2,2.2998888E0,4.6167508E-1,4.788288E-2,2.2844326E-2,-3.6577314E-2,3.010159E-1,-0E0],"categories":[],"categories_nodes":[],"categories_segments":[],"categories_sizes":[],"default_left":[0,0,0,0,0,0,0,0,0,0,0],"id":23,"left_children":[1,3,5,7,9,-1,-1,-1,-1,-1,-1],"loss_changes":[2.24725E2,7.1040146E1,7.5634613E0,5.426412E1,1.972631E1,0E0,0E0,0E0,0E0,0E0,0E0],"parents":[2147483647,0,0,1,1,2,2,3,3,4,4],"right_children":[2,4,6,8,10,-1,-1,-1,-1,-1,-1],"split_conditions":[1E0,8.33E0,1.053E1,1.0543E0,6.1E0,4.6167508E-1,4.788288E-2,2.2844326E-2,-3.6577314E-2,3.010159E-1,-0E0],"split_indices":[32,16,8,0,4,0,0,0,0,0,0],"split_type":[0,0,0,0,0,0,0,0,0,0,0],"sum_hessian":[6.380312E2,6.271559E2,1.0875334E1,6.1547974E2,1.1676104E1,9.869287E0,1.0060475E0,2.8387012E2,3.3160965E2,8.576855E0,3.099249E0],"tree_param":{"num_deleted":"0","num_feature":"69","num_nodes":"11","size_leaf_vector":"1"}},{"base_weights":[1.653714E-1,-2.4138846E-1,6.557913E-1,-4.057674E-1,-1.8191818E-2,9.8013467E-1,-2.9445183E-1,-4.6075217E-2,-0E0,3.4761887E-2,-3.811728E-2,1.3844965E-1,-8.266648E-3,-2.660326E-3,-4.144111E-2],"categories":[],"categories_nodes":[],"categories_segments":[],"categories_sizes":[],"default_left":[0,0,0,0,0,0,0,0,0,0,0,0,0,0,0],"id":24,"left_children":[1,3,5,7,9,11,13,-1,-1,-1,-1,-1,-1,-1,-1],"loss_changes":[1.2965207E2,1.2784803E1,9.144804E1,4.35577E0,2.0420427E1,9.544217E1,2.189835E0,0E0,0E0,0E0,0E0,0E0,0E0,0E0,0E0],"parents":[2147483647,0,0,1,1,2,2,3,3,4,4,5,5,6,6],"right_children":[2,4,6,8,10,12,14,-1,-1,-1,-1,-1,-1,-1,-1],"split_conditions":[1.1E1,5.185E1,2.93E1,8.7E0,3.9931E1,6.81E0,3.8E1,-4.6075217E-2,-0E0,3.4761887E-2,-3.811728E-2,1.3844965E-1,-8.266648E-3,-2.660326E-3,-4.144111E-2],"split_indices":[4,6,4,12,3,2,4,0,0,0,0,0,0,0,0],"split_type":[0,0,0,0,0,0,0,0,0,0,0,0,0,0,0],"sum_hessian":[6.471078E2,3.5344485E2,2.9366293E2,2.0178033E2,1.5166454E2,2.1930351E2,7.435942E1,1.7678758E2,2.499274E1,7.487284E1,7.6791695E1,1.5898325E2,6.0320263E1,2.4668568E1,4.9690853E1],"tree_param":{"num_deleted":"0","num_feature":"69","num_nodes":"15","size_leaf_vector":"1"}},{"base_weights":[-3.7773833E-1,-4.5071703E-1,3.0558822E0,-0E0,-4.7572583E-1,9.9108714E-1,3.518188E-1,3.3438515E-2,-4.077931E-2,-4.7913507E-2,4.4507235E-2,-0E0,1.8455218E-1],"categories":[],"categories_nodes":[],"categories_segments":[],"categories_sizes":[],"default_left":[0,0,0,0,0,0,0,0,0,0,0,0,0],"id":25,"left_children":[1,3,5,7,9,11,-1,-1,-1,-1,-1,-1,-1],"loss_changes":[1.538115E2,6.582588E0,6.4334717E0,4.738127E0,2.0173035E0,3.3272002E0,0E0,0E0,0E0,0E0,0E0,0E0,0E0],"parents":[2147483647,0,0,1,1,2,2,3,3,4,4,5,5],"right_children":[2,4,6,8,10,12,-1,-1,-1,-1,-1,-1,-1],"split_conditions":[1E0,1.007E0,8.2E-1,2.382E1,2.025E1,1E0,3.518188E-1,3.3438515E-2,-4.077931E-2,-4.7913507E-2,4.4507235E-2,-0E0,1.8455218E-1],"split_indices":[25,1,9,6,18,66,0,0,0,0,0,0,0],"split_type":[0,0,0,0,0,0,0,0,0,0,0,0,0],"sum_hessian":[6.125206E2,6.0076624E2,1.1754427E1,3.2520382E1,5.6824585E2,2.9233232E0,8.831104E0,1.7399672E1,1.5120711E1,5.671685E2,1.0772823E0,1.8149838E0,1.1083393E0],"tree_param":{"num_deleted":"0","num_feature":"69","num_nodes":"13","size_leaf_vector":"1"}},{"base_weights":[-4.597343E-1,4.2101893E-1,-4.8950338E-1,1.3587738E0,-1.4582258E-1,-5.0820893E-1,-2.0007867E-1,-2.245076E-4,2.197396E-1,-3.2584574E-2,1.8731244E-2,-5.0997943E-2,-0E0,-4.143697E-2,8.914806E-2],"categories":[],"categories_nodes":[],"categories_segments":[],"categories_sizes":[],"default_left":[0,0,0,0,0,0,0,0,0,0,0,0,0,0,0],"id":26,"left_children":[1,3,5,7,9,11,13,-1,-1,-1,-1,-1,-1,-1,-1],"loss_changes":[1.616623E1,1.1354756E1,2.7305603E0,1.0126954E1,9.063971E-1,7.160797E-1,9.253823E0,0E0,0E0,0E0,0E0,0E0,0E0,0E0,0E0],"parents":[2147483647,0,0,1,1,2,2,3,3,4,4,5,5,6,6],"right_children":[2,4,6,8,10,12,14,-1,-1,-1,-1,-1,-1,-1,-1],"split_conditions":[1.2E1,1.0087E0,1.849E1,1.091E1,9.697E1,2.11E1,7.78E0,-2.245076E-4,2.197396E-1,-3.2584574E-2,1.8731244E-2,-5.0997943E-2,-0E0,-4.143697E-2,8.914806E-2],"split_indices":[3,1,21,9,22,59,9,0,0,0,0,0,0,0,0],"split_type":[0,0,0,0,0,0,0,0,0,0,0,0,0,0,0],"sum_hessian":[6.064136E2,1.8847567E1,5.87566E2,6.906603E0,1.1940963E1,5.4956415E2,3.800185E1,2.7860942E0,4.1205087E0,8.740468E0,3.2004952E0,5.485013E2,1.0628849E0,3.266719E1,5.334659E0],"tree_param":{"num_deleted":"0","num_feature":"69","num_nodes":"15","size_leaf_vector":"1"}},{"base_weights":[-1.3061841E-1,-1.4501485E-1,2.726091E0,7.9423517E-1,-1.7062609E-1,3.3984438E-1,4.6453122E-2,4.2411633E-2,2.197007E-1,-1.9203275E-2,5.416301E-2],"categories":[],"categories_nodes":[],"categories_segments":[],"categories_sizes":[],"default_left":[0,0,0,0,0,0,0,0,0,0,0],"id":27,"left_children":[1,3,5,7,9,-1,-1,-1,-1,-1,-1],"loss_changes":[2.5344307E1,1.5121601E1,1.1664143E0,6.3446417E0,9.388556E0,0E0,0E0,0E0,0E0,0E0,0E0],"parents":[2147483647,0,0,1,1,2,2,3,3,4,4],"right_children":[2,4,6,8,10,-1,-1,-1,-1,-1,-1],"split_conditions":[1E0,1.0311E1,1.79E0,8E0,4.86E0,3.3984438E-1,4.6453122E-2,4.2411633E-2,2.197007E-1,-1.9203275E-2,5.416301E-2],"split_indices":[55,3,7,19,11,0,0,0,0,0,0],"split_type":[0,0,0,0,0,0,0,0,0,0,0],"sum_hessian":[6.370205E2,6.34945E2,2.0755546E0,1.5539131E1,6.194058E2,1.0419896E0,1.033565E0,1.3607575E1,1.9315559E0,6.027236E2,1.6682308E1],"tree_param":{"num_deleted":"0","num_feature":"69","num_nodes":"11","size_leaf_vector":"1"}},{"base_weights":[3.114484E-1,-3.2409757E-1,2.9109716E0,3.3078468E0,-4.4177467E-1,3.066554E0,-3.79671E-2,2.190993E-2,3.6060983E-1,-4.968835E-2,3.2369725E-2,3.2251686E-1,6.5183125E-2],"categories":[],"categories_nodes":[],"categories_segments":[],"categories_sizes":[],"default_left":[0,0,0,0,0,0,0,0,0,0,0,0,0],"id":28,"left_children":[1,3,5,7,9,11,-1,-1,-1,-1,-1,-1,-1],"loss_changes":[1.1030396E3,2.2917526E2,6.965344E1,1.2783722E1,2.219738E1,4.402185E1,0E0,0E0,0E0,0E0,0E0,0E0,0E0],"parents":[2147483647,0,0,1,1,2,2,3,3,4,4,5,5],"right_children":[2,4,6,8,10,12,-1,-1,-1,-1,-1,-1,-1],"split_conditions":[2.6E1,8E-1,1.4E1,1.8E-1,2.03E1,2.896E1,-3.79671E-2,2.190993E-2,3.6060983E-1,-4.968835E-2,3.2369725E-2,3.2251686E-1,6.5183125E-2],"split_indices":[4,4,68,14,4,7,0,0,0,0,0,0,0],"split_type":[0,0,0,0,0,0,0,0,0,0,0,0,0],"sum_hessian":[6.6529846E2,5.3514594E2,1.301525E2,1.5810727E1,5.193352E2,1.2448677E2,5.6657267E0,1.6926262E0,1.41181E1,4.8539417E2,3.3941044E1,1.1630446E2,8.18231E0],"tree_param":{"num_deleted":"0","num_feature":"69","num_nodes":"13","size_leaf_vector":"1"}},{"base_weights":[-5.3017503E-1],"categories":[],"categories_nodes":[],"categories_segments":[],"categories_sizes":[],"default_left":[0],"id":29,"left_children":[-1],"loss_changes":[0E0],"parents":[2147483647],"right_children":[-1],"split_conditions":[-5.3017505E-2],"split_indices":[0],"split_type":[0],"sum_hessian":[6.037395E2],"tree_param":{"num_deleted":"0","num_feature":"69","num_nodes":"1","size_leaf_vector":"1"}},{"base_weights":[1.1495714E0,5.691561E-1,1.956136E0,9.384917E-1,-2.9605776E-1,1.1736087E0,2.6903265E0,3.774397E-2,1.5597765E-1,-3.7058055E-2,6.9551714E-2,6.18484E-2,2.4392608E-1,3.0509147E-1,1.1434404E-1],"categories":[],"categories_nodes":[],"categories_segments":[],"categories_sizes":[],"default_left":[0,0,0,0,0,0,0,0,0,0,0,0,0,0,0],"id":30,"left_children":[1,3,5,7,9,11,13,-1,-1,-1,-1,-1,-1,-1,-1],"loss_changes":[4.010077E2,1.6128806E2,2.0163306E2,1.21510345E2,1.1238037E1,1.208141E2,9.734729E1,0E0,0E0,0E0,0E0,0E0,0E0,0E0,0E0],"parents":[2147483647,0,0,1,1,2,2,3,3,4,4,5,5,6,6],"right_children":[2,4,6,8,10,12,14,-1,-1,-1,-1,-1,-1,-1,-1],"split_conditions":[4.48E1,1.3E1,6.323E1,1E0,5E0,5E0,1.6E1,3.774397E-2,1.5597765E-1,-3.7058055E-2,6.9551714E-2,6.18484E-2,2.4392608E-1,3.0509147E-1,1.1434404E-1],"split_indices":[3,4,6,41,65,65,4,0,0,0,0,0,0,0,0],"split_type":[0,0,0,0,0,0,0,0,0,0,0,0,0,0,0],"sum_hessian":[8.606686E2,5.018534E2,3.588152E2,3.520614E2,1.4979198E2,1.7527747E2,1.8353772E2,1.8626599E2,1.6579543E2,1.4037265E2,9.419325E0,1.2314768E2,5.2129787E1,1.477912E2,3.574653E1],"tree_param":{"num_deleted":"0","num_feature":"69","num_nodes":"15","size_leaf_vector":"1"}},{"base_weights":[-1.9700156E-1,-2.6738188E-1,2.4988916E0,-3.2190767E-1,1.0159518E0,2.6625721E0,-0E0,-3.887103E-2,2.0047577E-2,2.5324708E-1,5.164823E-2,5.6258883E-2,2.8573093E-1],"categories":[],"categories_nodes":[],"categories_segments":[],"categories_sizes":[],"default_left":[0,0,0,0,0,0,0,0,0,0,0,0,0],"id":31,"left_children":[1,3,5,7,9,11,-1,-1,-1,-1,-1,-1,-1],"loss_changes":[1.1635797E2,4.203745E1,5.3575897E0,2.0330914E1,1.5621229E1,2.6031952E0,0E0,0E0,0E0,0E0,0E0,0E0,0E0],"parents":[2147483647,0,0,1,1,2,2,3,3,4,4,5,5],"right_children":[2,4,6,8,10,12,-1,-1,-1,-1,-1,-1,-1],"split_conditions":[1E0,1E0,6.2E0,1E0,1.0594E0,1.0421E0,-0E0,-3.887103E-2,2.0047577E-2,2.5324708E-1,5.164823E-2,5.6258883E-2,2.8573093E-1],"split_indices":[38,24,4,44,0,0,0,0,0,0,0,0,0],"split_type":[0,0,0,0,0,0,0,0,0,0,0,0,0],"sum_hessian":[6.146156E2,6.00037E2,1.4578577E1,5.7667426E2,2.3362738E1,1.3477809E1,1.1007688E0,5.123657E2,6.430853E1,4.5317593E0,1.8830978E1,1.6916907E0,1.1786118E1],"tree_param":{"num_deleted":"0","num_feature":"69","num_nodes":"13","size_leaf_vector":"1"}},{"base_weights":[-2.4070296E-1,-3.9976642E-1,1.3934673E0,-4.2878863E-1,1.1454923E0,-3.2208678E-1,1.9891276E0,-5.0425142E-2,-1.1277836E-2,-1.5182245E-2,2.2127838E-1,-4.5002718E-2,1.792938E-2,2.2899492E-1,5.9634726E-2],"categories":[],"categories_nodes":[],"categories_segments":[],"categories_sizes":[],"default_left":[0,0,0,0,0,0,0,0,0,0,0,0,0,0,0],"id":32,"left_children":[1,3,5,7,9,11,13,-1,-1,-1,-1,-1,-1,-1,-1],"loss_changes":[1.5661172E2,2.4794144E1,5.6008698E1,1.2531303E1,1.5340392E1,1.1396546E0,1.3937073E1,0E0,0E0,0E0,0E0,0E0,0E0,0E0,0E0],"parents":[2147483647,0,0,1,1,2,2,3,3,4,4,5,5,6,6],"right_children":[2,4,6,8,10,12,14,-1,-1,-1,-1,-1,-1,-1,-1],"split_conditions":[1E0,6.32E0,1.0586E0,1.0685E0,7.778E1,8.187E1,4.171E1,-5.0425142E-2,-1.1277836E-2,-1.5182245E-2,2.2127838E-1,-4.5002718E-2,1.792938E-2,2.2899492E-1,5.9634726E-2],"split_indices":[23,18,0,0,22,5,6,0,0,0,0,0,0,0,0],"split_type":[0,0,0,0,0,0,0,0,0,0,0,0,0,0,0],"sum_hessian":[6.0126764E2,5.489012E2,5.236646E1,5.398089E2,9.09232E0,1.3398234E1,3.8968227E1,4.339939E2,1.0581498E2,4.2796245E0,4.812696E0,1.1550493E1,1.8477404E0,3.1221626E1,7.7465997E0],"tree_param":{"num_deleted":"0","num_feature":"69","num_nodes":"15","size_leaf_vector":"1"}},{"base_weights":[-1.9468343E-1,9.017757E-1,-2.9592195E-1,1.408035E-1,1.8046205E0,-4.2543977E-1,8.3065905E-2,-3.256909E-2,9.7995274E-2,2.1605055E-1,3.7270696E-3,-4.511271E-2,-2.6854603E-2,-2.090239E-2,5.594948E-2],"categories":[],"categories_nodes":[],"categories_segments":[],"categories_sizes":[],"default_left":[0,0,0,0,0,0,0,0,0,0,0,0,0,0,0],"id":33,"left_children":[1,3,5,7,9,11,13,-1,-1,-1,-1,-1,-1,-1,-1],"loss_changes":[6.820254E1,3.435647E1,2.7888317E1,1.2190151E1,1.3477432E1,1.2175598E0,2.0260618E1,0E0,0E0,0E0,0E0,0E0,0E0,0E0,0E0],"parents":[2147483647,0,0,1,1,2,2,3,3,4,4,5,5,6,6],"right_children":[2,4,6,8,10,12,14,-1,-1,-1,-1,-1,-1,-1,-1],"split_conditions":[1.0442E0,1E0,1E0,8E0,2.7E1,8.525E1,7.955E1,-3.256909E-2,9.7995274E-2,2.1605055E-1,3.7270696E-3,-4.511271E-2,-2.6854603E-2,-2.090239E-2,5.594948E-2],"split_indices":[0,42,42,4,4,6,6,0,0,0,0,0,0,0,0],"split_type":[0,0,0,0,0,0,0,0,0,0,0,0,0,0,0],"sum_hessian":[6.137406E2,5.0792164E1,5.629484E2,2.8489365E1,2.23028E1,4.204558E2,1.4249261E2,1.8320686E1,1.0168678E1,1.8143867E1,4.158932E0,3.569518E2,6.3503983E1,8.8033E1,5.4459618E1],"tree_param":{"num_deleted":"0","num_feature":"69","num_nodes":"15","size_leaf_vector":"1"}},{"base_weights":[-2.7172577E-1,-3.4582818E-1,1.0930736E0,-4.9499407E-1,-1.7951098E-1,1.5719932E0,-2.954741E-1,-5.0160106E-2,4.3529175E-2,-4.577413E-2,1.3145077E-4,-8.205558E-3,2.1415825E-1,-3.9658442E-2,-0E0],"categories":[],"categories_nodes":[],"categories_segments":[],"categories_sizes":[],"default_left":[0,0,0,0,0,0,0,0,0,0,0,0,0,0,0],"id":34,"left_children":[1,3,5,7,9,11,13,-1,-1,-1,-1,-1,-1,-1,-1],"loss_changes":[6.0261322E1,1.3621429E1,2.143621E1,2.0729828E0,1.38569765E1,2.302612E1,4.236241E-1,0E0,0E0,0E0,0E0,0E0,0E0,0E0,0E0],"parents":[2147483647,0,0,1,1,2,2,3,3,4,4,5,5,6,6],"right_children":[2,4,6,8,10,12,14,-1,-1,-1,-1,-1,-1,-1,-1],"split_conditions":[1.021E0,1E1,2.9E0,1.19E1,4.171E1,1.0777E0,1.139E1,-5.0160106E-2,4.3529175E-2,-4.577413E-2,1.3145077E-4,-8.205558E-3,2.1415825E-1,-3.9658442E-2,-0E0],"split_indices":[1,4,13,2,6,0,21,0,0,0,0,0,0,0,0],"split_type":[0,0,0,0,0,0,0,0,0,0,0,0,0,0,0],"sum_hessian":[5.948074E2,5.652309E2,2.9576508E1,2.953532E2,2.6987766E2,2.2161E1,7.4155073E0,2.9426163E2,1.0915862E0,1.06792786E2,1.6308488E2,5.6709776E0,1.6490023E1,6.3648605E0,1.0506469E0],"tree_param":{"num_deleted":"0","num_feature":"69","num_nodes":"15","size_leaf_vector":"1"}},{"base_weights":[6.7698324E-1,1.4237906E0,-2.1371812E-1,2.5564077E0,1.0260564E0,1.2917607E0,-2.7287662E-1,2.578952E-1,2.8358994E-2,3.9711364E-2,1.455134E-1,4.501796E-2,2.0984574E-1,-3.4153648E-2,4.9372073E-2],"categories":[],"categories_nodes":[],"categories_segments":[],"categories_sizes":[],"default_left":[0,0,0,0,0,0,0,0,0,0,0,0,0,0,0],"id":35,"left_children":[1,3,5,7,9,11,13,-1,-1,-1,-1,-1,-1,-1,-1],"loss_changes":[5.0184827E2,1.803128E2,3.0481995E1,3.2470703E0,8.093674E1,6.5130806E0,1.75754E1,0E0,0E0,0E0,0E0,0E0,0E0,0E0,0E0],"parents":[2147483647,0,0,1,1,2,2,3,3,4,4,5,5,6,6],"right_children":[2,4,6,8,10,12,14,-1,-1,-1,-1,-1,-1,-1,-1],"split_conditions":[3E1,1.28E1,1.56E1,3.96E0,1E0,1.02E1,1E0,2.578952E-1,2.8358994E-2,3.9711364E-2,1.455134E-1,4.501796E-2,2.0984574E-1,-3.4153648E-2,4.9372073E-2],"split_indices":[6,59,59,10,43,4,44,0,0,0,0,0,0,0,0],"split_type":[0,0,0,0,0,0,0,0,0,0,0,0,0,0,0],"sum_hessian":[7.520852E2,4.0906665E2,3.4301852E2,1.0457801E2,3.0448865E2,1.186209E1,3.3115646E2,1.03199684E2,1.3783292E0,1.24738075E2,1.7975058E2,6.871405E0,4.9906845E0,3.0504224E2,2.6114208E1],"tree_param":{"num_deleted":"0","num_feature":"69","num_nodes":"15","size_leaf_vector":"1"}},{"base_weights":[-1.6161895E-1,-3.570268E-1,2.2534826E0,2.8352827E-1,-4.333984E-1,2.579821E0,9.232453E-1,-1.8530285E-2,8.7836996E-2,-4.5185424E-2,8.640884E-2,2.6749137E-1,-0E0,-0E0,1.4521696E-1],"categories":[],"categories_nodes":[],"categories_segments":[],"categories_sizes":[],"default_left":[0,0,0,0,0,0,0,0,0,0,0,0,0,0,0],"id":36,"left_children":[1,3,5,7,9,11,13,-1,-1,-1,-1,-1,-1,-1,-1],"loss_changes":[2.9036835E2,2.8109673E1,1.5846146E1,1.7433613E1,1.2417786E1,8.174255E0,5.5001945E0,0E0,0E0,0E0,0E0,0E0,0E0,0E0,0E0],"parents":[2147483647,0,0,1,1,2,2,3,3,4,4,5,5,6,6],"right_children":[2,4,6,8,10,12,14,-1,-1,-1,-1,-1,-1,-1,-1],"split_conditions":[1E0,1.8721E1,1E0,1E0,1.887E1,6.536E1,5.37E0,-1.8530285E-2,8.7836996E-2,-4.5185424E-2,8.640884E-2,2.6749137E-1,-0E0,-0E0,1.4521696E-1],"split_indices":[39,3,66,43,11,5,2,0,0,0,0,0,0,0,0],"split_type":[0,0,0,0,0,0,0,0,0,0,0,0,0,0,0],"sum_hessian":[6.145831E2,5.6955884E2,4.5024277E1,5.968667E1,5.098722E2,3.5098537E1,9.925738E0,3.329375E1,2.6392918E1,5.037439E2,6.128298E0,3.3719994E1,1.378542E0,3.9013054E0,6.024433E0],"tree_param":{"num_deleted":"0","num_feature":"69","num_nodes":"15","size_leaf_vector":"1"}},{"base_weights":[-5.2627337E-1],"categories":[],"categories_nodes":[],"categories_segments":[],"categories_sizes":[],"default_left":[0],"id":37,"left_children":[-1],"loss_changes":[0E0],"parents":[2147483647],"right_children":[-1],"split_conditions":[-5.2627336E-2],"split_indices":[0],"split_type":[0],"sum_hessian":[5.7105475E2],"tree_param":{"num_deleted":"0","num_feature":"69","num_nodes":"1","size_leaf_vector":"1"}},{"base_weights":[7.3430114E-3,5.769055E-1,-1.9018143E-1,4.1392794E-1,2.4622347E0,-2.172864E-1,2.3375142E0,6.423414E-2,-3.8876526E-2,2.816349E-1,-0E0,4.844E-3,-3.944628E-2,1.9531766E-2,3.3353236E-1],"categories":[],"categories_nodes":[],"categories_segments":[],"categories_sizes":[],"default_left":[0,0,0,0,0,0,0,0,0,0,0,0,0,0,0],"id":38,"left_children":[1,3,5,7,9,11,13,-1,-1,-1,-1,-1,-1,-1,-1],"loss_changes":[7.151775E1,4.790314E1,3.1656263E1,2.8300741E1,1.0705383E1,2.2142437E1,8.007626E0,0E0,0E0,0E0,0E0,0E0,0E0,0E0,0E0],"parents":[2147483647,0,0,1,1,2,2,3,3,4,4,5,5,6,6],"right_children":[2,4,6,8,10,12,14,-1,-1,-1,-1,-1,-1,-1,-1],"split_conditions":[5.1E0,3.6E-1,1E0,2.667E1,1E0,5.5E0,5.4E0,6.423414E-2,-3.8876526E-2,2.816349E-1,-0E0,4.844E-3,-3.944628E-2,1.9531766E-2,3.3353236E-1],"split_indices":[4,16,33,9,28,2,7,0,0,0,0,0,0,0,0],"split_type":[0,0,0,0,0,0,0,0,0,0,0,0,0,0,0],"sum_hessian":[6.320052E2,1.6289822E2,4.6910696E2,1.5130353E2,1.1594696E1,4.6523004E2,3.8769019E0,1.18426796E2,3.2876728E1,9.976294E0,1.6184025E0,1.8526982E2,2.7996024E2,1.7711865E0,2.1057155E0],"tree_param":{"num_deleted":"0","num_feature":"69","num_nodes":"15","size_leaf_vector":"1"}},{"base_weights":[1.5418918E-1,-2.9194692E-1,5.586498E-1,-4.1661066E-1,-8.222654E-2,8.12199E-1,-1.978416E-1,-4.3168664E-2,8.1914954E-2,9.508038E-3,-3.0765578E-2,1.9754235E-2,1.2643926E-1,-3.3307448E-2,5.4542452E-2],"categories":[],"categories_nodes":[],"categories_segments":[],"categories_sizes":[],"default_left":[0,0,0,0,0,0,0,0,0,0,0,0,0,0,0],"id":39,"left_children":[1,3,5,7,9,11,13,-1,-1,-1,-1,-1,-1,-1,-1],"loss_changes":[1.1654857E2,7.727356E0,6.546022E1,3.7077713E0,4.8111286E0,6.974844E1,8.656164E0,0E0,0E0,0E0,0E0,0E0,0E0,0E0,0E0],"parents":[2147483647,0,0,1,1,2,2,3,3,4,4,5,5,6,6],"right_children":[2,4,6,8,10,12,14,-1,-1,-1,-1,-1,-1,-1,-1],"split_conditions":[1E1,6.299E1,1.0685E0,3.333E1,5.76E0,4.545E1,1.241E1,-4.3168664E-2,8.1914954E-2,9.508038E-3,-3.0765578E-2,1.9754235E-2,1.2643926E-1,-3.3307448E-2,5.4542452E-2],"split_indices":[4,6,0,12,2,6,12,0,0,0,0,0,0,0,0],"split_type":[0,0,0,0,0,0,0,0,0,0,0,0,0,0,0],"sum_hessian":[6.432543E2,3.054133E2,3.37841E2,1.8943633E2,1.1597697E2,2.5347308E2,8.436792E1,1.8819566E2,1.2406621E0,6.399959E1,5.1977375E1,1.0851441E2,1.4495868E2,7.241671E1,1.1951209E1],"tree_param":{"num_deleted":"0","num_feature":"69","num_nodes":"15","size_leaf_vector":"1"}},{"base_weights":[-3.679084E-1,-4.4134006E-1,2.3827083E0,-4.4815248E-1,1.3749994E-1,2.604158E0,2.0934822E-2,-4.531788E-2,6.7018084E-2,6.150971E-2,2.7764383E-1],"categories":[],"categories_nodes":[],"categories_segments":[],"categories_sizes":[],"default_left":[0,0,0,0,0,0,0,0,0,0,0],"id":40,"left_children":[1,3,5,7,-1,9,-1,-1,-1,-1,-1],"loss_changes":[1.1866252E2,7.241005E0,5.385277E0,3.4089432E0,0E0,1.2359314E0,0E0,0E0,0E0,0E0,0E0],"parents":[2147483647,0,0,1,1,2,2,3,3,5,5],"right_children":[2,4,6,8,-1,10,-1,-1,-1,-1,-1],"split_conditions":[1E0,2.22E1,1.0706E0,2.198E1,1.3749994E-1,2.1E1,2.0934822E-2,-4.531788E-2,6.7018084E-2,6.150971E-2,2.7764383E-1],"split_indices":[25,59,0,18,0,3,0,0,0,0,0],"split_type":[0,0,0,0,0,0,0,0,0,0,0],"sum_hessian":[5.86089E2,5.718441E2,1.4244877E1,5.70732E2,1.1120647E0,1.253897E1,1.7059064E0,5.692156E2,1.5164478E0,1.5951186E0,1.0943851E1],"tree_param":{"num_deleted":"0","num_feature":"69","num_nodes":"11","size_leaf_vector":"1"}},{"base_weights":[-4.4981506E-1,5.308332E-1,-4.8399803E-1,1.5073873E0,-1.277798E-1,-5.0313216E-1,-2.1406744E-1,-0E0,2.2352473E-1,-3.2995265E-2,3.4788202E-2,-5.0688814E-2,4.0826004E-2,-3.884273E-2,6.2244203E-2],"categories":[],"categories_nodes":[],"categories_segments":[],"categories_sizes":[],"default_left":[0,0,0,0,0,0,0,0,0,0,0,0,0,0,0],"id":41,"left_children":[1,3,5,7,9,11,13,-1,-1,-1,-1,-1,-1,-1,-1],"loss_changes":[1.9771225E1,1.3499073E1,2.447876E0,8.117243E0,1.2916739E0,2.0513763E0,6.0782514E0,0E0,0E0,0E0,0E0,0E0,0E0,0E0,0E0],"parents":[2147483647,0,0,1,1,2,2,3,3,4,4,5,5,6,6],"right_children":[2,4,6,8,10,12,14,-1,-1,-1,-1,-1,-1,-1,-1],"split_conditions":[1.2E1,1.0077E0,1.849E1,1.091E1,3.95E0,2.11E1,7.78E0,-0E0,2.2352473E-1,-3.2995265E-2,3.4788202E-2,-5.0688814E-2,4.0826004E-2,-3.884273E-2,6.2244203E-2],"split_indices":[3,1,21,9,21,59,9,0,0,0,0,0,0,0,0],"split_type":[0,0,0,0,0,0,0,0,0,0,0,0,0,0,0],"sum_hessian":[5.8184204E2,1.8616325E1,5.632257E2,7.2849927E0,1.1331333E1,5.234075E2,3.9818207E1,2.8925269E0,4.392466E0,8.904223E0,2.4271095E0,5.222477E2,1.159825E0,3.3888046E1,5.9301577E0],"tree_param":{"num_deleted":"0","num_feature":"69","num_nodes":"15","size_leaf_vector":"1"}},{"base_weights":[-1.2804389E-1,9.6740645E-1,-1.566004E-1,1.514913E-1,1.4670868E0,-1.7007339E-1,2.0509098E-1,-1.5908232E-2,8.457962E-2,2.1801017E-1,5.4615915E-2,-1.9074699E-2,1.1939502E-1],"categories":[],"categories_nodes":[],"categories_segments":[],"categories_sizes":[],"default_left":[0,0,0,0,0,0,0,0,0,0,0,0,0],"id":42,"left_children":[1,3,5,7,9,11,-1,-1,-1,-1,-1,-1,-1],"loss_changes":[1.8914974E1,5.190958E0,1.7209095E1,2.05033E0,3.3364925E0,1.6533682E1,0E0,0E0,0E0,0E0,0E0,0E0,0E0],"parents":[2147483647,0,0,1,1,2,2,3,3,4,4,5,5],"right_children":[2,4,6,8,10,12,-1,-1,-1,-1,-1,-1,-1],"split_conditions":[9.8E0,2.5E0,1E0,8.2E-1,7.692E1,1.038E1,2.0509098E-1,-1.5908232E-2,8.457962E-2,2.1801017E-1,5.4615915E-2,-1.9074699E-2,1.1939502E-1],"split_indices":[3,4,55,12,22,15,0,0,0,0,0,0,0],"split_type":[0,0,0,0,0,0,0,0,0,0,0,0,0],"sum_hessian":[6.117719E2,1.4262568E1,5.9750934E2,6.292129E0,7.970439E0,5.9502716E2,2.4821413E0,4.3824987E0,1.9096304E0,3.4156795E0,4.55476E0,5.873518E2,7.6753836E0],"tree_param":{"num_deleted":"0","num_feature":"69","num_nodes":"13","size_leaf_vector":"1"}},{"base_weights":[2.745219E-1,-3.2460523E-1,2.1027372E0,2.4756372E0,-4.4845694E-1,2.261214E0,1.14996076E-1,2.5843474E-1,-0E0,-4.836753E-2,6.63665E-2,1.7067371E-1,2.6362875E-1,-1.3244644E-2,1.506505E-1],"categories":[],"categories_nodes":[],"categories_segments":[],"categories_sizes":[],"default_left":[0,0,0,0,0,0,0,0,0,0,0,0,0,0,0],"id":43,"left_children":[1,3,5,7,9,11,13,-1,-1,-1,-1,-1,-1,-1,-1],"loss_changes":[7.4117773E2,1.7670514E2,5.115985E1,4.768799E0,1.937114E1,2.5436523E1,5.5755286E0,0E0,0E0,0E0,0E0,0E0,0E0,0E0,0E0],"parents":[2147483647,0,0,1,1,2,2,3,3,4,4,5,5,6,6],"right_children":[2,4,6,8,10,12,14,-1,-1,-1,-1,-1,-1,-1,-1],"split_conditions":[2.5E1,8E-1,2.678E1,7.78E0,3.02E0,3.12E0,3.571E1,2.5843474E-1,-0E0,-4.836753E-2,6.63665E-2,1.7067371E-1,2.6362875E-1,-1.3244644E-2,1.506505E-1],"split_indices":[4,4,7,9,13,13,6,0,0,0,0,0,0,0,0],"split_type":[0,0,0,0,0,0,0,0,0,0,0,0,0,0,0],"sum_hessian":[6.7423376E2,5.0822995E2,1.6600381E2,2.0551105E1,4.8767883E2,1.5338571E2,1.2618114E1,1.9490166E1,1.0609407E0,4.7369275E2,1.3986085E1,6.466859E1,8.8717125E1,1.1176219E1,1.4418948E0],"tree_param":{"num_deleted":"0","num_feature":"69","num_nodes":"15","size_leaf_vector":"1"}},{"base_weights":[-5.280073E-1],"categories":[],"categories_nodes":[],"categories_segments":[],"categories_sizes":[],"default_left":[0],"id":44,"left_children":[-1],"loss_changes":[0E0],"parents":[2147483647],"right_children":[-1],"split_conditions":[-5.2800734E-2],"split_indices":[0],"split_type":[0],"sum_hessian":[5.7077576E2],"tree_param":{"num_deleted":"0","num_feature":"69","num_nodes":"1","size_leaf_vector":"1"}},{"base_weights":[9.623962E-1,3.5951656E-1,1.4463775E0,-4.6877984E-2,7.963878E-1,1.604994E0,1.1989429E-1,-1.2583534E-2,1.01675764E-1,1.227204E-1,-2.386777E-2,-1.7445153E-2,1.6724814E-1,-0E0,1.3793808E-1],"categories":[],"categories_nodes":[],"categories_segments":[],"categories_sizes":[],"default_left":[0,0,0,0,0,0,0,0,0,0,0,0,0,0,0],"id":45,"left_children":[1,3,5,7,9,11,13,-1,-1,-1,-1,-1,-1,-1,-1],"loss_changes":[2.720326E2,7.4824066E1,1.08157715E2,1.7947428E1,9.114732E1,5.6667725E1,9.032463E0,0E0,0E0,0E0,0E0,0E0,0E0,0E0,0E0],"parents":[2147483647,0,0,1,1,2,2,3,3,4,4,5,5,6,6],"right_children":[2,4,6,8,10,12,14,-1,-1,-1,-1,-1,-1,-1,-1],"split_conditions":[1E0,1.429E1,1E0,1E0,1.6E1,1.44E1,5E0,-1.2583534E-2,1.01675764E-1,1.227204E-1,-2.386777E-2,-1.7445153E-2,1.6724814E-1,-0E0,1.3793808E-1],"split_indices":[41,6,50,28,4,59,65,0,0,0,0,0,0,0,0],"split_type":[0,0,0,0,0,0,0,0,0,0,0,0,0,0,0],"sum_hessian":[9.361894E2,4.1812308E2,5.180663E2,2.1648683E2,2.0163626E2,4.6220987E2,5.5856438E1,2.0278516E2,1.3701669E1,1.4258626E2,5.904999E1,1.6560648E1,4.456492E2,5.1679688E1,4.1767483E0],"tree_param":{"num_deleted":"0","num_feature":"69","num_nodes":"15","size_leaf_vector":"1"}},{"base_weights":[-1.9915089E-1,-3.6304468E-1,1.3279207E0,-3.817465E-1,1.5456574E-1,9.872627E-1,2.1990914E0,-4.2491015E-2,-0E0,6.256523E-2,1.4708023E-1,2.315406E-1,3.19015E-2],"categories":[],"categories_nodes":[],"categories_segments":[],"categories_sizes":[],"default_left":[0,0,0,0,0,0,0,0,0,0,0,0,0],"id":46,"left_children":[1,3,5,7,-1,9,11,-1,-1,-1,-1,-1,-1],"loss_changes":[1.4895404E2,1.9232414E1,1.3330795E1,8.61969E0,0E0,5.661766E0,1.2168503E0,0E0,0E0,0E0,0E0,0E0,0E0],"parents":[2147483647,0,0,1,1,2,2,3,3,5,5,6,6],"right_children":[2,4,6,8,-1,10,12,-1,-1,-1,-1,-1,-1],"split_conditions":[1E0,1E0,3.03E1,2.727E1,1.5456574E-1,7.083E1,5.975E1,-4.2491015E-2,-0E0,6.256523E-2,1.4708023E-1,2.315406E-1,3.19015E-2],"split_indices":[23,38,9,9,0,5,9,0,0,0,0,0,0],"split_type":[0,0,0,0,0,0,0,0,0,0,0,0,0],"sum_hessian":[5.941568E2,5.375533E2,5.6603508E1,5.33389E2,4.1642933E0,4.2637836E1,1.39656725E1,4.7807544E2,5.5313545E1,2.6298609E1,1.633923E1,1.2683488E1,1.2821842E0],"tree_param":{"num_deleted":"0","num_feature":"69","num_nodes":"13","size_leaf_vector":"1"}},{"base_weights":[-2.2722031E-1,-3.4499404E-1,1.8921092E0,-4.551719E-1,3.3550185E-1,-2.4744738E-2,2.114279E0,-4.8035685E-2,5.6128252E-2,-6.130785E-4,1.736132E-1,2.3794983E-1,7.108175E-2],"categories":[],"categories_nodes":[],"categories_segments":[],"categories_sizes":[],"default_left":[0,0,0,0,0,0,0,0,0,0,0,0,0],"id":47,"left_children":[1,3,5,7,9,-1,11,-1,-1,-1,-1,-1,-1],"loss_changes":[1.4828734E2,4.252485E1,1.6302948E1,1.2690018E1,3.8477867E1,0E0,7.413246E0,0E0,0E0,0E0,0E0,0E0,0E0],"parents":[2147483647,0,0,1,1,2,2,3,3,4,4,6,6],"right_children":[2,4,6,8,10,-1,12,-1,-1,-1,-1,-1,-1],"split_conditions":[1E0,7.74E0,1.0586E0,3.7E0,1E0,-2.4744738E-2,6.66E0,-4.8035685E-2,5.6128252E-2,-6.130785E-4,1.736132E-1,2.3794983E-1,7.108175E-2],"split_indices":[24,2,0,18,44,0,19,0,0,0,0,0,0],"split_type":[0,0,0,0,0,0,0,0,0,0,0,0,0],"sum_hessian":[5.935807E2,5.633479E2,3.0232792E1,4.8576453E2,7.758338E1,2.6216161E0,2.7611176E1,4.7501428E2,1.0750224E1,6.288381E1,1.4699571E1,2.2338118E1,5.2730584E0],"tree_param":{"num_deleted":"0","num_feature":"69","num_nodes":"13","size_leaf_vector":"1"}},{"base_weights":[-1.8212162E-1,-3.972835E-1,3.5747904E-1,-1.01866215E-1,-4.3411535E-1,1.3865958E0,1.4476032E-2,-3.835186E-2,1.8992832E-2,-4.3853577E-2,-0E0,1.7301326E-1,-0E0,3.341177E-2,-3.1723026E-2],"categories":[],"categories_nodes":[],"categories_segments":[],"categories_sizes":[],"default_left":[0,0,0,0,0,0,0,0,0,0,0,0,0,0,0],"id":48,"left_children":[1,3,5,7,9,11,13,-1,-1,-1,-1,-1,-1,-1,-1],"loss_changes":[7.028102E1,4.398239E0,6.0005127E1,4.3448353E0,8.362045E-1,2.1082108E1,1.3940651E1,0E0,0E0,0E0,0E0,0E0,0E0,0E0,0E0],"parents":[2147483647,0,0,1,1,2,2,3,3,4,4,5,5,6,6],"right_children":[2,4,6,8,10,12,14,-1,-1,-1,-1,-1,-1,-1,-1],"split_conditions":[1E0,4.57E0,4.72E0,7E0,1.98E1,1.0121E0,6.16E0,-3.835186E-2,1.8992832E-2,-4.3853577E-2,-0E0,1.7301326E-1,-0E0,3.341177E-2,-3.1723026E-2],"split_indices":[42,2,2,4,19,1,2,0,0,0,0,0,0,0,0],"split_type":[0,0,0,0,0,0,0,0,0,0,0,0,0,0,0],"sum_hessian":[6.029466E2,4.3191425E2,1.7103235E2,4.980268E1,3.8211154E2,4.1629757E1,1.2940259E2,2.6053724E1,2.3748959E1,3.7877515E2,3.3363986E0,3.3424255E1,8.205502E0,6.6663666E1,6.2738922E1],"tree_param":{"num_deleted":"0","num_feature":"69","num_nodes":"15","size_leaf_vector":"1"}},{"base_weights":[-2.732358E-1,-3.775609E-1,5.3179777E-1,-5.011936E-1,-2.3532906E-1,-1.9346671E-1,9.156869E-1,-5.0814282E-2,-0E0,-4.604173E-2,-7.6640337E-3,-3.8539123E-2,6.8278976E-2,2.0457903E-1,5.2417852E-2],"categories":[],"categories_nodes":[],"categories_segments":[],"categories_sizes":[],"default_left":[0,0,0,0,0,0,0,0,0,0,0,0,0,0,0],"id":49,"left_children":[1,3,5,7,9,11,13,-1,-1,-1,-1,-1,-1,-1,-1],"loss_changes":[4.9287735E1,8.646584E0,1.919902E1,8.888626E-1,8.457408E0,4.0787115E0,1.7309868E1,0E0,0E0,0E0,0E0,0E0,0E0,0E0,0E0],"parents":[2147483647,0,0,1,1,2,2,3,3,4,4,5,5,6,6],"right_children":[2,4,6,8,10,12,14,-1,-1,-1,-1,-1,-1,-1,-1],"split_conditions":[1.079E0,1E1,4.545E1,1.076E0,4.171E1,7.69E0,7.59E1,-5.0814282E-2,-0E0,-4.604173E-2,-7.6640337E-3,-3.8539123E-2,6.8278976E-2,2.0457903E-1,5.2417852E-2],"split_indices":[0,4,6,0,6,19,60,0,0,0,0,0,0,0,0],"split_type":[0,0,0,0,0,0,0,0,0,0,0,0,0,0,0],"sum_hessian":[5.843895E2,5.18366E2,6.6023476E1,2.7408395E2,2.4428207E2,2.2572273E1,4.3451202E1,2.700538E2,4.030148E0,9.891965E1,1.4536243E2,1.9444239E1,3.1280353E0,9.76414E0,3.368706E1],"tree_param":{"num_deleted":"0","num_feature":"69","num_nodes":"15","size_leaf_vector":"1"}},{"base_weights":[5.6318957E-1,1.1321274E0,-1.7473307E-1,2.0146616E0,8.0825424E-1,1.5414188E0,-2.6532257E-1,2.0375128E-1,-0E0,6.1883558E-2,1.845632E-1,1.7515004E-1,-1.5158174E-2,-4.0702388E-2,1.28153665E-2],"categories":[],"categories_nodes":[],"categories_segments":[],"categories_sizes":[],"default_left":[0,0,0,0,0,0,0,0,0,0,0,0,0,0,0],"id":50,"left_children":[1,3,5,7,9,11,13,-1,-1,-1,-1,-1,-1,-1,-1],"loss_changes":[3.2796173E2,1.2292456E2,5.2607944E1,5.0687256E0,6.138408E1,7.080082E0,1.8253948E1,0E0,0E0,0E0,0E0,0E0,0E0,0E0,0E0],"parents":[2147483647,0,0,1,1,2,2,3,3,4,4,5,5,6,6],"right_children":[2,4,6,8,10,12,14,-1,-1,-1,-1,-1,-1,-1,-1],"split_conditions":[2.856E1,1.44E1,1.56E1,2.4E-1,2.827E1,1.96E0,1E0,2.0375128E-1,-0E0,6.1883558E-2,1.845632E-1,1.7515004E-1,-1.5158174E-2,-4.0702388E-2,1.28153665E-2],"split_indices":[6,59,59,18,7,17,43,0,0,0,0,0,0,0,0],"split_type":[0,0,0,0,0,0,0,0,0,0,0,0,0,0,0],"sum_hessian":[7.78562E2,4.3969827E2,3.3886374E2,1.1622582E2,3.2347244E2,1.5910777E1,3.2295294E2,1.1483209E2,1.3937271E0,2.7528555E2,4.8186897E1,1.4386376E1,1.524401E0,2.3835223E2,8.460072E1],"tree_param":{"num_deleted":"0","num_feature":"69","num_nodes":"15","size_leaf_vector":"1"}},{"base_weights":[-1.4203522E-1,-4.6905142E-1,1.5351237E0,-4.852407E-1,-2.075087E-2,1.8267616E0,5.411289E-1,-3.2624032E-2,-5.1338095E-2,-2.2051584E-2,5.943207E-2,2.035673E-1,3.5977513E-2,1.2968592E-2,1.774128E-1],"categories":[],"categories_nodes":[],"categories_segments":[],"categories_sizes":[],"default_left":[0,0,0,0,0,0,0,0,0,0,0,0,0,0,0],"id":51,"left_children":[1,3,5,7,9,11,13,-1,-1,-1,-1,-1,-1,-1,-1],"loss_changes":[3.2804987E2,3.3749466E0,2.6098572E1,1.5723267E0,2.3514402E0,2.0930084E1,1.0959251E1,0E0,0E0,0E0,0E0,0E0,0E0,0E0,0E0],"parents":[2147483647,0,0,1,1,2,2,3,3,4,4,5,5,6,6],"right_children":[2,4,6,8,10,12,14,-1,-1,-1,-1,-1,-1,-1,-1],"split_conditions":[3.468E1,1.818E1,1E0,7E1,1.22E1,4.314E1,1.32E1,-3.2624032E-2,-5.1338095E-2,-2.2051584E-2,5.943207E-2,2.035673E-1,3.5977513E-2,1.2968592E-2,1.774128E-1],"split_indices":[9,9,66,22,4,6,4,0,0,0,0,0,0,0,0],"split_type":[0,0,0,0,0,0,0,0,0,0,0,0,0,0,0],"sum_hessian":[5.9679004E2,5.002656E2,9.652446E1,4.8167343E2,1.8592175E1,7.359182E1,2.293264E1,7.699443E1,4.0467902E2,1.5131961E1,3.4602146E0,6.3780453E1,9.811364E0,1.832756E1,4.605081E0],"tree_param":{"num_deleted":"0","num_feature":"69","num_nodes":"15","size_leaf_vector":"1"}},{"base_weights":[-5.223969E-1,-5.2602906E-2,-0E0,4.4681657E-2,-2.0026919E-2],"categories":[],"categories_nodes":[],"categories_segments":[],"categories_sizes":[],"default_left":[0,0,0,0,0],"id":52,"left_children":[1,-1,3,-1,-1],"loss_changes":[1.1935577E0,0E0,5.388895E-1,0E0,0E0],"parents":[2147483647,0,0,2,2],"right_children":[2,-1,4,-1,-1],"split_conditions":[1.25E1,-5.2602906E-2,1E-1,4.4681657E-2,-2.0026919E-2],"split_indices":[13,0,2,0,0],"split_type":[0,0,0,0,0],"sum_hessian":[5.440406E2,5.4085315E2,3.1874115E0,1.0737104E0,2.113701E0],"tree_param":{"num_deleted":"0","num_feature":"69","num_nodes":"5","size_leaf_vector":"1"}},{"base_weights":[1.0431305E-2,3.9087853E-1,-2.4062872E-1,3.3065286E-1,2.653171E0,-2.8944018E-1,1.21118E0,5.0296552E-2,-2.9469727E-2,3.199866E-1,1.0068792E-1,-7.6293196E-3,-4.0644396E-2,1.6667323E-1,-3.2445514E-3],"categories":[],"categories_nodes":[],"categories_segments":[],"categories_sizes":[],"default_left":[0,0,0,0,0,0,0,0,0,0,0,0,0,0,0],"id":53,"left_children":[1,3,5,7,9,11,13,-1,-1,-1,-1,-1,-1,-1,-1],"loss_changes":[6.126139E1,3.2435837E1,2.718364E1,2.7211416E1,3.1477737E-1,9.048996E0,7.889366E0,0E0,0E0,0E0,0E0,0E0,0E0,0E0,0E0],"parents":[2147483647,0,0,1,1,2,2,3,3,4,4,5,5,6,6],"right_children":[2,4,6,8,10,12,14,-1,-1,-1,-1,-1,-1,-1,-1],"split_conditions":[1.0526E0,4.76E0,4E0,1E0,7.992E1,1.0581E0,6.1E0,5.0296552E-2,-2.9469727E-2,3.199866E-1,1.0068792E-1,-7.6293196E-3,-4.0644396E-2,1.6667323E-1,-3.2445514E-3],"split_indices":[0,17,16,42,22,0,4,0,0,0,0,0,0,0,0],"split_type":[0,0,0,0,0,0,0,0,0,0,0,0,0,0,0],"sum_hessian":[6.386079E2,2.5445331E2,3.8415463E2,2.4918674E2,5.2665586E0,3.727668E2,1.1387811E1,1.9613719E2,5.3049545E1,3.0172172E0,2.2493415E0,1.3420663E2,2.3856018E2,8.379973E0,3.007837E0],"tree_param":{"num_deleted":"0","num_feature":"69","num_nodes":"15","size_leaf_vector":"1"}},{"base_weights":[1.5054148E-1,-3.225252E-1,4.879333E-1,-4.4471803E-1,-1.07102334E-1,7.722104E-1,-5.395433E-2,-4.7158264E-2,2.7919784E-2,2.8645827E-2,-3.8658872E-2,9.802026E-2,-2.9580671E-2,2.6072849E-2,-3.0039817E-2],"categories":[],"categories_nodes":[],"categories_segments":[],"categories_sizes":[],"default_left":[0,0,0,0,0,0,0,0,0,0,0,0,0,0,0],"id":54,"left_children":[1,3,5,7,9,11,13,-1,-1,-1,-1,-1,-1,-1,-1],"loss_changes":[1.06193344E2,6.9504967E0,6.024695E1,3.6219444E0,1.1469619E1,5.738585E1,1.0490666E1,0E0,0E0,0E0,0E0,0E0,0E0,0E0,0E0],"parents":[2147483647,0,0,1,1,2,2,3,3,4,4,5,5,6,6],"right_children":[2,4,6,8,10,12,14,-1,-1,-1,-1,-1,-1,-1,-1],"split_conditions":[9E0,6.364E1,1.0633E0,6.64E0,3.433E1,2.93E1,7.21E0,-4.7158264E-2,2.7919784E-2,2.8645827E-2,-3.8658872E-2,9.802026E-2,-2.9580671E-2,2.6072849E-2,-3.0039817E-2],"split_indices":[4,6,0,20,3,4,2,0,0,0,0,0,0,0,0],"split_type":[0,0,0,0,0,0,0,0,0,0,0,0,0,0,0],"sum_hessian":[6.6283093E2,2.7533624E2,3.874947E2,1.73524E2,1.01812225E2,2.5448708E2,1.330076E2,1.68317E2,5.207004E0,4.1524826E1,6.02874E1,2.1346582E2,4.1021263E1,5.749971E1,7.550789E1],"tree_param":{"num_deleted":"0","num_feature":"69","num_nodes":"15","size_leaf_vector":"1"}},{"base_weights":[-3.449538E-1,-4.2838153E-1,2.1867523E0,9.392845E-2,-4.6242562E-1,2.3112948E-1,2.6919385E-2,-9.429354E-4,1.9614618E-1,-4.7710847E-2,-1.740718E-2],"categories":[],"categories_nodes":[],"categories_segments":[],"categories_sizes":[],"default_left":[0,0,0,0,0,0,0,0,0,0,0],"id":55,"left_children":[1,3,5,7,9,-1,-1,-1,-1,-1,-1],"loss_changes":[1.1939884E2,9.972458E0,2.3857956E0,7.4544444E0,1.7741623E0,0E0,0E0,0E0,0E0,0E0,0E0],"parents":[2147483647,0,0,1,1,2,2,3,3,4,4],"right_children":[2,4,6,8,10,-1,-1,-1,-1,-1,-1],"split_conditions":[1E0,1.007E0,1.0145E0,2.11E1,1E0,2.3112948E-1,2.6919385E-2,-9.429354E-4,1.9614618E-1,-4.7710847E-2,-1.740718E-2],"split_indices":[25,1,1,59,23,0,0,0,0,0,0],"split_type":[0,0,0,0,0,0,0,0,0,0,0],"sum_hessian":[5.640242E2,5.4702625E2,1.6997953E1,3.2466976E1,5.1455927E2,1.5523637E1,1.4743161E0,3.1453417E1,1.0135574E0,4.8735477E2,2.7204472E1],"tree_param":{"num_deleted":"0","num_feature":"69","num_nodes":"11","size_leaf_vector":"1"}},{"base_weights":[-4.464492E-1,1.3297372E-1,-4.758603E-1,-2.4194841E-1,1.2672386E0,-5.029176E-1,-3.3687687E-1,4.2129528E-2,-4.691069E-2,1.4133228E-1,-0E0,-5.0721E-2,-6.4553105E-4,-3.8233846E-2,3.1282593E-2],"categories":[],"categories_nodes":[],"categories_segments":[],"categories_sizes":[],"default_left":[0,0,0,0,0,0,0,0,0,0,0,0,0,0,0],"id":56,"left_children":[1,3,5,7,9,11,13,-1,-1,-1,-1,-1,-1,-1,-1],"loss_changes":[9.747574E0,1.2269979E1,1.4123764E0,3.3470867E0,7.3707485E-1,6.7865753E-1,2.894765E0,0E0,0E0,0E0,0E0,0E0,0E0,0E0,0E0],"parents":[2147483647,0,0,1,1,2,2,3,3,4,4,5,5,6,6],"right_children":[2,4,6,8,10,12,14,-1,-1,-1,-1,-1,-1,-1,-1],"split_conditions":[3.41E0,2.039E1,1.042E1,1.515E1,3.9E-1,1.868E1,1.849E1,4.2129528E-2,-4.691069E-2,1.4133228E-1,-0E0,-5.0721E-2,-6.4553105E-4,-3.8233846E-2,3.1282593E-2],"split_indices":[2,9,9,22,10,19,21,0,0,0,0,0,0,0,0],"split_type":[0,0,0,0,0,0,0,0,0,0,0,0,0,0,0],"sum_hessian":[5.5721814E2,2.592635E1,5.312918E2,1.9745508E1,6.1808414E0,4.3951166E2,9.178014E1,4.257877E0,1.5487632E1,5.142106E0,1.0387354E0,4.3472418E2,4.787449E0,8.688187E1,4.898276E0],"tree_param":{"num_deleted":"0","num_feature":"69","num_nodes":"15","size_leaf_vector":"1"}},{"base_weights":[-9.577513E-2,-1.1300127E-1,2.0962646E0,-1.3757133E-1,7.3597616E-1,2.604094E-1,-0E0,-1.599936E-2,7.577231E-2,1.1522984E-1,-1.7601276E-2],"categories":[],"categories_nodes":[],"categories_segments":[],"categories_sizes":[],"default_left":[0,0,0,0,0,0,0,0,0,0,0],"id":57,"left_children":[1,3,5,7,9,-1,-1,-1,-1,-1,-1],"loss_changes":[2.2084549E1,1.2344965E1,3.7410717E0,1.1582196E1,6.954913E0,0E0,0E0,0E0,0E0,0E0,0E0],"parents":[2147483647,0,0,1,1,2,2,3,3,4,4],"right_children":[2,4,6,8,10,-1,-1,-1,-1,-1,-1],"split_conditions":[1E0,1.1E0,2.8311E1,7.69E0,1E0,2.604094E-1,-0E0,-1.599936E-2,7.577231E-2,1.1522984E-1,-1.7601276E-2],"split_indices":[55,15,3,11,66,0,0,0,0,0,0],"split_type":[0,0,0,0,0,0,0,0,0,0,0],"sum_hessian":[6.038478E2,6.003068E2,3.5409658E0,5.848089E2,1.5497922E1,2.4942465E0,1.0467192E0,5.718666E2,1.2942372E1,1.0836033E1,4.6618886E0],"tree_param":{"num_deleted":"0","num_feature":"69","num_nodes":"11","size_leaf_vector":"1"}},{"base_weights":[2.7785656E-1,-3.0104E-1,1.7074081E0,1.980933E0,-4.443177E-1,1.0364664E0,2.0083E0,2.0743035E-1,-2.9845133E-3,-4.8563953E-2,6.1651863E-2,2.8898392E-4,1.6975026E-1,2.0644613E-1,-9.13952E-3],"categories":[],"categories_nodes":[],"categories_segments":[],"categories_sizes":[],"default_left":[0,0,0,0,0,0,0,0,0,0,0,0,0,0,0],"id":58,"left_children":[1,3,5,7,9,11,13,-1,-1,-1,-1,-1,-1,-1,-1],"loss_changes":[5.6954346E2,1.6012622E2,3.6437317E1,6.508156E0,2.0464867E1,4.2864716E1,1.7135925E1,0E0,0E0,0E0,0E0,0E0,0E0,0E0,0E0],"parents":[2147483647,0,0,1,1,2,2,3,3,4,4,5,5,6,6],"right_children":[2,4,6,8,10,12,14,-1,-1,-1,-1,-1,-1,-1,-1],"split_conditions":[2.5E1,8E-1,3.5E1,1E0,2.79E0,6.154E1,1E0,2.0743035E-1,-2.9845133E-3,-4.8563953E-2,6.1651863E-2,2.8898392E-4,1.6975026E-1,2.0644613E-1,-9.13952E-3],"split_indices":[4,4,4,66,13,6,23,0,0,0,0,0,0,0,0],"split_type":[0,0,0,0,0,0,0,0,0,0,0,0,0,0,0],"sum_hessian":[6.8574725E2,4.884067E2,1.9734055E2,2.7889954E1,4.6051675E2,6.298975E1,1.343508E2,2.6859785E1,1.0301673E0,4.442267E2,1.629004E1,2.5257944E1,3.7731804E1,1.3109917E2,3.2516391E0],"tree_param":{"num_deleted":"0","num_feature":"69","num_nodes":"15","size_leaf_vector":"1"}},{"base_weights":[-5.2787685E-1],"categories":[],"categories_nodes":[],"categories_segments":[],"categories_sizes":[],"default_left":[0],"id":59,"left_children":[-1],"loss_changes":[0E0],"parents":[2147483647],"right_children":[-1],"split_conditions":[-5.2787688E-2],"split_indices":[0],"split_type":[0],"sum_hessian":[5.417186E2],"tree_param":{"num_deleted":"0","num_feature":"69","num_nodes":"1","size_leaf_vector":"1"}},{"base_weights":[8.5183614E-1,3.1940046E-1,1.2435293E0,-5.1630232E-2,6.9223654E-1,1.3716897E0,-5.418E-2,-1.4008972E-2,9.5677264E-2,9.993302E-2,-2.4434468E-2,1.1855265E-1,1.8834126E-1,-3.0255118E-2,5.0109703E-2],"categories":[],"categories_nodes":[],"categories_segments":[],"categories_sizes":[],"default_left":[0,0,0,0,0,0,0,0,0,0,0,0,0,0,0],"id":60,"left_children":[1,3,5,7,9,11,13,-1,-1,-1,-1,-1,-1,-1,-1],"loss_changes":[2.1114465E2,6.031038E1,9.814075E1,1.912608E1,6.3011078E1,4.7049255E1,7.3968215E0,0E0,0E0,0E0,0E0,0E0,0E0,0E0,0E0],"parents":[2147483647,0,0,1,1,2,2,3,3,4,4,5,5,6,6],"right_children":[2,4,6,8,10,12,14,-1,-1,-1,-1,-1,-1,-1,-1],"split_conditions":[1E0,1.429E1,1E0,1E0,2.5E-1,1E0,8.518E1,-1.4008972E-2,9.5677264E-2,9.993302E-2,-2.4434468E-2,1.1855265E-1,1.8834126E-1,-3.0255118E-2,5.0109703E-2],"split_indices":[41,6,13,28,13,28,22,0,0,0,0,0,0,0,0],"split_type":[0,0,0,0,0,0,0,0,0,0,0,0,0,0,0],"sum_hessian":[1.0170863E3,4.3240384E2,5.846825E2,2.164863E2,2.1591754E2,5.324287E2,5.225379E1,2.0027464E2,1.6211655E1,1.6295383E2,5.296372E1,3.935502E2,1.3887851E2,3.7041153E1,1.521264E1],"tree_param":{"num_deleted":"0","num_feature":"69","num_nodes":"15","size_leaf_vector":"1"}},{"base_weights":[-2.0201351E-1,-2.7367523E-1,1.724718E0,-3.2766703E-1,8.331175E-1,-0E0,1.839085E-1,-4.1482013E-2,-2.329245E-3,1.79281E-1,1.6893718E-2],"categories":[],"categories_nodes":[],"categories_segments":[],"categories_sizes":[],"default_left":[0,0,0,0,0,0,0,0,0,0,0],"id":61,"left_children":[1,3,5,7,9,-1,-1,-1,-1,-1,-1],"loss_changes":[7.9965294E1,3.356037E1,3.7113419E0,1.3998085E1,1.5262058E1,0E0,0E0,0E0,0E0,0E0,0E0],"parents":[2147483647,0,0,1,1,2,2,3,3,4,4],"right_children":[2,4,6,8,10,-1,-1,-1,-1,-1,-1],"split_conditions":[1E0,1E0,1.111E1,4.948E1,1.066E0,-0E0,1.839085E-1,-4.1482013E-2,-2.329245E-3,1.79281E-1,1.6893718E-2],"split_indices":[38,24,9,5,0,0,0,0,0,0,0],"split_type":[0,0,0,0,0,0,0,0,0,0,0],"sum_hessian":[5.799889E2,5.6026807E2,1.9720812E1,5.353101E2,2.4957914E1,1.3996925E0,1.832112E1,4.145923E2,1.2071786E2,9.205109E0,1.5752805E1],"tree_param":{"num_deleted":"0","num_feature":"69","num_nodes":"11","size_leaf_vector":"1"}},{"base_weights":[-2.0607887E-1,-3.8569182E-1,1.170589E0,-4.2516488E-1,6.7652196E-1,-2.181261E-1,1.4931501E0,-5.0408036E-2,-1.803476E-2,-0E0,1.5616743E-1,-4.141896E-2,8.652079E-3,1.6309957E-1,-0E0],"categories":[],"categories_nodes":[],"categories_segments":[],"categories_sizes":[],"default_left":[0,0,0,0,0,0,0,0,0,0,0,0,0,0,0],"id":62,"left_children":[1,3,5,7,9,11,13,-1,-1,-1,-1,-1,-1,-1,-1],"loss_changes":[1.4091647E2,2.1335373E1,3.0380486E1,8.994186E0,1.1435357E1,9.7370636E-1,1.176223E1,0E0,0E0,0E0,0E0,0E0,0E0,0E0,0E0],"parents":[2147483647,0,0,1,1,2,2,3,3,4,4,5,5,6,6],"right_children":[2,4,6,8,10,12,14,-1,-1,-1,-1,-1,-1,-1,-1],"split_conditions":[1E0,3.1E-1,1.0586E0,1.066E0,1E0,7.447E1,1E0,-5.0408036E-2,-1.803476E-2,-0E0,1.5616743E-1,-4.141896E-2,8.652079E-3,1.6309957E-1,-0E0],"split_indices":[23,18,0,0,43,5,25,0,0,0,0,0,0,0,0],"split_type":[0,0,0,0,0,0,0,0,0,0,0,0,0,0,0],"sum_hessian":[5.6865643E2,5.0398486E2,6.467155E1,4.8695938E2,1.7025497E1,1.1958889E1,5.2712658E1,3.659092E2,1.2105017E2,9.953869E0,7.071629E0,8.055946E0,3.9029431E0,4.8438797E1,4.2738624E0],"tree_param":{"num_deleted":"0","num_feature":"69","num_nodes":"15","size_leaf_vector":"1"}},{"base_weights":[-1.6860986E-1,1.1162734E0,-2.6127538E-1,-2.0083249E-2,1.6659741E0,-3.685848E-1,1.244463E-3,-3.2670606E-2,5.1420778E-2,1.9565825E-1,2.7062202E-2,-2.9956106E-2,-4.7570083E-2,2.1828366E-2,-4.359238E-2],"categories":[],"categories_nodes":[],"categories_segments":[],"categories_sizes":[],"default_left":[0,0,0,0,0,0,0,0,0,0,0,0,0,0,0],"id":63,"left_children":[1,3,5,7,9,11,13,-1,-1,-1,-1,-1,-1,-1,-1],"loss_changes":[6.940108E1,2.5288788E1,1.5563004E1,2.276645E0,9.171516E0,2.344986E0,1.4982241E1,0E0,0E0,0E0,0E0,0E0,0E0,0E0,0E0],"parents":[2147483647,0,0,1,1,2,2,3,3,4,4,5,5,6,6],"right_children":[2,4,6,8,10,12,14,-1,-1,-1,-1,-1,-1,-1,-1],"split_conditions":[1.042E0,7E0,7.861E1,7.444E1,2.59E1,6.03E0,5.73E1,-3.2670606E-2,5.1420778E-2,1.9565825E-1,2.7062202E-2,-2.9956106E-2,-4.7570083E-2,2.1828366E-2,-4.359238E-2],"split_indices":[0,4,6,6,4,2,3,0,0,0,0,0,0,0,0],"split_type":[0,0,0,0,0,0,0,0,0,0,0,0,0,0,0],"sum_hessian":[5.830279E2,3.8113335E1,5.4491455E2,1.2443552E1,2.566978E1,3.8786768E2,1.5704686E2,8.747702E0,3.6958506E0,2.061564E1,5.0541406E0,2.4102174E2,1.4684592E2,1.0604402E2,5.1002846E1],"tree_param":{"num_deleted":"0","num_feature":"69","num_nodes":"15","size_leaf_vector":"1"}},{"base_weights":[-2.4732932E-1,-3.5434487E-1,6.2296355E-1,-4.1347545E-1,1.4597859E-2,2.1645343E-1,1.3518754E0,-4.4205483E-2,9.014153E-4,5.2343734E-2,-2.9883806E-2,-0E0,7.644911E-2,1.6453494E-1,-2.7132437E-2],"categories":[],"categories_nodes":[],"categories_segments":[],"categories_sizes":[],"default_left":[0,0,0,0,0,0,0,0,0,0,0,0,0,0,0],"id":64,"left_children":[1,3,5,7,9,11,13,-1,-1,-1,-1,-1,-1,-1,-1],"loss_changes":[5.266765E1,1.1198433E1,1.7197138E1,5.4789047E0,1.1337615E1,4.820283E0,1.1351036E1,0E0,0E0,0E0,0E0,0E0,0E0,0E0,0E0],"parents":[2147483647,0,0,1,1,2,2,3,3,4,4,5,5,6,6],"right_children":[2,4,6,8,10,12,14,-1,-1,-1,-1,-1,-1,-1,-1],"split_conditions":[8.3E0,2E-1,1.0209E0,1.0178E0,3.062E1,3.33E0,4.49E0,-4.4205483E-2,9.014153E-4,5.2343734E-2,-2.9883806E-2,-0E0,7.644911E-2,1.6453494E-1,-2.7132437E-2],"split_indices":[2,14,1,1,3,21,10,0,0,0,0,0,0,0,0],"split_type":[0,0,0,0,0,0,0,0,0,0,0,0,0,0,0],"sum_hessian":[5.635707E2,5.0289908E2,6.0671616E1,4.3449664E2,6.840242E1,4.0222603E1,2.0449013E1,4.080324E2,2.6464237E1,2.6426394E1,4.1976025E1,2.9670397E1,1.0552206E1,1.7567247E1,2.8817651E0],"tree_param":{"num_deleted":"0","num_feature":"69","num_nodes":"15","size_leaf_vector":"1"}},{"base_weights":[5.3512204E-1,9.7027034E-1,-2.2662619E-1,7.2142565E-1,1.7160712E0,-3.1379792E-1,6.4940846E-1,2.3702038E-2,1.0442505E-1,1.7454204E-1,-1.9938422E-2,-3.486653E-2,7.224938E-2,9.262735E-2,-2.3655511E-2],"categories":[],"categories_nodes":[],"categories_segments":[],"categories_sizes":[],"default_left":[0,0,0,0,0,0,0,0,0,0,0,0,0,0,0],"id":65,"left_children":[1,3,5,7,9,11,13,-1,-1,-1,-1,-1,-1,-1,-1],"loss_changes":[2.717624E2,9.428323E1,2.2778835E1,6.058052E1,8.38327E0,9.8951435E0,7.1278763E0,0E0,0E0,0E0,0E0,0E0,0E0,0E0,0E0],"parents":[2147483647,0,0,1,1,2,2,3,3,4,4,5,5,6,6],"right_children":[2,4,6,8,10,12,14,-1,-1,-1,-1,-1,-1,-1,-1],"split_conditions":[4.651E1,1.4E1,1E0,1E0,2.5E1,2E1,1E0,2.3702038E-2,1.0442505E-1,1.7454204E-1,-1.9938422E-2,-3.486653E-2,7.224938E-2,9.262735E-2,-2.3655511E-2],"split_indices":[6,68,44,43,20,7,42,0,0,0,0,0,0,0,0],"split_type":[0,0,0,0,0,0,0,0,0,0,0,0,0,0,0],"sum_hessian":[8.1707666E2,5.202607E2,2.9681598E2,3.9207748E2,1.281832E2,2.7105646E2,2.5759516E1,1.5811127E2,2.339662E2,1.26593315E2,1.5898857E0,2.63342E2,7.714445E0,2.0021595E1,5.737921E0],"tree_param":{"num_deleted":"0","num_feature":"69","num_nodes":"15","size_leaf_vector":"1"}},{"base_weights":[-1.2030402E-1,-4.7178325E-1,1.3293595E0,-5.0614256E-1,1.5359677E0,1.4354488E0,-4.0006556E-2,-5.2245576E-2,-9.3022315E-3,1.9343176E-1,-9.274153E-3,1.9035634E-1,9.989027E-2],"categories":[],"categories_nodes":[],"categories_segments":[],"categories_sizes":[],"default_left":[0,0,0,0,0,0,0,0,0,0,0,0,0],"id":66,"left_children":[1,3,5,7,9,11,-1,-1,-1,-1,-1,-1,-1],"loss_changes":[3.069795E2,3.376246E1,2.264598E1,2.8680038E0,6.403202E0,1.9366928E1,0E0,0E0,0E0,0E0,0E0,0E0,0E0],"parents":[2147483647,0,0,1,1,2,2,3,3,4,4,5,5],"right_children":[2,4,6,8,10,12,-1,-1,-1,-1,-1,-1,-1],"split_conditions":[3.468E1,1.875E1,1E0,1.818E1,1E0,7.71E1,-4.0006556E-2,-5.2245576E-2,-9.3022315E-3,1.9343176E-1,-9.274153E-3,1.9035634E-1,9.989027E-2],"split_indices":[9,11,23,9,42,60,0,0,0,0,0,0,0],"split_type":[0,0,0,0,0,0,0,0,0,0,0,0,0],"sum_hessian":[6.010904E2,4.8461273E2,1.1647767E2,4.774391E2,7.1736307E0,1.1017805E2,6.299622E0,4.5788336E2,1.9555712E1,5.8597946E0,1.3138361E0,5.099236E1,5.9185688E1],"tree_param":{"num_deleted":"0","num_feature":"69","num_nodes":"13","size_leaf_vector":"1"}},{"base_weights":[-5.203634E-1,-5.241997E-2,-0E0,-2.7385628E-2,4.7698777E-2],"categories":[],"categories_nodes":[],"categories_segments":[],"categories_sizes":[],"default_left":[0,0,0,0,0],"id":67,"left_children":[1,-1,3,-1,-1],"loss_changes":[9.557648E-1,0E0,7.635087E-1,0E0,0E0],"parents":[2147483647,0,0,2,2],"right_children":[2,-1,4,-1,-1],"split_conditions":[1.905E1,-5.241997E-2,1.063E0,-2.7385628E-2,4.7698777E-2],"split_indices":[15,0,0,0,0],"split_type":[0,0,0,0,0],"sum_hessian":[5.171578E2,5.130796E2,4.078199E0,3.0610194E0,1.0171797E0],"tree_param":{"num_deleted":"0","num_feature":"69","num_nodes":"5","size_leaf_vector":"1"}},{"base_weights":[2.608644E-2,6.036483E-1,-1.3125253E-1,8.4977984E-1,-4.2304218E-1,-1.5777911E-1,2.1730406E0,-4.5726813E-2,1.02694295E-1,-0E0,-4.5750424E-2,-1.989253E-2,9.214044E-2,-6.1950213E-3,2.9003182E-1],"categories":[],"categories_nodes":[],"categories_segments":[],"categories_sizes":[],"default_left":[0,0,0,0,0,0,0,0,0,0,0,0,0,0,0],"id":68,"left_children":[1,3,5,7,9,11,13,-1,-1,-1,-1,-1,-1,-1,-1],"loss_changes":[5.7885437E1,3.5064796E1,2.9777237E1,2.64169E1,5.8790207E-1,2.1735907E1,1.0573242E1,0E0,0E0,0E0,0E0,0E0,0E0,0E0,0E0],"parents":[2147483647,0,0,1,1,2,2,3,3,4,4,5,5,6,6],"right_children":[2,4,6,8,10,12,14,-1,-1,-1,-1,-1,-1,-1,-1],"split_conditions":[4.3E0,2.667E1,1E0,1.5E0,7E1,5.217E1,7E0,-4.5726813E-2,1.02694295E-1,-0E0,-4.5750424E-2,-1.989253E-2,9.214044E-2,-6.1950213E-3,2.9003182E-1],"split_indices":[4,9,33,4,22,7,4,0,0,0,0,0,0,0,0],"split_type":[0,0,0,0,0,0,0,0,0,0,0,0,0,0,0],"sum_hessian":[6.325217E2,1.3549312E2,4.970286E2,1.09824E2,2.5669115E1,4.9250745E2,4.5211368E0,1.2583559E1,9.724044E1,1.0576822E0,2.4611433E1,4.756512E2,1.6856243E1,1.1658123E0,3.3553245E0],"tree_param":{"num_deleted":"0","num_feature":"69","num_nodes":"15","size_leaf_vector":"1"}},{"base_weights":[1.416707E-1,-2.3045446E-1,5.135705E-1,-3.5727623E-1,5.9174392E-2,7.353443E-1,-2.6569045E-1,-3.7213314E-2,4.5203563E-2,8.410796E-2,-1.709805E-2,1.0211263E-1,-2.6005905E-3,1.1578173E-2,-3.9186772E-2],"categories":[],"categories_nodes":[],"categories_segments":[],"categories_sizes":[],"default_left":[0,0,0,0,0,0,0,0,0,0,0,0,0,0,0],"id":69,"left_children":[1,3,5,7,9,11,13,-1,-1,-1,-1,-1,-1,-1,-1],"loss_changes":[9.34663E1,1.2536165E1,5.88136E1,2.959652E0,1.886722E1,5.791069E1,3.7972083E0,0E0,0E0,0E0,0E0,0E0,0E0,0E0,0E0],"parents":[2147483647,0,0,1,1,2,2,3,3,4,4,5,5,6,6],"right_children":[2,4,6,8,10,12,14,-1,-1,-1,-1,-1,-1,-1,-1],"split_conditions":[1.1E1,8E0,2.9E1,1.88E1,1.0103E0,9.041E1,3.4E1,-3.7213314E-2,4.5203563E-2,8.410796E-2,-1.709805E-2,1.0211263E-1,-2.6005905E-3,1.1578173E-2,-3.9186772E-2],"split_indices":[4,4,4,12,1,22,4,0,0,0,0,0,0,0,0],"split_type":[0,0,0,0,0,0,0,0,0,0,0,0,0,0,0],"sum_hessian":[6.724893E2,3.356609E2,3.3682843E2,2.3448022E2,1.0118067E2,2.6274927E2,7.4079155E1,2.3139047E2,3.0897467E0,2.2900126E1,7.828055E1,1.912695E2,7.1479774E1,1.7448065E1,5.663109E1],"tree_param":{"num_deleted":"0","num_feature":"69","num_nodes":"15","size_leaf_vector":"1"}},{"base_weights":[-3.482342E-1,-4.2359135E-1,1.6829232E0,1.210236E-1,-4.6052024E-1,1.8779715E0,5.1738596E-1,-9.7298315E-3,1.0330639E-1,-4.6897545E-2,-1.0633532E-2,1.9583952E-1,3.259971E-2,1.1902436E-1,-1.9398287E-2],"categories":[],"categories_nodes":[],"categories_segments":[],"categories_sizes":[],"default_left":[0,0,0,0,0,0,0,0,0,0,0,0,0,0,0],"id":70,"left_children":[1,3,5,7,9,11,13,-1,-1,-1,-1,-1,-1,-1,-1],"loss_changes":[8.40853E1,1.0889153E1,2.2856827E0,7.259061E0,1.1526718E0,2.2135162E-1,2.910243E0,0E0,0E0,0E0,0E0,0E0,0E0,0E0,0E0],"parents":[2147483647,0,0,1,1,2,2,3,3,4,4,5,5,6,6],"right_children":[2,4,6,8,10,12,14,-1,-1,-1,-1,-1,-1,-1,-1],"split_conditions":[1E0,1.007E0,7.931E1,1.712E1,1E0,1.0145E0,7.82E1,-9.7298315E-3,1.0330639E-1,-4.6897545E-2,-1.0633532E-2,1.9583952E-1,3.259971E-2,1.1902436E-1,-1.9398287E-2],"split_indices":[25,1,5,21,24,1,60,0,0,0,0,0,0,0,0],"split_type":[0,0,0,0,0,0,0,0,0,0,0,0,0,0,0],"sum_hessian":[5.4781006E2,5.2921356E2,1.8596521E1,3.2601433E1,4.966121E2,1.5039484E1,3.5570374E0,2.6583128E1,6.018306E0,4.8333792E2,1.3274191E1,1.374326E1,1.2962232E0,1.843261E0,1.7137764E0],"tree_param":{"num_deleted":"0","num_feature":"69","num_nodes":"15","size_leaf_vector":"1"}},{"base_weights":[-4.1793594E-1,5.557911E-1,-4.6548626E-1,1.3397652E0,-4.678471E-2,-6.5227054E-2,-4.8121145E-1,1.6516049E-1,-0E0,-2.0447198E-2,4.253414E-2,-3.0350402E-2,7.35677E-2,-4.8520394E-2,3.1794667E-2],"categories":[],"categories_nodes":[],"categories_segments":[],"categories_sizes":[],"default_left":[0,0,0,0,0,0,0,0,0,0,0,0,0,0,0],"id":71,"left_children":[1,3,5,7,9,11,13,-1,-1,-1,-1,-1,-1,-1,-1],"loss_changes":[2.4719162E1,1.2334412E1,2.8780975E0,4.815113E0,1.0575054E0,4.105201E0,1.7859344E0,0E0,0E0,0E0,0E0,0E0,0E0,0E0,0E0],"parents":[2147483647,0,0,1,1,2,2,3,3,4,4,5,5,6,6],"right_children":[2,4,6,8,10,12,14,-1,-1,-1,-1,-1,-1,-1,-1],"split_conditions":[1.3E1,1.0087E0,1.0054E0,1.0603E0,5.63E0,2.5E1,2.11E1,1.6516049E-1,-0E0,-2.0447198E-2,4.253414E-2,-3.0350402E-2,7.35677E-2,-4.8520394E-2,3.1794667E-2],"split_indices":[3,1,1,0,21,9,59,0,0,0,0,0,0,0,0],"split_type":[0,0,0,0,0,0,0,0,0,0,0,0,0,0,0],"sum_hessian":[5.282671E2,2.36087E1,5.0465842E2,1.0088957E1,1.3519743E1,2.0473858E1,4.8418454E2,8.062055E0,2.0269015E0,1.1353645E1,2.1660976E0,1.673914E1,3.7347188E0,4.827911E2,1.3934364E0],"tree_param":{"num_deleted":"0","num_feature":"69","num_nodes":"15","size_leaf_vector":"1"}},{"base_weights":[-9.088068E-2,2.6643723E-1,-1.6873038E-1,1.7177507E-1,1.0580366E0,2.4772106E-1,-2.0171091E-1,3.4458518E-2,-2.260486E-2,2.2003083E-1,4.2348288E-2,-2.0326036E-3,8.618425E-2,-2.0890862E-2,8.121962E-2],"categories":[],"categories_nodes":[],"categories_segments":[],"categories_sizes":[],"default_left":[0,0,0,0,0,0,0,0,0,0,0,0,0,0,0],"id":72,"left_children":[1,3,5,7,9,11,13,-1,-1,-1,-1,-1,-1,-1,-1],"loss_changes":[1.677105E1,7.2304063E0,6.8521023E0,6.8357763E0,5.500183E0,6.3317475E0,3.2405052E0,0E0,0E0,0E0,0E0,0E0,0E0,0E0,0E0],"parents":[2147483647,0,0,1,1,2,2,3,3,4,4,5,5,6,6],"right_children":[2,4,6,8,10,12,14,-1,-1,-1,-1,-1,-1,-1,-1],"split_conditions":[7.273E1,1E0,1.6E1,1E0,2.8311E1,4.414E1,1.038E1,3.4458518E-2,-2.260486E-2,2.2003083E-1,4.2348288E-2,-2.0326036E-3,8.618425E-2,-2.0890862E-2,8.121962E-2],"split_indices":[22,28,3,66,3,5,15,0,0,0,0,0,0,0,0],"split_type":[0,0,0,0,0,0,0,0,0,0,0,0,0,0,0],"sum_hessian":[6.0204456E2,1.06120964E2,4.9592358E2,9.6437294E1,9.68367E0,3.4801884E1,4.611217E2,6.820184E1,2.8235447E1,2.295698E0,7.3879724E0,2.4333647E1,1.0468237E1,4.5914932E2,1.9723939E0],"tree_param":{"num_deleted":"0","num_feature":"69","num_nodes":"15","size_leaf_vector":"1"}},{"base_weights":[2.2704534E-1,-2.989043E-1,1.4823173E0,1.6521459E0,-4.273776E-1,1.5476084E0,-4.0063035E-2,1.7333962E-1,-4.11504E-3,-4.744934E-2,5.9628498E-2,1.590738E-1,-3.5943773E-2],"categories":[],"categories_nodes":[],"categories_segments":[],"categories_sizes":[],"default_left":[0,0,0,0,0,0,0,0,0,0,0,0,0],"id":73,"left_children":[1,3,5,7,9,11,-1,-1,-1,-1,-1,-1,-1],"loss_changes":[4.5683527E2,1.2218536E2,2.6310364E1,5.052765E0,2.2313019E1,1.7466187E1,0E0,0E0,0E0,0E0,0E0,0E0,0E0],"parents":[2147483647,0,0,1,1,2,2,3,3,4,4,5,5],"right_children":[2,4,6,8,10,12,-1,-1,-1,-1,-1,-1,-1],"split_conditions":[2.6E1,8E-1,1.4E1,1E0,2.79E0,2.857E1,-4.0063035E-2,1.7333962E-1,-4.11504E-3,-4.744934E-2,5.9628498E-2,1.590738E-1,-3.5943773E-2],"split_indices":[4,4,68,66,13,9,0,0,0,0,0,0,0],"split_type":[0,0,0,0,0,0,0,0,0,0,0,0,0],"sum_hessian":[6.8938727E2,4.860849E2,2.033024E2,2.9057262E1,4.5702762E2,1.9691792E2,6.3844824E0,2.7985996E1,1.0712656E0,4.3789758E2,1.9130053E1,1.9298152E2,3.9363942E0],"tree_param":{"num_deleted":"0","num_feature":"69","num_nodes":"13","size_leaf_vector":"1"}},{"base_weights":[-5.241952E-1],"categories":[],"categories_nodes":[],"categories_segments":[],"categories_sizes":[],"default_left":[0],"id":74,"left_children":[-1],"loss_changes":[0E0],"parents":[2147483647],"right_children":[-1],"split_conditions":[-5.241952E-2],"split_indices":[0],"split_type":[0],"sum_hessian":[5.1814E2],"tree_param":{"num_deleted":"0","num_feature":"69","num_nodes":"1","size_leaf_vector":"1"}},{"base_weights":[7.596412E-1,2.8092507E-1,1.1341285E0,5.0069606E-1,-3.0127418E-1,1.3003355E0,1.3118748E-1,1.4066683E-2,7.924014E-2,-3.6525987E-2,5.977049E-2,1.3697177E-1,-2.446206E-2,-1.5123362E-2,1.2809198E-1],"categories":[],"categories_nodes":[],"categories_segments":[],"categories_sizes":[],"default_left":[0,0,0,0,0,0,0,0,0,0,0,0,0,0,0],"id":75,"left_children":[1,3,5,7,9,11,13,-1,-1,-1,-1,-1,-1,-1,-1],"loss_changes":[1.9285449E2,6.123156E1,1.0011182E2,3.586386E1,7.6148596E0,5.6553223E1,2.9226671E1,0E0,0E0,0E0,0E0,0E0,0E0,0E0,0E0],"parents":[2147483647,0,0,1,1,2,2,3,3,4,4,5,5,6,6],"right_children":[2,4,6,8,10,12,14,-1,-1,-1,-1,-1,-1,-1,-1],"split_conditions":[3.622E1,1.27E1,1.83E1,5.99E0,5E0,1.4E1,5E0,1.4066683E-2,7.924014E-2,-3.6525987E-2,5.977049E-2,1.3697177E-1,-2.446206E-2,-1.5123362E-2,1.2809198E-1],"split_indices":[3,4,4,6,65,68,65,0,0,0,0,0,0,0,0],"split_type":[0,0,0,0,0,0,0,0,0,0,0,0,0,0,0],"sum_hessian":[1.0804819E3,4.7559842E2,6.048835E2,3.459911E2,1.2960733E2,5.1821075E2,8.6672775E1,1.5629036E2,1.8970073E2,1.22068855E2,7.538481E0,4.9635696E2,2.1853775E1,6.9928955E1,1.674382E1],"tree_param":{"num_deleted":"0","num_feature":"69","num_nodes":"15","size_leaf_vector":"1"}},{"base_weights":[-1.6874163E-1,-3.3189517E-1,1.0932119E0,-3.563764E-1,1.4833498E-1,1.2755258E0,1.6537083E-3,-4.0546186E-2,4.8668846E-3,1.354012E-1,-0E0,5.9513927E-2,-3.8679995E-2],"categories":[],"categories_nodes":[],"categories_segments":[],"categories_sizes":[],"default_left":[0,0,0,0,0,0,0,0,0,0,0,0,0],"id":76,"left_children":[1,3,5,7,-1,9,11,-1,-1,-1,-1,-1,-1],"loss_changes":[1.167375E2,2.2330029E1,1.2255524E1,1.0092285E1,0E0,5.2925644E0,2.7938545E0,0E0,0E0,0E0,0E0,0E0,0E0],"parents":[2147483647,0,0,1,1,2,2,3,3,5,5,6,6],"right_children":[2,4,6,8,-1,10,12,-1,-1,-1,-1,-1,-1],"split_conditions":[1E0,1E0,5.33E0,2.727E1,1.4833498E-1,2.089E1,6.81E0,-4.0546186E-2,4.8668846E-3,1.354012E-1,-0E0,5.9513927E-2,-3.8679995E-2],"split_indices":[23,38,21,9,0,7,2,0,0,0,0,0,0],"split_type":[0,0,0,0,0,0,0,0,0,0,0,0,0],"sum_hessian":[5.660702E2,5.0226706E2,6.380314E1,4.9664816E2,5.6189003E0,5.413485E1,9.668288E0,4.4406723E2,5.2580917E1,5.081507E1,3.3197773E0,4.1234694E0,5.5448194E0],"tree_param":{"num_deleted":"0","num_feature":"69","num_nodes":"13","size_leaf_vector":"1"}},{"base_weights":[-2.1760008E-1,-3.9866966E-1,9.991574E-1,-4.3573776E-1,6.6329306E-1,-3.001262E-1,1.2766346E0,-4.8751518E-2,-1.7863417E-4,-8.576913E-3,1.4064093E-1,-4.366299E-2,1.6790053E-2,7.359898E-2,1.5778343E-1],"categories":[],"categories_nodes":[],"categories_segments":[],"categories_sizes":[],"default_left":[0,0,0,0,0,0,0,0,0,0,0,0,0,0,0],"id":77,"left_children":[1,3,5,7,9,11,13,-1,-1,-1,-1,-1,-1,-1,-1],"loss_changes":[1.23971214E2,1.9483307E1,2.7102623E1,1.0427277E1,9.957007E0,1.057162E0,7.5276413E0,0E0,0E0,0E0,0E0,0E0,0E0,0E0,0E0],"parents":[2147483647,0,0,1,1,2,2,3,3,4,4,5,5,6,6],"right_children":[2,4,6,8,10,12,14,-1,-1,-1,-1,-1,-1,-1,-1],"split_conditions":[1E0,1.97E0,1.0586E0,1.077E0,1E0,8.234E1,1E0,-4.8751518E-2,-1.7863417E-4,-8.576913E-3,1.4064093E-1,-4.366299E-2,1.6790053E-2,7.359898E-2,1.5778343E-1],"split_indices":[23,18,0,0,43,5,24,0,0,0,0,0,0,0,0],"split_type":[0,0,0,0,0,0,0,0,0,0,0,0,0,0,0],"sum_hessian":[5.612476E2,4.8948853E2,7.175907E1,4.7400378E2,1.5484725E1,1.2296638E1,5.9462437E1,4.2233658E2,5.1667225E1,7.8169584E0,7.667766E0,1.0399067E1,1.897571E0,2.3100777E1,3.636166E1],"tree_param":{"num_deleted":"0","num_feature":"69","num_nodes":"15","size_leaf_vector":"1"}},{"base_weights":[-1.5039045E-1,-3.7342814E-1,3.4877387E-1,-0E0,-4.2071688E-1,6.244665E-1,-3.5421044E-1,-3.0385554E-2,5.990199E-2,-4.6140544E-2,-2.7745664E-2,8.475515E-2,-3.3425223E-2,-3.89093E-2,1.893578E-2],"categories":[],"categories_nodes":[],"categories_segments":[],"categories_sizes":[],"default_left":[0,0,0,0,0,0,0,0,0,0,0,0,0,0,0],"id":78,"left_children":[1,3,5,7,9,11,13,-1,-1,-1,-1,-1,-1,-1,-1],"loss_changes":[6.3969532E1,7.079464E0,3.463646E1,8.474703E0,1.5607834E0,2.7899765E1,1.1207147E0,0E0,0E0,0E0,0E0,0E0,0E0,0E0,0E0],"parents":[2147483647,0,0,1,1,2,2,3,3,4,4,5,5,6,6],"right_children":[2,4,6,8,10,12,14,-1,-1,-1,-1,-1,-1,-1,-1],"split_conditions":[1E0,1.0467E0,1.0633E0,5.71E0,8E1,2.7E1,2.009E1,-3.0385554E-2,5.990199E-2,-4.6140544E-2,-2.7745664E-2,8.475515E-2,-3.3425223E-2,-3.89093E-2,1.893578E-2],"split_indices":[42,0,0,12,6,4,8,0,0,0,0,0,0,0,0],"split_type":[0,0,0,0,0,0,0,0,0,0,0,0,0,0,0],"sum_hessian":[5.7230054E2,3.9642337E2,1.758772E2,4.4323727E1,3.5209964E2,1.26923836E2,4.895336E1,2.9572243E1,1.4751485E1,2.697693E2,8.2330345E1,1.03482E2,2.3441832E1,4.7132732E1,1.8206283E0],"tree_param":{"num_deleted":"0","num_feature":"69","num_nodes":"15","size_leaf_vector":"1"}},{"base_weights":[-2.3904708E-1,-3.5472745E-1,4.843965E-1,-4.4897476E-1,-5.730777E-2,8.0668527E-1,-1.5505089E-1,-4.6197463E-2,5.82332E-2,-1.6873734E-2,4.0234216E-2,1.1192848E-1,-2.1440579E-2,-4.5139488E-2,7.287172E-3],"categories":[],"categories_nodes":[],"categories_segments":[],"categories_sizes":[],"default_left":[0,0,0,0,0,0,0,0,0,0,0,0,0,0,0],"id":79,"left_children":[1,3,5,7,9,11,13,-1,-1,-1,-1,-1,-1,-1,-1],"loss_changes":[4.6637135E1,1.3190548E1,1.6211454E1,5.08181E0,5.997478E0,1.7139996E1,1.9746834E0,0E0,0E0,0E0,0E0,0E0,0E0,0E0,0E0],"parents":[2147483647,0,0,1,1,2,2,3,3,4,4,5,5,6,6],"right_children":[2,4,6,8,10,12,14,-1,-1,-1,-1,-1,-1,-1,-1],"split_conditions":[1.018E0,1E0,1E0,1.048E1,1.068E0,2.9E0,7.86E0,-4.6197463E-2,5.82332E-2,-1.6873734E-2,4.0234216E-2,1.1192848E-1,-2.1440579E-2,-4.5139488E-2,7.287172E-3],"split_indices":[1,42,43,2,0,13,2,0,0,0,0,0,0,0,0],"split_type":[0,0,0,0,0,0,0,0,0,0,0,0,0,0,0],"sum_hessian":[5.549939E2,4.7951855E2,7.5475365E1,3.6246786E2,1.170507E2,5.052871E1,2.4946657E1,3.589797E2,3.4881444E0,9.5596596E1,2.1454102E1,3.898672E1,1.154199E1,1.1372907E1,1.35737505E1],"tree_param":{"num_deleted":"0","num_feature":"69","num_nodes":"15","size_leaf_vector":"1"}},{"base_weights":[5.0007844E-1,8.728625E-1,-2.1199033E-1,1.1458795E0,2.981757E-1,-3.640283E-1,2.2167322E-1,6.804601E-2,1.5332462E-1,1.5523332E-1,-5.378708E-3,-4.1031577E-2,1.9367503E-2,-8.252416E-3,1.036733E-1],"categories":[],"categories_nodes":[],"categories_segments":[],"categories_sizes":[],"default_left":[0,0,0,0,0,0,0,0,0,0,0,0,0,0,0],"id":80,"left_children":[1,3,5,7,9,11,13,-1,-1,-1,-1,-1,-1,-1,-1],"loss_changes":[2.2277562E2,8.526846E1,1.9144814E1,6.493207E1,7.9914894E1,5.725525E0,1.9045025E1,0E0,0E0,0E0,0E0,0E0,0E0,0E0,0E0],"parents":[2147483647,0,0,1,1,2,2,3,3,4,4,5,5,6,6],"right_children":[2,4,6,8,10,12,14,-1,-1,-1,-1,-1,-1,-1,-1],"split_conditions":[4.699E1,3.8E0,1E0,8.889E1,6.4E1,1E0,3.13E0,6.804601E-2,1.5332462E-1,1.5523332E-1,-5.378708E-3,-4.1031577E-2,1.9367503E-2,-8.252416E-3,1.036733E-1],"split_indices":[6,9,43,22,58,44,7,0,0,0,0,0,0,0,0],"split_type":[0,0,0,0,0,0,0,0,0,0,0,0,0,0,0],"sum_hessian":[8.3630225E2,5.492394E2,2.8706284E2,3.7108414E2,1.7815524E2,2.1351888E2,7.3543976E1,1.7039847E2,2.0068568E2,3.8604603E1,1.3955063E2,1.9822748E2,1.5291392E1,5.376358E1,1.9780392E1],"tree_param":{"num_deleted":"0","num_feature":"69","num_nodes":"15","size_leaf_vector":"1"}},{"base_weights":[-1.1706777E-1,-4.6534136E-1,1.1897072E0,9.022972E-1,-4.7586298E-1,5.8966374E-1,1.4964255E0,1.9548291E-1,-1.1422151E-2,-4.920135E-2,5.2723736E-3,8.1855915E-2,-4.346201E-2,1.5805137E-1,1.058368E-2],"categories":[],"categories_nodes":[],"categories_segments":[],"categories_sizes":[],"default_left":[0,0,0,0,0,0,0,0,0,0,0,0,0,0,0],"id":81,"left_children":[1,3,5,7,9,11,13,-1,-1,-1,-1,-1,-1,-1,-1],"loss_changes":[2.6525858E2,6.8480988E0,2.0626984E1,4.889468E0,4.1587524E0,1.0781865E1,8.330872E0,0E0,0E0,0E0,0E0,0E0,0E0,0E0,0E0],"parents":[2147483647,0,0,1,1,2,2,3,3,4,4,5,5,6,6],"right_children":[2,4,6,8,10,12,14,-1,-1,-1,-1,-1,-1,-1,-1],"split_conditions":[3.636E1,4.2E1,4.6E0,6.337E1,2.439E1,2.65E0,4.386E1,1.9548291E-1,-1.1422151E-2,-4.920135E-2,5.2723736E-3,8.1855915E-2,-4.346201E-2,1.5805137E-1,1.058368E-2],"split_indices":[9,58,4,22,9,10,6,0,0,0,0,0,0,0,0],"split_type":[0,0,0,0,0,0,0,0,0,0,0,0,0,0,0],"sum_hessian":[5.814177E2,4.5987988E2,1.21537834E2,2.501091E0,4.573788E2,4.265096E1,7.888687E1,1.0169376E0,1.4841533E0,4.448033E2,1.2575495E1,3.5423836E1,7.2271256E0,7.3920784E1,4.9660916E0],"tree_param":{"num_deleted":"0","num_feature":"69","num_nodes":"15","size_leaf_vector":"1"}},{"base_weights":[-5.184019E-1,-5.2241313E-1,-0E0,-5.2444268E-2,-1.227443E-1,4.116929E-2,-1.876286E-2,-0E0,-2.6822457E-2],"categories":[],"categories_nodes":[],"categories_segments":[],"categories_sizes":[],"default_left":[0,0,0,0,0,0,0,0,0],"id":82,"left_children":[1,3,5,-1,7,-1,-1,-1,-1],"loss_changes":[1.1913757E0,9.017944E-3,4.7102082E-1,0E0,2.107197E-1,0E0,0E0,0E0,0E0],"parents":[2147483647,0,0,1,1,2,2,4,4],"right_children":[2,4,6,-1,8,-1,-1,-1,-1],"split_conditions":[1.25E1,1.905E1,1E0,-5.2444268E-2,2.361E1,4.116929E-2,-1.876286E-2,-0E0,-2.6822457E-2],"split_indices":[13,15,1,0,15,0,0,0,0],"split_type":[0,0,0,0,0,0,0,0,0],"sum_hessian":[4.9158517E2,4.8841507E2,3.1700778E0,4.8439215E2,4.022927E0,1.1521955E0,2.0178823E0,1.0421321E0,2.9807944E0],"tree_param":{"num_deleted":"0","num_feature":"69","num_nodes":"9","size_leaf_vector":"1"}},{"base_weights":[3.710477E-2,-3.4514923E-2,2.4676535E0,1.7251574E-1,-3.5813677E-1,2.6269648E0,-0E0,1.32310735E-2,1.6778463E-1,-3.9929338E-2,1.1699479E-1,4.1204806E-2,2.7239445E-1],"categories":[],"categories_nodes":[],"categories_segments":[],"categories_sizes":[],"default_left":[0,0,0,0,0,0,0,0,0,0,0,0,0],"id":83,"left_children":[1,3,5,7,9,11,-1,-1,-1,-1,-1,-1,-1],"loss_changes":[1.120431E2,4.1610424E1,6.4720535E0,2.169447E1,1.5343369E1,1.0028915E0,0E0,0E0,0E0,0E0,0E0,0E0,0E0],"parents":[2147483647,0,0,1,1,2,2,3,3,4,4,5,5],"right_children":[2,4,6,8,10,12,-1,-1,-1,-1,-1,-1,-1],"split_conditions":[1E0,1.0573E0,6.3E0,6.64E0,8.33E0,4.57E0,-0E0,1.32310735E-2,1.6778463E-1,-3.9929338E-2,1.1699479E-1,4.1204806E-2,2.7239445E-1],"split_indices":[32,0,19,20,16,2,0,0,0,0,0,0,0],"split_type":[0,0,0,0,0,0,0,0,0,0,0,0,0],"sum_hessian":[6.3516986E2,6.1774713E2,1.742274E1,3.760796E2,2.4166754E2,1.6193869E1,1.228873E0,3.6767947E2,8.400091E0,2.3636725E2,5.300281E0,1.1157523E0,1.5078115E1],"tree_param":{"num_deleted":"0","num_feature":"69","num_nodes":"13","size_leaf_vector":"1"}},{"base_weights":[1.3539076E-1,-2.3385231E-1,4.816151E-1,-4.0551454E-1,-2.76649E-2,6.5214443E-1,-2.8093278E-1,-0E0,-4.533999E-2,2.2792509E-2,-2.2460265E-2,1.3740353E-2,9.784614E-2,-3.2390255E-2,8.794772E-2],"categories":[],"categories_nodes":[],"categories_segments":[],"categories_sizes":[],"default_left":[0,0,0,0,0,0,0,0,0,0,0,0,0,0,0],"id":84,"left_children":[1,3,5,7,9,11,13,-1,-1,-1,-1,-1,-1,-1,-1],"loss_changes":[8.6827866E1,1.1372652E1,4.595842E1,3.3537292E0,7.665077E0,4.757396E1,3.2100964E0,0E0,0E0,0E0,0E0,0E0,0E0,0E0,0E0],"parents":[2147483647,0,0,1,1,2,2,3,3,4,4,5,5,6,6],"right_children":[2,4,6,8,10,12,14,-1,-1,-1,-1,-1,-1,-1,-1],"split_conditions":[1.1E1,5.304E1,2.93E1,5.263E1,1.0111E0,4E1,2.727E1,-0E0,-4.533999E-2,2.2792509E-2,-2.2460265E-2,1.3740353E-2,9.784614E-2,-3.2390255E-2,8.794772E-2],"split_indices":[4,6,4,22,1,6,12,0,0,0,0,0,0,0,0],"split_type":[0,0,0,0,0,0,0,0,0,0,0,0,0,0,0],"sum_hessian":[6.7633673E2,3.267467E2,3.4959003E2,1.7645042E2,1.5029628E2,2.863531E2,6.323695E1,1.9188974E1,1.5726144E2,6.423479E1,8.606149E1,1.12246254E2,1.7410683E2,6.2089542E1,1.14741E0],"tree_param":{"num_deleted":"0","num_feature":"69","num_nodes":"15","size_leaf_vector":"1"}},{"base_weights":[-3.373095E-1,-4.173986E-1,1.5160288E0,-4.2502448E-1,1.391279E-1,1.6013972E0,-0E0,-7.4545033E-3,-4.4723745E-2,1.6638163E-1,-0E0],"categories":[],"categories_nodes":[],"categories_segments":[],"categories_sizes":[],"default_left":[0,0,0,0,0,0,0,0,0,0,0],"id":85,"left_children":[1,3,5,7,-1,9,-1,-1,-1,-1,-1],"loss_changes":[7.83939E1,7.097992E0,2.4601593E0,3.6426315E0,0E0,1.3561897E0,0E0,0E0,0E0,0E0,0E0],"parents":[2147483647,0,0,1,1,2,2,3,3,5,5],"right_children":[2,4,6,8,-1,10,-1,-1,-1,-1,-1],"split_conditions":[1E0,2.22E1,3.468E1,1.007E0,1.391279E-1,1.57E1,-0E0,-7.4545033E-3,-4.4723745E-2,1.6638163E-1,-0E0],"split_indices":[25,59,9,1,0,4,0,0,0,0,0],"split_type":[0,0,0,0,0,0,0,0,0,0,0],"sum_hessian":[5.2658386E2,5.0577228E2,2.0811583E1,5.0468582E2,1.0864418E0,1.9507397E1,1.3041854E0,3.1681181E1,4.7300464E2,1.8487465E1,1.0199313E0],